link,0,1,2,3,4,5,6,7,8,9,10,11,12,13,14,15,16,17,18,19,20,21,22,23,24,25,26,27,28,29,30,31,32,33,34,35,36,37,38,39,40,41,42,43,44,45,46,47,48,49,50,51,52,53,54,55,56,57,58,59,60,61,62,63,64,65,66,67,68,69,70,71,72,73,74,75,76,77,78,79,80,81,82,83,84,85,86,87,88,89,90,91,92,93,94,95,96,97,98,99,100,101,102,103,104,105,106,107,108,109,110,111,112,113,114,115,116,117,118,119,120,121,122,123,124,125,126,127,128,129,130,131,132,133,134,135,136,137,138,139,140,141,142,143,144,145,146,147,148,149,150,151,152,153,154,155,156,157,158,159,160,161,162,163,164,165,166,167,168,169,170,171,172,173,174,175,176,177,178,179,180,181,182,183,184,185,186,187,188,189,190,191,192,193,194,195,196,197,198,199,200,201,202,203,204,205,206,207,208,209,210,211,212,213,214,215,216,217,218,219,220,221,222,223,224,225,226,227,228,229,230,231,232,233,234,235,236,237,238,239,240,241,242,243,244,245,246,247,248,249,250,251,252,253,254,255,256,257,258,259,260,261,262,263,264,265,266,267,268,269,270,271,272,273,274,275,276,277,278,279,280,281,282,283,284,285,286,287,288,289,290,291,292,293,294,295,296,297,298,299,300,301,302,303,304,305,306,307,308,309,310,311,312,313,314,315,316,317,318,319,320,321,322,323,324,325,326,327,328,329,330,331,332,333,334,335,336,337,338,339,340,341,342,343,344,345,346,347,348,349,350,351,352,353,354,355,356,357,358,359,360,361,362,363,364,365,366,367,368,369,370,371,372,373,374,375,376,377,378,379,380,381,382,383,384,385,386,387,388,389,390,391,392,393,394,395,396,397,398,399,400,401,402,403,404,405,406,407,408,409,410,411,412,413,414,415,416,417,418,419,420,421,422,423,424,425,426,427,428,429,430,431,432,433,434,435,436,437,438,439,440,441,442,443,444,445,446,447,448,449,450,451,452,453,454,455,456,457,458,459,460,461,462,463,464,465,466,467,468,469,470,471,472,473,474,475,476,477,478,479,480,481,482,483,484,485,486,487,488,489,490,491,492,493,494,495,496,497,498,499,500,501,502,503,504,505,506,507,508,509,510,511,512,513,514,515,516,517,518,519,520,521,522,523,524,525,526,527,528,529,530,531,532,533,534,535,536,537,538,539,540,541,542,543,544,545,546,547,548,549,550,551,552,553,554,555,556,557,558,559,560,561,562,563,564,565,566,567,568,569,570,571,572,573,574,575,576,577,578,579,580,581,582,583,584,585,586,587,588,589,590,591,592,593,594,595,596,597,598,599,600,601,602,603,604,605,606,607,608,609,610,611,612,613,614,615,616,617,618,619,620,621,622,623,624,625,626,627,628,629,630,631,632,633,634,635,636,637,638,639,640,641,642,643,644,645,646,647,648,649,650,651,652,653,654,655,656,657,658,659,660,661,662,663,664,665,666,667,668,669,670,671,672,673,674,675,676,677,678,679,680,681,682,683,684,685,686,687,688,689,690,691,692,693,694,695,696,697,698,699,700,701,702,703,704,705,706,707,708,709,710,711,712,713,714,715,716,717,718,719,720,721,722,723,724,725,726,727,728,729,730,731,732,733,734,735,736,737,738,739,740,741,742,743,744,745,746,747,748,749,750,751,752,753,754,755,756,757,758,759,760,761,762,763,764,765,766,767
Lo3TSWlAWcw,0.029813017696142197,0.048367999494075775,-0.011933404952287674,-0.04834120348095894,-0.01738124154508114,0.07711956650018692,0.11285901069641113,0.04160435497760773,-0.06176786869764328,0.0318327359855175,0.12476000189781189,0.014466236345469952,0.0318978950381279,-0.09615954756736755,0.0667857751250267,-0.08479055762290955,0.015467863529920578,0.1384154111146927,0.11919701099395752,0.09255284816026688,0.09591429680585861,-0.042496390640735626,0.07985902577638626,-0.0822182446718216,-0.0009520514868199825,0.09882020950317383,0.017238348722457886,0.020869268104434013,0.01744014397263527,0.005023261532187462,-0.009234237484633923,0.10293561965227127,0.00976743083447218,-0.06880365312099457,0.032189156860113144,0.0804656594991684,-0.02039671130478382,0.01899164542555809,-0.004618829116225243,-0.019749274477362633,0.1835041344165802,-0.10747572779655457,-0.12359053641557693,0.019717929884791374,-0.16699673235416412,-0.02709534764289856,-0.06551040709018707,0.1299624741077423,0.08653462678194046,0.08497689664363861,-0.010112345218658447,0.06570105254650116,-0.039015911519527435,0.06187918782234192,0.16102947294712067,0.028064535930752754,-0.06471148133277893,0.06031903997063637,0.02703455649316311,-0.029031410813331604,-0.07394413650035858,0.07992926239967346,-0.022631313651800156,-0.05034895986318588,-0.1964423805475235,-0.10734313726425171,-0.0027279863134026527,-0.03395414352416992,-0.0055701350793242455,-0.06808863580226898,0.13963159918785095,0.09509837627410889,0.020101463422179222,0.10318727791309357,-0.03613901138305664,0.05366453900933266,0.0018293876200914383,-0.006240814924240112,-0.024376997724175453,-0.09047806262969971,-0.03995559364557266,0.024997098371386528,-0.009175145998597145,-0.0792105421423912,-0.024014143273234367,-0.019800294190645218,0.015928085893392563,0.0657409057021141,-0.04941558092832565,0.0012765855062752962,0.17069467902183533,-0.06765873730182648,-0.044635578989982605,-0.022462353110313416,0.04937009513378143,-0.03302007541060448,0.08269018679857254,-0.0029708954971283674,-0.010958930477499962,-0.06553664803504944,-0.032088808715343475,0.08476021885871887,-0.02357703261077404,0.03549519553780556,-0.021317653357982635,0.03721456229686737,-0.17026257514953613,0.01750790886580944,-0.09038311243057251,0.13796256482601166,0.002943481784313917,0.09032416343688965,-0.04248103126883507,-0.008865026757121086,-0.03471088781952858,0.048866964876651764,0.016598902642726898,0.11113610863685608,0.0322989821434021,-0.03235454857349396,-0.04720107465982437,-0.009085576981306076,-0.04074833542108536,0.026287667453289032,-0.02486416883766651,0.03556697070598602,0.014845434576272964,-0.007120423950254917,-0.06087468937039375,0.06032493710517883,-0.04668174684047699,-0.037001777440309525,-0.021231329068541527,0.036433156579732895,0.03248971328139305,0.04316486790776253,0.03890570253133774,-0.019908063113689423,0.005331336986273527,0.002094887662678957,-0.03193003311753273,0.07950519025325775,0.0380120612680912,-0.021481076255440712,0.0692904144525528,0.0036340653896331787,-0.016140196472406387,0.10654355585575104,-0.02391834557056427,0.07470598816871643,0.0289814043790102,0.040282707661390305,0.11748618632555008,0.045924924314022064,-0.018412455916404724,0.11452004313468933,0.06278648972511292,-0.07904921472072601,-0.045366860926151276,-0.029519908130168915,-0.06644919514656067,-0.04593386501073837,-0.004581475630402565,-0.026973459869623184,-0.013926261104643345,0.1731463521718979,-0.10232090950012207,-0.05881044268608093,0.0517282634973526,0.11176805943250656,-0.1288803219795227,-0.05468875914812088,-0.10159933567047119,0.08995279669761658,0.0442453995347023,-0.05536626651883125,0.09816622734069824,-0.012308377772569656,0.008524054661393166,-0.015602047555148602,-0.0043460833840072155,0.2507423758506775,0.1091984212398529,0.06600300967693329,0.02702578343451023,-0.04555056616663933,0.04340416565537453,-0.10652434080839157,-0.025310315191745758,0.02549515664577484,0.19684715569019318,0.02720109187066555,0.03756961226463318,0.00474014226347208,-0.09739645570516586,0.0783909484744072,0.006211054511368275,-0.13399457931518555,0.12107390910387039,-0.015456789173185825,-0.019938047975301743,-0.16861411929130554,-0.06808285415172577,-0.10171592980623245,0.04595867544412613,0.0701189711689949,0.06241960451006889,-0.07513014227151871,0.07298019528388977,0.02047857642173767,0.20207256078720093,0.04044336453080177,-0.08352621644735336,-0.08910346031188965,-0.04438698664307594,-0.12709872424602509,0.034435078501701355,0.07990408688783646,-0.11925719678401947,0.0950920581817627,0.006011808756738901,0.016073962673544884,-0.051820307970047,-0.03594407066702843,0.05336382985115051,0.08355890959501266,-0.008124609477818012,-0.04987918585538864,0.10635632276535034,0.0013765692710876465,0.09216341376304626,-0.00040326686576008797,0.07907261699438095,-0.0716065987944603,-0.05300913378596306,0.08586300164461136,-0.13186770677566528,-0.06605765223503113,-0.033636339008808136,-0.3665187954902649,0.07282128930091858,0.15058982372283936,0.01764959841966629,-0.024509666487574577,0.14827409386634827,-0.008568288758397102,0.03974815458059311,0.005317097529768944,0.039161186665296555,0.020851582288742065,-0.01600496470928192,0.02180607244372368,-0.03990616649389267,-0.016132717952132225,0.17480097711086273,0.09259995073080063,-0.3277018368244171,0.0699617937207222,0.24280965328216553,0.1130177229642868,0.06946516036987305,0.0007554456824436784,-0.04683249071240425,-0.05407216399908066,-0.05503929406404495,0.010854397900402546,0.04422608017921448,-0.04778961092233658,0.11165416985750198,0.0011444813571870327,-0.03824616223573685,0.04669779911637306,0.008439522236585617,-0.04586170241236687,0.013662589713931084,-0.03165767714381218,-0.2779860198497772,0.07496663928031921,-0.038422245532274246,0.028919756412506104,-0.014591852203011513,0.051043178886175156,0.030456574633717537,0.008264617063105106,-0.09362845122814178,0.06908559054136276,0.032025910913944244,-0.09693080186843872,0.053958550095558167,-0.183230921626091,-0.023031899705529213,0.00752704543992877,-0.02944415807723999,0.01420329138636589,0.03321906179189682,0.03829750791192055,-0.0741019994020462,-0.1029224619269371,-0.062414661049842834,0.07948765903711319,-0.0571998655796051,0.09963739663362503,-0.007017773576080799,-0.017710700631141663,-0.012260176241397858,-0.16720636188983917,0.0707486942410469,-0.05622410774230957,0.10597001016139984,-0.12081466615200043,0.03796909749507904,0.024062486365437508,-0.018292464315891266,0.1587052047252655,-0.09613952040672302,0.018110262230038643,0.1145559772849083,-0.05687776580452919,0.03614305332303047,0.12373074889183044,0.04248522222042084,-0.028906110674142838,-0.02584403194487095,0.09685265272855759,0.04362529516220093,-0.07167281210422516,0.11086834967136383,-0.08222627639770508,0.09155090898275375,-0.04098132252693176,-0.011173669248819351,0.01527966558933258,0.028844991698861122,-0.15003502368927002,0.05195054039359093,0.03369427099823952,0.06258180737495422,-0.06058793142437935,-0.03158864751458168,-0.03933773934841156,-0.05116904154419899,-0.01876101829111576,0.022886674851179123,-0.010389587841928005,-0.1093311756849289,0.04658033326268196,0.08725190162658691,0.12812069058418274,-0.19293147325515747,0.010589656420052052,0.03819853439927101,-0.005997943226248026,-0.051407553255558014,-0.02643471024930477,-0.009949008002877235,-0.14552997052669525,-0.06345651298761368,0.06135573983192444,-0.059514958411455154,0.04997118562459946,-0.0456596277654171,0.0419999435544014,-0.03497019037604332,0.03139568865299225,-0.023796027526259422,0.05979835242033005,0.028204185888171196,0.04212188720703125,-0.1245117038488388,-0.014501208439469337,-0.10730260610580444,0.011016380973160267,0.14939777553081512,0.03554346412420273,0.06895612180233002,-0.0678974911570549,0.09488051384687424,-0.13050152361392975,-0.2022867053747177,-0.025888869538903236,0.1671895980834961,-0.3101660907268524,0.1783915013074875,0.020938578993082047,-0.03866400197148323,0.03256591781973839,-0.12146633118391037,0.018185969442129135,0.23757028579711914,0.09439294040203094,0.05099531635642052,-0.0069664400070905685,-0.11535460501909256,-0.07231626659631729,-0.03761821612715721,0.06500396132469177,-0.1556362509727478,0.06471612304449081,0.030849527567625046,0.03634590283036232,-0.043114036321640015,0.20244739949703217,-0.12461534887552261,0.057652976363897324,0.1713033765554428,-0.044163674116134644,0.11570611596107483,0.0010832005646079779,0.024680372327566147,-0.05011805146932602,-0.1322178840637207,-0.08290059864521027,0.04442397877573967,0.031069250777363777,0.057566773146390915,-0.08248810470104218,-0.07712145149707794,-0.21228453516960144,0.046700578182935715,-0.02242232859134674,0.04824953153729439,-0.07201551645994186,-0.010931367054581642,-0.030928505584597588,-0.07018779218196869,-0.025713806971907616,0.07716178894042969,0.003259807825088501,0.03223899006843567,-0.013833243399858475,-0.040096960961818695,-0.022781558334827423,-0.04224729910492897,0.10688739269971848,-0.09806247055530548,-0.13154441118240356,0.04264964163303375,0.052947863936424255,0.13724660873413086,-0.07879813760519028,0.08625274896621704,0.03922576829791069,0.15676750242710114,0.07360120862722397,-0.037949733436107635,0.1270417720079422,0.01994413696229458,-0.18702435493469238,-0.0822187289595604,-0.0071486858651041985,-0.04515788331627846,-0.02598644606769085,-0.1057533472776413,-0.051299456506967545,-0.1316985934972763,0.0423632375895977,0.01309142541140318,-0.026355542242527008,-0.003862909507006407,0.06519357860088348,-0.008124575018882751,0.17766425013542175,-0.017597828060388565,0.0782654657959938,-0.04295201972126961,-0.22600415349006653,-0.01524710189551115,-0.15090906620025635,0.055883198976516724,-0.09011265635490417,0.16381560266017914,-0.032589808106422424,-0.018575986847281456,0.06344342231750488,-0.09632498025894165,-0.020846091210842133,-0.13447870314121246,-0.16304710507392883,0.05208022892475128,-0.01584305800497532,-0.12653474509716034,-0.061739902943372726,0.010463329963386059,-0.12356900423765182,-0.024234086275100708,-0.06870364397764206,-0.06368740648031235,-0.053636617958545685,-0.01666184701025486,0.020509731024503708,0.06982018798589706,0.07233527302742004,0.009290164336562157,0.019847217947244644,-0.20167337357997894,-0.05455540865659714,-0.1431429088115692,0.11289084702730179,-0.010529883205890656,-0.13381806015968323,-0.06083675101399422,0.03577765077352524,0.08433099836111069,-0.02591926045715809,0.052339471876621246,0.00969820935279131,-0.039327796548604965,0.0475148968398571,0.06682182103395462,-0.06590636819601059,0.04468930512666702,0.06475222855806351,-0.1159137487411499,-0.17328819632530212,-0.06760944426059723,-0.007555845659226179,-0.05986308678984642,0.020490847527980804,0.015492036938667297,0.06664842367172241,0.03726411983370781,0.07830245047807693,-0.03690772131085396,-0.033074237406253815,-0.02780325338244438,0.005087163764983416,0.039696622639894485,-0.023264355957508087,-0.01950499787926674,0.0324241928756237,0.06350898742675781,-0.10087031871080399,0.017100606113672256,-0.016217496246099472,-0.08158235996961594,-0.2836412489414215,0.07064281404018402,-0.05136193335056305,-0.0340949147939682,-0.005114137195050716,-0.03452657535672188,0.04706214740872383,0.005059664137661457,-0.08530882000923157,0.03519171103835106,0.021779702976346016,0.003667230950668454,0.0998261421918869,0.015702679753303528,-0.016125435009598732,0.03362904116511345,0.004060762003064156,0.002041817409917712,-0.04793787747621536,0.23137754201889038,-0.0020781257189810276,0.037123870104551315,-0.01936253160238266,0.0700182393193245,-0.10870445519685745,-0.05080963298678398,0.047401219606399536,0.06604114174842834,0.023051468655467033,0.03924105688929558,-0.06531442701816559,-0.037754613906145096,-0.0003595008747652173,0.03714454546570778,0.10584010183811188,0.05777532607316971,-0.0025297612883150578,0.02397528477013111,0.07919692248106003,-0.042885083705186844,0.01803179271519184,-0.019754864275455475,0.002769090235233307,0.050073131918907166,-0.16749243438243866,-0.06756722927093506,-0.07391314208507538,0.04950302094221115,-0.0473637580871582,-0.01704525016248226,-0.06439042836427689,-0.036706309765577316,-0.09735123068094254,-0.006961912382394075,-0.07869945466518402,0.02314894273877144,-0.004390655551105738,0.06346026062965393,-0.0021788030862808228,0.0461421012878418,0.01464887522161007,-0.141086608171463,0.052654217928647995,0.0508154071867466,0.05214230716228485,-0.017681453377008438,-0.04243512451648712,0.02399231120944023,0.08399071544408798,-0.08954444527626038,-0.009410272352397442,-0.07420945167541504,0.04027283191680908,-0.09310691058635712,-0.0380689911544323,-0.1913509964942932,-0.13141536712646484,0.0014181442093104124,0.04286293312907219,-0.07307948172092438,-0.03296854346990585,0.07478033006191254,0.07596419006586075,-0.035151705145835876,-0.11211396753787994,-0.01773945614695549,-0.09916478395462036,0.06881660968065262,0.10805220156908035,0.1189713329076767,0.10635898262262344,-0.10045766830444336,-0.052912432700395584,0.0506577342748642,0.13435116410255432,-0.11167377233505249,0.01834999956190586,-0.04365154728293419,0.02856820821762085,-0.0650532990694046,0.28519317507743835,0.03760155290365219,0.005303377751260996,-0.06559861451387405,0.017005223780870438,-0.018718380481004715,-0.012175073847174644,-0.02681010216474533,0.07338404655456543,0.07009411603212357,0.011513073928654194,0.009763273410499096,0.019779643043875694,-0.009013854898512363,-0.03169938176870346,0.24955923855304718,0.026950348168611526,-0.11617676913738251,0.036907076835632324,0.010387630201876163,-0.005873880349099636,-0.060777224600315094,0.08563365042209625,0.14289681613445282,0.02990184910595417,0.13528893887996674,-0.07164463400840759,0.037556275725364685,-0.015004659071564674,-0.12132428586483002,-0.07618239521980286,0.030803948640823364,0.0498131662607193,0.013503476977348328,0.08895556628704071,-0.03441986069083214,0.10489234328269958,-0.014639921486377716,-0.02936316654086113,0.002660968340933323,-0.09477663785219193,-0.013177711516618729,-0.05602751299738884,0.03507034108042717,0.018797950819134712,-0.0634077787399292,0.04625185206532478,0.0001937192864716053,0.11119717359542847,0.16272661089897156,-0.11691814661026001,-0.00761762261390686,-0.05589541420340538,0.0679398849606514,-0.010981883853673935,-0.05193394050002098,-0.054984841495752335,-0.20655350387096405,0.011567041277885437,0.00965707004070282,0.005545246414840221,0.06862916052341461,0.10916020721197128,0.011401763185858727,0.17081454396247864,-0.09724840521812439,-0.030986173078417778,0.0269003938883543,-0.036379825323820114,-0.1321631669998169,-0.1512759029865265,-0.056910619139671326,0.05537652224302292,-0.08448460698127747,0.02045784518122673,0.1013854593038559,-0.0329458974301815,0.027936454862356186,0.0008255897555500269,-0.02837040275335312,0.04507832229137421,0.08326821774244308,-0.05365800857543945,0.1272701770067215,-0.016636107116937637,0.12890532612800598,-0.03533506765961647,0.011243218556046486,0.03314695879817009,-0.055188439786434174,0.054772619158029556,0.14787252247333527,0.025083621963858604,-0.055248603224754333,-0.06489767134189606,0.09990893304347992,0.00995810516178608,-0.022986354306340218,0.02577347122132778,0.0072977375239133835,0.02540428191423416,0.014295176602900028,-0.007975905202329159,0.08885844051837921,0.18008975684642792,0.03908942639827728,0.0510421097278595,0.21108050644397736,-0.001021586824208498,0.0270548015832901,-0.01396974641829729,-0.003714250400662422,-0.006163168698549271,-0.011475211009383202,-0.020837968215346336,0.18556168675422668,0.04798410087823868,-0.13158664107322693,0.061203181743621826,-0.07944315671920776,0.05645841360092163,0.007711766287684441,-0.03180107846856117,0.1621525138616562,0.09700227528810501,-0.037704646587371826,-0.041141804307699203,0.040867339819669724,-0.23733273148536682,-0.010530748404562473,0.03516827151179314,0.017316119745373726,-0.07894127815961838
Vtl9BnJgLrc,-0.027702530845999718,-0.0859990194439888,-0.016116010025143623,-0.0969754308462143,0.013259952887892723,0.0909300297498703,0.06312611699104309,-0.056736428290605545,-0.08733220398426056,0.11626583337783813,0.10168170183897018,-0.10006161034107208,-0.04716363176703453,-0.07887965440750122,-0.041655994951725006,-0.08960571140050888,0.02669750712811947,0.049524810165166855,0.03175536170601845,0.07933693379163742,0.016975661739706993,0.004416979383677244,-0.050963375717401505,0.0452151857316494,-0.12724676728248596,-0.08281956613063812,0.0763336792588234,0.0915016308426857,0.046323470771312714,-0.08207309246063232,0.1608853042125702,0.062052320688962936,0.018797069787979126,-0.03429415076971054,-0.009205247275531292,0.00038506463170051575,-0.017717262730002403,0.0038935060147196054,-0.11035601794719696,-0.027092432603240013,0.031667739152908325,-0.1831727921962738,-0.012798973359167576,0.019678357988595963,-0.023087870329618454,-0.09979017823934555,0.1749311089515686,0.0982147753238678,0.02080623246729374,-0.041529230773448944,-0.001277043134905398,0.20100434124469757,-0.07454296201467514,0.054161567240953445,0.0843803733587265,0.008177490904927254,-0.11645165085792542,0.02922959066927433,0.14947237074375153,-0.07218042761087418,0.0022043022327125072,0.009256566874682903,0.01665779948234558,-0.06171201169490814,-0.22198131680488586,-0.07442117482423782,0.15376223623752594,-0.14464765787124634,-0.07630956172943115,0.03820917010307312,0.10348673909902573,0.008973091840744019,-0.0762985572218895,0.08519601821899414,-0.04449983686208725,0.004598053637892008,-0.03779195249080658,-0.03389110416173935,0.02042580023407936,-0.05376829952001572,0.04913955181837082,0.09359730035066605,-0.06772764772176743,0.02662370167672634,-0.03335710987448692,0.04854031279683113,-0.002442809985950589,0.016594987362623215,-0.11074154824018478,-0.0737946555018425,0.06385448575019836,0.05375620722770691,0.05179932713508606,-0.06657195091247559,0.02102263644337654,0.01355150155723095,-0.037573255598545074,-0.13827334344387054,0.08385897427797318,-0.1827591061592102,0.0011740154586732388,0.07666661590337753,-0.11997544020414352,0.06257616728544235,0.05140551179647446,-0.19794070720672607,0.09424688667058945,0.010176452808082104,-0.04719626531004906,0.17997121810913086,0.07085508108139038,0.03594660758972168,0.01870858669281006,0.030217425897717476,-0.02030303329229355,0.03231377899646759,0.029706990346312523,-0.03445396572351456,-0.0812494084239006,0.013615270145237446,-0.06705018877983093,0.030397340655326843,-0.011528946459293365,0.020541639998555183,0.14778806269168854,-0.08737271279096603,-0.01209761667996645,0.024199077859520912,-0.04499686509370804,0.011875822208821774,-0.06864071637392044,-0.05578901246190071,0.04492957890033722,0.17390505969524384,-0.05927069112658501,0.1673610359430313,0.02214246615767479,-0.07830332964658737,0.09252945333719254,-0.00558938505128026,0.010044373571872711,0.04525340721011162,0.0075122397392988205,0.06586243957281113,-0.03630813583731651,0.026639685034751892,-0.06845695525407791,-0.1867598593235016,0.0317755751311779,0.06454133987426758,0.019329296424984932,-0.051232077181339264,0.053492482751607895,-0.037882402539253235,-0.057388678193092346,0.04759678989648819,-0.1075698658823967,-0.015848109498620033,0.020778000354766846,-0.018705107271671295,0.05325760319828987,-0.018845273181796074,-0.18682122230529785,0.06877477467060089,-0.02163694053888321,0.1348734349012375,-0.03332795202732086,0.01979820616543293,0.06635630875825882,-0.12413093447685242,-0.0018284476827830076,-0.016020433977246284,0.041506797075271606,0.08677766472101212,0.007639478426426649,0.21807466447353363,-0.16094109416007996,0.02631685696542263,0.018357709050178528,-0.04673149436712265,-0.1377059370279312,0.1665162593126297,0.04311669245362282,-0.0005332677392289042,0.0002158917486667633,-0.1268083155155182,0.011725190095603466,-0.08700701594352722,-0.017824068665504456,0.07046089321374893,-0.03918078914284706,0.04330265522003174,0.07432793825864792,0.009403342381119728,-0.07701283693313599,0.018675466999411583,0.05813512206077576,0.11697409301996231,0.05058387294411659,0.00839891005307436,-0.03401124104857445,-0.06731636822223663,-0.024256985634565353,-0.024416690692305565,-0.04498494789004326,-0.00975643191486597,-0.14716145396232605,-0.01208573766052723,0.047571197152137756,-0.013460252434015274,0.06652343273162842,-0.019882168620824814,-0.006273828446865082,0.0633084774017334,0.024565359577536583,0.10921341180801392,0.007570894435048103,0.019983870908617973,-0.13061165809631348,0.05640522018074989,0.01521726232022047,0.09703174233436584,-0.19938324391841888,0.02188522182404995,-0.011003797873854637,0.04861610010266304,0.05140150338411331,-0.07711224257946014,0.09286657720804214,-0.06734064221382141,0.014103608205914497,0.04020511358976364,0.08075743168592453,0.021223146468400955,0.04315106198191643,0.12544940412044525,-0.08380980044603348,0.05812669172883034,0.010574760846793652,-0.2163313925266266,-0.1113620474934578,-0.08825971931219101,-0.1368655562400818,0.03287135064601898,0.04145031049847603,-0.14622263610363007,0.0762588158249855,-0.06631268560886383,0.020611969754099846,-0.007638288661837578,-0.02405857853591442,0.11364426463842392,-0.15142129361629486,-0.053829632699489594,0.06207059323787689,-0.07181841135025024,-0.0860004723072052,-0.08362725377082825,0.09167122840881348,-0.050059542059898376,-0.008898407220840454,0.042321037501096725,0.10950217396020889,-0.10813724994659424,0.13825950026512146,-0.015878433361649513,0.1551554799079895,-0.12506715953350067,0.06727766990661621,0.01489416602998972,0.007121957838535309,-0.03385499119758606,-0.030613021925091743,0.01225263625383377,-0.025957904756069183,0.043704040348529816,-0.10715725272893906,-0.09098249673843384,-0.07724680006504059,0.03821774572134018,-0.09423743188381195,0.031194908544421196,0.04151935502886772,0.042048849165439606,-0.1345483362674713,0.03651341050863266,0.01516047865152359,0.001791585935279727,0.07662591338157654,0.09038472175598145,0.10593295097351074,0.037800759077072144,-0.027806654572486877,0.02500150166451931,0.03504915162920952,0.008655257523059845,-0.10547608882188797,0.00529909785836935,-0.07330554723739624,0.11230725795030594,0.01838766410946846,0.09202588349580765,0.036996617913246155,-0.01761460490524769,-0.05492516979575157,0.03623797744512558,0.13430386781692505,-0.007182213012129068,-0.0003733207704499364,0.049486204981803894,-0.03983823210000992,-0.23376579582691193,0.06365717947483063,-0.005917676724493504,-0.0812467709183693,0.08722151070833206,0.05949069559574127,-0.12562856078147888,0.01473031286150217,0.1486651450395584,0.0841112732887268,-0.05165448039770126,-0.06143396720290184,0.0506865456700325,-0.05718890205025673,0.02111094444990158,-0.03598710522055626,-0.009127275086939335,-0.02839486673474312,-0.11329995840787888,-0.007701970171183348,-0.12806379795074463,0.0004580079112201929,-0.04264816641807556,0.0014506470179185271,-0.03690922260284424,0.03135508671402931,-0.016795316711068153,-0.12773986160755157,0.05001910403370857,0.04023173451423645,-0.1821751892566681,0.014989507384598255,-0.07151643931865692,0.06795326620340347,0.033807311207056046,-0.08127301931381226,0.14453552663326263,-0.03510407358407974,0.1002519503235817,-0.1861421763896942,-0.0001682880101725459,-0.020002473145723343,-0.037375327199697495,-0.06060706824064255,-0.15750589966773987,-0.030376486480236053,-0.048298098146915436,0.08250031620264053,-0.005466324742883444,-0.06327346712350845,0.01699656806886196,-0.2230880856513977,0.12970049679279327,-0.030812811106443405,0.06565891951322556,0.07849448174238205,-0.058604829013347626,-0.007367496844381094,0.0362592488527298,-0.024621983990073204,0.02686811052262783,0.03610803186893463,-0.0395648293197155,-0.059283409267663956,-0.029019273817539215,0.06290121376514435,-0.20411914587020874,-0.1604083776473999,-0.020587455481290817,0.004708218388259411,-0.07541144639253616,0.12158670276403427,0.018561428412795067,-0.08536330610513687,0.06362871825695038,-0.06143864616751671,0.028944140300154686,0.19679751992225647,0.11043618619441986,0.00548343313857913,-0.027076100930571556,-0.06656815856695175,0.018472833558917046,0.0931246280670166,0.08716046810150146,0.0582742877304554,0.019541561603546143,0.030003948137164116,-0.012972742319107056,-0.041360896080732346,0.0030923348385840654,-0.22040686011314392,0.12853224575519562,0.016963975504040718,0.05950447916984558,-0.06577664613723755,-0.02836662530899048,0.01330234669148922,0.10057217627763748,-0.01855308935046196,-0.046337030827999115,-0.05610077828168869,0.008253030478954315,-0.10070401430130005,-0.0342976376414299,-0.009133387356996536,-0.11929342150688171,0.017917992547154427,0.09341922402381897,-0.0010481277713552117,0.005619225092232227,0.03141515702009201,-0.16210490465164185,-0.12447094917297363,-0.2041342407464981,0.0804896131157875,0.025159534066915512,0.03318582475185394,0.04145711287856102,-0.06847163289785385,-0.015102394856512547,0.0309639610350132,0.13470672070980072,-0.0027446080930531025,-0.02424171194434166,-0.05854249745607376,-0.025721373036503792,-0.09141069650650024,-0.03222033753991127,0.19617269933223724,-0.026932358741760254,0.06988951563835144,0.09123140573501587,-0.014665782451629639,0.2056233137845993,0.02914653718471527,-0.1776357889175415,0.06402043253183365,0.14547666907310486,-0.06718587130308151,0.044189248234033585,0.08367111533880234,0.03625332564115524,0.10176562517881393,0.0021065075416117907,0.16942408680915833,0.031570304185152054,0.06490938365459442,-0.06258314847946167,0.04990473389625549,0.26753970980644226,-0.06838874518871307,-0.09131742268800735,0.043904539197683334,-0.03072262555360794,0.08624674379825592,0.015958499163389206,0.021679585799574852,0.0003820572164840996,-0.08861475437879562,0.007009507156908512,-0.011585232801735401,0.024446260184049606,0.04221804440021515,0.04236683249473572,-0.056601133197546005,-0.20921671390533447,0.08701834827661514,-0.04553507640957832,-0.08621886372566223,0.03968849033117294,-0.027592359110713005,-0.17081236839294434,0.053374290466308594,-0.020861763507127762,0.06418872624635696,-0.09265360236167908,0.0386803075671196,0.0765065997838974,0.0612737275660038,-0.06130444258451462,0.053468119353055954,0.1318492442369461,-0.1410062164068222,-0.06141049042344093,0.011583342216908932,0.056763119995594025,0.02450978383421898,-0.14464516937732697,-0.05527714639902115,0.015323346480727196,0.02375458925962448,-0.1334354728460312,0.042372602969408035,0.01870371773838997,-0.09048592299222946,0.05324721336364746,-0.0029508129227906466,-0.10733405500650406,0.12166567146778107,0.07270567119121552,0.08735481649637222,0.13918136060237885,0.007418111898005009,0.008188891224563122,-0.12367408722639084,0.03871593996882439,0.05190407484769821,0.09199807792901993,-0.03135361149907112,0.018136674538254738,-0.05416233837604523,-0.012683636508882046,-0.010799362324178219,0.10010236501693726,0.04953103885054588,-0.028726935386657715,-0.09428627043962479,-0.017535338178277016,0.025457296520471573,0.07424665987491608,-0.04518786817789078,-0.02021588385105133,-0.031022198498249054,-0.022767316550016403,0.07119620591402054,-0.0001280456781387329,0.022347552701830864,0.048087071627378464,-0.09097497910261154,-0.025994129478931427,0.07198923826217651,-0.0713115707039833,0.004114572424441576,0.0709248036146164,-0.00021231721621006727,0.02974516898393631,0.11278005689382553,-0.03870896250009537,0.05323919653892517,-0.01952124945819378,0.07024358212947845,-0.02852703630924225,0.026376713067293167,-0.02044624090194702,-0.018592463806271553,-0.05064989626407623,0.02994750440120697,0.015253589488565922,0.05567041039466858,0.127658411860466,-0.04822134971618652,0.09740647673606873,0.1066318154335022,-0.01794467680156231,-0.011795183643698692,0.025966692715883255,0.06770659238100052,0.12339510768651962,-0.004721522331237793,0.031016461551189423,0.03493606299161911,0.049960907548666,0.04798620194196701,0.04772522300481796,-0.04516720771789551,-0.04423673823475838,0.02714579738676548,-0.09274482727050781,0.10010617971420288,-0.0858319029211998,-0.053410619497299194,0.016309019178152084,0.1237257793545723,0.015325192362070084,-0.05022404342889786,-0.07283161580562592,0.021935762837529182,-0.06177667900919914,-0.05103301256895065,0.1312406361103058,0.07915966957807541,-0.09425593167543411,0.04702237620949745,-0.10583332926034927,-0.14526605606079102,-0.12496092915534973,0.09574507176876068,0.08088701963424683,-0.05120468884706497,-0.17950427532196045,-0.017814883962273598,0.04362623021006584,-0.01711507886648178,-0.058493804186582565,-0.0039039403200149536,-0.03136758133769035,-0.08430932462215424,-0.15785253047943115,0.03619927912950516,-0.1078295111656189,-0.07045184820890427,0.044025588780641556,0.011195803061127663,-0.030419163405895233,-0.042091771960258484,0.08594271540641785,-0.00044802509364672005,-0.23515456914901733,0.0461420863866806,-0.024853892624378204,-0.30102819204330444,0.07615811377763748,-0.03440546989440918,-0.04444272071123123,0.10448131710290909,0.0472957007586956,0.045700445771217346,-0.021939868107438087,0.027173426002264023,0.026823740452528,-0.03312474861741066,-0.037340182811021805,-0.14677655696868896,0.2159746289253235,0.07587482035160065,0.038342446088790894,-0.08488721400499344,0.033527716994285583,-0.043775349855422974,-0.1078610047698021,0.07277780771255493,0.06560072302818298,-0.019893985241651535,0.007287879940122366,-0.11820562928915024,0.02834518440067768,-0.031100964173674583,0.05141653120517731,0.14425110816955566,-0.02105359546840191,0.08972074836492538,0.1068650633096695,0.004882172681391239,-0.014909116551280022,0.1035311371088028,-0.1414567530155182,0.082253098487854,-0.07476887106895447,0.054472412914037704,5.5584838264621794e-05,0.11708825826644897,-0.0385952927172184,-0.07686416804790497,-0.12521764636039734,0.04759380221366882,0.0019589050207287073,-0.004068276379257441,-0.13574758172035217,-0.05440656095743179,0.09813565015792847,-0.0006958586163818836,-0.052018169313669205,0.10896283388137817,0.10991144180297852,0.11917536705732346,0.11406470090150833,-0.09596043825149536,0.06889072060585022,-0.10542253404855728,-0.05442982167005539,0.14004851877689362,0.05978836119174957,0.01053605880588293,-0.055487509816884995,0.020226720720529556,0.14909690618515015,0.01372778881341219,0.04933477193117142,0.20499052107334137,-0.007542350795120001,0.056841108947992325,0.07691335678100586,-0.07652907073497772,-0.010565094649791718,0.10567796230316162,0.11398839205503464,-0.038716547191143036,0.06705435365438461,0.0505053885281086,0.0015728723956272006,0.06421848386526108,-0.08345530927181244,0.12474090605974197,0.030872909352183342,-0.06405055522918701,0.022299060598015785,0.002233717357739806,0.04883730784058571,0.029694028198719025,0.005014474969357252,-0.03830306977033615,-0.0626852884888649,0.014208804816007614,-0.010521357879042625,-0.018824443221092224,0.017191927880048752,-0.07740055024623871,-0.009239076636731625,0.19971048831939697,-0.05778732895851135,0.03451006859540939,0.024120645597577095,-0.08093298971652985,0.11514536291360855,0.12101124227046967,0.049886733293533325,0.039636265486478806,0.003532728645950556,0.08371341228485107,0.01567753776907921,0.042803265154361725,0.16721393167972565,0.004096759483218193,0.005044467281550169,-0.009303204715251923,-0.008938582614064217,-0.1424039602279663,0.14625044167041779,-0.050419967621564865,0.0048871831968426704,0.0982392430305481,0.009124109521508217,-0.046876393258571625,-0.00987502746284008,0.05464119091629982,0.06447417289018631,0.21416929364204407,0.1422397494316101,-0.061116211116313934,0.11082629859447479,-0.04378698021173477,-0.011418030597269535,-0.1428835391998291,-0.013440907001495361,0.018507735803723335,-0.04472951963543892,0.06747844815254211,-0.020103663206100464,-0.06326884031295776,0.0216725692152977,0.005878137424588203,0.12783311307430267,0.049471646547317505,0.09969501942396164,0.06774994730949402,0.02440987341105938
JSL8K3EvnG4,0.03081771731376648,0.027623658999800682,-0.016676638275384903,-0.11059429496526718,0.05120973661541939,0.09633485227823257,-0.0069138053804636,8.476078801322728e-05,-0.11305078119039536,0.14026886224746704,0.12708817422389984,-0.06807182729244232,-0.04506254196166992,0.07890715450048447,-0.0771845132112503,-0.1323741376399994,0.07065998017787933,0.06174295023083687,0.01773137040436268,0.11131009459495544,0.035355497151613235,-0.022121120244264603,0.02124801278114319,-0.0017304291250184178,-0.10615059733390808,-0.0527324452996254,0.05942635238170624,0.0777939036488533,0.007239905651658773,-0.07958772778511047,0.15704390406608582,0.10205570608377457,0.03243979439139366,0.0033803763799369335,0.00171281723305583,0.014306495897471905,-0.028163980692625046,0.025598129257559776,-0.16298675537109375,0.003292663488537073,0.09450031816959381,-0.0963248759508133,-0.03678654506802559,0.0023838640190660954,-0.0721299797296524,0.026695093140006065,0.11264324933290482,0.07931455224752426,-0.030137713998556137,-0.032580457627773285,0.011930525302886963,0.08320195227861404,-0.10558824241161346,0.0028377340640872717,0.08134575188159943,-0.06644470244646072,-0.10543636977672577,0.06602131575345993,0.16204141080379486,-0.1148865669965744,-0.002827169606462121,0.055034853518009186,0.03404039517045021,-0.008154240436851978,-0.20259232819080353,-0.03628280386328697,0.2869867980480194,-0.13641467690467834,-0.10924509167671204,0.005623819772154093,0.13589264452457428,0.02798108197748661,-0.07727716863155365,0.1328212469816208,-0.07745151966810226,-0.03882991522550583,-0.1441696435213089,-0.026782715693116188,0.044337835162878036,0.013043299317359924,0.08330325037240982,0.04019780084490776,-0.0029366984963417053,0.022504521533846855,-0.022572921589016914,0.1321341097354889,0.047199271619319916,0.031280696392059326,-0.1284904032945633,-0.04898783192038536,0.046069104224443436,-0.021198121830821037,0.0008691518451087177,-0.10311063379049301,0.08227427303791046,-0.02794756181538105,-0.03330004960298538,-0.04169256612658501,0.047499798238277435,-0.18491199612617493,-0.030222561210393906,0.08372659981250763,-0.042199037969112396,0.10381826013326645,0.1387883573770523,-0.04285468906164169,0.043289437890052795,-0.08885136246681213,-0.04508531838655472,0.13239417970180511,0.06443822383880615,0.03234221786260605,-0.04595067724585533,0.1307065635919571,-0.06650900095701218,-0.030315127223730087,0.0475059375166893,-0.05454958975315094,-0.08686001598834991,-0.002813868224620819,0.06195563077926636,0.04430140554904938,-0.04760231822729111,-0.023479033261537552,0.03259497508406639,0.06778404116630554,-0.030593888834118843,-0.015288257971405983,-0.035684846341609955,0.0033957541454583406,-0.0635758638381958,-0.10162369906902313,0.06350518018007278,0.14997543394565582,-0.05332064628601074,0.034902580082416534,0.04909897968173027,-0.07918720692396164,0.12426411360502243,0.03391363471746445,0.025857767090201378,-0.00156158406753093,-0.07068098336458206,0.017856303602457047,-0.0627700462937355,0.07506962865591049,-0.025550872087478638,-0.13788823783397675,0.04071923345327377,0.06010330468416214,0.12960661947727203,-0.02751980908215046,0.003044862998649478,0.01942386105656624,-0.05916814133524895,0.1620025634765625,-0.056981541216373444,0.04981493577361107,-0.011679025366902351,0.00424583163112402,0.012934605590999126,-0.08438994735479355,-0.06744347512722015,0.10082840919494629,-0.030566787347197533,0.0970408096909523,-0.07513540238142014,-0.010180190205574036,0.05217285081744194,-0.06288928538560867,-0.06750563532114029,-0.05845138058066368,0.05769320949912071,0.1039004996418953,0.045167602598667145,0.16364507377147675,-0.20258376002311707,0.029883598908782005,0.05186273157596588,-0.036355916410684586,-0.0805836021900177,0.1554737389087677,0.09125485271215439,0.016658933833241463,0.040853582322597504,-0.09772171080112457,0.06167851760983467,-0.10922040790319443,-0.09147457778453827,-0.006766088772565126,-0.02779768966138363,0.008288667537271976,0.035321347415447235,0.019504375755786896,-0.07968776673078537,0.07450569421052933,0.05066106468439102,0.12474574148654938,0.09579770267009735,0.06484239548444748,-0.023307915776968002,-0.08632389456033707,0.06580514460802078,-0.07619578391313553,0.008759507909417152,0.037533607333898544,-0.10885123908519745,-0.028556479141116142,0.09627702087163925,0.061112213879823685,0.16275854408740997,-0.004429678898304701,-0.07426703721284866,0.03264656662940979,0.013291027396917343,-0.04325050488114357,0.01290021650493145,0.0458754301071167,-0.1705320030450821,0.02551853284239769,-0.008301015011966228,0.05568000301718712,-0.15184243023395538,-0.04076571390032768,-0.14892318844795227,0.02548469789326191,0.02223128080368042,-0.055087123066186905,0.10644684731960297,-0.038191165775060654,0.016054809093475342,0.04569000378251076,0.08856745064258575,0.01575714908540249,0.02661312185227871,0.20927390456199646,0.04020040109753609,-0.20229074358940125,-0.00352508039213717,-0.30492714047431946,-0.06558804959058762,0.05787801742553711,-0.09093429893255234,0.01938510686159134,0.18922945857048035,-0.11590154469013214,0.010864587500691414,-0.056563083082437515,0.05116143077611923,-0.016517700627446175,0.025450540706515312,0.07308901101350784,-0.13158902525901794,-0.09172170609235764,0.12019796669483185,-0.025282330811023712,-0.11942162364721298,-0.032984472811222076,0.18959392607212067,0.11066913604736328,0.05919025465846062,0.0023784846998751163,0.021301427856087685,-0.08048208802938461,-0.003988897893577814,-0.020553307607769966,0.09149478375911713,-0.13064457476139069,0.03007839433848858,-0.008164255879819393,0.058959122747182846,0.011053581722080708,-0.041677650064229965,-0.03574248403310776,0.014343888498842716,0.006896349601447582,-0.05521460995078087,-0.06092575937509537,-0.09087724983692169,0.019548356533050537,0.0020495334174484015,-0.004865909460932016,0.02582814358174801,0.045464999973773956,-0.07996277511119843,0.010792073793709278,0.030413206666707993,0.15641888976097107,0.12736329436302185,-0.007874304428696632,0.08093706518411636,-0.01626398041844368,0.01612430438399315,0.12493063509464264,0.038472749292850494,0.06672881543636322,-0.11150506138801575,-0.1637638360261917,-0.056104183197021484,0.11267688125371933,-0.031036127358675003,0.018742619082331657,0.039481569081544876,-0.01604357361793518,-0.028281964361667633,-0.0406302846968174,0.05312180519104004,0.007745410781353712,-0.001981552457436919,0.09641893953084946,-0.040093544870615005,-0.1195281371474266,0.04663744196295738,0.10294108092784882,-0.1212410032749176,0.12128370255231857,0.03596442565321922,-0.020809173583984375,0.006704860832542181,0.16731300950050354,0.05383027344942093,-0.03568791598081589,-0.08863332122564316,-0.03786543384194374,-0.02679370529949665,-0.1036057099699974,-0.04852365702390671,-0.05191027373075485,0.00798429362475872,-0.10187285393476486,0.05515541136264801,-0.06777417659759521,-0.01200531143695116,-0.09474100917577744,-0.026587020605802536,-0.09542523324489594,0.033021096140146255,0.012390793301165104,-0.07099559903144836,-0.0038160905241966248,0.06461639702320099,-0.0828314796090126,0.021749937906861305,-0.08139971643686295,-0.10875330120325089,0.1275942176580429,-0.03760276362299919,0.13183718919754028,-0.14066685736179352,0.06360287219285965,-0.23631928861141205,0.04277301952242851,-0.0009036354604177177,-0.03277469053864479,-0.001037898357026279,-0.04433261603116989,-0.043315671384334564,0.06189005821943283,-0.05561881884932518,-0.015603362582623959,-0.00590240815654397,-0.05774048715829849,-0.059457674622535706,0.1792832762002945,0.0747918114066124,0.045146919786930084,0.04852989688515663,-0.040275197476148605,-0.005409238860011101,0.021555613726377487,-0.08417145907878876,-0.0659717470407486,0.07808828353881836,0.03635139390826225,0.019256381317973137,-0.011368511244654655,-0.006867438089102507,-0.02558390237390995,-0.14150890707969666,0.056564245373010635,0.011032872833311558,-0.1170470342040062,0.1676434576511383,0.05285737290978432,-0.1003442108631134,0.09808769077062607,-0.11698463559150696,-0.03873360902070999,0.1208634078502655,0.03860105574131012,0.03383850306272507,-0.05227344483137131,0.0013052825815975666,-0.07312561571598053,-0.048042185604572296,0.048009537160396576,-0.062009453773498535,0.029629850760102272,0.03540752828121185,-0.039708103984594345,-0.021856268867850304,0.1479504555463791,-0.12757490575313568,0.18636155128479004,0.044451598078012466,0.09221459925174713,-0.07009465247392654,0.02372042089700699,0.012340559624135494,0.062340814620256424,-0.04280203953385353,-0.05249333381652832,-0.022300368174910545,0.058463551104068756,-0.06465320289134979,-0.08916083723306656,-0.016583673655986786,-0.14805416762828827,-0.013584990054368973,0.05719683691859245,0.00335486582480371,-0.09437182545661926,0.06447244435548782,-0.06061845272779465,-0.19386743009090424,-0.15850810706615448,0.13006271421909332,0.0859166607260704,0.07372578233480453,-0.012004729360342026,-0.046022702008485794,-0.01538065541535616,0.003956904634833336,0.2087077498435974,0.03405619040131569,-0.12870758771896362,0.012933263555169106,-0.0033706023823469877,0.021355392411351204,-0.02345883660018444,0.15227678418159485,0.017014596611261368,0.11239119619131088,0.021484455093741417,-0.021993057802319527,0.134902223944664,0.012775375507771969,-0.12469104677438736,-0.004618858452886343,0.1374715268611908,-0.07806041836738586,-0.04473578929901123,-0.029805224388837814,0.0008493653731420636,0.016295528039336205,-0.025217333808541298,0.21371246874332428,-0.13612955808639526,0.10280387103557587,-0.12957221269607544,-0.07397343218326569,0.30383795499801636,-0.07611476629972458,-0.09082218259572983,0.047433361411094666,-0.017678264528512955,0.09389214217662811,0.004994919057935476,0.05993259325623512,-0.022451067343354225,0.07225272059440613,-0.03686397150158882,0.037743501365184784,0.03972185030579567,0.03516460582613945,-0.02219581790268421,-0.07056466490030289,-0.2665279507637024,0.11863990128040314,-0.06080515310168266,-0.04897729307413101,0.11199016869068146,-0.06333192437887192,-0.17232026159763336,0.05301031842827797,-0.06802447140216827,0.01083935983479023,-0.055270083248615265,0.05548374354839325,0.020146271213889122,0.0633917972445488,0.04153372719883919,0.01775852032005787,0.19830402731895447,-0.14396387338638306,-0.11633913964033127,0.006969072390347719,-0.06811725348234177,0.041277870535850525,-0.07432397454977036,-0.11142589896917343,-0.016466569155454636,0.038899652659893036,-0.11779869347810745,0.0010354943806305528,0.019257502630352974,-0.04201811924576759,0.08860594779253006,-0.04333903640508652,-0.08784549683332443,0.09584672749042511,0.029072832316160202,0.02743600122630596,0.0005533836665563285,-0.04409324377775192,0.02628188207745552,-0.05723177641630173,-0.06336887925863266,0.02879743091762066,0.028370579704642296,-0.030924715101718903,0.026029400527477264,-0.1092522144317627,-0.08813934773206711,-0.007473596837371588,0.10855839401483536,0.03625228628516197,-0.030907893553376198,-0.03040771745145321,0.0370231457054615,0.07618681341409683,0.04707777872681618,0.0638226792216301,0.04964699596166611,-0.04166807979345322,-0.0019708455074578524,0.03381500393152237,-0.06092522293329239,0.03745396062731743,0.07500683516263962,-0.06630854308605194,0.05578901618719101,0.09635352343320847,-0.0850219577550888,0.030732005834579468,0.010712631978094578,0.038835860788822174,0.05807391181588173,0.08343852311372757,-0.025977978482842445,0.017842134460806847,-0.04903985932469368,0.005409337114542723,0.00047462168731726706,0.1377333253622055,-0.07633481174707413,-0.10728517919778824,0.026415077969431877,0.04060189053416252,0.031418636441230774,0.05966080725193024,0.09169117361307144,-0.05631023272871971,0.06689868122339249,0.09252786636352539,-0.06267309933900833,-0.07004823535680771,0.0070803845301270485,-0.01830838993191719,0.14291034638881683,-0.007569656241685152,0.030025292187929153,0.05039455369114876,-0.015753360465168953,0.06199955940246582,-0.03262258321046829,-0.01484539546072483,0.07533253729343414,-0.052343811839818954,-0.014690431766211987,0.0005168604548089206,-0.06637131422758102,-0.008249704726040363,0.0842268317937851,0.1140592098236084,-0.02202925831079483,-0.08201964944601059,-0.12004396319389343,0.003718598512932658,-0.09212973713874817,-0.046619243919849396,-0.03813892975449562,0.06531556695699692,-0.0823272243142128,0.030380140990018845,-0.10647420585155487,-0.15043248236179352,-0.08623076975345612,0.04508805274963379,0.06007850170135498,-0.03994113579392433,-0.0960855558514595,-0.021772170439362526,-0.022665739059448242,-0.0010881536873057485,-0.019474446773529053,-0.016529304906725883,-0.02477596513926983,-0.10317269712686539,-0.10749856382608414,0.005721139255911112,-0.05966014042496681,-0.01843390055000782,-0.016314418986439705,-0.05702449008822441,-0.04047754779458046,-0.07110694795846939,0.10065673291683197,0.02233095094561577,-0.17555581033229828,0.04117590934038162,-0.016406413167715073,-0.12307768315076828,0.0608280785381794,-0.042260121554136276,0.11264438927173615,0.06756115704774857,-0.03741580992937088,0.06221206113696098,-0.11213203519582748,0.051484569907188416,0.019032711163163185,-0.010180673561990261,-0.008667717687785625,-0.0502430722117424,0.11189146339893341,0.09176883846521378,0.05427591875195503,-0.08813604712486267,0.04866793006658554,-0.026353688910603523,-0.054176680743694305,0.05147759988903999,0.0008854756597429514,-0.028262348845601082,0.00478318938985467,-0.09367460757493973,0.023324735462665558,0.010969026014208794,-0.01214037835597992,0.11564302444458008,0.05205284804105759,0.033055465668439865,0.07601790875196457,0.0024851381313055754,0.10199525952339172,0.06644146144390106,-0.04127255827188492,0.048874445259571075,-0.03585188835859299,0.0349852554500103,0.014635168947279453,0.05839412286877632,-0.02151249721646309,-0.10477137565612793,-0.14844541251659393,0.06220114603638649,0.03600269928574562,-0.008068665862083435,-0.11909152567386627,-0.04715239256620407,0.07649596780538559,-0.00883952621370554,-0.04284137859940529,0.08551235496997833,0.21200956404209137,0.04254747927188873,0.08188128471374512,-0.09976840019226074,0.021425088867545128,-0.10216029733419418,-0.022577563300728798,-0.05753707140684128,0.1342051774263382,0.05417168140411377,-0.12113401293754578,-0.03772769495844841,0.16616970300674438,0.02896568737924099,0.034278858453035355,0.12367533147335052,-0.06791695207357407,-0.006506380159407854,0.06404098123311996,-0.12286081165075302,-0.06226768717169762,0.12365972250699997,0.07704395800828934,0.004687389824539423,0.11096604913473129,-0.002331740455701947,0.0017243807669728994,0.08105147629976273,-0.10888238996267319,0.06655679643154144,0.03462737426161766,-0.1469649374485016,6.629774816246936e-06,-0.049476418644189835,0.010558615438640118,0.20759843289852142,0.0048146964982151985,-0.016431961208581924,-0.021635036915540695,-0.015796666964888573,-0.027518896386027336,0.044119227677583694,-0.04181694611907005,-0.0064930240623652935,-0.09745590388774872,0.24807341396808624,-0.10882479697465897,-0.09882480651140213,0.018739569932222366,0.004029413219541311,0.0979335606098175,0.017097290605306625,0.06909502297639847,-0.0022474885918200016,-0.049996741116046906,0.21221581101417542,-0.021892257034778595,-0.007645072415471077,0.21882744133472443,0.004909755662083626,-0.07069108635187149,-0.04740269482135773,-0.03795613721013069,-0.1044950783252716,0.18655286729335785,-0.035706277936697006,-0.009663370437920094,0.18109069764614105,-0.0062893712893128395,-0.08349825441837311,-0.04540463164448738,-0.0055617839097976685,0.013059739954769611,0.23511670529842377,0.0584375374019146,-0.014007484540343285,0.05971599370241165,0.030654463917016983,0.02726227417588234,-0.12082821875810623,0.059348419308662415,-0.005895331501960754,-0.0015220835339277983,0.07661056518554688,0.04335306957364082,-0.0021123820915818214,0.05391514673829079,-0.0059634544886648655,0.10736311227083206,0.08914901316165924,0.13034065067768097,0.022798117250204086,0.004134815186262131
DT9gOkCovuY,0.09943372011184692,-0.2053045779466629,-0.010386747308075428,-0.012846951372921467,0.06747464835643768,0.030434302985668182,-0.03216550499200821,0.03333927318453789,-0.034919433295726776,0.1060028225183487,0.11336665600538254,0.04518911615014076,-0.016130976378917694,0.038161810487508774,0.022278878837823868,-0.09711804986000061,0.055028218775987625,0.03957478329539299,-0.013366739265620708,0.07621385902166367,0.08744435757398605,-0.052823636680841446,0.04384775832295418,-0.031699974089860916,0.0057432265020906925,-0.012472590431571007,0.09190820157527924,-0.013334881514310837,0.04869472235441208,-0.03767472133040428,-0.023713368922472,0.07329919934272766,0.02050715498626232,0.03389459848403931,0.018807096406817436,0.03099088743329048,-0.024025458842515945,0.005173631478101015,-0.0941367894411087,0.09568426012992859,0.08571236580610275,-0.07197650521993637,0.026922840625047684,0.04907848685979843,-0.09339941293001175,-0.15100839734077454,0.06226663291454315,0.02454342506825924,0.08793837577104568,0.04561752825975418,0.009682043455541134,0.2353946566581726,-0.0828266441822052,0.05892850086092949,0.27018633484840393,-0.09730685502290726,-0.06754908710718155,0.06043979153037071,0.17382194101810455,0.0778404176235199,0.002286793664097786,0.10908549278974533,0.056057408452034,-0.02551853656768799,-0.10100321471691132,-0.04566424340009689,0.04189272224903107,-0.005496759433299303,-0.04288134351372719,0.0025038134772330523,0.16024355590343475,0.041916653513908386,0.03387516736984253,0.10304901748895645,-0.03352602571249008,0.10291631519794464,-0.08887063711881638,-0.026591559872031212,0.0634612888097763,0.03569416329264641,-0.04621029272675514,0.07986585795879364,0.015641313046216965,-0.0698724240064621,-0.14374569058418274,0.17672298848628998,-0.04558936506509781,0.09163901954889297,-0.14306548237800598,-0.14592351019382477,0.08265447616577148,-0.048987265676259995,0.07943350821733475,-0.01373995654284954,0.1894071251153946,0.042996231466531754,0.021040508523583412,-0.16199441254138947,0.12737515568733215,-0.20687682926654816,-0.005079495720565319,0.03914731368422508,-0.04356059804558754,0.09746818244457245,0.10791737586259842,-0.1505560725927353,-0.08213648945093155,0.13024906814098358,-3.0068529667914845e-05,0.0012623328948393464,0.0880802646279335,-0.1200852170586586,-0.06468460708856583,0.11591263115406036,0.0099822161719203,0.018453724682331085,0.09560021013021469,0.053059063851833344,0.09014008939266205,-0.06604239344596863,-0.07021737843751907,-0.1209205836057663,0.0034557096660137177,0.021503278985619545,-0.01563647948205471,0.04965464025735855,-0.08597442507743835,0.09188203513622284,0.033412765711545944,0.01689784973859787,-0.03624945878982544,-0.11508922278881073,-0.04042808338999748,-0.0537990927696228,0.014879078604280949,0.09501313418149948,-0.02193194441497326,-0.06247366592288017,0.16273914277553558,-0.0346958227455616,0.006049620918929577,0.09715118259191513,-0.061788901686668396,-0.03952072933316231,-0.0021339980885386467,0.05353919044137001,0.0018675843020901084,0.11412067711353302,-0.04925157502293587,0.00021837480016984046,-0.062324296683073044,0.09851963073015213,-0.07562629133462906,0.012547207064926624,0.04176991432905197,0.14974583685398102,0.07467234879732132,-0.107520192861557,-0.12850786745548248,0.10943801701068878,0.04325462505221367,-0.0061628851108253,0.01920788362622261,0.03178265318274498,-0.007372964173555374,0.048094332218170166,-0.19252371788024902,-0.09194571524858475,0.05821825936436653,-0.07355927675962448,-0.08384710550308228,-0.014024977572262287,0.044155750423669815,-0.04497946798801422,0.05830993503332138,0.199982151389122,-0.12562613189220428,-0.006786400452256203,0.03099370002746582,0.008410738781094551,-0.13711363077163696,0.145806223154068,0.12714701890945435,0.03479022532701492,-0.012324032373726368,-0.0015823703724890947,0.07263018935918808,-0.07602560520172119,-0.04641517251729965,0.0017143310979008675,0.05251626670360565,0.02125686965882778,0.0008355765603482723,0.0024148861411958933,0.0021656001918017864,-0.11408653855323792,0.10926491767168045,-0.09318999946117401,0.06538959592580795,0.026820000261068344,0.01857050508260727,-0.1952463835477829,0.082606740295887,0.15156947076320648,0.012874293141067028,0.11305277794599533,-0.018449220806360245,-0.008384247310459614,0.17249885201454163,0.032288551330566406,0.03814597800374031,0.007586516439914703,-0.03579195216298103,0.031031431630253792,0.0409737154841423,-0.012362878769636154,0.0846349447965622,0.11547277122735977,-0.203354150056839,0.09451401233673096,-0.0021991461981087923,-0.09200318902730942,-0.007241451181471348,-0.022812901064753532,0.04318311810493469,0.07521514594554901,0.014211872592568398,-0.01243377011269331,-0.021138375625014305,-0.0979783684015274,0.06816442310810089,0.05320814251899719,0.05131072551012039,-0.07325426489114761,-0.10182337462902069,0.1246599406003952,-0.036211710423231125,0.10794897377490997,0.15327782928943634,-0.3531697988510132,0.1383313536643982,0.15166425704956055,0.0338696651160717,-0.0016803066246211529,0.1494256854057312,-0.09924693405628204,0.02412581816315651,-0.08317258208990097,-0.00996057316660881,-0.0348949134349823,0.042966581881046295,0.09842545539140701,-0.05597134679555893,-0.11663578450679779,-0.005271938629448414,0.04481016471982002,-0.22136087715625763,-0.026010993868112564,0.20063187181949615,0.025197090581059456,0.06993144750595093,-0.05461177974939346,0.09136826545000076,-0.07363945990800858,-0.15814688801765442,0.06180518865585327,0.013004997745156288,-0.1648072600364685,-0.005194393452256918,0.014293567277491093,-0.046583306044340134,0.029964543879032135,0.025432581081986427,-0.11296991258859634,0.02542806789278984,0.036817993968725204,-0.1761513203382492,0.008674620650708675,-0.054045140743255615,0.06363122910261154,0.06437310576438904,-0.04209773615002632,-0.005044538993388414,-0.11390572786331177,-0.12924718856811523,-0.042790986597537994,-0.11995089054107666,-0.07775227725505829,0.05795546621084213,-0.030289752408862114,-0.0017773817526176572,-0.0397886298596859,-0.04677579551935196,-0.05631968006491661,0.03019607625901699,-0.050601374357938766,-0.09295676648616791,-0.08649394661188126,0.027753617614507675,0.11944368481636047,0.07492367923259735,-0.021021565422415733,-0.03133998438715935,-0.0047569265589118,-0.08646931499242783,-0.06033692508935928,0.04424989968538284,-0.1228073239326477,0.10999571532011032,0.11270514130592346,0.034943342208862305,0.041556213051080704,-0.01491123903542757,0.09309224784374237,-0.005354873836040497,-0.03073427826166153,0.02322394959628582,-0.0146386893466115,-0.01966286264359951,0.15996356308460236,0.0316716805100441,-0.037032146006822586,-0.0298541821539402,-0.008627877570688725,-0.04731966182589531,-0.012252158485352993,0.001404671696946025,0.009892757050693035,0.1443132907152176,-0.13086789846420288,0.034941960126161575,-0.07007963955402374,-0.10749093443155289,0.018048476427793503,-0.11530739814043045,-0.012303337454795837,-0.04114580526947975,0.0033278469927608967,-0.0033469530753791332,-0.030372101813554764,0.045102085918188095,0.02735990844666958,0.013590878807008266,-0.1019783690571785,-0.09070985019207001,0.1109054908156395,0.1034601703286171,0.07121581584215164,-0.04942771792411804,0.09020169824361801,0.017867207527160645,-0.05470108985900879,-0.06349998712539673,-0.04285183548927307,-0.030048348009586334,-0.09426844120025635,-0.08625487238168716,0.04685144126415253,0.04473257437348366,-0.041255198419094086,0.05661662667989731,0.0006970237591303885,-0.055458128452301025,-0.07820222526788712,0.0979425236582756,0.06170424073934555,0.015050087124109268,-0.04714826121926308,-0.0030633765272796154,0.09335722774267197,0.10270281136035919,-0.053519029170274734,0.011228692717850208,0.1322413980960846,0.09392150491476059,0.1621730923652649,0.07062971591949463,-0.06057285517454147,-0.1970103532075882,-0.0159904845058918,0.05457158386707306,-0.17451953887939453,0.06720006465911865,-0.019186632707715034,-0.03420792892575264,0.07821231335401535,-0.08528067171573639,-0.020158125087618828,0.11485578864812851,0.015520453453063965,0.04899789020419121,-0.2381698191165924,0.056806210428476334,-0.07895485311746597,0.029937492683529854,0.11288145184516907,-0.007798830978572369,0.00197095749899745,-0.01635710522532463,0.03173600509762764,0.05098792165517807,0.15664830803871155,-0.0835094228386879,0.13728460669517517,0.08276817202568054,-0.028861982747912407,-0.08630581945180893,-0.055750880390405655,-0.09175457060337067,-0.2133844941854477,-0.050134994089603424,-0.0639372393488884,0.04573899880051613,0.049520544707775116,-0.039038803428411484,-0.12661392986774445,-0.013527335599064827,-0.09320199489593506,0.05368049070239067,0.028692955151200294,-0.04109662398695946,-0.0955938920378685,0.14161381125450134,-0.042284682393074036,-0.15666119754314423,-0.10250347852706909,0.045947037637233734,-0.02207927033305168,0.09425655007362366,0.022547535598278046,0.03947241231799126,0.07074973732233047,-0.034251876175403595,0.24313785135746002,0.04401610791683197,-0.18860220909118652,-0.05342133715748787,0.07294290512800217,-0.08318957686424255,-0.057332366704940796,0.04228653013706207,0.13944262266159058,0.07205285131931305,-0.008321663364768028,0.1064300686120987,0.0637040063738823,0.048014603555202484,-0.28498315811157227,-0.11655519902706146,-1.715405596769415e-05,-0.10308845341205597,-0.011926120147109032,0.0017218738794326782,0.02120433747768402,-0.018782809376716614,-0.03990635648369789,0.13932116329669952,-0.31277039647102356,-0.060953009873628616,-0.10221429169178009,0.09776689857244492,0.25159233808517456,-0.14686672389507294,-0.07634627819061279,0.025909757241606712,-0.16808514297008514,0.06411273032426834,-0.10370142012834549,-0.058652959764003754,-0.03907527029514313,0.004980785772204399,-0.01546570099890232,0.03446944057941437,0.07690322399139404,-0.1375773698091507,-0.10139890760183334,-0.12324371933937073,-0.4113505780696869,0.05559930205345154,0.022157317027449608,-0.13050533831119537,-0.04063911363482475,-0.08181282132863998,-0.14597758650779724,0.06192240118980408,-0.07401187717914581,0.04344531521201134,-0.0806734710931778,0.022732451558113098,-0.010616088286042213,0.004748384468257427,0.06370208412408829,0.00659132981672883,0.12811964750289917,-0.15100307762622833,0.04716602340340614,0.08567240089178085,0.031476940959692,-0.1880733072757721,0.04959970340132713,0.04293268918991089,-0.014618840999901295,0.13327926397323608,0.08325690776109695,0.05080193281173706,-0.0005561329890042543,0.045589935034513474,-0.06691338866949081,0.03381320461630821,-0.024279866367578506,0.09419950842857361,0.0736912190914154,-0.12259271740913391,-0.15114054083824158,-0.021298503503203392,0.20987780392169952,0.0669962614774704,-0.04807335510849953,-0.0639382004737854,0.042727239429950714,0.029954498633742332,-0.01252754032611847,0.0696646198630333,-0.057272106409072876,-0.10428181290626526,0.1735459268093109,0.059086598455905914,-0.10509060323238373,-0.003200021106749773,0.09403440356254578,-0.1634031981229782,0.027864938601851463,0.15488821268081665,0.01614488661289215,-0.06769373267889023,0.13844487071037292,0.17149950563907623,0.18248823285102844,-0.10341999679803848,0.03774827718734741,-0.1668679565191269,0.017042437568306923,0.11433375626802444,-0.03266710415482521,0.05323316156864166,0.05058227479457855,0.014191695488989353,0.0825083926320076,0.07270820438861847,-0.1393061727285385,-0.00675918348133564,0.04382378235459328,-0.05965900421142578,0.007893407717347145,0.15102875232696533,-0.11054789274930954,-0.02826688438653946,-0.04229043051600456,0.0033114012330770493,0.08606893569231033,0.046670425683259964,0.04594811797142029,-0.07190477102994919,0.05874490737915039,0.024499470368027687,-0.05842311307787895,-0.00477710971608758,0.030015433207154274,-0.03168095648288727,0.05101678892970085,-0.01632578670978546,-0.046330224722623825,-0.0359836108982563,0.07986646890640259,0.02571115456521511,-0.01628362201154232,0.11432764679193497,0.028058772906661034,0.03112614154815674,-0.1185777485370636,-0.14445623755455017,-0.11762706935405731,0.07924908399581909,0.053252313286066055,0.11561508476734161,-0.019361931830644608,-0.06142263114452362,-0.1466795951128006,0.01333661936223507,0.010003391653299332,0.017446551471948624,0.08417602628469467,0.11621081084012985,-0.15883994102478027,0.007606967817991972,-0.026969021186232567,0.0017429435392841697,-0.08292919397354126,0.03760140389204025,0.024318262934684753,-0.006844187155365944,0.0209397841244936,0.030417216941714287,0.02302655391395092,-0.017507033422589302,-0.06946390867233276,0.07086385041475296,-0.03513874113559723,-0.12538845837116241,-0.0998883917927742,0.026138911023736,-0.27780866622924805,0.044631585478782654,-0.12663795053958893,0.03126553073525429,0.052329063415527344,0.10738234966993332,0.04080631583929062,0.015400710515677929,-0.07518235594034195,-0.07115412503480911,-0.025887174531817436,-0.13977298140525818,0.014655161648988724,-0.011634863913059235,0.2002832591533661,0.07519981265068054,0.15828289091587067,-0.002886385191231966,-0.015600154176354408,0.04865759611129761,-0.040686801075935364,0.015005226247012615,0.09485650062561035,-0.09892464429140091,0.2060554027557373,-0.025855347514152527,0.01564987376332283,-0.05673947185277939,0.05276302993297577,-0.053960107266902924,-0.0620887465775013,-0.04480377957224846,-0.07838718593120575,0.026498056948184967,-0.06043412163853645,-0.028968054801225662,-0.06959285587072372,0.023437120020389557,0.019344277679920197,0.015498783439397812,-0.05449723079800606,0.04978211969137192,0.00988052785396576,-0.038715947419404984,-0.018970360979437828,-0.00847016554325819,0.08592285215854645,0.029839593917131424,-0.004030988086014986,-0.025262514129281044,-0.006391903851181269,0.014136362820863724,-0.04657232388854027,-0.08785270154476166,-0.09348098188638687,0.043326567858457565,-0.04496509209275246,-0.04684608429670334,-0.009781671687960625,0.04090501368045807,0.042804304510354996,-0.04129571095108986,-0.031367797404527664,0.040560632944107056,0.032613735646009445,0.09725942462682724,0.04927661642432213,-0.1301632970571518,0.08215273171663284,-0.10044243186712265,0.014161928556859493,-0.15227846801280975,0.08897963911294937,0.2227279543876648,-0.177464559674263,0.022965410724282265,0.04446570202708244,0.04568585380911827,0.029432278126478195,0.06827955693006516,0.0919639840722084,0.07333637028932571,-0.026247086003422737,-0.051261574029922485,-0.11450221389532089,0.10211379081010818,-0.11660583317279816,-0.127768412232399,0.12347828596830368,0.03800791874527931,-0.04107757285237312,0.07155030220746994,-0.0380370207130909,0.10797523707151413,-0.04553985595703125,-0.07324990630149841,0.04361073300242424,-0.036717019975185394,0.09806017577648163,0.12373465299606323,0.04355188459157944,-0.015590350143611431,0.04069417715072632,-0.2222711741924286,0.025792593136429787,0.02168816700577736,0.1308724731206894,0.10289499163627625,-0.2839009463787079,0.23006735742092133,-0.06087814271450043,0.048986565321683884,0.04281212016940117,0.011062541045248508,0.12577249109745026,0.11501681804656982,0.12849363684654236,-0.0029236243572086096,-0.0756860002875328,0.12259676307439804,0.021547935903072357,0.004249359481036663,0.1424926519393921,0.006794848944991827,-0.020667191594839096,0.027091065421700478,-0.05904179811477661,0.03705594688653946,0.15823830664157867,-0.10963571071624756,0.06976022571325302,0.09879578649997711,-0.038006491959095,-0.10036596655845642,0.004907882772386074,-0.07400453090667725,0.03366082161664963,0.029337773099541664,-0.030055126175284386,0.0030267618130892515,-0.006405191030353308,-0.08622238785028458,0.0616215243935585,-0.025894809514284134,0.018327387049794197,-0.1059453934431076,-0.06873776763677597,0.07200319319963455,-0.10833452641963959,0.16721999645233154,-0.012394854798913002,-0.04580148681998253,-0.0608033761382103,0.08880719542503357,0.14333488047122955,-0.0611618347465992,-0.020335156470537186
-btb_XbvAqA,0.007684353273361921,-0.004725882783532143,-0.009904948063194752,-0.05050051957368851,0.0762355625629425,0.04385806620121002,0.022495433688163757,0.12272655218839645,0.08396810293197632,0.06907251477241516,0.10783055424690247,0.08086530864238739,-0.008735132403671741,0.0727393850684166,0.10320909321308136,-0.19997233152389526,0.04173238202929497,0.05894488841295242,0.0947818011045456,0.07099109143018723,0.06716571003198624,-0.060392554849386215,0.024672601372003555,-0.039785221219062805,-0.03304612636566162,-0.020113864913582802,0.0685976967215538,-0.054892830550670624,0.13103215396404266,-0.09501499682664871,0.020435456186532974,0.02193368226289749,-0.002912628697231412,-0.0603591613471508,0.004260779824107885,0.03225553408265114,0.02392057329416275,-0.03673616796731949,-0.05719365179538727,0.08646292239427567,0.07934145629405975,-0.1856561303138733,-0.03565724194049835,0.012640542350709438,-0.14815226197242737,-0.17995496094226837,-0.004788329359143972,0.08309899270534515,0.046458832919597626,0.047278571873903275,-0.026075569912791252,0.14659664034843445,-0.07722746580839157,0.09313304722309113,0.21056705713272095,-0.08447649329900742,-0.02047278732061386,0.032742395997047424,-0.0032291626557707787,-0.034059617668390274,-0.11769681423902512,0.08061867207288742,-0.043881092220544815,-0.05412779748439789,-0.14460086822509766,-0.06644687801599503,0.042663414031267166,-0.13661520183086395,-0.006835843902081251,0.03148875758051872,0.10344766825437546,0.026394737884402275,0.022699983790516853,0.09638435393571854,-0.01077502965927124,0.018534336239099503,-0.052800390869379044,0.03029024787247181,0.03895242512226105,-0.05674305930733681,0.05204547569155693,0.1572895646095276,-0.02499411255121231,-0.05810783430933952,0.03602055832743645,0.009173797443509102,0.05404861271381378,0.09321461617946625,0.019673192873597145,-0.0915098786354065,0.021708693355321884,-0.08417756110429764,-0.03657177835702896,-0.035515107214450836,-0.008669190108776093,-0.0059795803390443325,0.020808145403862,0.009304987266659737,0.10784988850355148,-0.12259230017662048,-0.01646963320672512,0.13964200019836426,-0.08794444799423218,0.10063932836055756,0.05079915374517441,-0.09675624966621399,-0.14153562486171722,-0.007835304364562035,-0.017795031890273094,0.07268856465816498,0.12359972298145294,0.02287886291742325,0.01494800765067339,0.010423978790640831,0.03578082099556923,-0.005398000590503216,-0.0925665944814682,0.0701078549027443,0.042243435978889465,-0.018002716824412346,0.004141305107623339,-0.05661410093307495,-0.037725768983364105,0.03559019789099693,-0.048417046666145325,0.12424486130475998,-0.034593209624290466,0.03222431614995003,0.0008267760276794434,-0.0022018076851963997,-0.05622825399041176,0.005406223237514496,-0.041858259588479996,0.04189340025186539,0.07310029864311218,-0.058963894844055176,0.04423299804329872,-0.05133959650993347,0.13020138442516327,0.018716808408498764,-0.009545356035232544,0.004780624061822891,-0.02293303608894348,-0.03008979931473732,-0.005375017877668142,0.016753142699599266,0.02358878403902054,0.003734168130904436,-0.06653964519500732,0.08899999409914017,0.06117042154073715,0.0728134736418724,-0.10677940398454666,-0.023352546617388725,-0.024650506675243378,0.12238265573978424,-0.08518023788928986,-0.06297357380390167,-0.11604195833206177,-0.09648336470127106,0.004380445461720228,-0.05213044583797455,0.046573035418987274,-0.05404737964272499,0.1393842101097107,0.12611836194992065,-0.06031337007880211,-0.005124903284013271,0.02241995558142662,0.01338930893689394,-0.12724743783473969,-0.010641109198331833,0.006324088200926781,0.011405675671994686,0.0274658240377903,0.0924411416053772,0.058304984122514725,-0.09540588408708572,-0.1336279809474945,-0.025946615263819695,-0.03359253332018852,0.1209261491894722,0.14417724311351776,0.1313505470752716,0.06260214000940323,0.049028631299734116,0.022266004234552383,0.006601929664611816,-0.011957144364714622,0.021069087088108063,0.08402252942323685,-0.028693631291389465,0.0943218246102333,0.05008159577846527,0.009430541656911373,0.0024531036615371704,0.08229062706232071,-0.12141231447458267,0.12287969887256622,0.03577981889247894,-0.043475933372974396,-0.1426427960395813,0.08786854147911072,-0.026613235473632812,-0.007156095001846552,0.0492202565073967,-0.054544851183891296,-0.00014351354911923409,0.06027761101722717,0.0443674772977829,0.11747083067893982,-0.0237334705889225,0.03829534724354744,-0.035753458738327026,0.016808511689305305,-0.08635355532169342,0.061695247888565063,-0.025516493245959282,-0.15141838788986206,0.13269531726837158,-0.018047507852315903,0.10932687669992447,-0.055740706622600555,-0.034345414489507675,-0.03873885050415993,0.07807310670614243,-0.05110476166009903,-0.02577468380331993,0.05832468718290329,-0.016746360808610916,0.10415498912334442,0.03798865154385567,0.1336161345243454,-0.09804962575435638,-0.05184463411569595,0.10077182203531265,0.03924671560525894,-0.07188379019498825,0.022203436121344566,-0.3137000799179077,0.037983719259500504,0.06715015321969986,-0.009355153888463974,-0.021039608865976334,0.10914968699216843,-0.0009606748353689909,0.05648273229598999,0.0012780075194314122,0.01463061012327671,0.0676843598484993,0.038809794932603836,0.07991669327020645,-0.037933044135570526,-0.017973829060792923,-0.005095141939818859,0.002990331966429949,-0.3377414047718048,-0.04360802099108696,0.20544350147247314,-0.008259400725364685,0.06039804965257645,0.02352794259786606,0.02579839527606964,-0.04210358485579491,-0.08915965259075165,-0.032587699592113495,0.20141097903251648,-0.14932091534137726,0.025427134707570076,-0.0106878113001585,-0.06521409749984741,-0.028730301186442375,0.0026925504207611084,-0.019795987755060196,-0.10385742783546448,-0.02147788554430008,-0.19166390597820282,0.09649882465600967,-0.034042999148368835,0.04922306165099144,0.04359873756766319,0.0012596664018929005,0.015576547011733055,-0.03523924946784973,-0.044740114361047745,0.07759109139442444,0.026051528751850128,-0.05054304748773575,0.11650944501161575,-0.08603556454181671,-0.024793928489089012,-0.053136538714170456,-0.04783380404114723,0.008725137449800968,0.044430188834667206,0.007457979954779148,-0.22065110504627228,0.01644609495997429,-0.02721410244703293,0.0764533057808876,0.01902507059276104,0.034521497786045074,0.04447073116898537,-0.03024415858089924,-0.09570236504077911,-0.04597942531108856,0.03196801617741585,-0.07128683477640152,0.06241470202803612,0.004056766629219055,0.02516074851155281,-0.03321853280067444,-0.03310529142618179,0.14947587251663208,-0.09524773061275482,0.0829940140247345,0.01828906126320362,-0.043419841676950455,-0.0011361739598214626,0.18487973511219025,0.02138296514749527,0.023127583786845207,-0.0012771408073604107,0.08824218064546585,0.03426491469144821,-0.0822179988026619,0.038565393537282944,-0.05067841708660126,0.06240715831518173,-0.1357475072145462,0.019169455394148827,0.009550075978040695,0.03570646420121193,0.01968284696340561,0.03920740634202957,0.028507787734270096,0.08648223429918289,0.10026925802230835,-0.029879342764616013,0.020128311589360237,0.021058013662695885,0.04069194570183754,-0.030013443902134895,0.04148538038134575,-0.07194478809833527,-0.05466141551733017,-0.009880363941192627,0.15023775398731232,-0.009720252826809883,0.00014664768241345882,-0.09524600207805634,0.06098143756389618,-0.016003787517547607,-0.007570404559373856,0.03376634046435356,-0.11678220331668854,-0.07774685323238373,0.07670281827449799,-0.08220437914133072,0.05472319945693016,0.02281135506927967,0.05491792410612106,-0.017477212473750114,0.10178105533123016,0.02182137966156006,0.060227662324905396,-0.027195487171411514,-0.010055036284029484,0.010818475857377052,0.007897823117673397,-0.07188118994235992,-0.12184679508209229,0.12658026814460754,-0.015633173286914825,0.00899623241275549,-0.02107260376214981,0.07414138317108154,-0.1651071459054947,-0.21850284934043884,-0.04005548730492592,0.10583148896694183,-0.2639116644859314,0.12129437923431396,-0.009373785927891731,-0.05552558973431587,0.0030800141394138336,-0.14361780881881714,0.04675224423408508,0.30522578954696655,0.06262293457984924,0.025727735832333565,0.0004117418429814279,-0.135052889585495,-0.00634478684514761,0.040756955742836,0.08973633497953415,0.03085426613688469,-0.009658239781856537,0.054891470819711685,-0.001764474669471383,-0.09285423904657364,0.13654258847236633,-0.13877195119857788,0.20986627042293549,0.1020885482430458,0.003997496794909239,0.04093164950609207,-0.028034452348947525,-0.0035502740647643805,-0.22367656230926514,-0.11062214523553848,-0.1450403928756714,0.0940350890159607,0.061063963919878006,0.15499575436115265,-0.059496715664863586,-0.05307050421833992,-0.12096697092056274,-0.011602484621107578,-0.07759227603673935,0.01916140504181385,-0.01194009929895401,0.037870049476623535,-0.05046446993947029,-0.14617455005645752,-0.044103607535362244,0.04372164234519005,-0.0049721975810825825,-0.00935796182602644,-0.008010505698621273,0.0238838829100132,0.05654805526137352,-0.015267688781023026,0.16895490884780884,-0.08747854828834534,-0.11221274733543396,0.06644894927740097,-0.01055177953094244,-0.1151580661535263,-0.15275634825229645,0.07253922522068024,0.06042938679456711,0.19102969765663147,0.0440000481903553,0.042505718767642975,0.17898233234882355,0.01616298034787178,-0.18035298585891724,0.03162884712219238,0.11397355049848557,-0.08559390902519226,-0.04023723304271698,-0.1110810786485672,0.04907141253352165,-0.008861580863595009,-0.011094913817942142,0.06699535995721817,-0.12250623106956482,-0.06741101294755936,-0.04515598714351654,0.06631109118461609,0.2802310585975647,-0.04023683816194534,0.031241824850440025,-0.019683614373207092,-0.042685143649578094,-0.0784263163805008,-0.12971577048301697,0.07713061571121216,-0.10500691086053848,-0.05747494101524353,0.01086400356143713,0.007995760068297386,0.029774071648716927,-0.1173185259103775,-0.03643878176808357,-0.1387074589729309,-0.260943740606308,0.16103699803352356,-0.0128838662058115,-0.04090114310383797,0.099442258477211,-0.04141607508063316,-0.1226952075958252,0.08621527999639511,-0.16086764633655548,-0.008095409721136093,-0.030187765136361122,-0.0001956092892214656,-0.04417482390999794,0.10139579325914383,-0.0018413267098367214,0.0529293566942215,0.1967669427394867,-0.1025332659482956,-0.09504159539937973,-0.12692245841026306,0.005298063158988953,0.12613284587860107,-0.09696336090564728,0.048864200711250305,-0.02585427649319172,0.10973608493804932,-0.008933942764997482,-0.033884044736623764,-0.018654732033610344,0.02344861812889576,-0.008390421979129314,0.040621284395456314,-0.15285348892211914,0.16592703759670258,0.09161827713251114,-0.04591132327914238,-0.012114215642213821,0.02914654277265072,0.051434241235256195,0.04039018228650093,0.07351140677928925,0.024961987510323524,-0.0374067984521389,-0.016651589423418045,-0.003289134707301855,-0.011292269453406334,-0.07790682464838028,-0.024117952212691307,0.11353471875190735,0.03712785989046097,-0.041278257966041565,0.040687188506126404,0.05909954383969307,0.006702837999910116,-0.07906515896320343,0.14204995334148407,-0.06145817041397095,-0.09952252358198166,-0.010348157025873661,0.013939853757619858,0.04320308566093445,-0.10142545402050018,0.022352594882249832,0.04313161224126816,-0.001761761261150241,0.15437325835227966,-0.07509591430425644,-0.0034696601796895266,0.029297756031155586,0.020829740911722183,0.05730888992547989,0.12243480235338211,-0.21986253559589386,0.055231671780347824,0.004535867366939783,-0.1457234025001526,-0.00298750726506114,0.2142353653907776,-0.04372214525938034,-0.030989568680524826,-0.02762708254158497,0.009016245603561401,0.08603993058204651,-0.0023657039273530245,0.010450485162436962,-0.048816390335559845,-0.021577483043074608,0.013529201969504356,-0.035507429391145706,0.011216972023248672,0.04886326566338539,-0.0558880977332592,0.08807016164064407,0.002752847271040082,-0.08828171342611313,-0.014126624912023544,0.07972022145986557,-0.07528693228960037,0.07894055545330048,-0.041026558727025986,0.05206764116883278,0.05855593830347061,-0.1585870087146759,-0.04901055619120598,-0.003586764447391033,0.07660288363695145,-0.04396733269095421,0.005602479446679354,-0.040930259972810745,-0.104652039706707,-0.007968945428729057,0.054168179631233215,0.002751431427896023,0.06960485130548477,-0.09293872863054276,0.07656607031822205,-0.10980876535177231,0.007607728708535433,0.010475116781890392,-0.15154926478862762,-0.015568836592137814,0.02073420025408268,-0.007059461437165737,0.028682369738817215,0.07784874737262726,-0.031036408618092537,0.06461326032876968,-0.060508258640766144,0.02924288809299469,-0.04631774127483368,0.034345317631959915,-0.01917412132024765,-0.07185866683721542,-0.15032553672790527,-0.09856627881526947,0.025517212226986885,0.025583546608686447,-0.10824201256036758,0.07140092551708221,0.08195625245571136,0.06135609745979309,-0.03776350989937782,-0.09667199105024338,0.015927089378237724,-0.11609692871570587,0.053091246634721756,-0.042792998254299164,-0.031637612730264664,0.1171969622373581,-0.045741353183984756,0.03627993166446686,-0.03548499196767807,0.01017543114721775,-0.08139288425445557,-0.09543566405773163,-0.014831040054559708,0.018255863338708878,0.002638675970956683,0.13487321138381958,-0.04925065115094185,0.03136279806494713,-0.09196443110704422,-0.04844273254275322,0.06348232179880142,0.051971156150102615,-0.0033698456827551126,0.027259239926934242,0.06353405863046646,0.008062328211963177,0.023896345868706703,0.04381365701556206,0.01848236471414566,-0.0056296102702617645,0.26257261633872986,0.061444349586963654,-0.024091113358736038,0.05278011038899422,-0.004544271156191826,-0.008055422455072403,0.033719491213560104,0.11815059185028076,0.027476102113723755,-0.08738137781620026,0.05817251652479172,-0.01494687795639038,0.005868372041732073,-0.049584075808525085,-0.04226304218173027,-0.03862776234745979,0.09851080924272537,0.03234448656439781,0.04595452919602394,0.08098287135362625,0.0071059842593967915,0.11968452483415604,-0.045393653213977814,0.04223186522722244,0.02908339723944664,0.07844115793704987,-0.018206197768449783,0.033126115798950195,-0.06722860038280487,-0.0243966206908226,-0.11784330755472183,-0.024248866364359856,0.02386331558227539,0.08828095346689224,0.022851930931210518,-0.14954127371311188,-0.02430221252143383,-0.0070618330501019955,0.02018514834344387,-0.00681728683412075,0.08167736232280731,0.02454126626253128,-0.08782696723937988,-0.053116656839847565,0.03886973112821579,-0.0040262555703520775,0.038107577711343765,-0.02376890741288662,-0.053014691919088364,0.0498364120721817,-0.026341404765844345,-0.11657968163490295,0.08261387795209885,-0.028789807111024857,-0.03716578707098961,-0.009976173751056194,-0.05068294703960419,0.02090303599834442,-0.0706813707947731,-0.02320869266986847,0.07930026948451996,-0.054320596158504486,0.013893143273890018,0.09977549314498901,-0.1308809518814087,0.008038956671953201,0.08217228949069977,-0.05555306375026703,0.03591042757034302,-0.07695445418357849,0.19005776941776276,-0.05382637679576874,0.24706494808197021,0.05187506228685379,-0.058075226843357086,0.053579509258270264,0.05586055666208267,0.022493839263916016,-0.07902424037456512,-0.1136992946267128,0.1962253451347351,0.05392992123961449,-0.04891636595129967,0.10409515351057053,0.04131346940994263,0.009767664596438408,0.09993791580200195,0.03891197592020035,0.0020338259637355804,0.21270020306110382,-0.08519215136766434,0.11508136987686157,0.07244130969047546,0.014143534004688263,-0.0038874726742506027,-0.03890492022037506,-0.08634411543607712,-0.0363401398062706,-0.07756375521421432,-0.03076166659593582,0.049495331943035126,0.07565952092409134,-0.1660519689321518,0.02163088321685791,-0.045661862939596176,-0.003095436142757535,-0.007703862152993679,0.0063250139355659485,0.10535623133182526,-0.0035824228543788195,-0.0960250273346901,-0.09986376762390137,-0.024569422006607056,-0.2604396641254425,0.004201727919280529,0.07341795414686203,-0.1056055948138237,-0.07096914201974869
_RI5EYA_Pqw,-0.05151509493589401,0.008145814761519432,-0.01105837244540453,-0.044948019087314606,0.012428909540176392,0.13775502145290375,0.08661170303821564,-0.002980821533128619,-0.145701065659523,0.07204224914312363,0.04733501374721527,0.01529237162321806,0.03563065454363823,0.020105604082345963,0.11189605295658112,-0.22420169413089752,0.04653226211667061,0.06411883980035782,0.07871745526790619,0.10489171743392944,0.15003716945648193,-0.02353828214108944,0.07537481933832169,-0.05734582245349884,-0.07953330129384995,0.013900458812713623,0.006528375204652548,-0.05532157048583031,0.06382760405540466,0.009242846630513668,0.16668692231178284,0.04657623916864395,-0.016772469505667686,-0.009658602066338062,0.0011034131748601794,0.04495522752404213,-0.052374694496393204,-0.005224208813160658,-0.03896220773458481,0.012346556410193443,0.2469310760498047,-0.08158234506845474,-0.08481096476316452,0.010695314034819603,-0.13598571717739105,-0.11867691576480865,0.13487933576107025,0.10419703274965286,0.14056295156478882,-0.04932982102036476,-0.02185204066336155,-0.020947283133864403,-0.07839139550924301,0.11858967691659927,0.06848473846912384,-0.12175726145505905,-0.11117536574602127,0.027628090232610703,-0.02679332345724106,-0.007761082146316767,-0.08650865405797958,0.06954261660575867,-0.06193767860531807,-0.08540753275156021,-0.08018519729375839,-0.06684417277574539,-0.04765769839286804,-0.16579027473926544,-0.008366644382476807,-0.032742105424404144,0.14858074486255646,0.10556379705667496,-0.016022566705942154,0.09090815484523773,-0.08096365630626678,0.04897366836667061,-0.1930844634771347,-0.015042640268802643,0.0692068561911583,-0.010200771503150463,0.057699281722307205,0.1917932629585266,-0.14003083109855652,-0.08584688603878021,-0.10489748418331146,-0.0022374382242560387,-0.0011360780335962772,0.09039157629013062,-0.021736375987529755,-0.11809275299310684,0.07393495738506317,-0.023755371570587158,-0.030966663733124733,-0.05946395546197891,0.16739991307258606,0.05033155530691147,0.06074942275881767,0.021632259711623192,-0.008686492219567299,-0.1184956505894661,0.05220388248562813,0.21711985766887665,-0.06744803488254547,0.1713613122701645,-0.06367920339107513,-0.02590658888220787,-0.028943007811903954,0.075237937271595,-0.181854248046875,-0.0295824334025383,0.09957310557365417,-0.0007654062937945127,-0.07604832947254181,0.11908911913633347,-0.0836041122674942,-0.11079289764165878,-0.036946386098861694,0.10656867921352386,-0.03284401074051857,0.03460821136832237,0.07298830896615982,-0.09142255038022995,0.028979312628507614,0.03621834143996239,-0.022055355831980705,0.05948907881975174,-0.09952396154403687,0.08629043400287628,-0.013755369931459427,-0.055047016590833664,-0.0624123252928257,0.07870502024888992,-0.012618236243724823,0.017084529623389244,-0.01307519618421793,0.09442612528800964,0.04076283797621727,-0.1695530116558075,0.07011183351278305,0.05919317156076431,0.1276838630437851,0.05930211767554283,0.047008056193590164,-0.01233868021517992,-0.010338462889194489,0.09157814830541611,-0.046779438853263855,0.019888808950781822,-0.04083473980426788,0.08897893875837326,0.17025455832481384,0.1379116326570511,-0.021145736798644066,0.022060036659240723,0.004117742646485567,0.11916157603263855,0.032445646822452545,0.05727629363536835,-0.09473101049661636,0.031416866928339005,-0.03174388408660889,-0.0352763906121254,-0.047806791961193085,0.0461835078895092,0.039570026099681854,0.11778189986944199,-0.29309502243995667,-0.13051220774650574,0.1593158096075058,-0.050295207649469376,-0.09916774928569794,-0.048735737800598145,0.009090603329241276,-0.038276053965091705,0.15158326923847198,-0.002824208466336131,0.031372811645269394,-0.07202740758657455,-0.0247273538261652,0.02178538776934147,0.0036043506115674973,0.1823006272315979,0.14848190546035767,0.16163495182991028,0.15455743670463562,0.024040818214416504,0.06882297247648239,-0.10825615376234055,-0.02214696630835533,-0.06881146132946014,0.1580112874507904,0.026819894090294838,0.09006786346435547,0.11759580671787262,0.030463526025414467,-0.006846454925835133,-0.0397183783352375,-0.17611943185329437,0.10004463791847229,0.10795305669307709,-0.024104226380586624,-0.2539469003677368,0.027257172390818596,0.030753005295991898,-0.012350461445748806,0.13449518382549286,0.006796803325414658,-0.05701427906751633,0.24292424321174622,0.02812676690518856,0.21932876110076904,0.0739639475941658,-0.012778723612427711,0.00535446684807539,-0.05078108608722687,-0.07454538345336914,0.06584382802248001,0.057025711983442307,-0.14168128371238708,0.07359244674444199,0.05960794910788536,0.1020820364356041,-0.0659690648317337,-0.04110204055905342,0.10299000889062881,0.07488787919282913,0.03316432982683182,-0.02828461304306984,-0.041755590587854385,0.010700608603656292,0.08401744067668915,0.04386693611741066,0.09541728347539902,-0.013336080126464367,-0.026478059589862823,0.22524408996105194,0.0019911567214876413,0.179861381649971,0.031626444309949875,-0.5219141840934753,0.04906013607978821,0.11795111745595932,0.02325425110757351,0.03800740838050842,0.30684220790863037,-0.0732513964176178,0.04092666506767273,-0.051545388996601105,0.034606847912073135,0.03273596987128258,0.11199091374874115,0.07870543748140335,-0.0397866852581501,-0.14751702547073364,0.10751622915267944,0.0009482618188485503,-0.1411437839269638,0.08611641824245453,0.26010608673095703,0.10248129814863205,0.03007955476641655,0.022685911506414413,0.004127325490117073,-0.06820730865001678,-0.07235796749591827,-0.03940388560295105,0.1352493315935135,-0.09478358179330826,-0.014229810796678066,-0.08710121363401413,-0.0027281397487968206,-0.02628197893500328,-0.028443394228816032,-0.09030785411596298,0.019813740625977516,0.013556445948779583,-0.22416181862354279,-0.08545409142971039,-0.10568885505199432,-0.00014309441030491143,0.03300086036324501,-0.04885362833738327,-0.0007628985913470387,-0.053954578936100006,-0.06419511139392853,0.049150250852108,-0.04508475586771965,-0.20218698680400848,0.13902510702610016,-0.14688289165496826,0.030414247885346413,-0.027931539341807365,-0.10351940244436264,0.08360008895397186,0.04947718605399132,-0.007860912010073662,-0.2751632332801819,-0.0951324924826622,-0.03608398884534836,0.10667499899864197,-0.033537521958351135,0.04673857241868973,-0.029950158670544624,-0.04992102086544037,-0.044840943068265915,-0.14625687897205353,0.07760655134916306,-0.09603524953126907,0.10563744604587555,-0.03990459442138672,-0.00010564538388280198,0.007469469215720892,0.01205340027809143,0.2805333435535431,-0.11916579306125641,0.054874662309885025,-0.09433627873659134,0.008449796587228775,0.014931761659681797,0.2656256854534149,0.14316387474536896,-0.06945697218179703,-0.04569161310791969,0.025777311995625496,0.0019238153472542763,0.10763874650001526,0.02889438159763813,-0.09232586622238159,0.014794486574828625,-0.028681555762887,0.04720473289489746,-0.09984959661960602,-0.008386039175093174,-0.010251780040562153,0.11714335530996323,0.03612304478883743,0.0726371482014656,0.1255185306072235,-0.06702560931444168,-0.01363648846745491,-0.08373336493968964,0.011310561560094357,0.010130167938768864,0.08119256794452667,-0.1692020297050476,0.11007954180240631,0.13103371858596802,0.17668034136295319,-0.05290965735912323,0.06436829268932343,-0.12495407462120056,0.004017284605652094,-0.12099488824605942,0.0058703431859612465,-0.016634643077850342,-0.21786770224571228,0.019701892510056496,0.15647746622562408,-0.13547594845294952,0.12381067872047424,-0.035417888313531876,-0.002346827182918787,-0.10881125181913376,0.034618768841028214,-0.10059365630149841,0.15391471982002258,0.04294608533382416,0.05866977199912071,-0.07971776276826859,-0.03570270910859108,-0.09783712774515152,-0.10001330077648163,0.1377543807029724,0.102456234395504,0.06817705184221268,-0.12720079720020294,-0.007422660011798143,-0.1884351521730423,-0.34392300248146057,0.004270019009709358,0.04083568975329399,-0.26229411363601685,0.21128465235233307,0.08681236952543259,0.02937910705804825,0.12398749589920044,-0.10686696320772171,0.04421500861644745,0.21844793856143951,0.020858509466052055,0.05631992593407631,-0.21870674192905426,-0.11344268172979355,-0.06769914925098419,0.0442153625190258,0.05957436561584473,-0.13159184157848358,-0.037102896720170975,0.045740511268377304,-0.007968979887664318,-0.05299283564090729,0.3380644917488098,-0.14341942965984344,0.09715038537979126,0.07859982550144196,0.17571130394935608,0.05276259779930115,-0.009305979125201702,-0.014703827910125256,-0.24392853677272797,-0.036512140184640884,-0.3348422646522522,0.04178467392921448,0.08563712239265442,-0.142324760556221,-0.18736682832241058,-0.027052029967308044,-0.11676686257123947,-0.026451969519257545,0.09608544409275055,0.04781748354434967,-0.030795054510235786,0.02165854535996914,-0.034757453948259354,0.06324783712625504,-0.09499337524175644,0.031187957152724266,-0.01712111569941044,0.014069559052586555,0.016661904752254486,0.0484008751809597,0.0021927920170128345,-0.007535894867032766,0.10395894199609756,-0.14667387306690216,-0.20871451497077942,0.036618657410144806,0.07802513986825943,-0.1341971457004547,0.017598340287804604,0.10057568550109863,-0.026835348457098007,0.2442546933889389,0.023429924622178078,-0.005106199998408556,0.1429816484451294,0.09005661308765411,-0.14164626598358154,-0.06101080775260925,0.06473714858293533,-0.03920295834541321,-0.015510357916355133,-0.22395165264606476,-0.09920237958431244,-0.17727400362491608,-0.028709370642900467,0.22703054547309875,-0.14192895591259003,-0.02056686393916607,0.05587739497423172,0.06773033738136292,0.18202729523181915,-0.11921873688697815,0.0776674896478653,-0.05455603823065758,-0.30167555809020996,-0.09287706017494202,0.08225329220294952,0.0038506104610860348,-0.09305208921432495,0.11279361695051193,-0.11108647286891937,0.08869637548923492,0.05236754193902016,-0.07745375484228134,-0.06689868122339249,-0.2650141417980194,-0.07709828019142151,0.1261167675256729,0.01734963245689869,-0.09800505638122559,0.0012412936193868518,-0.09500470757484436,-0.2238706648349762,0.09100871533155441,-0.07190082967281342,-0.08181450515985489,-0.0831831842660904,0.0889035165309906,0.03866655007004738,0.04631087929010391,0.029718857258558273,0.06478840112686157,0.0591946542263031,-0.0975409597158432,-0.03211545944213867,-0.19333906471729279,-0.07610604912042618,-0.04954438656568527,-0.29914310574531555,-0.09036155045032501,0.07495621591806412,0.08017334342002869,-0.0261035468429327,0.010490269400179386,-0.011293156072497368,-0.005811797920614481,-0.0104318056255579,0.006828669458627701,-0.01113832276314497,0.1293160617351532,0.17541252076625824,0.06805185228586197,-0.008420734666287899,-0.012947631068527699,0.10162270814180374,0.08875133842229843,-0.021542005240917206,-0.09055185317993164,0.05691191181540489,0.036064263433218,0.05076555535197258,-0.031594306230545044,-0.0193222314119339,-0.22826115787029266,0.07102175801992416,0.06875075399875641,-0.02268308959901333,-0.032528676092624664,0.03231801092624664,0.07826831191778183,-0.06974790245294571,0.11725496500730515,0.02850772626698017,-0.0673774778842926,-0.03167036548256874,0.0506863072514534,0.09273131191730499,-0.12854616343975067,0.1113424077630043,-0.07007081806659698,-0.0456942580640316,-0.06888048350811005,-0.03885357454419136,0.16905267536640167,0.044325318187475204,0.09045317769050598,0.1528824120759964,-0.04095173627138138,-0.14620880782604218,0.024761788547039032,-0.026216203346848488,-0.14007212221622467,0.015002022497355938,0.16522756218910217,-0.05253328010439873,-0.0802263468503952,0.03285033628344536,0.050155896693468094,0.030929844826459885,-0.01408320665359497,-0.055141642689704895,0.015596889890730381,0.07925049215555191,0.08726825565099716,-0.14766037464141846,-0.029695434495806694,0.05692197382450104,0.02400452271103859,0.09384700655937195,0.010404104366898537,-0.14861539006233215,0.028985057026147842,0.04439638555049896,-0.05862140282988548,-0.06298351287841797,-0.032738011330366135,0.08182673156261444,0.06971471011638641,-0.27659720182418823,-0.04012933745980263,-0.031161325052380562,-0.025053033605217934,-0.05796224623918533,0.1405191719532013,-0.020332004874944687,-0.022033540531992912,-0.0016538250492885709,-0.015282089821994305,-0.06446391344070435,-0.021858161315321922,0.03385822847485542,0.12094742804765701,-0.14969392120838165,0.0781051442027092,0.060845497995615005,-0.07755203545093536,-0.03677309304475784,-0.004009742755442858,0.05687027797102928,-0.13796968758106232,0.09966670721769333,0.007152363657951355,0.040006302297115326,-0.0627710148692131,0.07475072145462036,-0.1642330288887024,0.015013333410024643,-0.12155535817146301,0.0029729455709457397,0.02930215559899807,-0.30094510316848755,0.046350035816431046,-0.04202579706907272,-0.17387396097183228,0.08098302781581879,0.11137107014656067,0.05527539178729057,-0.0011346926912665367,-0.07437687367200851,-0.03442041948437691,-0.040593601763248444,0.026513073593378067,-0.11819319427013397,0.040840424597263336,0.022670142352581024,0.061046767979860306,0.06864423304796219,0.08665818721055984,-0.1544061005115509,-0.15357956290245056,-0.15193115174770355,0.01250726729631424,0.012651984579861164,-0.10418175905942917,0.19235515594482422,0.030427375808358192,0.017954999580979347,-0.1262103021144867,0.006412488874047995,0.0340338833630085,0.03725234419107437,-0.03430734947323799,0.054919734597206116,0.014359163120388985,0.052991144359111786,-0.05375979095697403,0.043043654412031174,0.01770740933716297,-0.009067277424037457,0.3175338804721832,0.12978263199329376,-0.07872191816568375,0.09129307419061661,-0.00862538069486618,0.012604092247784138,0.01861746795475483,0.07452701777219772,0.006788371130824089,0.0014775546733289957,0.0961773470044136,-0.08991380780935287,-0.007627412211149931,-0.04866888374090195,-0.032038357108831406,-0.09177380055189133,0.000456514855613932,0.04766479879617691,0.03848819434642792,-0.045544348657131195,0.028536353260278702,0.028470881283283234,-0.12747743725776672,-0.07198290526866913,0.09623230248689651,0.029574889689683914,-0.013213267549872398,-0.06501379609107971,-0.13307398557662964,-0.028442546725273132,-0.1262328177690506,0.03934503346681595,-0.0349828340113163,0.025842681527137756,0.12924279272556305,-0.20020028948783875,-0.06065839156508446,-0.022294197231531143,0.07218794524669647,-0.02477574720978737,0.09649241715669632,-0.08035784214735031,0.19901426136493683,-0.030217232182621956,-0.04818447306752205,-0.05968152731657028,0.11055660247802734,0.027948811650276184,-0.12374817579984665,0.10979149490594864,-0.02277236245572567,-0.08177416026592255,0.10195612162351608,-0.1678290069103241,-0.019613103941082954,0.11121995747089386,-0.07142768055200577,0.0739523395895958,-0.05270998179912567,0.05593171343207359,0.18565629422664642,-0.02412448823451996,-0.014011325314640999,-0.018481412902474403,-0.1344679743051529,-0.03483875095844269,0.14434343576431274,-0.013562831096351147,0.06523691862821579,-0.0976286232471466,0.25049319863319397,-0.06323140859603882,0.07504738867282867,0.029525654390454292,0.06372232735157013,0.15366242825984955,0.08251815289258957,0.06443972140550613,0.004163192119449377,-0.1484818309545517,0.18473200500011444,0.05031077191233635,-0.1163659319281578,0.16194728016853333,0.039406102150678635,0.026667794212698936,0.02859264612197876,0.011458300985395908,0.06721262633800507,0.18442828953266144,-0.06175709515810013,0.04099210724234581,0.08600236475467682,0.0509321391582489,-0.06525925546884537,0.02704363688826561,-0.03726406395435333,-0.022274278104305267,-0.1008516177535057,-0.04909320920705795,0.11441415548324585,-0.007032213732600212,0.05944766104221344,0.09498376399278641,-0.02256772294640541,-0.01660875231027603,-0.005301436875015497,0.00786855723708868,0.10871167480945587,0.015569530427455902,-0.01212990377098322,-0.018467867746949196,-0.0206719022244215,-0.28333935141563416,0.06984186917543411,0.07213059812784195,0.0547499805688858,-0.09668683260679245
