link,0,1,2,3,4,5,6,7,8,9,10,11,12,13,14,15,16,17,18,19,20,21,22,23,24,25,26,27,28,29,30,31,32,33,34,35,36,37,38,39,40,41,42,43,44,45,46,47,48,49,50,51,52,53,54,55,56,57,58,59,60,61,62,63,64,65,66,67,68,69,70,71,72,73,74,75,76,77,78,79,80,81,82,83,84,85,86,87,88,89,90,91,92,93,94,95,96,97,98,99,100,101,102,103,104,105,106,107,108,109,110,111,112,113,114,115,116,117,118,119,120,121,122,123,124,125,126,127,128,129,130,131,132,133,134,135,136,137,138,139,140,141,142,143,144,145,146,147,148,149,150,151,152,153,154,155,156,157,158,159,160,161,162,163,164,165,166,167,168,169,170,171,172,173,174,175,176,177,178,179,180,181,182,183,184,185,186,187,188,189,190,191,192,193,194,195,196,197,198,199,200,201,202,203,204,205,206,207,208,209,210,211,212,213,214,215,216,217,218,219,220,221,222,223,224,225,226,227,228,229,230,231,232,233,234,235,236,237,238,239,240,241,242,243,244,245,246,247,248,249,250,251,252,253,254,255,256,257,258,259,260,261,262,263,264,265,266,267,268,269,270,271,272,273,274,275,276,277,278,279,280,281,282,283,284,285,286,287,288,289,290,291,292,293,294,295,296,297,298,299,300,301,302,303,304,305,306,307,308,309,310,311,312,313,314,315,316,317,318,319,320,321,322,323,324,325,326,327,328,329,330,331,332,333,334,335,336,337,338,339,340,341,342,343,344,345,346,347,348,349,350,351,352,353,354,355,356,357,358,359,360,361,362,363,364,365,366,367,368,369,370,371,372,373,374,375,376,377,378,379,380,381,382,383,384,385,386,387,388,389,390,391,392,393,394,395,396,397,398,399,400,401,402,403,404,405,406,407,408,409,410,411,412,413,414,415,416,417,418,419,420,421,422,423,424,425,426,427,428,429,430,431,432,433,434,435,436,437,438,439,440,441,442,443,444,445,446,447,448,449,450,451,452,453,454,455,456,457,458,459,460,461,462,463,464,465,466,467,468,469,470,471,472,473,474,475,476,477,478,479,480,481,482,483,484,485,486,487,488,489,490,491,492,493,494,495,496,497,498,499,500,501,502,503,504,505,506,507,508,509,510,511,512,513,514,515,516,517,518,519,520,521,522,523,524,525,526,527,528,529,530,531,532,533,534,535,536,537,538,539,540,541,542,543,544,545,546,547,548,549,550,551,552,553,554,555,556,557,558,559,560,561,562,563,564,565,566,567,568,569,570,571,572,573,574,575,576,577,578,579,580,581,582,583,584,585,586,587,588,589,590,591,592,593,594,595,596,597,598,599,600,601,602,603,604,605,606,607,608,609,610,611,612,613,614,615,616,617,618,619,620,621,622,623,624,625,626,627,628,629,630,631,632,633,634,635,636,637,638,639,640,641,642,643,644,645,646,647,648,649,650,651,652,653,654,655,656,657,658,659,660,661,662,663,664,665,666,667,668,669,670,671,672,673,674,675,676,677,678,679,680,681,682,683,684,685,686,687,688,689,690,691,692,693,694,695,696,697,698,699,700,701,702,703,704,705,706,707,708,709,710,711,712,713,714,715,716,717,718,719,720,721,722,723,724,725,726,727,728,729,730,731,732,733,734,735,736,737,738,739,740,741,742,743,744,745,746,747,748,749,750,751,752,753,754,755,756,757,758,759,760,761,762,763,764,765,766,767
pEzUwS8Nab0,0.07667412608861923,-0.12148837745189667,-0.014667782001197338,-0.059845197945833206,0.015435278415679932,0.003021169686689973,0.1220020279288292,0.08304503560066223,0.08660914748907089,0.023433392867445946,0.015413083136081696,0.08414594829082489,-0.008132333867251873,0.1404644250869751,0.06290111690759659,-0.05506366118788719,0.010220775380730629,0.06722946465015411,0.04740530997514725,0.05546976253390312,0.13282953202724457,0.00175226922146976,0.04782870411872864,0.0792199969291687,-0.16601327061653137,-0.06898762285709381,0.10753843188285828,0.014592975378036499,0.1330651044845581,-0.10826314240694046,0.11472731828689575,-0.03442910686135292,0.07463138550519943,-0.06716068089008331,0.06765805929899216,0.026327913627028465,-0.014511862769722939,0.028230691328644753,0.010722020640969276,0.11044833064079285,0.2828274965286255,-0.19462457299232483,0.03498772531747818,0.06094023585319519,-0.08583521842956543,0.006093055009841919,0.023269936442375183,-0.09532628208398819,0.0268265251070261,0.08656581491231918,-0.011934312991797924,0.10502659529447556,-0.019814258441329002,0.1703689992427826,0.09608449786901474,0.011515173129737377,-0.03062012419104576,0.004769503604620695,0.08702338486909866,-0.1605454981327057,0.021118348464369774,0.045679401606321335,-0.1264229267835617,-0.0311211496591568,-0.0004346305795479566,-0.0014494321076199412,-0.015487474389374256,-0.18619590997695923,-0.017567738890647888,0.0899561420083046,0.002872785786166787,0.04278256744146347,-0.11451373249292374,0.08901871740818024,-0.024580974131822586,0.08627168834209442,-0.08729977160692215,0.005605052225291729,0.01928889751434326,0.0023963276762515306,0.015225343406200409,-0.02501213364303112,0.02695338800549507,-0.03542640432715416,0.06691405922174454,0.2752436101436615,0.07038985192775726,0.1640830934047699,-0.02889365144073963,-0.09700362384319305,0.05772491544485092,-0.014798782765865326,-0.022312166169285774,0.01759948767721653,0.01908218115568161,-0.016904836520552635,0.015327388420701027,0.010702066123485565,0.03034702129662037,-0.018136218190193176,0.026845481246709824,0.02699192240834236,-0.15909415483474731,0.07581701129674911,0.010812369175255299,-0.23297590017318726,0.11154524981975555,-0.029493186622858047,0.0775068923830986,0.006790956016629934,0.19003205001354218,-0.02964906021952629,0.013442368246614933,0.10294391959905624,-0.19398842751979828,-0.030132317915558815,-0.08147013932466507,-0.041078511625528336,-0.10492587834596634,-0.02103746496140957,0.2273978739976883,-0.03809134289622307,-0.04817457124590874,-0.0050775171257555485,-0.04477708786725998,-0.0002388396969763562,0.051400426775217056,0.0785549134016037,-0.06281127035617828,-0.13318930566310883,-0.019519401714205742,0.047167882323265076,-0.09288976341485977,-0.06168088689446449,-0.028568189591169357,0.004952806979417801,0.08136747032403946,-0.016035085543990135,0.07039839774370193,0.06564436107873917,0.00046463310718536377,-0.03693866357207298,-0.06096500903367996,0.07683341205120087,0.04311947897076607,-0.05043463036417961,0.1057593822479248,-0.046815093606710434,-0.09213860332965851,-0.03330211341381073,0.07779612392187119,0.09225814044475555,-0.055949997156858444,-0.02661031298339367,0.06400206685066223,0.017223581671714783,0.004553879611194134,-0.18208852410316467,-0.03778340667486191,-0.03666314482688904,0.01420503854751587,-0.0919928252696991,-0.034352172166109085,-0.06135512888431549,0.022180665284395218,0.12440639734268188,0.0018612302374094725,0.016691163182258606,0.10550606995820999,-0.0414540059864521,-0.017079930752515793,0.0392729714512825,0.009208952076733112,0.01645534113049507,0.005041786469519138,0.08253034204244614,-0.0728885680437088,-0.11518888920545578,-0.050583869218826294,0.00618648249655962,0.02833598107099533,0.046498123556375504,0.05487040430307388,-0.0025058838073164225,-0.0822315439581871,0.031498391181230545,0.03095652163028717,0.10609017312526703,-0.06226366385817528,0.07270478457212448,0.06875136494636536,-0.10987094044685364,0.041176941245794296,0.003947505261749029,-0.05095718055963516,-0.024050651118159294,0.08398937433958054,-0.09396791458129883,0.09001259505748749,0.07467908412218094,0.014795327559113503,-0.20866753160953522,-0.10270937532186508,0.06748834997415543,-0.10822176188230515,0.047695305198431015,-0.11738456785678864,-0.023956716060638428,-0.0012049914803355932,0.03504501283168793,-0.057626873254776,-0.0362495481967926,0.09941140562295914,-0.017141787335276604,0.09438464790582657,-0.22137963771820068,0.06850526481866837,0.12713198363780975,-0.14444056153297424,0.0978580042719841,-0.0431675910949707,0.1550966054201126,0.008945041336119175,-0.01218479871749878,-0.12898176908493042,0.011513239704072475,0.05809898301959038,-0.11623243987560272,0.08156392723321915,-0.003998433705419302,0.018534645438194275,-0.009779930114746094,0.047582145780324936,-0.08607123047113419,-0.10456060618162155,0.0543481782078743,0.12316971272230148,-0.024317419156432152,0.015605024993419647,-0.28477388620376587,-0.03973608836531639,0.10295557975769043,-0.06282509118318558,-0.019252173602581024,-0.029293274506926537,0.02013327181339264,-0.08605408668518066,0.02390395477414131,-0.03004152700304985,0.0955207347869873,0.06426075845956802,0.051602400839328766,-0.09951382875442505,0.14115257561206818,-0.1206035166978836,0.20708218216896057,-0.0856986865401268,-0.24531424045562744,0.11898233741521835,0.049977950751781464,0.07549261301755905,0.08416683971881866,0.05465420335531235,-0.09060739725828171,-0.02967206761240959,0.011206398718059063,0.13352249562740326,-0.13706965744495392,0.04718422889709473,-0.023928696289658546,-0.04417676851153374,-0.0727333202958107,-0.019297823309898376,0.0019831315148621798,-0.04075044021010399,-0.07830186188220978,-0.1543443650007248,0.011137107387185097,-0.059216566383838654,-0.005750437267124653,-0.0088728042319417,-0.053124602884054184,-0.11577142775058746,-0.01063732523471117,0.020657945424318314,0.06952691823244095,-0.028443533927202225,0.04222332313656807,0.060974568128585815,-0.05165822431445122,0.032692376524209976,0.027017049491405487,-0.056764841079711914,0.002671661553904414,-0.04342516511678696,0.04774622991681099,-0.0763249546289444,-0.05477406829595566,-0.02473289892077446,0.02119278535246849,-0.005583273246884346,0.13848894834518433,-0.04991600662469864,-0.048618119210004807,-0.04446926712989807,-0.1061420664191246,-0.010712073184549809,-0.0802220031619072,0.07221004366874695,-0.006917632184922695,0.01796453259885311,-0.09476200491189957,-0.007805977948009968,0.12600010633468628,0.0018691938603296876,0.06470968574285507,0.2454640120267868,0.0707644671201706,0.01363882515579462,-0.03376362472772598,0.10976090282201767,-0.09921129792928696,0.07520242035388947,0.1058766096830368,-0.03100038319826126,-0.17780950665473938,-0.054610054939985275,-0.002414839342236519,-0.06486493349075317,-0.11382203549146652,-0.02644355222582817,-0.11484649777412415,0.012524525634944439,0.06307794153690338,-0.04140343517065048,0.10318656265735626,0.007158362306654453,0.035799916833639145,-0.04448645934462547,0.06866665184497833,0.052427954971790314,-0.021935828030109406,-0.0054973214864730835,-0.0017859145300462842,0.005266737658530474,0.03665924072265625,0.15409624576568604,0.14542298018932343,0.0006271412712521851,0.02344796620309353,0.012387854978442192,0.09490837156772614,-0.03384493291378021,0.049578387290239334,-0.0278086606413126,-0.09354429692029953,-0.0741463452577591,-0.013624081388115883,-0.1848103106021881,0.1249568909406662,0.18497420847415924,-0.013768455013632774,-0.15781345963478088,-0.005246334243565798,0.08557123690843582,0.09116384387016296,-0.060474835336208344,0.008537910878658295,-0.07176556438207626,-0.08148563653230667,-0.04987095296382904,-0.002454273169860244,0.11628247052431107,0.012499367818236351,0.06001919135451317,-0.0353294238448143,0.008356073871254921,-0.08461829274892807,-0.14655718207359314,-0.0077203563414514065,-0.008240975439548492,0.08140943944454193,0.08769232034683228,-0.02004670538008213,-0.034103263169527054,0.08137490600347519,0.0030052156653255224,0.059221427887678146,0.25715988874435425,0.060837093740701675,0.10254304111003876,-0.15776903927326202,-0.14747795462608337,-0.022967306897044182,0.0009348541498184204,0.07877951115369797,0.12541724741458893,0.011207756586372852,0.025555042549967766,0.03139496594667435,-0.007438862230628729,0.041220538318157196,-0.2694656252861023,0.14312472939491272,0.10861004889011383,-0.05144188553094864,-0.008695164695382118,-0.01083280984312296,0.08959941565990448,0.07842159271240234,0.1503187119960785,-0.14863725006580353,0.05230723321437836,-0.03898622468113899,0.16286706924438477,-0.047962039709091187,0.07453015446662903,0.03752262145280838,0.10703951120376587,-0.0036737911868840456,0.04759065434336662,0.03513491526246071,-0.044768404215574265,-0.004646838176995516,0.030087072402238846,-0.08223345875740051,-0.012851688079535961,0.017855552956461906,-0.0009866616455838084,0.0836174264550209,0.018073461949825287,-0.0653453841805458,-0.06014195829629898,0.15099415183067322,-0.0665588527917862,-0.30909493565559387,0.14607657492160797,-0.1422881782054901,-0.0965883806347847,-0.0029940572567284107,-0.02406885288655758,-0.001430598902516067,0.13373064994812012,0.04093209281563759,0.022850051522254944,0.0036425672005861998,0.029029374942183495,0.020156795158982277,0.06312127411365509,0.14541542530059814,0.014254862442612648,0.08459137380123138,-0.20354105532169342,0.19440221786499023,0.03710320219397545,0.009179864078760147,0.05944987013936043,-0.015303284861147404,-0.05102301016449928,-0.022798629477620125,0.011341237463057041,0.3300134837627411,0.08167586475610733,0.03813134878873825,-0.0299040786921978,-0.14275343716144562,0.03338112682104111,-0.13700377941131592,0.00830446369946003,-0.033374492079019547,0.022952985018491745,0.01682444103062153,0.0870436280965805,0.03198452293872833,0.033173542469739914,-0.030649026855826378,0.0024636932648718357,-0.029880104586482048,0.09408322721719742,0.11117667704820633,0.015426523983478546,0.16604936122894287,-0.06777440756559372,-0.14308209717273712,0.04352966696023941,-0.009925096295773983,0.07802177965641022,-0.050013042986392975,0.002109566703438759,0.08389957249164581,0.007754356134682894,0.10121570527553558,0.06587757915258408,0.14063146710395813,-0.06751164048910141,0.11355546116828918,-0.021515920758247375,-0.08345141261816025,-0.02082952857017517,-0.04766976833343506,0.08395659923553467,-0.023471977561712265,0.027758829295635223,0.10233359783887863,-0.09833454340696335,-0.07774973660707474,-0.010324759408831596,-0.04615684226155281,0.022046130150556564,-0.041017062962055206,0.06901857256889343,0.046683311462402344,-0.019636496901512146,0.1910678595304489,0.0734403058886528,0.11516682058572769,-0.004889489617198706,-0.09776129573583603,0.14006826281547546,0.049930691719055176,0.019332541152834892,-0.029775578528642654,0.00035968326847068965,-0.05344215780496597,0.020795762538909912,0.09680680930614471,0.05844574049115181,-0.050378695130348206,-0.0928187146782875,0.0830828920006752,0.0812324658036232,-0.1224856823682785,0.02179231122136116,-0.04857372120022774,-0.10144853591918945,0.038431741297245026,-0.04231328144669533,-0.056080933660268784,-0.049014702439308167,-0.061553530395030975,-0.046848006546497345,-0.07725048810243607,-0.028254853561520576,-0.020511265844106674,0.05019424855709076,-0.04685346037149429,-0.04406949132680893,-0.040926434099674225,-0.04389415681362152,-0.14339590072631836,0.03910461813211441,0.21846844255924225,0.05379090458154678,-0.03216910362243652,0.010751120746135712,-0.09105226397514343,-0.00045174878323450685,0.07023700326681137,-0.03601718321442604,0.07950437813997269,0.03630441054701805,0.10186539590358734,-0.008492209948599339,-0.021244831383228302,0.1078425869345665,-0.005649741739034653,0.024051640182733536,0.041810937225818634,0.029949957504868507,0.08103673905134201,-0.0777733251452446,-0.02975129522383213,-0.0007350314990617335,0.05125419422984123,0.004930737428367138,0.06158214062452316,-0.08410497009754181,0.06132117658853531,-0.06350041180849075,-0.013452598825097084,-0.01787690259516239,0.04698178917169571,0.05892758443951607,-0.11408491432666779,-0.11293969303369522,0.0477738231420517,-0.10682844370603561,-0.051991891115903854,0.02075263485312462,0.1491890847682953,0.005597937386482954,-0.07185579091310501,0.03848448768258095,0.02681898884475231,-0.10393916070461273,0.04433232918381691,-0.1567915976047516,0.03581109270453453,-0.13066048920154572,0.03192223235964775,-0.06261079758405685,0.04993352293968201,-0.0070833791978657246,-0.045989710837602615,-0.08507400006055832,-0.04582718014717102,0.001981285633519292,0.0469871386885643,0.07941917330026627,0.016625700518488884,0.07144954055547714,-0.0015648301923647523,0.045760102570056915,0.09376184642314911,-0.11031590402126312,-0.07483675330877304,-0.016479741781949997,-0.04877036437392235,-0.02238173596560955,0.00017373879381921142,-0.21133331954479218,-0.10202658921480179,-0.15291796624660492,0.03977100923657417,-0.02875712141394615,0.006706726271659136,-0.10279522836208344,-0.05853070318698883,-0.03534829989075661,-0.10967352986335754,-0.15897537767887115,0.05365371331572533,0.06424868851900101,-0.038991689682006836,-0.10160800814628601,-0.00266235857270658,-0.07835392653942108,0.047857023775577545,0.1098393052816391,-0.02346581220626831,-0.09662880748510361,0.20281265676021576,0.02911377139389515,0.09675155580043793,0.030499504879117012,-0.04241684079170227,-0.02347167395055294,0.0029804715886712074,-0.026073554530739784,0.060478780418634415,0.20227448642253876,-0.08382458984851837,-0.04892974719405174,0.053081486374139786,-0.036275334656238556,-0.03801355138421059,-0.09419963508844376,0.01576959900557995,-0.08071918040513992,0.058324046432971954,0.02633088268339634,-0.1184123083949089,0.006578342989087105,-0.06173402816057205,-0.036890897899866104,-0.012910611927509308,-0.03408272936940193,-0.0014294327702373266,-0.014587932266294956,0.13393808901309967,0.02038431726396084,0.0626160129904747,-0.008022909983992577,0.1702173799276352,0.04028867185115814,0.008318997919559479,-0.031209779903292656,-0.03511108085513115,0.025137053802609444,-0.05709114298224449,-0.12764321267604828,0.010919897817075253,0.07919246703386307,0.049712441861629486,0.10845126956701279,-0.04875263571739197,0.014930611476302147,-0.012641035951673985,0.019615406170487404,-0.0513419583439827,0.09987330436706543,-0.0413234680891037,-0.05188491940498352,0.0898689478635788,-0.041671525686979294,-0.017970597371459007,-0.006459109019488096,-0.14156615734100342,-0.2232409566640854,0.09814612567424774,-0.05208549275994301,0.007215107325464487,0.01815681904554367,0.00928712822496891,-0.04192357882857323,0.1110951378941536,-0.1519099920988083,0.0543079674243927,-0.002400012221187353,-0.1134023666381836,0.13057097792625427,0.06952711939811707,-0.046337712556123734,0.10149094462394714,0.0284308809787035,-0.007703848648816347,0.02484091743826866,-0.05829315632581711,0.06577207893133163,-0.042503632605075836,0.17172957956790924,-0.0233618151396513,0.04610016942024231,-0.029133543372154236,-0.10672207176685333,-0.00911655742675066,0.10179667174816132,-0.03151598572731018,0.08983772993087769,-0.06867212057113647,0.26093876361846924,-0.08291339129209518,0.03633272275328636,-0.04011576995253563,0.00020316890731919557,-0.06643632799386978,0.0030890125781297684,0.028619514778256416,0.04750854894518852,0.09942160546779633,-0.10390252619981766,-0.0004998963559046388,0.11339627206325531,0.028848987072706223,-0.060035571455955505,0.029255468398332596,-0.00609736330807209,0.12880893051624298,-0.035469792783260345,-0.08164187520742416,0.02231179177761078,0.051458463072776794,-0.12644967436790466,-0.005188959185034037,-0.1299797147512436,-0.1063261330127716,-0.08697231858968735,0.06403841823339462,-0.0358903743326664,-0.020650122314691544,-0.0397522933781147,-0.06915103644132614,0.02565033733844757,-0.04310344532132149,0.10102640092372894,-0.04153308644890785,-0.095913827419281,-0.051086992025375366
WSDytmxaUtM,0.05814807116985321,0.07938265055418015,-0.014220134355127811,0.02754790522158146,0.06342969834804535,0.01284508965909481,-0.03409118950366974,0.10000396519899368,0.05142826959490776,0.1005108430981636,0.04085156321525574,0.1384759247303009,-0.03347406163811684,-0.004128348082304001,0.000962784281000495,-0.16806557774543762,0.04093709588050842,0.15061230957508087,-0.10534293949604034,0.08294238150119781,0.10373624414205551,-0.030485032126307487,0.10252030938863754,0.04297255724668503,-0.13303707540035248,-0.06566327065229416,0.09977180510759354,0.05290400609374046,0.07466311007738113,-0.0775054320693016,0.02872415818274021,-0.0100631695240736,0.010434786789119244,-0.10514426976442337,0.027180438861250877,-0.03213728219270706,-0.04501200094819069,0.04087990149855614,-0.04584740474820137,0.027446825057268143,0.2594045400619507,-0.20108509063720703,-0.015093781985342503,0.0331491194665432,-0.0834944024682045,0.1182803064584732,0.006260803434997797,0.04477928578853607,0.013686442747712135,0.06344260275363922,0.021941639482975006,-0.020138105377554893,-0.09421563148498535,0.0685192123055458,0.03939305618405342,-0.021136751398444176,-0.061358898878097534,-0.16088904440402985,0.0020062557887285948,0.00513899140059948,-0.029829004779458046,-0.00789127591997385,-0.12436696887016296,-0.013972206972539425,-0.02397475577890873,-0.030178997665643692,0.04380635544657707,-0.11782088130712509,-0.02767787128686905,0.12320972234010696,0.05844392254948616,0.09679556638002396,0.02555212564766407,0.12688134610652924,-0.07254157215356827,0.054002951830625534,-0.11363516747951508,-0.07247277349233627,0.0721111074090004,0.05240574851632118,0.16986395418643951,0.05722802132368088,-0.026695163920521736,-0.01714436523616314,0.12118340283632278,0.10219954699277878,0.0817553699016571,0.09863761812448502,0.02490830048918724,-0.22881753742694855,0.10006578266620636,-0.050514016300439835,-0.016525426879525185,0.010752099566161633,0.12341611087322235,0.03958504647016525,0.14555291831493378,-0.05601034313440323,0.10540580749511719,-0.11307687312364578,0.0068486761301755905,0.1961175501346588,-0.08221428096294403,0.025670036673545837,-0.01760195940732956,-0.0654137060046196,0.05841419845819473,0.011294192634522915,0.046980120241642,0.04722806066274643,0.10805238783359528,-0.004782107193022966,-0.004126979503780603,0.028504502028226852,-0.15904885530471802,-0.09044651687145233,-0.12193330377340317,-0.04187007248401642,-0.11704306304454803,0.0022333201486617327,0.3106709122657776,-0.03862149640917778,-0.0011531311320140958,-0.061565954238176346,0.05408334732055664,0.20812936127185822,-0.02081836387515068,0.008203607052564621,0.02090391330420971,-0.19103267788887024,-0.06457944959402084,0.07477474212646484,-0.014698832295835018,0.10563118010759354,-0.03291625529527664,-0.030698776245117188,0.08358778804540634,-0.1253471076488495,0.07574813812971115,-0.007703534793108702,0.040736645460128784,-0.04453407600522041,-0.048829685896635056,0.06438953429460526,0.014664579182863235,-0.04081312194466591,0.14128459990024567,-0.06882507354021072,-0.017150485888123512,0.011033487506210804,-0.011233263649046421,0.04734592139720917,-0.04156191647052765,0.035749226808547974,0.03994978591799736,0.06204426288604736,-0.0019678184762597084,-0.027685722336173058,-0.038993220776319504,0.07445885986089706,-0.036540787667036057,-0.010289632715284824,-0.01038198359310627,-0.08588552474975586,-0.016438087448477745,0.06989628821611404,-0.0346897691488266,0.02896345779299736,0.06812577694654465,-0.055707041174173355,-0.1451200395822525,0.06791216135025024,-0.01815231889486313,0.1076764240860939,0.06670954823493958,0.12863442301750183,0.012021093629300594,0.06954919546842575,0.009830215014517307,-0.12314146757125854,-0.03255242481827736,0.07313130795955658,-0.03254663199186325,0.05444825813174248,-0.13906674087047577,0.06992491334676743,-0.06927749514579773,-0.05382200703024864,-0.014407848007977009,-0.03389968350529671,0.026763515546917915,-0.1173475906252861,-0.030984370037913322,-0.004681804683059454,0.03978919982910156,0.0033900621347129345,0.16115906834602356,-0.09157881885766983,0.0929943397641182,0.012693380005657673,0.020500360056757927,-0.08949387818574905,-0.004724692087620497,0.06353723257780075,-0.06604156643152237,0.07758769392967224,0.12407688796520233,0.05441593378782272,0.03769703209400177,-0.03530824929475784,-0.11679066717624664,-0.02359655313193798,0.025746094062924385,-0.003615533234551549,0.06175124645233154,-0.13920922577381134,0.051634352654218674,0.07552830874919891,-0.20250681042671204,0.1789059191942215,-0.01737646758556366,0.06627756357192993,-0.06488163769245148,-0.09815336763858795,-0.10964145511388779,0.003299113130196929,0.0007439349428750575,-0.062278468161821365,0.03623322397470474,-0.005627871491014957,0.014251839369535446,0.06623981893062592,0.059929098933935165,-0.06453943252563477,-0.1408749222755432,0.1021076962351799,0.15693587064743042,0.07026780396699905,0.014987457543611526,-0.2791631817817688,-0.049103736877441406,0.025681819766759872,-0.065358467400074,-0.038017161190509796,0.11226841807365417,0.008835861459374428,-0.004968077875673771,-0.019558468833565712,0.004719221033155918,0.05311275273561478,0.0700114443898201,0.10223603248596191,-0.08702625334262848,-0.008567338809370995,-0.021281983703374863,0.15944062173366547,-0.16251982748508453,-0.1037188470363617,0.17671076953411102,0.08345531672239304,0.08857005089521408,-0.010827885940670967,0.0812339186668396,-0.05999760702252388,0.08456262201070786,0.024705639109015465,0.07471393048763275,-0.18090887367725372,-0.011308135464787483,-0.029856769368052483,-0.02608690783381462,-0.035515524446964264,0.006918929051607847,-0.008354214951395988,-0.015747103840112686,-0.06118945777416229,-0.03506592661142349,-0.019880812615156174,-0.06859830021858215,0.0071322242729365826,0.037735626101493835,0.03596797212958336,-0.03825625404715538,0.08827760070562363,0.027002554386854172,0.06944124400615692,-0.08806214481592178,0.05754027143120766,0.09390345215797424,-0.016217995434999466,0.08004365116357803,0.013911767862737179,-0.034923654049634933,-0.001791883842088282,-0.05433548614382744,0.08714191615581512,-0.07008732855319977,-0.04865707829594612,-0.051355984061956406,-0.09090722352266312,0.030153147876262665,0.10612741112709045,-0.04266007989645004,-0.023618316277861595,-0.005833857227116823,-0.04635227844119072,-0.01744155026972294,-0.09689890593290329,0.04827336221933365,0.0020956185180693865,0.015627192333340645,-0.06844297051429749,0.0822058618068695,0.06966246664524078,-0.04868432506918907,0.16317720711231232,0.09778976440429688,0.08185497671365738,0.11037296056747437,0.1327255368232727,0.04167276248335838,-0.10989785939455032,0.019471092149615288,0.0014323598006740212,-0.02933643013238907,-0.22570118308067322,0.003455673111602664,-0.03689000755548477,-0.11799520254135132,-0.11173112690448761,0.027869069948792458,-0.09050324559211731,0.11278378218412399,0.09750938415527344,0.0011460591340437531,-0.02249744161963463,-0.021293334662914276,0.0508556067943573,0.030855370685458183,0.04224240034818649,-0.02001858688890934,-0.03177172690629959,-0.01533358171582222,0.017028560861945152,0.01754520647227764,0.12476848810911179,0.16661883890628815,0.22747355699539185,0.038359180092811584,0.04853248596191406,-0.18840070068836212,0.025640983134508133,-0.029690589755773544,0.03275784105062485,-0.015246765688061714,-0.08430179208517075,0.010381079278886318,-0.014780305325984955,-0.1467154175043106,0.11431309580802917,0.15575571358203888,0.03879926726222038,-0.06488355249166489,-0.13294506072998047,0.24281172454357147,0.0872456356883049,-0.0646466314792633,0.004173643421381712,-0.027954192832112312,-0.025156470015645027,-0.1698705106973648,-0.007011239416897297,0.0639791414141655,0.04511724039912224,0.07623598724603653,0.006831454113125801,0.038990288972854614,-0.1001935750246048,-0.16749070584774017,0.05379558354616165,-0.02514556236565113,-0.037156570702791214,0.23352818191051483,0.018983809277415276,-0.03395675867795944,0.10812140256166458,-0.030405595898628235,0.03138279169797897,0.1590079665184021,0.003914069849997759,0.08771361410617828,-0.15447795391082764,-0.1636587381362915,-0.0031677312217652798,-0.028102267533540726,0.01242526713758707,0.09652120620012283,-0.09766172617673874,0.007831817492842674,-0.03540700301527977,0.017684662714600563,0.05323171988129616,-0.17905358970165253,0.051121123135089874,-0.025807254016399384,-0.021219175308942795,0.06905998289585114,0.019992562010884285,0.11585996299982071,-0.11399245262145996,-0.002243702532723546,-0.021054739132523537,0.01925165019929409,0.030476408079266548,0.046784766018390656,-0.07338231801986694,0.046968210488557816,0.05769745260477066,0.009763614274561405,-0.013259636238217354,0.008926908485591412,0.0030590950045734644,-0.0949741005897522,0.05646570399403572,-0.08505693823099136,-0.05306003987789154,0.16799430549144745,0.10484202206134796,-0.057581204921007156,0.05402834713459015,0.09171422570943832,-0.11312386393547058,-0.03526517003774643,0.11139395087957382,-0.027948763221502304,-0.2589675784111023,0.11798052489757538,-0.17423787713050842,-0.011078978888690472,-0.08873604238033295,-0.06717737019062042,-0.007629277650266886,0.102446049451828,-0.04650472477078438,0.05754370242357254,0.06588348001241684,0.01984380930662155,0.06196116656064987,-0.004786559846252203,0.15305177867412567,0.004360752180218697,0.009531686082482338,-0.21393905580043793,0.21446466445922852,0.057361941784620285,-0.0016234865179285407,0.005893603432923555,0.021763738244771957,0.04633936658501625,-0.1103573739528656,0.012892186641693115,0.20635464787483215,0.003761732717975974,0.03393595293164253,-0.00578612694516778,-0.06039027124643326,0.008420678786933422,0.0059367455542087555,-0.04969794675707817,-0.11300214380025864,-0.00942134764045477,-0.053451936691999435,0.08074624836444855,0.10771451145410538,0.05779542401432991,0.013114451430737972,0.026187676936388016,-0.12801606953144073,0.13639308512210846,0.1369856297969818,0.05697661265730858,0.06057381629943848,-0.020420197397470474,0.06755222380161285,0.08613701909780502,-0.09485864639282227,-0.042557597160339355,-0.0864405483007431,0.05381319671869278,0.028780454769730568,-0.0011321286438032985,0.07773825526237488,0.07701752334833145,0.1466478705406189,0.0011513055069372058,-0.004717638716101646,-0.13303954899311066,-0.1947782337665558,-0.0581434890627861,-0.10325789451599121,-0.07900089025497437,-0.062480103224515915,0.05292626470327377,-0.18645578622817993,-0.039861638098955154,-0.056707318872213364,-0.0561700277030468,0.04009859636425972,-0.02125984989106655,-0.05075378715991974,0.008944949135184288,0.01563909463584423,0.11443142592906952,-0.03338782116770744,0.01266562007367611,-0.00043475147685967386,0.05663714185357094,-0.15983474254608154,0.026480162516236305,0.019055603072047234,-0.012944136746227741,-0.010576947592198849,0.012088573537766933,-0.024891050532460213,-0.08039171248674393,0.17773474752902985,0.008162971585988998,-0.02095179818570614,-0.13217291235923767,0.12260621041059494,0.061226893216371536,-0.041490454226732254,0.11644602566957474,-0.011619742959737778,-0.07752250880002975,0.09563573449850082,-0.01985715515911579,0.09563984721899033,0.004650462884455919,-0.010327508673071861,-0.09211287647485733,-0.06576159596443176,-0.0035212088841944933,-0.03435646370053291,0.10865998268127441,-0.04366429150104523,-0.07029978930950165,-0.03419182449579239,-0.02053617313504219,-0.11642611771821976,0.04584559425711632,0.02177809178829193,-0.09730862826108932,-0.0033090657088905573,0.056301623582839966,-0.06385749578475952,-0.019037412479519844,0.10247492045164108,-0.016662705689668655,0.02586067095398903,0.14509791135787964,0.008485893718898296,-0.06981101632118225,-0.021706126630306244,0.11314582824707031,-0.059929125010967255,0.07563671469688416,0.03856527432799339,0.0005775161553174257,0.044131673872470856,0.007485833950340748,-0.004777302499860525,-0.07520155608654022,0.11127615720033646,-0.027708234265446663,-0.002718809526413679,-0.025202495977282524,0.10059744119644165,-0.005785702727735043,-0.10197620838880539,0.04296621307730675,0.15311622619628906,0.08548349142074585,-0.041951585561037064,-0.07037297636270523,0.001367637189105153,-0.10332752019166946,-0.042460985481739044,0.01042190846055746,0.05317240208387375,-0.06377819925546646,-0.0032643848098814487,-0.03400231897830963,0.01177010778337717,-0.05457310378551483,-0.026167938485741615,-0.16107048094272614,-0.018802624195814133,-0.12165597826242447,0.04440435394644737,-0.027284134179353714,0.014287568628787994,-0.056339070200920105,-0.09054795652627945,-0.07463164627552032,-0.1949806809425354,-0.024173466488718987,0.0021750100422650576,-0.0063123684376478195,0.07738853245973587,-0.040948014706373215,-0.16172175109386444,0.04509131610393524,0.1461699903011322,-0.09607493132352829,-0.06870593875646591,0.07536783814430237,0.032475795596838,-0.007004210725426674,0.021463990211486816,-0.17089936137199402,-0.11553369462490082,-0.09177467226982117,-0.16103345155715942,0.03304813429713249,0.07820563018321991,-0.047106098383665085,-0.023802027106285095,0.12056238949298859,-0.07989328354597092,-0.06509963423013687,-0.11542018502950668,-0.03302930295467377,0.027948029339313507,-0.11908480525016785,0.06651635468006134,-0.08421175181865692,0.08809345215559006,0.0707629844546318,-0.03831194341182709,-0.019212011247873306,0.1326630860567093,-0.01732788234949112,0.11514370143413544,0.03288646042346954,0.0432058610022068,-0.027894023805856705,-0.048296067863702774,-0.060001108795404434,0.013782615773379803,0.18900394439697266,0.18584051728248596,0.009208419360220432,0.04540276899933815,0.04185232147574425,-0.08503740280866623,0.00259429682046175,0.0211303923279047,-0.07146309316158295,0.024821769446134567,-0.01971529982984066,-0.03331508859992027,0.014245654456317425,-0.04913000017404556,-0.07944237440824509,-0.036199670284986496,0.013164919801056385,0.017199615016579628,-0.0002839550725184381,-0.04802754521369934,-0.02542959339916706,-0.0018953853286802769,-0.0333985835313797,0.15210112929344177,0.10013586282730103,0.09510914981365204,-0.04291907325387001,0.03388485312461853,0.08001639693975449,-0.1145387813448906,-0.07905975729227066,-0.03664598986506462,0.07633421570062637,0.016186365857720375,0.12193863093852997,-0.04260961338877678,0.056401725858449936,-0.00948281865566969,-0.00716771837323904,-0.036966823041439056,0.04766010493040085,-0.03045593947172165,-0.028439169749617577,0.05395876243710518,-0.10127918422222137,-0.15621225535869598,0.02220892161130905,-0.21780474483966827,-0.10405796021223068,0.17190712690353394,-0.07590259611606598,-0.0005627375212498009,-0.00773325702175498,0.04794248566031456,0.018592046573758125,-0.018128154799342155,-0.234005868434906,-0.006668915972113609,-0.05523425713181496,-0.240347757935524,0.17751583456993103,-0.024121524766087532,0.024338210001587868,0.03746297210454941,0.07863935083150864,0.05408517271280289,-0.06014415994286537,0.1123032197356224,0.09086952358484268,0.015850666910409927,0.12163149565458298,0.0154853081330657,-0.11058684438467026,-0.016539180651307106,0.042479876428842545,0.028927979990839958,0.08328945189714432,-0.04914725944399834,0.1650925725698471,-0.06546550989151001,0.14880497753620148,0.02262292616069317,-0.14584511518478394,0.05225398764014244,0.027674982324242592,-0.10710399597883224,0.01834726892411709,-0.06293745338916779,0.024450095370411873,0.17705892026424408,-0.08198332041501999,-0.004235259722918272,0.08334105461835861,0.0031539825722575188,-0.053626324981451035,0.042170438915491104,-0.03518879786133766,0.11839336156845093,-0.06063734367489815,-0.12134021520614624,0.08478138595819473,0.02006063051521778,-0.006353333126753569,0.007038242183625698,-0.08353541046380997,-0.1536729633808136,-0.08531002700328827,0.010140575468540192,-0.04127378389239311,-0.012862849980592728,-0.08567065745592117,0.03314638137817383,0.02389712817966938,-0.023954248055815697,0.040744516998529434,0.008574203588068485,-0.023301705718040466,-0.018895212560892105
tc6eKy24CRY,-0.009715331718325615,-0.05248226970434189,-0.012141305021941662,-0.042816367000341415,0.0634056106209755,0.06499923020601273,0.15328355133533478,0.020940076559782028,-0.059549909085035324,0.03360089659690857,0.12804386019706726,-0.0007867704262025654,0.057514190673828125,0.051299113780260086,0.10251486301422119,-0.11078711599111557,0.045447949320077896,0.04605695977807045,0.028015319257974625,0.09301155060529709,0.1148865595459938,0.019545668736100197,0.0743725448846817,-0.04449523612856865,-0.12352107465267181,-0.0349026620388031,0.034851547330617905,-0.014719441533088684,0.03840157017111778,0.07160164415836334,0.11603536456823349,-0.003864563535898924,0.024871859699487686,-0.021158410236239433,0.017020246013998985,0.012460594065487385,-0.05492587760090828,0.02029169537127018,-0.10533135384321213,0.036822766065597534,0.22852866351604462,-0.08795645087957382,-0.08998831361532211,0.011740871705114841,-0.08994513005018234,-0.026790481060743332,0.08834847062826157,0.10686332732439041,0.13573017716407776,0.020121505483984947,0.010095101781189442,0.07644485682249069,-0.050092559307813644,0.10591382533311844,0.040071163326501846,-0.07440555840730667,-0.12995335459709167,-0.006125318352133036,0.0030316731426864862,0.04333755001425743,-0.014768748544156551,0.06928718835115433,-0.022304436191916466,-0.08058328926563263,-0.1301264464855194,-0.0230450127273798,-0.04095360264182091,-0.07151375710964203,0.016917845234274864,-0.030978668481111526,0.14797161519527435,0.0826888456940651,0.036485668271780014,0.08837835490703583,-0.04275945574045181,0.020425599068403244,-0.06475790590047836,0.06334478408098221,-0.0305342935025692,0.01751113496720791,0.10943112522363663,0.11536331474781036,-0.059556279331445694,-0.10175125300884247,-0.1066124439239502,0.1194266602396965,0.008241969160735607,0.06919051706790924,-0.03683408722281456,-0.07941825687885284,0.07762879133224487,-0.008316044695675373,0.01684999093413353,-0.012519493699073792,0.09387372434139252,0.06630212068557739,0.024555031210184097,0.0198232289403677,-0.02437279000878334,-0.1537288874387741,0.01760595664381981,0.13457156717777252,0.059094276279211044,0.15077383816242218,-0.044895853847265244,-0.05121229216456413,-0.05299188569188118,0.05832657217979431,-0.009417829103767872,0.05121302604675293,0.08028687536716461,-0.026776045560836792,-0.09098374843597412,0.09220842272043228,-0.036289017647504807,-0.0721309706568718,-0.004394958261400461,0.10975603759288788,-0.02724909968674183,0.013598554767668247,0.11686746776103973,-0.08361290395259857,-0.027579864487051964,-0.011717523448169231,-0.043128978461027145,-0.05068715289235115,-0.001398898079060018,0.050198994576931,0.02076401747763157,-0.04523509740829468,-0.022251253947615623,0.02383611723780632,0.010223251767456532,0.03272978216409683,-0.02603466622531414,0.043143026530742645,0.022443462163209915,-0.14029660820960999,0.017029328271746635,0.04454288259148598,0.07148705422878265,0.060499418526887894,-0.020979851484298706,0.009319609962403774,0.01718333177268505,0.10566461086273193,-0.04607481136918068,0.05141559615731239,-0.030828669667243958,0.08672282844781876,0.11341901868581772,0.09253726154565811,-0.05313924700021744,0.03017941676080227,0.04275675490498543,0.09534406661987305,-0.013716534711420536,-0.007979223504662514,-0.091488316655159,0.02039940096437931,-0.03810177370905876,0.01138515304774046,-0.01668793149292469,0.05718700960278511,0.017223237082362175,0.02873665653169155,-0.18584635853767395,-0.1426549106836319,0.0752047523856163,-0.027777940034866333,-0.11818238347768784,0.001595378969796002,0.00510806730017066,0.019940268248319626,0.024327252060174942,0.019967125728726387,-0.05177293345332146,-0.05739918351173401,-0.035461194813251495,0.10249092429876328,-0.030135156586766243,0.07306341081857681,0.13306458294391632,0.09212676435709,0.028759701177477837,-0.0006362184649333358,0.041089147329330444,-0.00936698354780674,-0.030294839292764664,-0.03483647480607033,0.10253791511058807,-0.04845370724797249,-0.007056327071040869,0.06701347976922989,0.05528441444039345,-0.023053765296936035,-0.007738481275737286,-0.09640686959028244,0.07388679683208466,0.059223514050245285,0.0013000901089981198,-0.17349949479103088,-0.07688187062740326,-0.011182594113051891,0.019217491149902344,0.08552627265453339,-0.007611560635268688,-0.03730593994259834,0.11024648696184158,0.02354884333908558,0.016256971284747124,0.04858535900712013,-0.009895297698676586,0.021343955770134926,-0.045793335884809494,-0.015338389202952385,0.06557648628950119,0.027999412268400192,-0.11493925750255585,0.041521165519952774,0.0488063208758831,0.044621728360652924,0.013184234499931335,-0.051252227276563644,0.018180714920163155,0.06144034117460251,-0.012053641490638256,-0.023662084713578224,-0.01606019213795662,0.04803476110100746,0.015084168873727322,0.03289321810007095,0.06918618828058243,-0.03365045413374901,-0.12527552247047424,0.1791316419839859,-0.10864678770303726,0.1270349621772766,0.08317231386899948,-0.2935900390148163,0.06261904537677765,0.16206417977809906,-0.009263018146157265,-0.004959136247634888,0.2984135150909424,-0.08217297494411469,0.047548744827508926,-0.032478559762239456,0.06737542152404785,-0.015796255320310593,0.07057854533195496,0.04772448539733887,-0.0018512459937483072,-0.09216434508562088,0.06254955381155014,0.10357705503702164,-0.17118045687675476,0.11335127055644989,0.15889954566955566,0.08177072554826736,0.10246112197637558,-0.014789380133152008,0.027718639001250267,-0.05250215902924538,-0.06791166216135025,-0.02675948478281498,0.044290173798799515,-0.022267242893576622,-0.054810069501399994,-0.018548814579844475,0.01915896125137806,0.012882721610367298,-0.01585306040942669,-0.11415719240903854,0.019672930240631104,-0.01669158600270748,-0.21381165087223053,-0.012344008311629295,-0.08079534024000168,0.030646953731775284,0.03658519312739372,-0.029658006504178047,0.009244389832019806,-0.048378292471170425,-0.09664126485586166,0.0015516930725425482,-0.07344300299882889,-0.2202441394329071,0.05759270861744881,-0.09114258736371994,-0.017502138391137123,-0.019043678417801857,-0.06785397231578827,-5.2549476095009595e-05,0.03724873065948486,0.0008723070495761931,-0.13347885012626648,-0.05246500298380852,-0.029098037630319595,0.1459413319826126,-0.02115795388817787,0.06200791522860527,-0.10598848760128021,-0.0012768039014190435,-0.03215351700782776,-0.08933157473802567,0.062017861753702164,-0.11868935823440552,0.05468163266777992,-0.07996176183223724,0.04326725751161575,0.05587630718946457,0.038261063396930695,0.18726114928722382,-0.08512742072343826,0.10078353434801102,0.012926129624247551,-0.019542692229151726,0.0008072673226706684,0.21323101222515106,0.08126068115234375,-0.059225600212812424,-0.01581992208957672,-0.005015057511627674,-0.04779842868447304,0.10298311710357666,-0.017062081024050713,-0.09806916862726212,-0.007210940588265657,-0.047262754291296005,0.033682193607091904,-0.06870080530643463,-0.06380008161067963,-0.028306514024734497,0.04195786267518997,0.05793483927845955,-0.001836516777984798,-0.101285919547081,0.010176370851695538,0.022724870592355728,-0.08152549713850021,0.018213050439953804,0.05141666159033775,0.010108076967298985,-0.09511169046163559,0.06956181675195694,0.11800164729356766,0.10412897169589996,-0.022440603002905846,0.07671307772397995,0.001710742712020874,-0.02296750433743,-0.11525475978851318,-0.010412982665002346,-0.0015777229564264417,-0.1632007509469986,0.03152007982134819,0.05055844783782959,-0.04675978794693947,0.1339930295944214,-0.02595740370452404,0.0034949195105582476,-0.07531062513589859,-0.03284207731485367,-0.03865818306803703,0.061279475688934326,0.02203608676791191,0.025289667770266533,-0.04981135576963425,-0.008739352226257324,-0.04996276646852493,-0.018140286207199097,0.10042838752269745,0.13532353937625885,0.0747070163488388,-0.04409872367978096,0.029434124007821083,-0.06905529648065567,-0.23554174602031708,-0.0010070055723190308,0.03251832351088524,-0.24110613763332367,0.21190950274467468,0.0756194144487381,0.04389989376068115,0.07962892949581146,-0.070740707218647,0.036888666450977325,0.13026835024356842,0.012495176866650581,0.0757756233215332,-0.17902478575706482,-0.15490658581256866,-0.10371851176023483,0.026497112587094307,0.0701480507850647,-0.04859398677945137,-0.11869176477193832,-0.0007958263158798218,0.014378219842910767,0.03586988523602486,0.14925336837768555,-0.12028860300779343,-0.011922522448003292,0.034931812435388565,0.12406264245510101,0.03193278983235359,-0.03192155808210373,-0.0016017633024603128,-0.14095446467399597,-0.0038104664999991655,-0.27527767419815063,0.02845143713057041,0.05174591392278671,-0.09451287984848022,-0.14878521859645844,-0.03695059195160866,-0.10167200863361359,-0.059790678322315216,-0.03127632290124893,0.03272845223546028,-0.08731786161661148,0.04912352189421654,-0.052281755954027176,-0.0002536289393901825,-0.05927010253071785,0.039087433367967606,0.029420142993330956,0.021633509546518326,-0.0564388707280159,0.003983332775533199,-0.016808705404400826,-0.029132885858416557,0.0836307480931282,-0.0012553472770377994,-0.12495122849941254,0.002670134184882045,0.038134004920721054,-0.003815874457359314,0.028871675953269005,-0.02617870457470417,0.01281352061778307,0.20076337456703186,0.019778074696660042,0.023262200877070427,0.1442030519247055,0.10925452411174774,-0.18797042965888977,-0.1950998306274414,0.02321246638894081,-0.006154787726700306,-0.05466408282518387,-0.15061669051647186,-0.05630119889974594,-0.07487674802541733,0.006793370004743338,0.048642512410879135,-0.10768576711416245,-0.050856124609708786,0.03411161154508591,-0.026123495772480965,0.3159959316253662,-0.07866489887237549,0.06167057156562805,-0.07012208551168442,-0.12542973458766937,0.02964964136481285,0.02534213475883007,0.0013610337628051639,-0.039044298231601715,0.010254657827317715,-0.08940933644771576,0.045010779052972794,0.0614185594022274,-0.08495879918336868,-0.004988476634025574,-0.15558958053588867,-0.1524658501148224,0.05633065477013588,0.07799717038869858,-0.055925894528627396,-0.07147342711687088,-0.08261124789714813,-0.2105112224817276,0.04446087032556534,-0.06666148453950882,-0.033543337136507034,-0.04027252271771431,0.048152659088373184,0.04467647150158882,0.020640507340431213,0.005920201539993286,0.07585190236568451,0.049417637288570404,-0.042813096195459366,-0.026657845824956894,0.004005481954663992,-0.10337090492248535,-0.07627201825380325,-0.05278239771723747,-0.04908573254942894,0.06861964613199234,0.09747200459241867,-0.07344995439052582,-0.013150027021765709,-0.027793526649475098,-0.03319493308663368,-0.01275905966758728,0.030233114957809448,-0.018310708925127983,0.08028995245695114,0.1444110870361328,0.034696269780397415,-0.043257419019937515,0.01641327515244484,0.030650287866592407,0.09701887518167496,-0.03689960762858391,-0.03073362074792385,0.055517930537462234,0.062498241662979126,0.027463559061288834,-0.003801953513175249,-0.056744836270809174,-0.10675700753927231,0.056314416229724884,0.04688181355595589,-0.05968673899769783,0.03277144953608513,0.035419169813394547,0.06254159659147263,0.004326383117586374,0.0607941560447216,-0.016220105811953545,-0.06454979628324509,-0.023755958303809166,0.07652132958173752,0.12270643562078476,-0.09511642903089523,0.04543076828122139,-0.06263099610805511,-0.024768659844994545,-0.0101988036185503,-0.014974592253565788,0.07627711445093155,0.05601857975125313,0.028808126226067543,0.10564284026622772,-0.0028520540799945593,-0.06632565706968307,-0.0025338935665786266,-0.031156064942479134,-0.08067899197340012,0.029041379690170288,0.13680748641490936,-0.04484596848487854,-0.001789816771633923,-0.017319973558187485,0.051172878593206406,0.04592772200703621,-0.03430658578872681,-0.009943865239620209,0.013615014962852001,0.0651089996099472,-0.010969544760882854,-0.07673369348049164,-0.03218027576804161,0.05537507310509682,0.01615670882165432,0.042111847549676895,-0.012888780795037746,-0.0810512974858284,0.0018002891447395086,0.0642896369099617,-0.028433026745915413,0.004183940589427948,0.07823668420314789,0.06630253791809082,0.05567486956715584,-0.12494836747646332,-0.030440008267760277,-0.0222878847271204,-0.006435034330934286,0.0031730469781905413,0.13066598773002625,-0.026097122579813004,0.02367919124662876,-0.002174061955884099,-0.006170276552438736,0.06226158142089844,-0.016025718301534653,0.056152500212192535,0.00847181398421526,-0.09175778925418854,0.03358383849263191,0.033640306442976,0.025244085118174553,0.016847098246216774,0.029500862583518028,0.06298516690731049,-0.10241533070802689,0.05824538692831993,0.036927808076143265,0.05549154803156853,-0.07756471633911133,-0.033041615039110184,-0.09519290924072266,0.0026616868562996387,-0.09214472770690918,0.07981239259243011,-0.05983077734708786,-0.23690196871757507,0.032644569873809814,-0.003958567976951599,-0.1648414433002472,0.0379161536693573,0.07429968565702438,0.02230829931795597,0.04027638956904411,-0.0834929570555687,-0.06541881710290909,-0.026920314878225327,-0.012928364798426628,-0.09138046205043793,0.045046210289001465,0.07417555153369904,0.02826852537691593,0.0057146442122757435,0.010321131907403469,-0.05530518293380737,-0.06202353909611702,-0.16194383800029755,-0.038618337363004684,0.08755828440189362,-0.0604637935757637,0.1613137573003769,0.0194831732660532,-0.010649623349308968,-0.09660536795854568,-0.017370419576764107,-0.016423756256699562,0.01809815876185894,-0.02428530342876911,0.013104168698191643,0.03417207673192024,0.04132917523384094,-0.04457332566380501,0.11848998069763184,0.007468038238584995,0.031586818397045135,0.2712179720401764,0.10256832838058472,-0.002363059436902404,0.038208670914173126,0.009477958083152771,-0.03054620511829853,-0.03082541935145855,0.013182214461266994,0.04025919362902641,0.0034879036247730255,0.0855451300740242,-0.001974291866645217,-0.04118653014302254,0.04407280683517456,-0.04177301749587059,-0.1125025674700737,-0.04079185053706169,0.0391898974776268,-0.004360147751867771,0.028885895386338234,-0.0019199475646018982,0.04308468475937843,-0.0770496353507042,-0.05462745577096939,0.06530311703681946,-0.01659497432410717,0.02474193088710308,-0.009096796624362469,-0.12654490768909454,-0.010384857654571533,-0.08087865263223648,0.051902562379837036,-0.0723872035741806,0.0984494611620903,0.1474401205778122,-0.17266465723514557,-0.004225402604788542,-0.060821108520030975,0.0694563239812851,-0.008301778696477413,0.07673728466033936,-0.00406508706510067,0.07725183665752411,-0.01918482407927513,-0.039839860051870346,-0.07695794850587845,0.02995418943464756,-0.029429757967591286,-0.0642123594880104,0.09118862450122833,-0.03102738969027996,-0.0956336110830307,0.023907961323857307,-0.09453216940164566,-0.04826365038752556,0.0052708908915519714,-0.08842934668064117,0.06465356051921844,-0.04316967725753784,0.12242963165044785,0.14657242596149445,-0.0009319008095189929,-0.018779588863253593,-0.019519923254847527,-0.12773653864860535,0.004207641817629337,0.007848510518670082,-0.026828765869140625,0.055432744324207306,-0.024669978767633438,0.10439173877239227,-0.010522439144551754,0.061937365680933,0.025552911683917046,-0.004572882782667875,0.08031746000051498,0.15673992037773132,0.04823371395468712,0.09019117802381516,-0.13898025453090668,0.036981064826250076,0.013502840884029865,-0.03041316755115986,0.09771662205457687,0.01435068715363741,0.016790956258773804,0.015720820054411888,-0.04368245229125023,0.0267107505351305,0.11560659855604172,-0.03406666964292526,0.16954313218593597,0.08527456223964691,0.0062373909167945385,-0.01650361530482769,-0.01156826876103878,-0.01465784851461649,0.0033904665615409613,-0.04798253998160362,-0.0497739315032959,0.026381593197584152,0.025850797072052956,-0.021015053614974022,0.12156207114458084,0.03407932072877884,0.01884784922003746,-0.09264254570007324,-0.040750958025455475,0.10855182260274887,0.005928677972406149,0.01267983578145504,-0.001213361625559628,-0.019477074965834618,-0.1358748823404312,0.04772019013762474,0.0005012925830669701,0.01656457968056202,-0.12306034564971924
NOm1maObKYg,-0.000740725256036967,-0.07142017036676407,-0.011551025323569775,-0.010266675613820553,0.06412985175848007,0.08607526868581772,0.15549136698246002,-0.06858717650175095,-0.08006495982408524,-0.08727238327264786,-0.036410484462976456,0.08242904394865036,0.04236309602856636,0.10485196858644485,0.029232880100607872,-0.08165204524993896,0.1148839220404625,0.10679439455270767,-0.06721892207860947,0.08556801825761795,0.12025364488363266,-0.02629869431257248,0.020374363288283348,-0.02112976647913456,-0.1431819051504135,-0.026996150612831116,0.07982837408781052,-0.0169872734695673,0.06631825119256973,-0.013764281757175922,0.19256246089935303,0.004338578786700964,0.10849551111459732,0.06569045782089233,0.03939007222652435,0.09595415741205215,-0.057061877101659775,0.03249962255358696,-0.0635567232966423,0.1989511251449585,0.03412449732422829,0.047921180725097656,0.0748102068901062,0.010936051607131958,-0.042688872665166855,-0.21193300187587738,0.009337115101516247,0.06335332244634628,0.11002742499113083,0.02503538876771927,0.0658719539642334,0.15273995697498322,0.007443515118211508,0.054763127118349075,0.14623688161373138,-0.09135041385889053,-0.06391510367393494,0.11146122217178345,0.12285581231117249,0.08458065986633301,-0.0015000546118244529,0.014947877265512943,-0.02782154083251953,0.004827152471989393,-0.0912427306175232,-0.045443009585142136,-0.05885699763894081,-0.04561375454068184,-0.06825165450572968,-0.01711561344563961,0.17244189977645874,-0.024387555196881294,0.039058148860931396,0.10954388231039047,-0.07139233499765396,-0.09116806834936142,-0.04791441932320595,-0.013632393442094326,-0.057523444294929504,-0.022711805999279022,0.0802934318780899,0.0626838356256485,-0.04129549115896225,-0.16496901214122772,-0.10404594987630844,0.17823444306850433,0.0382998026907444,0.12114576250314713,-0.08740971237421036,0.008324618451297283,0.19542086124420166,-0.01736355386674404,0.03196685016155243,-0.06904160231351852,-0.06650450825691223,0.12100503593683243,-0.06527652591466904,0.027903353795409203,-0.039288461208343506,0.09626983851194382,0.03527690842747688,0.05184299126267433,0.02089940756559372,0.028495153412222862,-0.009158782660961151,-0.1260986477136612,-0.06732235103845596,0.07764334231615067,-0.03033473528921604,0.02028806321322918,0.03584860637784004,-0.10566335916519165,-0.05301418900489807,0.0407743901014328,0.10938701778650284,-0.058183763176202774,0.0615260936319828,0.02750636823475361,-0.004461283329874277,-0.09693968296051025,0.12214193493127823,-0.04437240585684776,0.010222279466688633,0.011562120169401169,0.09683438390493393,0.0529649518430233,-0.013888626359403133,0.04547528550028801,0.0825507864356041,-0.09548694640398026,-0.035299528390169144,-0.1503898650407791,-0.06921372562646866,-0.08605334162712097,-0.006302507594227791,-0.052847906947135925,-0.05014556273818016,-0.09673156589269638,-0.06037622317671776,0.00659268768504262,0.06911469250917435,0.00912333931773901,-0.04541488364338875,0.05023885890841484,-0.011130493134260178,0.044416893273591995,0.009650712832808495,0.13829918205738068,0.04240143299102783,0.022770732641220093,0.03799770399928093,0.06791498512029648,-0.09467702358961105,0.007210839539766312,0.07106120884418488,0.013442360796034336,-0.09717271476984024,-0.1250000149011612,-0.1951952576637268,-0.027705788612365723,0.029948865994811058,0.01919744722545147,-0.004941016435623169,0.1371767222881317,-0.058643195778131485,-0.08301807194948196,-0.2614096403121948,-0.10969793796539307,-0.02339375950396061,-0.16305308043956757,0.0645364448428154,-0.05580724775791168,-0.008879459463059902,-0.020162275061011314,0.026195921003818512,-0.10672549158334732,0.2175949066877365,0.08823736757040024,0.0353914238512516,-0.03349820896983147,0.028964674100279808,-0.04511618614196777,0.05942986533045769,0.17076484858989716,-0.04006721451878548,0.00942720752209425,0.0020329756662249565,-0.1235799714922905,0.0023140546400099993,-0.029188940301537514,0.02015635371208191,0.0021233882289379835,0.04017786681652069,0.03638654574751854,-0.02109380066394806,0.08809307217597961,-0.07016584277153015,-0.030460266396403313,0.06861032545566559,0.008108578622341156,-0.022622615098953247,-0.1079440712928772,0.04820868372917175,0.01998922973871231,0.038221437484025955,-0.05212206766009331,-0.12012325972318649,0.019045451655983925,-0.04115737974643707,-0.02340867929160595,0.30785441398620605,0.05660189688205719,-0.022068744525313377,-0.008468258194625378,0.07454852759838104,-0.08285389095544815,0.10795831680297852,0.09780985116958618,-0.14620806276798248,-0.06386709213256836,-0.03842602297663689,0.031243354082107544,-0.055104613304138184,-0.06294148415327072,0.09618071466684341,0.1371762901544571,0.025709770619869232,-0.011757035739719868,-0.14885230362415314,-0.009658983908593655,0.0006394361262209713,0.050409946590662,0.005025744903832674,-0.0741877481341362,0.08223997801542282,0.07625524699687958,-0.017459174618124962,0.1332395225763321,0.05956408381462097,-0.18099002540111542,0.0043772077187895775,0.07736491411924362,-0.04091953858733177,-0.02032708376646042,0.13542312383651733,-0.1452263742685318,0.07723095268011093,-0.02665887586772442,-0.04637502506375313,0.018060816451907158,-0.016141710802912712,0.05819840356707573,0.047177255153656006,0.011732450686395168,-0.007225548382848501,0.1220342144370079,-0.14421828091144562,0.005903918296098709,0.047120943665504456,-0.05549630895256996,0.003789712442085147,-0.06528151780366898,0.04333848878741264,0.00070161372423172,-0.1387186199426651,-0.006459286902099848,0.15709461271762848,0.025570007041096687,-0.06369942426681519,0.07248710840940475,0.01562834531068802,0.035731684416532516,-0.0686102882027626,0.032929882407188416,0.04469902813434601,0.03087271936237812,-0.10657504945993423,-0.04661702737212181,-0.005106624681502581,0.051025617867708206,-0.07648269832134247,-0.1253148466348648,0.015215986408293247,-0.06186969205737114,0.019734015688300133,0.014850576408207417,-0.09933098405599594,-0.11650428175926208,-0.10704487562179565,-0.025913124904036522,-0.008547293953597546,-0.0009356195223517716,-0.0440191924571991,-0.027698365971446037,-0.03561102971434593,0.030166618525981903,-0.04445328935980797,0.03641802817583084,0.024230262264609337,0.1270100176334381,0.05884392932057381,0.011191588826477528,-0.11419004201889038,0.08498523384332657,-0.014256496913731098,-0.10053589940071106,0.04830747842788696,-0.03193126991391182,0.029096471145749092,0.06849634647369385,0.05758557841181755,-0.03956976905465126,0.016911519691348076,-0.0012817004462704062,-0.02340075932443142,0.08740362524986267,0.048717450350522995,-0.037514444440603256,-0.041626859456300735,0.1454889327287674,0.06397393345832825,0.03418733552098274,-0.07327792048454285,0.01834895648062229,-0.06389857083559036,-0.07918716222047806,0.020002951845526695,-0.07744292169809341,-0.01872711069881916,-0.014509988017380238,0.052835602313280106,0.025631166994571686,-0.011343655176460743,0.008636850863695145,0.17732198536396027,0.09537645429372787,-0.06083706021308899,0.17250151932239532,-0.006196755915880203,0.14819656312465668,-0.03979973495006561,0.01899876818060875,0.05353375896811485,0.10252425819635391,0.18883085250854492,0.04516121745109558,0.10124486684799194,0.05697755143046379,-0.08567166328430176,0.10193850845098495,0.1656751185655594,-0.05118762329220772,0.04106348007917404,-0.07162553071975708,0.023711392655968666,-0.029706357046961784,-0.00369199737906456,-0.007194846402853727,-0.13486263155937195,0.09714370965957642,-0.016658002510666847,-0.08605100959539413,-0.019279291853308678,-0.018290406093001366,-0.0899929478764534,0.05950784310698509,0.039625633507966995,-0.010051550343632698,-0.07282838970422745,0.05315132066607475,0.0033352039754390717,0.056287217885255814,0.021325642243027687,0.018558917567133904,0.055125508457422256,-0.12331721931695938,0.004699753597378731,0.10920622199773788,-0.01846018247306347,0.10434114933013916,0.03954749181866646,-0.09388457983732224,0.15026237070560455,-0.005289869848638773,-0.05924912169575691,-0.00554921617731452,-0.053907930850982666,-0.021642344072461128,0.02926761843264103,-0.08490220457315445,0.0557120256125927,-0.31111669540405273,-0.053967222571372986,-0.02921152673661709,0.04310789704322815,-0.011705282144248486,-0.02114187180995941,-0.029459523037075996,-0.07537990063428879,0.01541097927838564,0.07716340571641922,-0.0033015061635524035,-0.04657900705933571,-0.02675449661910534,0.10741028189659119,0.10125330090522766,-0.11112502217292786,-0.12679500877857208,-0.11412207037210464,-0.05408336594700813,0.02830495871603489,-0.18061576783657074,0.04789195582270622,0.00221288506872952,-0.1614588350057602,0.05832582339644432,0.03839142248034477,0.03542293980717659,0.021863870322704315,0.09161528199911118,0.060403626412153244,-0.11166442185640335,0.07983940094709396,-0.05968103185296059,-0.06854761391878128,-0.1459771990776062,-0.03964380919933319,-0.023785049095749855,0.027177946642041206,0.002458898350596428,0.04651729762554169,-0.006831541657447815,-0.035225000232458115,0.014967386610805988,0.11597532033920288,-0.18516677618026733,-0.015302781946957111,-0.030049392953515053,-0.09338304400444031,0.09948142617940903,0.041007235646247864,-0.0598195344209671,0.14273904263973236,-0.0279085636138916,0.07203976809978485,0.13096792995929718,0.0035520519595593214,-0.25589826703071594,-0.10989866405725479,0.04607946053147316,-0.042753178626298904,-0.06134979426860809,-0.11962524801492691,0.06204228103160858,-0.06990060210227966,-0.04183732345700264,0.1420428305864334,0.08343848586082458,-0.004043231252580881,0.14065124094486237,0.004027392249554396,0.3692297637462616,-0.06682295352220535,-0.022017506882548332,-0.05260014533996582,-0.315925270318985,0.090545155107975,-0.06913384795188904,0.01963151805102825,-0.029070883989334106,0.03433431312441826,-0.08230671286582947,-0.017607465386390686,0.04220622777938843,-0.08472614735364914,-0.014106395654380322,-0.03682929649949074,-0.020629577338695526,0.13707631826400757,0.05276252701878548,-0.17196369171142578,0.03564836457371712,0.03113599866628647,-0.14678515493869781,0.030435333028435707,-0.03644679859280586,-0.036169473081827164,-0.05420033261179924,0.0393180213868618,0.07882600277662277,-0.0260934978723526,-0.1553688943386078,-0.039013978093862534,0.03573649004101753,0.03066936694085598,0.14803127944469452,0.13193431496620178,-0.0649305135011673,-0.042924344539642334,-0.09605178982019424,-0.061414748430252075,-0.010891120880842209,0.14317135512828827,0.14421284198760986,0.005717791151255369,0.03032686747610569,-0.014003596268594265,-0.05025789141654968,0.12011315673589706,-0.09764579683542252,-0.037943944334983826,0.09725067764520645,-0.05730888247489929,0.0007576982607133687,0.046900879591703415,0.1986122578382492,-0.002096594078466296,0.127454936504364,0.10464417934417725,0.04284026846289635,0.005686919670552015,0.03707949444651604,0.03436778485774994,-0.06835208833217621,0.06201465055346489,0.08733370155096054,0.09406464546918869,-0.06614559143781662,-0.026077253744006157,0.06324329227209091,0.10415899008512497,-0.04259790852665901,0.030408447608351707,-0.03991670534014702,-0.05924582853913307,0.04104812815785408,0.06077943369746208,0.050957899540662766,-0.1090480387210846,-0.022097958251833916,-0.16744621098041534,0.014308776706457138,0.0027555646374821663,-0.046654362231492996,0.12256991863250732,0.0011764789232984185,0.06227682903409004,0.06985122710466385,0.011900237761437893,-0.03838934376835823,0.10286430269479752,-0.06794590502977371,-0.20998357236385345,-0.04011857882142067,0.013282187283039093,-0.08196622878313065,0.06830395758152008,-0.07746083289384842,0.017752142623066902,-0.08865461498498917,-0.04372311756014824,0.1503552943468094,0.024843931198120117,0.07809353619813919,-0.04605619236826897,-0.08560037612915039,0.06131691113114357,0.01514752209186554,0.00201604887843132,0.05390514060854912,-0.03625435009598732,-0.07809469103813171,0.050279516726732254,0.0724661573767662,0.007591510657221079,-0.02925710193812847,-0.030311616137623787,0.02661086618900299,0.052139703184366226,-0.06369390338659286,-0.013209830038249493,-0.024563198909163475,0.09086764603853226,0.05644186958670616,0.014512162655591965,5.137353946338408e-05,0.027083687484264374,0.046370357275009155,-0.0051161074079573154,0.00640070578083396,0.018906058743596077,0.04445602372288704,-0.12701667845249176,-0.10739690065383911,-0.008378014899790287,-0.05843392014503479,0.08399783819913864,0.05643355846405029,0.09601565450429916,0.06329195946455002,-0.04135792702436447,-0.037713609635829926,0.05063031241297722,0.033804330974817276,-0.12690024077892303,0.09730830043554306,-0.007728721480816603,0.013521499931812286,-0.03132728859782219,0.11571112275123596,-0.06109020113945007,-0.21056020259857178,-0.01745729148387909,-0.052356213331222534,-0.15630197525024414,0.05190456286072731,0.07972908765077591,0.11192520707845688,0.06460434943437576,-0.13770245015621185,-0.02577279508113861,-0.061261724680662155,-0.09607834368944168,-0.004189088009297848,0.06526929885149002,-0.061169516295194626,-0.026667388156056404,0.18489964306354523,-0.03844733163714409,-0.03806551173329353,0.15782803297042847,-0.1357487291097641,0.04540346935391426,-0.018110523000359535,0.03180330991744995,0.06533455848693848,-0.025123784318566322,0.03532370552420616,-0.07494603842496872,-0.010156752541661263,-0.0811217799782753,0.018571848049759865,-0.06319460272789001,-0.10148182511329651,-0.013766358606517315,0.02895059995353222,-0.0634385272860527,0.056007225066423416,0.0027869322802871466,0.05019460618495941,0.10214956849813461,0.13399101793766022,0.10997524857521057,-0.016921477392315865,0.03519442677497864,-0.08293995261192322,0.01677463948726654,-0.0087326904758811,0.03634527698159218,0.11793216317892075,0.03558146581053734,-0.06492051482200623,-0.05985039472579956,0.08309417217969894,0.07519978284835815,-0.07560249418020248,-0.034268733114004135,-0.09778761863708496,-0.09363734722137451,-0.006779646035283804,-0.008808493614196777,0.07006076723337173,0.025676360353827477,0.005604477133601904,0.018639331683516502,-0.13545002043247223,0.02289232425391674,0.07737691700458527,-0.10244620591402054,0.04084588214755058,-0.01962711103260517,-0.027701720595359802,-0.0868520438671112,0.08132865279912949,0.2287692278623581,0.0031208526343107224,0.004446689039468765,0.11196145415306091,0.04101681336760521,-0.06314631551504135,0.15305675566196442,0.07631221413612366,0.16681356728076935,0.08311012387275696,-0.11391077190637589,0.029100431129336357,0.04328734800219536,-0.009737392887473106,-0.08478668332099915,0.05801573768258095,-0.02426467277109623,-0.05528871342539787,-0.0025030067190527916,0.0398201160132885,-0.12224992364645004,-0.045181047171354294,-0.03810877352952957,-0.015230268239974976,-0.0541418194770813,0.324364572763443,-0.06105904281139374,-0.028500741347670555,-0.03190765157341957,0.027535805478692055,-0.028010090813040733,-0.009595353156328201,0.029130540788173676,-0.006609534379094839,0.13125963509082794,-0.06430604308843613,0.10835728794336319,-0.10816487669944763,0.12496764212846756,0.03204258531332016,-0.01935163326561451,0.005551042500883341,0.007197895552963018,-0.024332614615559578,-0.18180401623249054,-0.1483948975801468,0.12398745864629745,-0.06373847275972366,-0.003558632219210267,0.014753074385225773,-0.010005676187574863,-0.047763943672180176,-0.030361153185367584,0.0006135783041827381,0.03054104559123516,0.07511372119188309,-0.04569552466273308,0.10969674587249756,0.039455365389585495,0.03164729103446007,-0.020994341000914574,-0.06690477579832077,-0.007679227739572525,-0.011056837625801563,0.04882200434803963,-0.04112691059708595,-0.04604232683777809,-0.038513749837875366,-0.019962847232818604,0.0980762168765068,-0.07798653095960617,-0.0054880534298717976,-0.11112811416387558,-0.05499807000160217,0.005404714960604906,-0.027656832709908485,0.09644774347543716,0.014984850771725178,-0.08227553218603134,-0.05700932815670967,-0.05021243169903755,0.003032975597307086,-0.125008225440979,-0.10675439983606339
6aJHm71Q27U,-0.07471007108688354,0.11962457746267319,-0.008429572917521,-0.029847241938114166,-0.00910384301096201,0.08185514062643051,0.1688508838415146,-0.009261969476938248,0.010656425729393959,0.06847405433654785,0.09663332253694534,-0.11797352880239487,0.017589977011084557,-0.11046508699655533,0.0842975452542305,-0.17211128771305084,-0.043805524706840515,0.027794523164629936,-0.029874959960579872,0.09596939384937286,0.05144566670060158,-0.04404789209365845,0.03355156257748604,-0.05138063430786133,-0.08308915048837662,-0.04323786124587059,-0.0521395318210125,-0.008409502916038036,0.08175116777420044,-0.014596570283174515,0.15670521557331085,0.012586693279445171,0.0395711250603199,-0.05451268330216408,0.039718300104141235,-0.028175320476293564,-0.016492053866386414,-0.007680028676986694,-0.09362560510635376,-0.04461095854640007,0.0787108764052391,0.037342265248298645,-0.13201652467250824,-0.06675924360752106,-0.11945413053035736,-0.04349890351295471,0.1339045763015747,0.08413978666067123,0.03524751961231232,0.04137337952852249,0.02218717150390148,-0.04215087369084358,-0.08868247270584106,0.05000767111778259,0.1128222718834877,-0.026817651465535164,-0.11769615858793259,0.041119106113910675,-0.05838499218225479,0.08962167054414749,-0.13668005168437958,0.17508359253406525,-0.13684195280075073,-0.03460303694009781,-0.1223912388086319,-0.06686250120401382,-0.040922194719314575,-0.010954486206173897,-0.037874091416597366,-0.013370403088629246,0.19897234439849854,0.02016737312078476,0.05749184638261795,0.17168402671813965,-0.06665152311325073,0.08841940015554428,-0.13749843835830688,0.05729418620467186,-0.0016555370530113578,-0.006540542468428612,0.11339915543794632,0.10493163019418716,-0.06715413928031921,-0.10372688621282578,-0.039559654891490936,-0.0136459581553936,0.008014966733753681,0.08650524169206619,-0.13285797834396362,-0.10108214616775513,0.08083418756723404,0.002825577277690172,0.03548971936106682,-0.017979398369789124,0.10377530008554459,0.06394684314727783,0.10886362940073013,0.035778872668743134,-0.012051142752170563,-0.18193340301513672,-0.019663436338305473,0.18948647379875183,-0.00444885715842247,0.17679902911186218,-0.07282302528619766,-0.019917093217372894,0.13938617706298828,-0.13108909130096436,-0.05973896011710167,0.12532740831375122,-0.009292583912611008,0.018636511638760567,-0.13410109281539917,0.10003931075334549,-0.08116170763969421,-0.09358169138431549,0.003692551050335169,0.03323636204004288,0.051975734531879425,0.004765751305967569,0.01873582974076271,-0.061723850667476654,-0.07287901639938354,-0.019780531525611877,0.059281934052705765,-0.12676842510700226,-0.05284072831273079,0.008200784213840961,0.007446350064128637,-0.09568379819393158,0.008035220205783844,-0.034659843891859055,0.023143207654356956,0.10608714073896408,-0.011542128399014473,-0.0062035322189331055,0.08340005576610565,-0.16982394456863403,-0.016274036839604378,0.03382033109664917,0.09538448601961136,0.01626761443912983,0.030882157385349274,0.04569556564092636,0.013453678227961063,0.0914255678653717,-0.07618598639965057,0.00904178898781538,-0.06124942749738693,0.07200809568166733,0.1306399554014206,0.060963232070207596,0.12366990000009537,0.06660792976617813,0.07630358636379242,0.11703904718160629,-0.03614864870905876,-0.02615618333220482,-0.028002120554447174,-0.023404046893119812,-0.050096943974494934,0.1371850073337555,-0.02424551546573639,0.017958473414182663,0.03886992111802101,0.11867348104715347,-0.21404629945755005,-0.09659485518932343,0.07276728004217148,-0.010733171366155148,-0.1645626425743103,0.01512362714856863,0.0472053587436676,0.12044522911310196,-0.023738380521535873,0.04129490256309509,-0.129740372300148,0.06208352744579315,-0.04946310073137283,0.10727812349796295,0.12402423471212387,0.12926550209522247,0.07991168648004532,0.06760317087173462,0.17606094479560852,-0.0008410936570726335,0.09032142162322998,-0.06301620602607727,0.017988186329603195,-0.007139597553759813,0.09870615601539612,0.002909595612436533,0.08163779973983765,0.08494323492050171,0.07927821576595306,0.0804453045129776,-0.019464274868369102,-0.041020624339580536,0.052791982889175415,0.0834914967417717,0.02547643333673477,-0.11207730323076248,0.16142538189888,-0.06863521784543991,-0.0034493242856115103,-0.0046338485553860664,0.10131506621837616,-0.08846256136894226,0.04585248976945877,0.0263674259185791,0.18474948406219482,0.09235332906246185,0.016423072665929794,-0.03606661036610603,0.03369010239839554,-0.10278196632862091,0.05491330474615097,-0.05318734049797058,-0.181602343916893,0.01452468428760767,0.03718604892492294,0.16301961243152618,-0.05889848247170448,-0.059662047773599625,0.005838384851813316,0.04566999152302742,-0.02458604983985424,-0.008457033894956112,-0.03705670312047005,-0.004415573086589575,0.028888359665870667,0.015256336890161037,0.08541618287563324,0.0017165782628580928,-0.12581880390644073,0.22449184954166412,-0.15536049008369446,0.03061029501259327,0.03916103020310402,-0.39903390407562256,0.12040090560913086,0.01914811134338379,-0.030075468122959137,0.015070445835590363,0.2193886935710907,0.06023624539375305,0.11882354319095612,0.015964433550834656,0.06542953103780746,0.0223530326038599,0.02950747311115265,-0.017542311921715736,0.0842137336730957,-0.145492821931839,0.008748464286327362,0.0561228021979332,-0.1658606231212616,0.13105957210063934,0.2992783486843109,0.138032928109169,0.056438151746988297,0.05642157420516014,0.03232046961784363,-0.00703333830460906,-0.11697262525558472,-0.1254013329744339,0.20360605418682098,-0.12055837363004684,-0.0016057243337854743,-0.0703311488032341,0.05531700327992439,-0.012867429293692112,-0.051442697644233704,-0.060343027114868164,-0.03542808070778847,-0.012250613421201706,-0.20722021162509918,-0.03485216945409775,-0.005149116739630699,0.03464152291417122,0.04510628059506416,0.013466645032167435,-0.005439534783363342,-0.02565678581595421,-0.08788236230611801,0.06212422996759415,-0.035648271441459656,-0.21658901870250702,0.2283254861831665,-0.04344093054533005,0.024835212156176567,-0.05983369052410126,-0.01045217551290989,0.009373554028570652,-0.014745799824595451,0.05070418864488602,-0.02912737987935543,-0.126510888338089,-0.007176113780587912,-0.016991833224892616,-0.04921228066086769,-0.07488655298948288,0.0069714742712676525,0.003007313935086131,-0.10561162233352661,-0.06152946501970291,0.0887867733836174,-0.05081027373671532,0.008532622829079628,-0.10862959921360016,-0.0055702561512589455,-0.013740452006459236,0.01486591249704361,0.23256441950798035,-0.1250683069229126,0.2039591521024704,0.02145380899310112,-0.07641412317752838,0.010590113699436188,0.25539833307266235,0.07659318298101425,-0.08490697294473648,-0.09971559792757034,0.0833270475268364,-0.011970522813498974,0.06477510184049606,0.051753632724285126,-0.1379927694797516,-0.023238761350512505,-0.05022032931447029,0.10605732351541519,-0.12782876193523407,-0.017148898914456367,-0.08370178192853928,-0.05261384695768356,0.041687674820423126,0.034221451729536057,0.029591955244541168,-0.06319581717252731,-0.019359393045306206,-0.021829945966601372,0.06662534922361374,0.04422999918460846,0.14667752385139465,-0.12839606404304504,0.10887046158313751,-0.019545461982488632,0.18405067920684814,0.006387311965227127,0.10719741880893707,-0.15888115763664246,-0.03431563824415207,-0.07527981698513031,-0.03617139533162117,0.06109931319952011,-0.1387505680322647,0.05366281792521477,0.028011450543999672,-0.09608648717403412,0.17200149595737457,0.0016525884857401252,-0.032404083758592606,0.01895315945148468,0.07084663957357407,0.04008040204644203,0.07489930838346481,0.03824412822723389,0.04663751646876335,-0.1368303894996643,0.030009355396032333,-0.11675280332565308,-0.022325418889522552,0.09426259994506836,0.0021074190735816956,0.06147819012403488,-0.06149279326200485,0.0649152621626854,-0.11425969749689102,-0.3436218500137329,-0.019943293184041977,-0.013221214525401592,-0.1807815283536911,0.373634934425354,0.12131559103727341,-0.06992484629154205,0.06735338270664215,-0.06999959796667099,0.014417462050914764,0.2183200567960739,-0.016090886667370796,0.04397286847233772,-0.15461862087249756,-0.032359421253204346,0.019956953823566437,0.014206442050635815,0.04004935547709465,-0.1270470768213272,-0.1046442985534668,0.00010321537411073223,-0.021395627409219742,-0.042577113956213,0.11351589858531952,-0.08136001229286194,0.020268049091100693,0.08318871259689331,0.09657982736825943,0.015066970139741898,0.02214653417468071,0.033112723380327225,-0.16751185059547424,-0.059951551258563995,-0.24658098816871643,-0.02938081882894039,0.0836351066827774,-0.08580522984266281,-0.07879246026277542,-0.003036022651940584,-0.11699990928173065,-0.0923447459936142,-0.0044922856613993645,-0.004831858444958925,-0.04893401637673378,-0.02296626940369606,-0.09162633866071701,-0.005098544992506504,0.010222301818430424,0.04103194922208786,0.09993816912174225,-0.03221719712018967,-0.09035827219486237,0.01659451797604561,-0.07432691007852554,-0.036070238798856735,0.05206584185361862,0.012281455099582672,-0.13129690289497375,-0.0844612568616867,-0.05623086914420128,0.10556934773921967,-0.01850757747888565,-0.013114327564835548,-0.01862490177154541,0.31087252497673035,0.0498243011534214,0.10278858244419098,0.14251647889614105,0.037120673805475235,-0.17001977562904358,-0.1743912547826767,-0.06586660444736481,-0.03875192627310753,0.05199218541383743,-0.1358414888381958,0.037346772849559784,-0.20564322173595428,-0.004091047681868076,0.005932409781962633,-0.15699733793735504,-0.05052153393626213,0.10303393006324768,-0.0665133148431778,0.43566185235977173,-0.05604676529765129,0.13343316316604614,-0.06875474750995636,-0.020419493317604065,-0.12951771914958954,0.014023344032466412,-0.009022067300975323,-0.13465026021003723,0.15942418575286865,-0.10114645957946777,0.03833819553256035,-0.0005136639811098576,-0.049936261028051376,-0.046120449900627136,-0.17882540822029114,-0.14093896746635437,0.059683818370103836,0.03249608352780342,-0.20352581143379211,0.013968606479465961,-0.062191192060709,-0.2872418463230133,0.03357605263590813,-0.11205800622701645,-0.06836969405412674,-0.022463491186499596,0.026699991896748543,0.07089436054229736,0.06307295709848404,0.030326340347528458,0.02738388441503048,0.1262841522693634,-0.08544386178255081,0.06661749631166458,-0.1398528665304184,-0.11034370958805084,0.0243833027780056,-0.10133080184459686,-0.014917339198291302,0.08860863745212555,0.026508858427405357,-0.04809214547276497,-0.015152999199926853,0.0114137576892972,0.0032628218177706003,-0.03565215319395065,0.02285330928862095,0.011841082945466042,0.07178148627281189,0.0416560173034668,0.07950406521558762,-0.15504558384418488,-0.032526809722185135,-0.019833102822303772,0.024931104853749275,-0.12250130623579025,0.02256876416504383,0.08940012007951736,0.031547002494335175,0.025266723707318306,-0.07691268622875214,0.04389306530356407,-0.13587701320648193,-0.03919503092765808,0.014545775949954987,-0.007877031341195107,0.12083715200424194,-0.02043558657169342,0.07686468213796616,-0.0641016736626625,0.17577949166297913,-0.04026510566473007,-0.0472538098692894,-0.06899305433034897,0.004484521225094795,-0.1025528684258461,-0.03949228301644325,0.022921621799468994,-0.06236497685313225,0.05396556109189987,0.0703306719660759,-0.032186467200517654,0.03013969585299492,0.011412978172302246,0.10983842611312866,0.07082011550664902,0.07778700441122055,-0.14350441098213196,0.015757068991661072,0.004353404510766268,-0.1657954901456833,0.029313987120985985,0.15342529118061066,-0.054422084242105484,-0.05100712180137634,0.020750997588038445,0.09908221662044525,-0.16328218579292297,-0.003379242029041052,-0.05647098273038864,-0.014266250655055046,0.009369514882564545,0.002579445717856288,-0.11763513833284378,-0.0545230433344841,0.037998706102371216,0.08269478380680084,0.026262691244482994,0.010876022279262543,-0.055545613169670105,-0.009082354605197906,-0.025472883135080338,-0.05235975235700607,0.05873493477702141,0.06665103882551193,0.10555367171764374,0.07914941012859344,-0.04229016602039337,-0.03348773717880249,-0.06414486467838287,0.004930273629724979,0.005986212752759457,0.127922922372818,-0.10703831911087036,-0.07590368390083313,-0.06884132325649261,0.011746116913855076,0.02694619819521904,-0.0017111646011471748,-0.02777627483010292,0.020472558215260506,-0.04061954841017723,0.04873659461736679,0.01052715815603733,-0.035930413752794266,-0.017404282465577126,-0.046612147241830826,0.03597719222307205,-0.12568017840385437,0.055363208055496216,0.0035558382514864206,0.07096901535987854,-0.04629026725888252,-0.15630877017974854,-0.11728187650442123,0.013976508751511574,-0.13969968259334564,0.014140979386866093,-0.0015213408041745424,-0.14976027607917786,0.09462307393550873,0.04631666839122772,-0.23140785098075867,-0.019559640437364578,-0.036416273564100266,0.09714072942733765,0.02793225832283497,-0.032080501317977905,-0.034507233649492264,-0.07977759093046188,0.10250093787908554,0.02949289232492447,0.1168062835931778,0.15812279284000397,0.02394275926053524,-0.03448428586125374,-0.04186239838600159,-0.08179996907711029,0.05496836453676224,-0.1300419121980667,0.03437100350856781,-0.046905260533094406,-0.0981292575597763,0.2083742469549179,0.09197001159191132,0.025109967216849327,-0.07969824969768524,-0.00012070588127244264,0.0033252679277211428,0.09118027985095978,-0.0009389363694936037,0.17313627898693085,-0.0034158520866185427,0.014161785133183002,-0.007621563505381346,0.06195039302110672,-0.014782420359551907,0.07047252357006073,0.2455075979232788,0.269399493932724,-0.094251848757267,-0.025381002575159073,0.012843925505876541,0.07735312730073929,-0.020628783851861954,-0.020687147974967957,0.030788829550147057,0.04560832306742668,0.015485192649066448,-0.08153258264064789,0.003506740555167198,0.008675003424286842,-0.10818229615688324,-0.09559907019138336,-0.03284766152501106,0.05581176280975342,0.04414399340748787,-0.01545198168605566,-0.0003508416411932558,0.03667352721095085,-0.06736677885055542,0.05206006020307541,0.0727798119187355,0.0244396161288023,0.061282429844141006,-0.019498120993375778,-0.10754352807998657,-0.05343469977378845,-0.038162682205438614,0.09480653703212738,0.0001744656328810379,0.09281492233276367,0.2182077169418335,-0.1353931874036789,-0.04877540469169617,0.000468031270429492,0.06799910962581635,-0.02597980760037899,0.05911644175648689,0.031109651550650597,0.0389876551926136,-0.09936672449111938,-0.11705472320318222,-0.07130178809165955,0.07585319131612778,-0.001778684207238257,0.10722073912620544,0.12030176818370819,-0.07661434262990952,-0.014351590536534786,0.058479588478803635,-0.097771055996418,-0.08768598735332489,-0.046158552169799805,-0.18736635148525238,-0.015521861612796783,-0.0965779647231102,0.022031620144844055,0.15313617885112762,-0.054884348064661026,-0.0028068579267710447,-0.05550625920295715,0.014881355687975883,-0.007017977070063353,-0.016391370445489883,-0.0755489319562912,0.1500370055437088,0.02691420167684555,0.13159315288066864,-0.09921266883611679,-0.0756593644618988,0.02264998108148575,-0.01917555369436741,0.16094478964805603,0.03529619053006172,0.09525662660598755,-0.026312561705708504,-0.11655252426862717,0.09372473508119583,0.02797035686671734,0.04258889704942703,0.11689078062772751,0.1383012980222702,0.008178441785275936,0.007024235557764769,-0.1103796511888504,0.042262010276317596,0.17078450322151184,-0.04371128976345062,0.15063460171222687,0.054262034595012665,0.04279612749814987,-0.020131360739469528,-0.012091710232198238,-0.044632673263549805,-0.060249511152505875,0.05993782356381416,-0.018460333347320557,0.08211077004671097,0.03641922026872635,-0.1017279401421547,0.021387506276369095,-0.04888094216585159,-0.03757336735725403,0.023441076278686523,0.07845165580511093,0.07181843370199203,0.036409083753824234,-0.0593101792037487,0.039622481912374496,-0.06041372939944267,-0.1609565019607544,0.03848899528384209,0.04326266050338745,-0.08985777199268341,-0.059219326823949814
-Sronu0OtLw,-0.0224788598716259,-0.09620383381843567,-0.005743477959185839,-0.030862048268318176,0.05386495217680931,0.11979109048843384,0.1358971893787384,0.0022045611403882504,-0.2527596354484558,0.08477164059877396,0.14268888533115387,0.015024545602500439,0.11009573936462402,-0.0707525759935379,0.16276618838310242,-0.25311774015426636,-0.013730861246585846,-0.02391991578042507,0.20407694578170776,0.09983903169631958,0.1414703130722046,0.07462693750858307,0.08747892081737518,-0.057218313217163086,-0.025327205657958984,-0.006780670490115881,0.044252920895814896,-0.0032724421471357346,0.018498709425330162,0.03408307582139969,0.19836847484111786,0.010862188413739204,-0.01256624422967434,-0.0820358470082283,-0.006012744270265102,-0.06852126866579056,-0.017936747521162033,-0.026882095262408257,-0.11043145507574081,-0.024410177022218704,0.27016136050224304,-0.15833143889904022,-0.10500907897949219,-0.026387957856059074,-0.14135807752609253,-0.010619261302053928,0.10330268740653992,0.17948570847511292,0.17953747510910034,0.020225999876856804,-0.004688723012804985,-0.006054120138287544,0.004134242422878742,0.12361295521259308,-0.013309015892446041,-0.0829315111041069,-0.1810288429260254,0.08947262167930603,-0.03203972056508064,-0.01577136293053627,-0.07667041569948196,0.05497259274125099,-0.08645933121442795,-0.08311261981725693,-0.20400863885879517,-0.06559433788061142,-0.04122106730937958,-0.15255557000637054,-0.009552028961479664,-0.0022745472379028797,0.04905109852552414,0.0854475200176239,0.017217136919498444,0.19645194709300995,-0.03442038595676422,0.04941852390766144,-0.15890498459339142,0.058448076248168945,-0.005960268434137106,0.012582936324179173,0.13054440915584564,0.2678680419921875,-0.05806067958474159,-0.11161457747220993,-0.1309041976928711,0.03382377326488495,0.03605461120605469,0.04329158738255501,-0.07220892608165741,-0.20789216458797455,-0.018827201798558235,-0.04188905283808708,0.026079438626766205,0.0382021889090538,0.1952129602432251,0.04743068665266037,0.08748751878738403,-0.05014776065945625,0.02249477431178093,-0.21639584004878998,-0.14952407777309418,0.2492082566022873,0.023815810680389404,0.1828305572271347,-0.13271573185920715,0.012406008318066597,-0.08402630686759949,0.022979073226451874,-0.12003293633460999,0.026947343721985817,0.13889160752296448,0.07466677576303482,-0.068736732006073,0.11324188113212585,-0.05342536047101021,-0.11920475959777832,-0.021254761144518852,0.16630642116069794,0.00855086650699377,0.07131556421518326,0.0681862160563469,-0.12739063799381256,-0.045810338109731674,-0.06575646251440048,-0.03550262004137039,-0.016021959483623505,-0.09536947309970856,0.10416711866855621,0.0032731855753809214,0.014004233293235302,0.00645062979310751,0.06786062568426132,0.006718437187373638,0.05822021886706352,-0.021155763417482376,0.13291969895362854,0.09167179465293884,-0.20712043344974518,-0.10917762666940689,0.03628076612949371,0.048879027366638184,0.09599773585796356,-0.04147055000066757,-0.03736604005098343,-0.0291704460978508,0.15948286652565002,-0.06591925770044327,0.06847816705703735,-0.05890996381640434,0.09083116799592972,0.15778671205043793,0.11517532169818878,-0.015556097030639648,0.06098620593547821,0.09485997259616852,0.17720526456832886,0.048083726316690445,0.09843830019235611,-0.08459645509719849,0.052549589425325394,-0.14362318813800812,0.013775866478681564,-0.11456016451120377,-0.01988164894282818,0.14962530136108398,0.0820937231183052,-0.2879640460014343,-0.18270176649093628,0.1339283287525177,-0.029418539255857468,-0.16533885896205902,0.003205628367140889,0.028233235701918602,-0.009866928681731224,0.033791303634643555,0.05026419088244438,-0.051106225699186325,-0.074395552277565,-0.10359123349189758,0.11390121281147003,0.03004784882068634,0.17061738669872284,0.11666959524154663,0.03257505223155022,0.008705529384315014,0.04975996911525726,0.16645735502243042,-0.040602631866931915,-0.017276648432016373,-0.09354067593812943,0.1610517054796219,0.024324240162968636,0.05181719735264778,0.15750457346439362,0.12936678528785706,0.0384666733443737,-0.019216952845454216,-0.18837018311023712,0.1145467534661293,0.11540265381336212,0.015104140155017376,-0.19005988538265228,-0.01688632182776928,-0.025695623829960823,0.03007376939058304,0.16504432260990143,-0.05107715725898743,-0.0672226995229721,0.1469980776309967,-0.025201553478837013,-0.08581501245498657,0.08322429656982422,-0.07801012694835663,-0.03627600520849228,-0.10582996159791946,0.0025758552365005016,0.06575450301170349,0.011132623068988323,-0.06085880845785141,0.05937998741865158,0.07968493551015854,0.12072719633579254,-0.013006245717406273,-0.08119387924671173,-0.00998805370181799,0.012428808026015759,-0.05611775442957878,-0.03806045278906822,-0.0032529658637940884,0.15662309527397156,0.08613044768571854,0.047622013837099075,0.07921203970909119,0.005213792435824871,-0.16463737189769745,0.25783756375312805,-0.10026232898235321,0.1421799659729004,0.04165198653936386,-0.377512127161026,-0.006314082536846399,0.253928542137146,-0.031367477029561996,-0.016791600733995438,0.3657250702381134,-0.044514190405607224,0.09836510568857193,-0.04897579550743103,0.03500685840845108,0.025899723172187805,0.10182575136423111,0.041035689413547516,-0.009923945181071758,-0.1287866234779358,0.16426944732666016,0.027394646778702736,-0.1545468270778656,0.218847393989563,0.22234830260276794,0.09242760390043259,0.06813060492277145,0.034060973674058914,0.04665857180953026,-0.1268385350704193,-0.1089462861418724,-0.002422914607450366,0.005710584111511707,-0.002214456908404827,0.024307560175657272,-0.11332464218139648,0.040863052010536194,0.020830368623137474,0.07066205888986588,-0.14813098311424255,-0.053538884967565536,0.0002599277358967811,-0.2720799744129181,-0.06354052573442459,-0.04057996720075607,-0.015237794257700443,0.14676320552825928,0.030810954049229622,-0.0007963074604049325,-0.0036019969265908003,-0.15772314369678497,0.05648190900683403,-0.1784517914056778,-0.08032394200563431,0.17773208022117615,-0.14357727766036987,-0.04962802305817604,-0.01759677566587925,-0.1450517624616623,0.0470099076628685,0.02103715017437935,-0.019205499440431595,-0.1173342689871788,-0.10760440677404404,-0.06375659257173538,0.23012897372245789,-0.12253295630216599,0.0816589891910553,-0.08558271080255508,-0.05652260407805443,-0.0346088781952858,-0.2367749810218811,0.00778199452906847,-0.16459593176841736,0.06948933005332947,-0.07829777896404266,0.020044643431901932,0.029655590653419495,0.07208339869976044,0.28745177388191223,-0.08462786674499512,0.14703455567359924,-0.10510583966970444,0.03667399659752846,0.035325393080711365,0.3672572672367096,0.1049351692199707,-0.053945302963256836,-0.0639188289642334,0.08259545266628265,-0.04547164961695671,0.20872263610363007,-0.02478640526533127,-0.09235022217035294,-0.031100595369935036,-0.08636650443077087,0.07478649914264679,-0.15550732612609863,-0.05159725248813629,-0.005482013802975416,-0.024556875228881836,0.013843633234500885,0.04482225328683853,0.04410824924707413,-0.0026344561483711004,0.011956240981817245,-0.12376843392848969,0.07647662609815598,0.01675664819777012,0.09065604954957962,-0.20908330380916595,0.04811975359916687,-0.036760006099939346,0.18578189611434937,0.03913678601384163,0.055938538163900375,-0.1530379354953766,-0.06539776176214218,-0.17548362910747528,0.06436529755592346,-0.03273192420601845,-0.24331706762313843,0.057862747460603714,0.0582137294113636,-0.014890248887240887,0.21756398677825928,0.0007361138123087585,0.018681637942790985,-0.1998208612203598,0.04318493232131004,-0.057607702910900116,0.062014028429985046,0.003952564671635628,0.06736937165260315,-0.04421486705541611,0.005005685146898031,-0.21137219667434692,-0.06214031204581261,0.2452705055475235,0.17672021687030792,0.047037843614816666,-0.02387174777686596,0.011606425046920776,-0.20643030107021332,-0.29124996066093445,-0.05748317763209343,-0.0016501217614859343,-0.20807307958602905,0.3315373361110687,0.17891700565814972,0.13643279671669006,0.15445245802402496,-0.05393266677856445,0.08533509075641632,0.21853061020374298,0.07606727629899979,0.10074842721223831,-0.242374986410141,-0.2811664938926697,-0.05194511264562607,0.04299187660217285,0.06920752674341202,-0.06720927357673645,-0.12243486195802689,0.07574667036533356,-0.028118643909692764,-0.06298960000276566,0.323006272315979,-0.22306686639785767,0.05268431827425957,0.032861221581697464,0.17828410863876343,0.035939592868089676,0.012767958454787731,0.013585505075752735,-0.17925243079662323,-0.1261620968580246,-0.26456162333488464,-0.03835045173764229,0.04685845226049423,-0.15676309168338776,-0.2101985514163971,-0.13170264661312103,-0.2191648930311203,-0.11674261838197708,-0.13542540371418,0.08170414716005325,-0.027735920622944832,0.02964620105922222,-0.013467812910676003,0.07592517882585526,0.001996078295633197,0.011587767861783504,-0.05188605189323425,0.021767014637589455,-0.054868049919605255,0.053119249641895294,0.01240107137709856,-0.08013276755809784,0.009466039948165417,-0.09514451026916504,-0.12663120031356812,0.04095224291086197,-0.03211468085646629,0.041713863611221313,0.052760910242795944,-0.006195091642439365,-0.034614551812410355,0.32499682903289795,0.10328113287687302,-0.002714987611398101,0.18975883722305298,0.1272944062948227,-0.23341602087020874,-0.32106149196624756,0.07691080123186111,-0.07253465056419373,-0.08396193385124207,-0.1930030882358551,-0.09375657886266708,-0.12420861423015594,0.06031721085309982,-0.061232101172208786,-0.13363148272037506,-0.07035654783248901,0.0012603140203282237,0.0380215123295784,0.2978370785713196,-0.1641121357679367,0.06830761581659317,-0.07602738589048386,-0.14943687617778778,-0.16364853084087372,0.12282679229974747,-0.020739436149597168,-0.13542026281356812,0.23813354969024658,-0.1736469715833664,0.10941173881292343,0.029528705403208733,0.011850540526211262,-0.0422762930393219,-0.2653936743736267,-0.1320708990097046,0.18058434128761292,0.053348761051893234,-0.00623400928452611,-0.07005774229764938,-0.10217371582984924,-0.3230747878551483,0.03948947787284851,-0.15310867130756378,-0.10652095079421997,-0.08049974590539932,0.009610345587134361,0.09179911762475967,0.08747503906488419,0.1178431510925293,0.06920047849416733,-0.010984794236719608,-0.09270292520523071,0.02469632402062416,-0.17628824710845947,-0.17341193556785583,-0.052985791116952896,-0.10820896923542023,-0.0038878906052559614,0.13121871650218964,0.08752734959125519,-0.06842159479856491,-0.10515917092561722,-0.06143355369567871,-0.061944380402565,-0.08988705277442932,-0.004180784337222576,0.05197984725236893,0.11752479523420334,0.1473061442375183,0.12701821327209473,-0.11281778663396835,0.012362935580313206,-0.05971010774374008,0.020488331094384193,-0.058180179446935654,-0.057022105902433395,0.10158577561378479,0.09559178352355957,0.019439026713371277,-0.034386973828077316,-0.03282380849123001,-0.1482546478509903,0.13144706189632416,0.06890848278999329,-0.0019725665915757418,-0.022211430594325066,0.026925530284643173,0.11947597563266754,0.05438048020005226,0.15378627181053162,0.004568750038743019,-0.06412921100854874,-0.07370203733444214,0.20535053312778473,0.09139075875282288,-0.11111242324113846,0.10145466029644012,-0.027939612045884132,-0.026625923812389374,-0.013509976677596569,-0.027581749483942986,0.10676982998847961,0.0957595631480217,-0.04008099064230919,0.12268953025341034,-0.01025950163602829,-0.13119368255138397,-0.01482910756021738,-0.012254156172275543,-0.1372203379869461,-0.048369765281677246,0.24160397052764893,-0.010364367626607418,-0.04484841972589493,-0.05983799323439598,0.07344203442335129,-0.012537484057247639,-0.034201040863990784,-0.09756378084421158,0.08636271208524704,0.050029028207063675,0.07458074390888214,-0.12781812250614166,-0.07900121062994003,0.09508760273456573,0.007458480075001717,0.009393222630023956,0.0014964917208999395,-0.11556089669466019,0.0008853489416651428,-0.005014675669372082,-0.025360850617289543,-0.031273528933525085,0.13239043951034546,0.14456675946712494,0.09048934280872345,-0.22468818724155426,0.04432363063097,-0.044480953365564346,-0.08369295299053192,-0.013795851729810238,0.15066440403461456,-0.10114952176809311,0.012993507087230682,-0.005370853468775749,0.04911667853593826,0.05737953260540962,-0.035652127116918564,0.09433538466691971,0.04321158304810524,-0.12604588270187378,0.09193071722984314,0.04760964214801788,-0.09365787357091904,0.02553756721317768,5.8770179748535156e-05,0.05082108452916145,-0.13840796053409576,0.07879580557346344,-0.04291832819581032,0.032575324177742004,-0.023338086903095245,0.04440869018435478,-0.1264616847038269,0.02953529544174671,-0.0577172189950943,0.04154462739825249,-0.0021551726385951042,-0.2598623037338257,0.06908213347196579,0.050187911838293076,-0.14090321958065033,0.05138978362083435,0.04925490915775299,0.04840697720646858,-0.017477983608841896,-0.022377286106348038,-0.0656668171286583,-0.08367986977100372,-0.10737014561891556,-0.1730843186378479,0.10997144877910614,0.09244093298912048,0.03170332312583923,0.010234705172479153,0.11145185679197311,-0.01920379512012005,-0.19776277244091034,-0.2502729296684265,-0.07098541408777237,0.09757164120674133,-0.1280456781387329,0.14703494310379028,0.015072495676577091,-0.007168910466134548,-0.16418109834194183,-0.022983040660619736,-0.0067238821648061275,0.06085916981101036,-0.033849574625492096,0.07538461685180664,0.06311718374490738,-0.019346728920936584,-0.043353013694286346,0.19559581577777863,-0.03253494203090668,0.11906728893518448,0.4708380103111267,0.12852336466312408,0.004377099685370922,0.0585690401494503,0.024573639035224915,0.012177343480288982,-0.013970400206744671,0.02634424716234207,0.032453056424856186,-0.019932372495532036,0.13901081681251526,-0.0611264668405056,-0.07079050689935684,-0.03880578652024269,-0.05596528202295303,-0.12551094591617584,0.021797161549329758,0.14401036500930786,0.10465271770954132,-0.026658549904823303,0.027676591649651527,0.0013457058230414987,-0.12185940146446228,-0.12061265856027603,0.10722007602453232,-0.07559362798929214,0.0013819814193993807,-0.009539314545691013,-0.12816660106182098,-0.08933805674314499,-0.1334345042705536,0.07080375403165817,-0.023044336587190628,0.022150598466396332,0.13204237818717957,-0.18014442920684814,-0.07167209684848785,-0.11655357480049133,0.08251418173313141,-0.01947968453168869,0.04362080246210098,-0.07047529518604279,0.09483780711889267,-0.0641469731926918,-0.023385317996144295,-0.08841855823993683,0.05483472719788551,-0.05616285279393196,-0.08371050655841827,0.09302080422639847,-0.05568001791834831,-0.12067463994026184,0.09176481515169144,-0.21305140852928162,-0.05640249326825142,0.06658679991960526,-0.14248418807983398,0.054562896490097046,-0.11202144622802734,0.11875591427087784,0.1942874789237976,-0.0007756442064419389,0.05863654613494873,-0.0027668154798448086,-0.16205643117427826,-0.022044215351343155,0.06636203080415726,0.001943283132277429,0.08538918197154999,0.05477108061313629,0.10410961508750916,0.0021480314899235964,0.006436185445636511,0.07638144493103027,0.03679955005645752,0.12921223044395447,0.2262275069952011,0.05273852497339249,0.11200529336929321,-0.21449466049671173,0.03422481566667557,0.03051670640707016,-0.1846010982990265,0.09117588400840759,0.07419905811548233,0.04862620681524277,0.023314116522669792,0.007991960272192955,0.0778592899441719,0.17005768418312073,-0.055824436247348785,0.12855657935142517,0.10298597067594528,0.05434460937976837,0.0425056591629982,-0.03252284601330757,-0.03503354638814926,-0.052784014493227005,-0.14361026883125305,-0.05220380797982216,0.12531495094299316,-0.023172738030552864,-0.023313699290156364,0.09605851769447327,-0.08068220317363739,0.002893848344683647,0.09370959550142288,0.03957860916852951,0.14639714360237122,0.04233658313751221,-0.0868765339255333,-0.046501874923706055,0.008861791342496872,-0.34670960903167725,0.062052611261606216,0.002518018241971731,0.01500297337770462,-0.15980058908462524
