link,0,1,2,3,4,5,6,7,8,9,10,11,12,13,14,15,16,17,18,19,20,21,22,23,24,25,26,27,28,29,30,31,32,33,34,35,36,37,38,39,40,41,42,43,44,45,46,47,48,49,50,51,52,53,54,55,56,57,58,59,60,61,62,63,64,65,66,67,68,69,70,71,72,73,74,75,76,77,78,79,80,81,82,83,84,85,86,87,88,89,90,91,92,93,94,95,96,97,98,99,100,101,102,103,104,105,106,107,108,109,110,111,112,113,114,115,116,117,118,119,120,121,122,123,124,125,126,127,128,129,130,131,132,133,134,135,136,137,138,139,140,141,142,143,144,145,146,147,148,149,150,151,152,153,154,155,156,157,158,159,160,161,162,163,164,165,166,167,168,169,170,171,172,173,174,175,176,177,178,179,180,181,182,183,184,185,186,187,188,189,190,191,192,193,194,195,196,197,198,199,200,201,202,203,204,205,206,207,208,209,210,211,212,213,214,215,216,217,218,219,220,221,222,223,224,225,226,227,228,229,230,231,232,233,234,235,236,237,238,239,240,241,242,243,244,245,246,247,248,249,250,251,252,253,254,255,256,257,258,259,260,261,262,263,264,265,266,267,268,269,270,271,272,273,274,275,276,277,278,279,280,281,282,283,284,285,286,287,288,289,290,291,292,293,294,295,296,297,298,299,300,301,302,303,304,305,306,307,308,309,310,311,312,313,314,315,316,317,318,319,320,321,322,323,324,325,326,327,328,329,330,331,332,333,334,335,336,337,338,339,340,341,342,343,344,345,346,347,348,349,350,351,352,353,354,355,356,357,358,359,360,361,362,363,364,365,366,367,368,369,370,371,372,373,374,375,376,377,378,379,380,381,382,383,384,385,386,387,388,389,390,391,392,393,394,395,396,397,398,399,400,401,402,403,404,405,406,407,408,409,410,411,412,413,414,415,416,417,418,419,420,421,422,423,424,425,426,427,428,429,430,431,432,433,434,435,436,437,438,439,440,441,442,443,444,445,446,447,448,449,450,451,452,453,454,455,456,457,458,459,460,461,462,463,464,465,466,467,468,469,470,471,472,473,474,475,476,477,478,479,480,481,482,483,484,485,486,487,488,489,490,491,492,493,494,495,496,497,498,499,500,501,502,503,504,505,506,507,508,509,510,511,512,513,514,515,516,517,518,519,520,521,522,523,524,525,526,527,528,529,530,531,532,533,534,535,536,537,538,539,540,541,542,543,544,545,546,547,548,549,550,551,552,553,554,555,556,557,558,559,560,561,562,563,564,565,566,567,568,569,570,571,572,573,574,575,576,577,578,579,580,581,582,583,584,585,586,587,588,589,590,591,592,593,594,595,596,597,598,599,600,601,602,603,604,605,606,607,608,609,610,611,612,613,614,615,616,617,618,619,620,621,622,623,624,625,626,627,628,629,630,631,632,633,634,635,636,637,638,639,640,641,642,643,644,645,646,647,648,649,650,651,652,653,654,655,656,657,658,659,660,661,662,663,664,665,666,667,668,669,670,671,672,673,674,675,676,677,678,679,680,681,682,683,684,685,686,687,688,689,690,691,692,693,694,695,696,697,698,699,700,701,702,703,704,705,706,707,708,709,710,711,712,713,714,715,716,717,718,719,720,721,722,723,724,725,726,727,728,729,730,731,732,733,734,735,736,737,738,739,740,741,742,743,744,745,746,747,748,749,750,751,752,753,754,755,756,757,758,759,760,761,762,763,764,765,766,767
ZBprgmSIReQ,-0.02010311186313629,0.061579082161188126,-0.013270651921629906,-0.07542727887630463,0.0166777316480875,0.1039559468626976,0.1456618458032608,0.012680902145802975,-0.07488180696964264,0.06459783762693405,0.11689252406358719,-0.05046636983752251,0.09983385354280472,-0.12260925769805908,0.0711493045091629,-0.166926771402359,0.002896594814956188,-0.016690975055098534,0.14350654184818268,0.09452485293149948,0.1508251279592514,0.058113113045692444,0.06381986290216446,-0.010602018795907497,-0.024996234104037285,-0.010637173429131508,-0.0024371023755520582,0.03796983137726784,0.028641482815146446,0.0786745697259903,0.13739310204982758,0.055121563374996185,-0.03046027198433876,-0.08709709346294403,0.004898264072835445,-0.05745922774076462,-0.009672001004219055,0.015655798837542534,-0.07999445497989655,-0.07994542270898819,0.24458587169647217,-0.07644100487232208,-0.11502182483673096,0.01569034904241562,-0.11497366428375244,-0.01115010678768158,0.08396117389202118,0.14648181200027466,0.11609001457691193,-0.010791480541229248,-0.008447209373116493,-0.014485149644315243,0.011533338576555252,0.0929570123553276,0.033613964915275574,0.0025089180562645197,-0.1311776041984558,0.024643661454319954,-0.0010441240156069398,-0.026275774464011192,-0.11136972159147263,0.05034874007105827,-0.06997378170490265,-0.09630604833364487,-0.12518639862537384,-0.06852605938911438,-0.00801183097064495,-0.10097617655992508,-0.00838483590632677,-0.025529397651553154,0.11557438224554062,0.11331919580698013,0.017310133203864098,0.13703958690166473,-0.011025890707969666,0.06098072603344917,-0.08104340732097626,0.049665309488773346,-0.03503752872347832,-0.022699596360325813,0.12125786393880844,0.16432715952396393,-0.07849927991628647,-0.08575942367315292,-0.1201365515589714,-0.029408147558569908,0.022822247818112373,0.054632171988487244,-0.058111514896154404,-0.14959706366062164,-0.05582936853170395,-0.052003536373376846,0.019626451656222343,-0.01097033265978098,0.15928396582603455,-0.0022557100746780634,0.07350930571556091,-0.003968561068177223,0.03162287920713425,-0.19422408938407898,-0.0747668594121933,0.18698035180568695,-0.026662278920412064,0.15837830305099487,-0.009732941165566444,-0.02993617206811905,0.020924560725688934,-0.004065819084644318,-0.16422399878501892,0.09646499902009964,0.04461352899670601,0.10693401098251343,-0.033450789749622345,0.09746114909648895,-0.12150605022907257,-0.07661230117082596,-0.04891710728406906,0.09823255985975266,0.005816461052745581,0.04161776229739189,-0.011494415812194347,-0.10429609566926956,-0.024511583149433136,-0.006211279425770044,-0.033314552158117294,-0.005669665988534689,-0.04122662544250488,0.07993978261947632,-0.05218835547566414,-0.04184391722083092,0.004016912542283535,0.06685293465852737,-0.009335807524621487,0.0708276703953743,-0.021575389429926872,0.06679144501686096,0.05840350314974785,-0.17931212484836578,-0.031599901616573334,0.006539823953062296,0.0253350380808115,0.08571761846542358,0.009840922430157661,-0.014579098671674728,0.057101842015981674,0.10050928592681885,-0.05360172316431999,0.0037138646002858877,-0.04067287966609001,0.08605777472257614,0.17699302732944489,0.08445010334253311,0.1139906644821167,0.053703878074884415,0.13474403321743011,0.11454446613788605,0.09632892161607742,0.05779362842440605,-0.07389449328184128,0.030738942325115204,-0.12865060567855835,0.05345114320516586,-0.05646423622965813,0.015469249337911606,0.04130614176392555,0.0665818601846695,-0.1717362105846405,-0.13869166374206543,0.10873735696077347,-0.019455112516880035,-0.13252171874046326,-0.028308456763625145,0.03265820071101189,0.08951546996831894,0.006651701871305704,-0.02480718120932579,0.02146163396537304,0.010292727500200272,-0.08426231890916824,0.13564267754554749,0.03643450886011124,0.13693322241306305,0.08535902202129364,0.03395615890622139,0.1130218505859375,0.01579108089208603,0.1638433337211609,-0.033256787806749344,-0.0014059480745345354,-0.06081772223114967,0.1002565324306488,-0.028918707743287086,0.02154138684272766,0.14791236817836761,0.05147343873977661,0.022926989942789078,0.049092862755060196,-0.11829901486635208,0.11904624849557877,0.048439476639032364,0.009190566837787628,-0.13929377496242523,-0.04784269630908966,3.2566011213930324e-05,0.011187315918505192,0.11755415797233582,-0.005816368386149406,-0.09231339395046234,0.16579163074493408,-0.023785393685102463,0.01710650324821472,0.08963798731565475,-0.050699397921562195,-0.006245855242013931,-0.03238927945494652,0.02455800399184227,0.04399030655622482,-0.00969521515071392,-0.05551425367593765,0.01469361037015915,0.08374592661857605,0.14915281534194946,-0.06992784142494202,-0.03585701808333397,0.05352932959794998,0.03541818633675575,-0.0323658362030983,-0.021874377503991127,0.028995541855692863,0.08109842240810394,0.06155897676944733,0.0426030196249485,0.05995961278676987,-0.0064399451948702335,-0.1130528375506401,0.19741825759410858,-0.11896368116140366,0.1868523508310318,0.02081533707678318,-0.36307069659233093,0.010263817384839058,0.12138675898313522,-0.0352526530623436,-0.0057794805616140366,0.2327367514371872,-0.016927804797887802,0.038735147565603256,-0.038674578070640564,0.0367402657866478,0.04165220260620117,0.052005331963300705,0.015027028508484364,-0.06311479210853577,-0.14567016065120697,0.1274901181459427,-0.03136945515871048,-0.20966288447380066,0.16909924149513245,0.27333182096481323,0.12438236176967621,0.02111765742301941,0.043068721890449524,-0.006549603771418333,-0.0801558569073677,-0.0047187190502882,-0.05405363067984581,0.043735798448324203,-0.10239144414663315,-0.009874696843326092,-0.0780879333615303,0.03016090951859951,0.003534486284479499,0.044227056205272675,-0.08725395798683167,-0.027033384889364243,0.014648216776549816,-0.2573406994342804,-0.0700887143611908,-0.025990795344114304,0.019844243302941322,0.08999879658222198,-0.03405420854687691,0.016704987734556198,-0.010680079460144043,-0.1510273814201355,0.04659168794751167,-0.08454863727092743,-0.135888934135437,0.2078053057193756,-0.1858033686876297,-0.024700501933693886,-0.007982044480741024,-0.094842329621315,0.0765456110239029,-0.03568212687969208,-0.007197179831564426,-0.0717817172408104,-0.09051946550607681,-0.04132316634058952,0.12890063226222992,-0.06543158739805222,0.09368320554494858,-0.08962498605251312,-0.07835428416728973,-0.017538079991936684,-0.14552496373653412,0.025496667250990868,-0.09744691848754883,0.03704332187771797,-0.1123897060751915,-0.02197382040321827,0.01886504702270031,0.03974582627415657,0.285473495721817,-0.08709672093391418,0.17397259175777435,-0.03332366421818733,-0.06620313972234726,0.0463394932448864,0.27054303884506226,0.0941118597984314,-0.042672671377658844,-0.05092329531908035,0.0772697925567627,0.04007568582892418,0.10927636921405792,0.005512474104762077,-0.08138184994459152,-0.06827182322740555,-0.05135020986199379,0.06688603013753891,-0.07956119626760483,-0.030810629948973656,-0.06517994403839111,-0.02385951578617096,-0.004194312263280153,0.05673666670918465,0.0575898252427578,-0.08984161913394928,0.036321088671684265,-0.11209039390087128,0.05513293668627739,-0.024590883404016495,0.12766309082508087,-0.1336723268032074,0.06332619488239288,0.052334755659103394,0.18373218178749084,0.05085190758109093,0.05262673273682594,-0.0818583071231842,-0.044791966676712036,-0.12862055003643036,0.012999706901609898,-0.011641249991953373,-0.20594795048236847,0.0583944134414196,0.08328182995319366,-0.0062672533094882965,0.1652742475271225,-0.09705482423305511,0.01425686664879322,-0.12846748530864716,0.0846826508641243,0.009462649933993816,0.08106818050146103,0.06928738951683044,0.0479394868016243,-0.09494661539793015,0.011938739567995071,-0.16611222922801971,-0.047024600207805634,0.13167214393615723,0.1605832576751709,0.026041271165013313,-0.07537005841732025,0.035157911479473114,-0.23409701883792877,-0.3030205965042114,-0.08455714583396912,0.061604950577020645,-0.271272212266922,0.2839473485946655,0.14688058197498322,0.042108744382858276,0.0622255802154541,-0.043040208518505096,0.06486191600561142,0.25028035044670105,0.029196081683039665,0.07707647234201431,-0.2036847472190857,-0.1332862377166748,0.0031110839918255806,0.00739849079400301,0.07945320755243301,-0.06372536718845367,-0.09060211479663849,0.020664582028985023,-0.03191712498664856,-0.07646629959344864,0.20075570046901703,-0.16813404858112335,0.014482281170785427,0.08083868771791458,0.09339890629053116,0.08029068261384964,0.022686129435896873,0.03437626734375954,-0.17099620401859283,-0.03166065737605095,-0.242452472448349,-0.048724591732025146,0.040353644639253616,-0.15511290729045868,-0.16628502309322357,-0.08433539420366287,-0.22074127197265625,-0.07325845211744308,-0.08069083839654922,0.04013561084866524,0.01791059412062168,-0.047465041279792786,-0.020850269123911858,0.011514435522258282,-0.0010707746259868145,0.07905273139476776,-0.03640051558613777,0.009958215057849884,-0.06377685070037842,-0.023142505437135696,-0.01259397342801094,-0.020062698051333427,0.021635299548506737,-0.031896356493234634,-0.10160084813833237,-0.006903255358338356,0.0018594475695863366,-0.013700639829039574,-0.006929859984666109,-0.017106560990214348,-0.023481987416744232,0.2922368347644806,0.1356537640094757,-0.00027779125957749784,0.2348514050245285,0.10135510563850403,-0.16437654197216034,-0.21817634999752045,0.0034279492683708668,-0.051708050072193146,-0.027076583355665207,-0.17082558572292328,-0.07933443039655685,-0.10789651423692703,0.03253646194934845,0.014780024066567421,-0.16073693335056305,-0.0005329390987753868,0.061365097761154175,0.0073414030484855175,0.2945570945739746,-0.10546933859586716,0.09456979483366013,-0.07015550136566162,-0.2012411504983902,-0.07160473614931107,0.086838498711586,0.01238664798438549,-0.0965239554643631,0.19297409057617188,-0.10560324788093567,0.06027330830693245,0.06269635260105133,-0.028742466121912003,-0.061129238456487656,-0.24280256032943726,-0.1255899965763092,0.01826437935233116,0.009087787009775639,-0.03555101156234741,-0.15170854330062866,-0.08970145136117935,-0.2442793995141983,0.012949259951710701,-0.10969787836074829,-0.0498410202562809,-0.062794990837574,-0.008830553852021694,0.01658109948039055,0.02369641698896885,0.09417705982923508,0.07718653231859207,0.0293622724711895,-0.12301217019557953,-0.03038696199655533,-0.12675045430660248,-0.04810203239321709,-0.06191009655594826,-0.13125605881214142,-0.028285957872867584,0.08875966817140579,0.04981846362352371,-0.14720012247562408,-0.05875725299119949,-0.029682671651244164,-0.060442786663770676,-0.039167068898677826,0.008798873052001,0.04338883236050606,0.0506027415394783,0.11817193776369095,0.12685729563236237,-0.11248917132616043,-0.052708979696035385,-0.023828359320759773,-0.052652135491371155,-0.05876491963863373,0.00022830924717709422,0.14136789739131927,0.08895464241504669,0.019800428301095963,-0.0580105260014534,0.0015995590947568417,-0.12363054603338242,0.06178678199648857,0.07998205721378326,-0.01697639375925064,0.038358014076948166,0.017104007303714752,0.09263961762189865,-0.0015032339142635465,0.09147695451974869,0.03650142252445221,-0.05816898122429848,-0.19333340227603912,0.1080406978726387,0.07730937749147415,-0.12121786922216415,0.08949293941259384,-0.07531289756298065,-0.04421147331595421,0.10084464401006699,-0.024370046332478523,0.09626659750938416,0.09762031584978104,-0.03341738134622574,0.08682523667812347,0.025806576013565063,-0.14662553369998932,-0.04414140805602074,-0.0003874695103149861,-0.09802275151014328,-0.03988427296280861,0.21785038709640503,0.020518578588962555,-0.07103753089904785,-0.09598597884178162,0.05514083057641983,-0.06403518468141556,-0.06764207780361176,-0.07037460803985596,0.07089751958847046,0.06429783999919891,0.0677635669708252,-0.09606462717056274,-0.08340262621641159,0.06666290760040283,0.029767077416181564,0.054446231573820114,0.017592448741197586,-0.10011684894561768,0.03481563553214073,0.001248954446054995,-0.017404522746801376,0.014056935906410217,0.060658130794763565,0.08575436472892761,0.06063391640782356,-0.18249894678592682,0.027443431317806244,-0.03526168316602707,-0.0820067822933197,-0.018632672727108,0.16941247880458832,-0.12670458853244781,-0.03236652538180351,0.035403333604335785,0.03451279550790787,-0.021862473338842392,0.027377774938941002,0.1137528121471405,0.03508509695529938,-0.0987238809466362,0.0839085504412651,-0.0056559843942523,-0.061436377465724945,0.023232251405715942,0.06069261580705643,0.08445126563310623,-0.1328270137310028,0.04187392070889473,0.0012657198822125793,0.065399669110775,-0.03824824467301369,0.031790539622306824,-0.12461120635271072,0.013740899972617626,-0.08926960080862045,-0.0018441033316776156,-0.033611271530389786,-0.18321840465068817,0.04552050307393074,0.025953736156225204,-0.1439434438943863,0.027712322771549225,0.0460067093372345,0.07552658021450043,0.0029602868016809225,-0.0709402859210968,-0.03505866974592209,-0.09121242165565491,-0.07096832245588303,-0.07959678024053574,0.09572828561067581,0.07962419837713242,0.02778020314872265,-0.014127453789114952,0.04020092263817787,0.05484124273061752,-0.13660654425621033,-0.07124657183885574,-0.04937509447336197,0.0420837439596653,-0.08454479277133942,0.15387482941150665,0.022888395935297012,0.027688845992088318,-0.1432657539844513,-0.0017453862819820642,0.0066963559947907925,0.0633467435836792,0.0001269274507649243,0.1326136440038681,0.04675706848502159,-0.008238835260272026,-0.028583042323589325,0.10635311156511307,-0.04305814206600189,0.04649819806218147,0.2815125584602356,0.06939470022916794,-0.016146330162882805,-0.008533196523785591,0.02917797490954399,0.06178934872150421,-0.0551932230591774,0.02595687471330166,0.07646100223064423,-0.00041101095848716795,0.11411700397729874,-0.04743736982345581,0.02859637141227722,-0.06244119629263878,-0.07064613699913025,-0.12991973757743835,-0.00841124914586544,0.12048065662384033,0.042513955384492874,-0.0020356958266347647,0.0029593559447675943,0.016360046342015266,-0.09982097893953323,-0.05290618911385536,0.10144012421369553,-0.10667923837900162,0.02147800847887993,0.06799382716417313,-0.08993392437696457,-0.056457336992025375,-0.08428493142127991,0.04847690835595131,0.0032977296505123377,0.08077438175678253,0.11131759732961655,-0.08974967896938324,-0.05098045617341995,-0.10777211934328079,0.05773882567882538,-0.00814039260149002,-0.010055945254862309,-0.03972166031599045,0.10970340669155121,-0.03195682913064957,0.018803279846906662,0.0018486432963982224,0.052906665951013565,0.0004731207445729524,0.006922832690179348,0.10021534562110901,-0.04124779999256134,-0.05647445097565651,0.056077439337968826,-0.12695418298244476,-0.06945819407701492,0.01474915910512209,-0.08669796586036682,0.06128226965665817,-0.11067064851522446,0.11577045917510986,0.18164055049419403,-9.306218998972327e-05,0.04256449267268181,-0.01939694583415985,-0.029674144461750984,-0.035506922751665115,0.036836717277765274,-0.0304871853441,0.09324565529823303,-0.025433307513594627,0.10076163709163666,0.00517193553969264,0.020397378131747246,0.027320561930537224,-0.02150638774037361,0.09417542070150375,0.1726430505514145,0.019427910447120667,0.048422977328300476,-0.15173740684986115,0.10874070227146149,0.04471634328365326,-0.04501679167151451,0.09909790009260178,0.03926221281290054,0.03152590990066528,-0.012649066746234894,0.0015322001418098807,0.09640492498874664,0.13367584347724915,0.0001268111082026735,0.08400795608758926,0.12665551900863647,0.07926654070615768,0.028178391978144646,-0.016956716775894165,0.01728283427655697,-0.028142176568508148,-0.07259932160377502,-0.00627446174621582,0.11965687572956085,-0.02164131961762905,0.010725554078817368,0.05614319071173668,-0.021141698583960533,-0.01011421624571085,0.04224800691008568,0.04925388842821121,0.14256791770458221,-0.01215386763215065,-0.033279795199632645,-0.015267417766153812,0.023384852334856987,-0.2847270667552948,0.03083227016031742,0.024556810036301613,0.053209081292152405,-0.06059786677360535
_eyvPZ-btG0,0.014862652868032455,0.09287107735872269,-0.014399410225450993,0.033398691564798355,0.06063656136393547,0.059538617730140686,0.040132977068424225,0.08750933408737183,-0.08877697587013245,0.07519089430570602,0.16791877150535583,0.11136037111282349,0.025344867259263992,-0.13825823366641998,0.09953612834215164,-0.1511448621749878,-0.05261028930544853,-0.022738011553883553,-0.04506702348589897,0.05372610688209534,0.00011446545977378264,-0.0045130811631679535,0.0990145355463028,-0.05370430275797844,0.0004853771533817053,-0.003254576586186886,-0.06536811590194702,-0.046322133392095566,0.08535750955343246,-0.004387298598885536,-0.016975795850157738,-0.07389505952596664,0.01793576031923294,-0.058666206896305084,0.02377377450466156,0.03162376955151558,-0.09165972471237183,0.04390241205692291,-0.09291094541549683,-0.09213727712631226,0.09336724132299423,-0.023487349972128868,-0.05736583098769188,-0.09329719096422195,-0.1292562037706375,-0.1459810733795166,0.17539313435554504,0.04502249136567116,0.12773583829402924,0.06452860683202744,0.024361269548535347,0.07098627090454102,-0.08396917581558228,0.06139551103115082,-0.013564854860305786,0.04105678200721741,-0.10984071344137192,-0.03165055066347122,-0.16196215152740479,0.06480033695697784,-0.07291585952043533,0.07859999686479568,-0.046715352684259415,0.004856094717979431,-0.13415350019931793,0.025100475177168846,-0.03781295195221901,-0.018273336812853813,-0.02747511863708496,-0.0486326701939106,-0.04726345092058182,0.05837515369057655,0.0848686471581459,0.19110390543937683,-0.07032705843448639,0.01822449453175068,0.049565985798835754,0.12509611248970032,-0.03339824452996254,0.019855881109833717,0.06533624231815338,0.16992974281311035,-0.027514852583408356,-0.008120959624648094,-0.1178998127579689,-0.05365307256579399,-0.011734235100448132,0.16445335745811462,-0.03627889230847359,-0.032273221760988235,-0.1069682165980339,-0.005181862041354179,0.06221487373113632,0.012533205561339855,0.0036340346559882164,0.010022290982306004,0.0552496574819088,0.012687794864177704,0.03850159794092178,-0.15182185173034668,0.000622037157882005,0.08806271106004715,0.0665082335472107,0.182369202375412,-0.030408402904868126,-0.211189866065979,0.05234581232070923,-0.04923737794160843,-0.06508945673704147,0.12113814055919647,0.07013993710279465,0.012485083192586899,-0.07976638525724411,0.09135682135820389,-0.08877914398908615,0.0001529586734250188,0.0798739492893219,0.010184623301029205,0.03742680326104164,-0.0027594896964728832,0.0036145274061709642,-0.043436240404844284,-0.09725584089756012,-0.008858484216034412,-0.005164125934243202,-0.10063681751489639,-0.0007354468107223511,0.041656751185655594,0.04686474800109863,0.08278565853834152,-0.05043810233473778,0.03615820035338402,0.06146613135933876,0.12362314760684967,0.006260311231017113,0.0017022902611643076,0.09189361333847046,-0.11438640207052231,-0.0032948339357972145,0.03331426903605461,0.07891175150871277,0.010881191119551659,-0.03383336961269379,0.004246760159730911,-0.003905491903424263,0.0669906735420227,-0.08482116460800171,0.12332027405500412,-0.07155723869800568,0.09697259217500687,0.14937171339988708,0.11166068911552429,0.05996834486722946,0.003047739854082465,0.0238813403993845,0.02849007211625576,0.036166295409202576,0.0546761192381382,-0.00625603785738349,0.11140806972980499,0.04492533206939697,0.049846213310956955,-0.08565080910921097,-0.031010186299681664,-0.0006060017622075975,0.14343596994876862,-0.13519975543022156,-0.1505439579486847,0.044532809406518936,0.005384160205721855,-0.08261080086231232,-0.021330367773771286,0.04861488938331604,-0.03618377819657326,-0.007458389736711979,-0.029008686542510986,-0.2994299530982971,0.01003002654761076,-0.04559299349784851,0.11047854274511337,-0.03254938870668411,0.090312659740448,0.09555680304765701,-0.013214352540671825,0.038790393620729446,-0.005952855106443167,0.10050207376480103,0.026891499757766724,0.02389346808195114,-0.054188694804906845,0.08186137676239014,-0.019526170566678047,0.05035502463579178,0.06540968269109726,0.044755950570106506,-0.048230238258838654,0.006987499073147774,-0.04490846395492554,0.03574894368648529,0.06610258668661118,-0.01665627583861351,-0.05819487199187279,0.02617063745856285,-0.2656126618385315,-0.004559098742902279,0.04575243219733238,-0.021928831934928894,-0.10760868340730667,0.09614383429288864,0.023748133331537247,-0.0550541952252388,0.12428618967533112,0.06069427356123924,-0.006940390914678574,0.004807962104678154,-0.06580963730812073,0.07166910916566849,-0.06355492025613785,-0.22389109432697296,0.029559297487139702,-0.0008137979893945158,0.06366544961929321,-0.14909151196479797,-0.0618692971765995,-0.013352266512811184,0.14546304941177368,-0.027040526270866394,-0.047876931726932526,0.027843670919537544,0.02755836956202984,0.03725835680961609,-0.013555490411818027,0.09667044878005981,-0.017149543389678,-0.1169280856847763,0.08330587297677994,-0.02214246429502964,0.16276633739471436,0.08470634371042252,-0.374184250831604,0.06488800793886185,0.08989934623241425,-0.034565456211566925,-0.040727466344833374,0.12905769050121307,-0.03324262052774429,0.07664790749549866,0.00600959500297904,0.07532007992267609,-0.0012508948566392064,-0.005567115265876055,0.02960232086479664,0.05483206734061241,-0.08806370198726654,0.13383640348911285,0.08543908596038818,-0.13121309876441956,0.16105151176452637,0.2432025671005249,0.016195762902498245,-0.006064970046281815,0.051106046885252,-0.04002799093723297,-0.04302617162466049,-0.022231629118323326,0.00916077010333538,0.13427552580833435,-0.1884041428565979,0.05488385260105133,-0.018818000331521034,-0.029714275151491165,-0.02266007289290428,0.041676342487335205,-0.05228269100189209,0.010233527980744839,-0.014170395210385323,-0.2722621262073517,-0.06613853573799133,-0.04724164307117462,0.03031684085726738,0.011326062493026257,-0.019365116953849792,0.07175394147634506,0.05752015486359596,-0.02329179458320141,0.027712374925613403,-0.05875585600733757,-0.2391919493675232,0.12004019320011139,-0.03947960212826729,-0.030366750434041023,0.009001639671623707,-0.06783170253038406,-0.14477039873600006,0.035589538514614105,0.04527421295642853,-0.07958455383777618,-0.04702158272266388,0.03696371242403984,0.09748619049787521,-0.03605707362294197,0.058728478848934174,-0.007281205616891384,0.052331648766994476,-0.07724513858556747,-0.09716419130563736,0.12221625447273254,-0.02859163098037243,-0.07942721247673035,-0.059327054768800735,0.0027182791382074356,0.08456572145223618,0.0682254508137703,0.17220619320869446,-0.09201999753713608,0.07315611839294434,0.04761861637234688,-0.038011983036994934,0.025458136573433876,0.1049710139632225,0.10293694585561752,-0.008629062213003635,-0.06498456746339798,0.10518306493759155,-0.05324334278702736,0.0869988203048706,0.09710552543401718,-0.04683263227343559,-0.038688357919454575,0.02703169733285904,0.05214232951402664,0.01555002760142088,0.015786942094564438,-0.060743894428014755,-0.04795418307185173,-0.07582467794418335,-0.02889065444469452,-0.17639802396297455,-0.036791592836380005,0.019570162519812584,0.0232218187302351,-0.0515022799372673,0.07457311451435089,0.05981023237109184,-0.19568246603012085,0.006693709176033735,-0.09221047908067703,0.09086769819259644,0.0424109622836113,0.071261465549469,-0.06932900846004486,-0.10168538987636566,-0.07253005355596542,0.04510718211531639,-0.004674695897847414,-0.1093984991312027,0.05496495962142944,0.13524389266967773,0.12366550415754318,0.11382710188627243,-0.0484524741768837,0.05845554918050766,-0.09725793451070786,0.03543785214424133,-0.07419031858444214,0.0652906596660614,0.02748604118824005,-0.017976298928260803,-0.019995400682091713,-0.021424073725938797,0.01494869776070118,-0.009684590622782707,0.1352701336145401,0.03838624060153961,0.04762941598892212,-0.03650481626391411,0.043133094906806946,-0.10455913096666336,-0.21408957242965698,-0.04346781596541405,0.051364146173000336,-0.12434449046850204,0.13174521923065186,0.0572497695684433,-0.035437487065792084,0.006507122423499823,-0.09219487756490707,0.12377642095088959,0.20719261467456818,0.07731379568576813,0.07607930153608322,-0.004662384744733572,0.02222062274813652,-0.17420825362205505,0.06461399048566818,-0.015002625994384289,-0.07395679503679276,-0.07396668195724487,0.07006177306175232,-0.016237247735261917,-0.033959779888391495,0.12091357260942459,0.011750228703022003,-0.010779744014143944,0.0454915352165699,0.05038601532578468,-0.027072299271821976,0.036901090294122696,-0.06906876713037491,-0.06975293904542923,-0.056089118123054504,-0.18177029490470886,-0.07821565121412277,0.006894947960972786,-0.013335166499018669,-0.07671789079904556,-0.011473326943814754,-0.15877923369407654,-0.053225431591272354,-0.03322271257638931,0.032806456089019775,-0.11294401437044144,0.0012169824913144112,-0.1330447793006897,0.00423256354406476,-0.08279015123844147,0.104642853140831,0.050030894577503204,0.05298907682299614,-0.0458415225148201,-0.015026750043034554,-0.09804210811853409,-0.0369839109480381,0.11023465543985367,-0.058232381939888,-0.04022353142499924,-0.022002534940838814,0.01201444212347269,0.1601657122373581,-0.035669535398483276,0.10670521855354309,0.08381618559360504,0.15700171887874603,0.041640788316726685,0.11647051572799683,0.13317760825157166,0.06118791922926903,-0.1356644630432129,-0.0799136534333229,0.08036428689956665,-0.003581385128200054,0.008787991479039192,-0.07394730299711227,0.09032462537288666,-0.013811447657644749,-0.006978202145546675,0.23872022330760956,-0.2682487964630127,-0.023305529728531837,0.037576764822006226,-0.056943055242300034,0.3891465663909912,-0.047230083495378494,0.026205670088529587,-0.08905468136072159,-0.00021421317069325596,-0.005422506481409073,-0.12688934803009033,0.02020660974085331,-0.11710578948259354,0.022007867693901062,0.003412222256883979,0.02566276676952839,0.11256300657987595,0.003111885394901037,-0.03569483757019043,-0.10093986988067627,-0.11667345464229584,0.04749727621674538,0.03077460452914238,-0.19555436074733734,-0.05343672260642052,-0.06206738203763962,-0.2567245662212372,-0.007195259910076857,-0.107578344643116,0.012887682765722275,-0.03689887747168541,-0.009585651569068432,0.10833147913217545,0.019019290804862976,0.14783082902431488,0.0731462836265564,0.14495806396007538,-0.06573865562677383,0.07142189145088196,-0.019524380564689636,-0.13142859935760498,-0.10796038061380386,-0.2179957628250122,0.015367530286312103,0.05876528099179268,0.0404968298971653,-0.09234633296728134,0.007118766661733389,-0.004299121908843517,-0.001906612771563232,-0.06356612592935562,0.06803126633167267,-0.023577190935611725,0.07242117077112198,0.12781068682670593,-0.023657314479351044,0.028357461094856262,-0.05945388600230217,-0.12474417686462402,0.08942284435033798,-0.047483161091804504,0.024186156690120697,0.10374237596988678,0.04554550349712372,0.029911024495959282,-0.04740135371685028,-0.05063020810484886,-0.06685294955968857,0.05531292408704758,0.0374806672334671,-0.055004797875881195,0.056024838238954544,-0.014542709104716778,0.13838979601860046,-0.09890040755271912,0.12924203276634216,0.04940135404467583,0.0314004123210907,-0.11909805983304977,0.055981867015361786,-0.0487089529633522,-0.06407050043344498,0.028252195566892624,-0.01097174733877182,0.03287143632769585,0.086301788687706,-0.015240265987813473,-0.03504275903105736,0.001709088683128357,-0.02457939088344574,0.03399859741330147,0.08694671839475632,-0.16504426300525665,-0.006598382722586393,-0.018295442685484886,0.04045185446739197,-0.05647079274058342,0.20231959223747253,-0.04910062998533249,-0.002257010666653514,0.018127836287021637,0.0748860239982605,0.042713724076747894,-0.08066032826900482,0.04450947418808937,0.005459260661154985,0.10071353614330292,0.03770924732089043,-0.008096367120742798,-0.02292383275926113,0.005459573119878769,0.057583171874284744,0.05723889544606209,-0.07179762423038483,-0.03007666766643524,0.009075690060853958,0.05809137970209122,-0.06383897364139557,0.02954525128006935,0.07993434369564056,0.023781053721904755,0.08649413287639618,-0.12096532434225082,-0.08736283332109451,0.00512533076107502,-0.035030968487262726,0.05804414674639702,0.13628573715686798,-0.03166420757770538,-0.07716907560825348,-0.0705399140715599,0.039003077894449234,0.10444401204586029,-0.01833198219537735,-0.07364516705274582,0.11647230386734009,-0.05739917233586311,0.13884413242340088,-0.00950216967612505,-0.09435226023197174,-0.02811281383037567,0.08088739216327667,0.08059902489185333,-0.02390832081437111,-0.008792622946202755,0.014442691579461098,0.030170580372214317,-0.057975929230451584,-0.01918402500450611,0.026610737666487694,0.04875794053077698,-0.07548338174819946,0.019741252064704895,-0.08727972954511642,-0.12020616233348846,0.0010625263676047325,-0.0028745338786393404,-0.054966039955616,-0.06295780837535858,0.06273099780082703,0.14087627828121185,0.05119837448000908,-0.043438784778118134,-0.03931726887822151,0.02249780111014843,-0.12340280413627625,-0.010378445498645306,0.05744899809360504,0.16112151741981506,0.019404679536819458,0.06834698468446732,-0.0075553953647613525,0.002365750027820468,-0.13972222805023193,-0.04099150374531746,0.018726421520113945,0.16071458160877228,-0.07303857058286667,0.21359750628471375,0.08586335182189941,-0.03027491271495819,-0.016930924728512764,0.015312768518924713,0.016138549894094467,0.03082459419965744,0.002212745836004615,0.1497504860162735,0.033040087670087814,0.0017178418347612023,-0.03751040995121002,0.18190748989582062,-0.008739312179386616,0.042486973106861115,0.16935861110687256,0.10926619172096252,-0.00030987264472059906,0.07497811317443848,0.019387636333703995,0.034838683903217316,-0.0143299400806427,-0.019509045407176018,0.010575526393949986,-0.06650802493095398,-0.03249035030603409,-0.10924658179283142,-0.02331620082259178,-0.008097151294350624,-0.005061723291873932,-0.07870776951313019,-0.033773865550756454,-0.008576969616115093,-0.045324865728616714,0.034718479961156845,0.01455167680978775,0.05660824850201607,-0.05799016356468201,-0.11178111284971237,0.034418895840644836,0.06485879421234131,0.07065659016370773,-0.03701367974281311,-0.11357850581407547,0.02199403941631317,0.003873913548886776,0.03005719929933548,-0.005140981171280146,0.004370609764009714,0.08245278894901276,-0.20162630081176758,-0.052518244832754135,-0.01274974923580885,0.04469575732946396,0.04341289773583412,-0.0838690772652626,-0.024680089205503464,0.005832747556269169,-0.0944891944527626,-0.048489317297935486,-0.006481584161520004,0.09243084490299225,0.007209198549389839,-0.08891595155000687,0.06839700043201447,-0.03890269622206688,-0.05578945204615593,-0.003075412241742015,-0.09971792250871658,0.03793571516871452,0.08569572120904922,-0.1579582542181015,-0.05406419187784195,-0.11996908485889435,-0.06562680751085281,0.08293744176626205,-0.012765896506607533,0.010197533294558525,-0.0934244766831398,-0.0038447037804871798,0.0061206212267279625,-0.09012946486473083,-0.1991230547428131,0.06547501683235168,0.06701947748661041,0.13349854946136475,-0.0419265478849411,-0.10459309816360474,0.011212768033146858,-0.07472508400678635,0.16107049584388733,0.07599179446697235,0.05663131922483444,0.023850195109844208,-0.12594962120056152,-0.043739236891269684,0.07295912504196167,-0.04063774645328522,0.054022084921598434,0.12064322084188461,-0.017589004710316658,0.04391278326511383,-0.08508142828941345,0.05449208244681358,0.1422281265258789,0.03534888103604317,0.05378499627113342,0.14638862013816833,0.057823438197374344,-0.07997597008943558,-0.051151372492313385,0.02828088589012623,0.029177119955420494,-0.09191540628671646,-0.024844540283083916,0.13476815819740295,0.01775217242538929,-0.1163991317152977,0.03567381575703621,-0.03777775168418884,-0.01062745600938797,-0.07657703757286072,-0.02031179890036583,0.14731810986995697,-0.02641390822827816,-0.06808502227067947,0.02236734889447689,0.0007237809477373958,-0.012289555743336678,0.0656861662864685,0.03836684674024582,-0.004707451909780502,-0.04112907871603966
U-RpdgYI6TY,-0.06939955055713654,0.06824127584695816,-0.013305929489433765,-0.030990082770586014,-0.03278476744890213,0.09037743508815765,0.07462816685438156,0.036328528076410294,0.030363241210579872,0.09311800450086594,0.07594866305589676,0.047883108258247375,0.09041916579008102,-0.0422993078827858,0.06183747574687004,-0.0907428190112114,0.054189037531614304,0.04402528330683708,0.04955436661839485,0.04814204201102257,0.0911286324262619,0.026196962222456932,0.09379013627767563,0.011937678791582584,-0.08970188349485397,-0.053036950528621674,-0.0012744881678372622,0.04425184056162834,0.07548846304416656,0.04610844701528549,0.11929862201213837,0.052745163440704346,-0.05662214756011963,0.0021542836911976337,0.0002528991608414799,-0.0202956460416317,-0.06745424121618271,0.005315821152180433,-0.07955513894557953,-0.05043550580739975,0.16887684166431427,-0.14021821320056915,-0.08383490145206451,0.027872631326317787,-0.10888855159282684,-0.06001826375722885,0.1202607974410057,0.16401568055152893,0.016094444319605827,-0.020208045840263367,0.0537482425570488,-0.007490464951843023,-0.03979213908314705,0.09404972940683365,0.10429587215185165,0.01391178835183382,-0.12005740404129028,0.0035051493905484676,0.022137921303510666,0.025187451392412186,-0.14609965682029724,-0.019254229962825775,-0.05631399154663086,-0.048704542219638824,-0.1090562492609024,-0.04260740429162979,0.0790892243385315,-0.06531461328268051,-0.04179922491312027,-0.010596550069749355,0.05265510827302933,0.07580481469631195,0.00011220362648600712,0.1307026892900467,-0.07572846114635468,0.0804128497838974,-0.13465948402881622,0.030733684077858925,0.028927436098456383,-0.01707714982330799,0.11683573573827744,0.07484475523233414,-0.11604119837284088,-0.05346427112817764,-0.06116492301225662,0.038666628301143646,0.036766309291124344,0.032817404717206955,-0.07446682453155518,-0.1496579945087433,0.022706855088472366,-0.05241795629262924,0.004181046038866043,0.014018049463629723,0.1419658064842224,0.04504118114709854,0.0910353809595108,0.03837833181023598,0.09141017496585846,-0.1610112488269806,-0.017326459288597107,0.17032058537006378,-0.027298659086227417,0.07498782873153687,-0.053893059492111206,0.007035518996417522,0.024872388690710068,0.01125255599617958,-0.08874460309743881,0.038436003029346466,0.04488237574696541,0.06862171739339828,-0.019022127613425255,0.0554804690182209,-0.03425052389502525,-0.08136926591396332,0.005238407291471958,0.03900280222296715,0.007294469512999058,0.028310740366578102,0.1384674608707428,-0.06531787663698196,-0.047140009701251984,0.004756423644721508,0.08245990425348282,0.0618583969771862,-0.07219835370779037,0.05493728443980217,-0.0035969442687928677,-0.09315363317728043,-0.07336518168449402,0.030817080289125443,0.010410608723759651,0.055511653423309326,-0.039767518639564514,-0.08145590126514435,0.04398123174905777,-0.13268032670021057,0.07394860684871674,0.0032618888653814793,0.054745059460401535,0.07875458896160126,-0.037129659205675125,0.07194037735462189,0.05345685034990311,0.06029424071311951,0.04439093917608261,0.016530022025108337,-0.011760839261114597,0.06921230256557465,0.07527952641248703,0.07494227588176727,-0.002651727292686701,0.021533552557229996,0.05533133074641228,0.08835792541503906,-0.033080123364925385,-0.02724827267229557,-0.06111897900700569,0.08931373059749603,-0.12725789844989777,0.07129210978746414,-0.049030132591724396,0.0023908300790935755,0.002129251603037119,0.10839967429637909,-0.1340838372707367,-0.07187969982624054,0.15549923479557037,-0.09396710246801376,-0.17648689448833466,0.026194270700216293,0.07218564301729202,0.13151326775550842,0.07260949909687042,0.05741999298334122,0.009570193476974964,-0.046888675540685654,-0.035589799284935,0.1352197825908661,-0.02300904132425785,0.10648037493228912,0.015833523124456406,0.02853260561823845,-0.07593643665313721,0.014715954661369324,0.021172503009438515,-0.11197111755609512,0.04441940784454346,-0.0714181438088417,0.020932579413056374,-0.04537295177578926,0.00452726986259222,0.06726278364658356,0.07577143609523773,0.048184316605329514,0.05753619596362114,-0.09953659772872925,0.10129612684249878,0.08037615567445755,0.03899996355175972,-0.10936343669891357,-0.013760427944362164,0.10317730903625488,-0.00702793151140213,0.0636538714170456,0.06874552369117737,-0.0393853522837162,0.05457339435815811,-0.05908270925283432,0.05198294669389725,0.01948659121990204,-0.036158014088869095,0.04422003775835037,0.0002491187187843025,0.025805775076150894,0.05122850090265274,0.019070889800786972,-0.10917912423610687,0.02687191031873226,0.04883549362421036,0.10426833480596542,-0.05660033971071243,-0.05989621952176094,0.009880803525447845,0.058039456605911255,-0.05210345983505249,-0.041219256818294525,-0.022768232971429825,-0.04862692579627037,0.06979069858789444,0.04726264625787735,0.02576870657503605,0.011543089523911476,-0.10488158464431763,0.16354303061962128,0.002055713441222906,0.09354152530431747,0.06132702901959419,-0.1601128876209259,-0.00611196830868721,0.02581743337213993,-0.042091190814971924,-0.02621864154934883,0.2260439693927765,-0.11986569315195084,-0.002903020940721035,-0.06160743162035942,0.0009055575355887413,-0.022797174751758575,0.013561010360717773,0.05513834208250046,-0.005088930018246174,-0.11328031867742538,0.07470802962779999,0.03370243310928345,-0.22102224826812744,0.08554785698652267,0.2713063359260559,0.05345641449093819,0.012498058378696442,-0.01754235289990902,0.0070165907964110374,-0.09995375573635101,0.09860432147979736,0.0005091878701932728,0.09104899317026138,-0.23147866129875183,-0.04708358272910118,-0.06926488876342773,-0.003209571121260524,0.021652180701494217,0.020153358578681946,-0.04004194587469101,-0.0509403720498085,0.030312877148389816,-0.04412822797894478,-0.08313189446926117,-0.028615865856409073,0.02396925911307335,0.04187721759080887,-0.008191967383027077,-0.012678581289947033,0.03881475329399109,-0.057424090802669525,0.05251746624708176,-0.07031675428152084,-0.13365451991558075,0.13231052458286285,-0.09002767503261566,0.055957578122615814,0.009724056348204613,-0.03202765807509422,0.05647850036621094,0.0057897912338376045,0.007039317395538092,-0.03506949543952942,-0.10610119253396988,-0.04528259485960007,-0.00585981784388423,-0.003374408232048154,0.056878019124269485,-0.11065415292978287,-0.037543755024671555,-0.01882001757621765,-0.10382239520549774,0.013816694729030132,-0.09512622654438019,0.011471977457404137,-0.07460124790668488,0.030823975801467896,-0.04472583532333374,0.0674004778265953,0.23072662949562073,-0.064165860414505,0.197962686419487,0.019467337056994438,0.022632896900177002,0.06416494399309158,0.23468825221061707,0.05747295543551445,-0.08030520379543304,-0.06002570316195488,0.004854225553572178,0.010574400424957275,-0.012510997243225574,0.01932741142809391,-0.07061837613582611,-0.05038338899612427,0.015220226719975471,0.04934297129511833,-0.08422084152698517,0.07742328941822052,-0.061643678694963455,0.026059865951538086,-0.08436042070388794,0.0460900142788887,0.0561680868268013,-0.09887997061014175,0.03221181035041809,-0.060245953500270844,0.01799694634974003,0.003624500008299947,0.09017229080200195,-0.043885909020900726,0.12651219964027405,0.14304475486278534,0.19229641556739807,0.1265687793493271,0.02160150371491909,-0.13143391907215118,-0.02133382484316826,-0.08978863060474396,0.010786863043904305,-0.039611250162124634,-0.1188933253288269,0.06426486372947693,0.04633146524429321,-0.09193655103445053,0.12418071180582047,-0.04142766818404198,-0.040215782821178436,-0.12928378582000732,0.019787998870015144,0.08035887777805328,0.05411120131611824,0.004699007607996464,0.02755492366850376,-0.06333804875612259,-0.036914676427841187,-0.17860540747642517,-0.052905093878507614,0.021406397223472595,0.06762076914310455,0.026860442012548447,0.030491063371300697,0.040892887860536575,-0.2570430040359497,-0.1328905075788498,-0.007396863307803869,-0.021306728944182396,-0.10583678632974625,0.21915896236896515,0.10306672751903534,0.011120995506644249,0.0318780317902565,-0.03958842530846596,0.003269242588430643,0.10080955177545547,0.020510485395789146,0.06632468849420547,-0.16264812648296356,-0.07429127395153046,0.0030353509355336428,0.03472939878702164,0.038453131914138794,-0.06473580747842789,-0.11357086896896362,0.02530861273407936,-0.01090146042406559,-0.04217289760708809,0.19009819626808167,-0.148226797580719,0.040496986359357834,0.063168466091156,0.08479144424200058,0.017576683312654495,-0.021596353501081467,0.06704912334680557,-0.06844472140073776,0.08610673248767853,-0.1651894450187683,-0.041366733610630035,0.04946672543883324,-0.13654474914073944,-0.09666489064693451,-0.05212470144033432,-0.06299488991498947,-0.1114632710814476,-0.0216219499707222,0.015821512788534164,0.028695810586214066,0.0008400218794122338,-0.045584943145513535,0.026401042938232422,-0.00419476255774498,0.14694535732269287,0.03227316588163376,0.014082898385822773,0.02011052705347538,-0.019415665417909622,-0.0949273481965065,-0.016502398997545242,0.025983940809965134,-0.04076242446899414,-0.12938998639583588,-0.008237515576183796,-0.08207263797521591,0.011034272611141205,-0.016885552555322647,-0.03526899963617325,0.024448785930871964,0.20471704006195068,0.045761968940496445,0.08379362523555756,0.17738133668899536,-0.02036300301551819,-0.1235954612493515,-0.1688677966594696,0.05154532939195633,-0.04861115664243698,0.01576242223381996,-0.15278561413288116,0.13826188445091248,-0.048716310411691666,0.012755699455738068,0.05962206795811653,-0.01376089733093977,0.016539838165044785,0.0771591067314148,0.02039068005979061,0.1693820357322693,-0.11458617448806763,0.0466996431350708,-0.00956849753856659,-0.14624366164207458,-0.08951897919178009,0.06360290944576263,0.008907275274395943,-0.08490230143070221,0.1028510183095932,-0.08855396509170532,0.05128353089094162,0.11428048461675644,0.06667943298816681,0.005243443883955479,-0.09130052477121353,-0.1405923068523407,0.15858599543571472,0.08210216462612152,-0.008064744994044304,-0.11965642869472504,-0.05707015469670296,-0.1028585210442543,0.07009182870388031,-0.11432470381259918,0.014509784989058971,-0.1297762393951416,0.04241041839122772,0.05282428860664368,0.05367804318666458,0.05874547362327576,0.06649485975503922,0.08786196261644363,-0.07043774425983429,0.01161679346114397,-0.010751602239906788,-0.09318234026432037,-0.11100509017705917,-0.22224552929401398,-0.0412975437939167,0.025620821863412857,0.05078092962503433,-0.09979692846536636,-0.02220349945127964,-0.03715469688177109,-0.02277514338493347,-0.02479039505124092,-0.047622837126255035,-0.006970931775867939,-0.0024068006314337254,0.09458466619253159,0.2018246203660965,-0.014467321336269379,-0.013575335964560509,0.14047746360301971,-0.12886247038841248,-0.06407872587442398,0.03229018300771713,0.0826282650232315,0.034414488822221756,8.052978955674917e-05,-0.036553528159856796,0.034754980355501175,-0.13485278189182281,0.08246617019176483,0.048414409160614014,-0.031925514340400696,-0.02259274199604988,0.03771314024925232,0.07152554392814636,0.01414827723056078,0.06570574641227722,0.0275697261095047,-0.050586946308612823,-0.04159649461507797,-0.025454282760620117,0.07631121575832367,-0.02956201694905758,0.02342088147997856,-0.05792493373155594,-0.03376666456460953,-0.0027657158207148314,0.002664846833795309,0.11410786956548691,0.09055739641189575,-0.03200894594192505,0.06710385531187057,-0.008064674213528633,-0.13782159984111786,0.008821163326501846,0.01875014789402485,-0.05552191659808159,-0.010153394192457199,0.1145268902182579,-0.015357797965407372,-0.051020823419094086,-0.09053611755371094,-0.015512442216277122,-0.13951876759529114,0.0780935063958168,-0.030813569203019142,0.002319611143320799,0.04192184656858444,0.07069440931081772,-0.08924204856157303,-0.01581210270524025,0.030898084864020348,0.025048350915312767,0.015300899744033813,0.06324749439954758,-0.034042906016111374,0.012772682122886181,0.0550907626748085,-0.00671767583116889,-0.020196164026856422,0.06855801492929459,0.07997731119394302,0.06400467455387115,-0.08805148303508759,0.03408370167016983,-0.03377418592572212,-0.028430592268705368,-0.02306782826781273,0.027834683656692505,-0.07669927924871445,-0.022755270823836327,0.02435414493083954,0.02680439129471779,-0.007739676628261805,-0.04501070827245712,0.09514714777469635,-0.02280374988913536,-0.054932981729507446,0.023258594796061516,-0.019159585237503052,-0.07908962666988373,-0.05872795730829239,-0.024860961362719536,0.09757322818040848,-0.07288389652967453,-0.06696630269289017,-0.006980898790061474,-0.02802422270178795,-0.007886460982263088,-0.004497298505157232,-0.0759236291050911,0.010398739017546177,-0.012131129391491413,0.06689369678497314,-0.029956817626953125,-0.14207974076271057,0.06833956390619278,0.05294061824679375,-0.10809388011693954,-0.016717368736863136,0.128482386469841,0.045485157519578934,0.04075543209910393,-0.03672874718904495,-0.08678926527500153,-0.0844615250825882,-0.07709770649671555,-0.11308515071868896,0.12663644552230835,-0.03061908483505249,0.024430744349956512,0.0001332726387772709,0.0750010758638382,-0.039182938635349274,0.007786777801811695,-0.08725487440824509,-0.03128721937537193,0.026519235223531723,-0.12131498754024506,0.13541319966316223,0.010410365648567677,0.050591062754392624,-0.06702999025583267,-0.029842456802725792,0.00523094367235899,0.03629949316382408,-0.002113024238497019,0.10435853898525238,0.03973463922739029,-0.015839524567127228,-0.004893763456493616,-0.019361281767487526,-0.06744606792926788,0.08339016139507294,0.19833126664161682,0.16368742287158966,-0.054408617317676544,0.019573545083403587,0.02578800916671753,0.01927204057574272,0.029701286926865578,-0.034853026270866394,-0.010945772752165794,0.0918925479054451,0.04139919579029083,-0.011981582269072533,0.05495385080575943,-0.044434331357479095,-0.06804700940847397,-0.10020945221185684,-0.009660063311457634,0.031571563333272934,-0.011428304016590118,0.01597188599407673,-0.0034288414753973484,-0.022292528301477432,-0.08125752210617065,-0.008232170715928078,0.0843302458524704,-0.054648082703351974,0.030638456344604492,0.14521224796772003,-0.05551774427294731,-0.0885177031159401,-0.07656954973936081,0.005608920007944107,0.05339881032705307,0.04518868774175644,0.11068453639745712,-0.03754415363073349,5.444511771202087e-06,-0.06416143476963043,0.00610565859824419,0.03591722995042801,0.07803374528884888,-0.034890901297330856,0.13494773209095,-0.05940734222531319,-0.008072504773736,-0.03883662819862366,0.04266609996557236,-0.15258735418319702,-0.07398737967014313,0.08702157437801361,-0.04021695256233215,-0.05117473751306534,0.028241094201803207,-0.06207915022969246,-0.08665935695171356,-0.05388537794351578,-0.053939737379550934,-0.014131451025605202,-0.1070270985364914,0.06743089109659195,0.13078521192073822,-0.0005501736886799335,0.035742007195949554,0.005433422978967428,0.008713901042938232,-0.02643369697034359,-0.03588532656431198,0.058772921562194824,0.12271261215209961,-0.04248173162341118,0.04494152218103409,-0.007116925902664661,-0.0570320263504982,0.02290920726954937,0.011592630296945572,0.024184079840779305,0.08883155882358551,-0.013994088396430016,-0.01673850417137146,-0.059101659804582596,0.019869061186909676,0.038108136504888535,-0.151974156498909,0.12479716539382935,0.052452344447374344,-0.03323829174041748,0.11548884212970734,0.007431331090629101,0.06542402505874634,0.14721062779426575,-0.05265016108751297,0.10668060928583145,0.08391974866390228,-0.025897985324263573,-0.07028327882289886,-0.01963462494313717,-0.022363832220435143,0.05601009726524353,-0.1488812416791916,-0.09833350032567978,0.04705274850130081,-0.02091870829463005,0.0013741061557084322,0.03440992906689644,-0.020415503531694412,-0.11227960884571075,0.042018093168735504,0.018693622201681137,0.06165727227926254,-0.027810612693428993,-0.07005185633897781,0.010674087330698967,0.022151131182909012,-0.11033165454864502,-0.01638573408126831,0.006965442560613155,0.002409257460385561,-0.07940519601106644
KtGUzTr_MC4,0.03609815984964371,0.20107413828372955,-0.006785425823181868,0.01613679900765419,0.09638046473264694,0.04686564952135086,0.05833066627383232,0.06937265396118164,0.003788965055719018,0.04949774593114853,0.1003931388258934,0.042015232145786285,-0.00203691516071558,0.035045772790908813,0.09432057291269302,-0.24955971539020538,0.022001439705491066,0.07555244117975235,-0.06934361904859543,0.08331320434808731,0.05905485153198242,-0.1055036187171936,0.07296281307935715,-0.058171071112155914,-0.10000234097242355,-0.07494556903839111,-0.10858123004436493,0.012513597495853901,0.10727720707654953,-0.14986002445220947,-0.03780006989836693,-0.05104827508330345,0.049219436943531036,-0.007413745392113924,0.01981673203408718,0.04270639643073082,0.012650991789996624,0.07776816189289093,-0.01615031808614731,-0.01397907454520464,0.181825190782547,-0.08443242311477661,-0.06476999819278717,-0.07635435461997986,-0.0737619400024414,-0.14695289731025696,0.06426800042390823,0.09649592638015747,0.06573034822940826,0.020360443741083145,0.03345659375190735,0.12880194187164307,-0.0678221806883812,0.04151897132396698,0.17601610720157623,0.02106531523168087,-0.03872036188840866,-0.0801422968506813,-0.024249328300356865,-0.05919228866696358,-0.18545794486999512,0.06258658319711685,0.026418844237923622,-0.047101642936468124,-0.13204528391361237,0.012899132445454597,0.030426429584622383,-0.1611068844795227,-0.04603920504450798,0.03725558891892433,0.04246894642710686,0.13409055769443512,0.0006847144104540348,0.12525106966495514,-0.0071574668399989605,0.15230974555015564,-0.06528449803590775,0.09468922019004822,0.04202248528599739,-0.0015040994621813297,-0.09747041016817093,0.10219630599021912,-0.028834009543061256,-0.00888021569699049,-0.020417572930455208,0.052331797778606415,0.06874589622020721,0.08262766897678375,-0.0957501158118248,-0.06459683179855347,0.02916685678064823,-0.08255113661289215,0.011021476238965988,0.06646215915679932,0.05736047402024269,-0.07319268584251404,0.1265261471271515,-0.0046957191079854965,0.12519189715385437,-0.224180206656456,-0.08507184684276581,0.09786258637905121,-0.03194523975253105,0.09616078436374664,0.029671398922801018,0.0070695336908102036,-0.07817858457565308,-0.05319450423121452,-0.07804691046476364,0.03401528671383858,-0.030560646206140518,0.012853468768298626,0.00060650723753497,0.08408719301223755,-0.07034426182508469,-0.044071048498153687,0.10342548042535782,0.0026876134797930717,0.13089099526405334,-0.012481171637773514,-0.037364691495895386,-0.03994887322187424,-0.060790374875068665,-0.03384966403245926,0.013282508589327335,-0.014334646984934807,-0.13279226422309875,0.06162324175238609,-0.007632419932633638,-0.004609099589288235,-0.02673869952559471,-0.032657843083143234,0.011029163375496864,0.14595985412597656,-0.05436478927731514,0.035323645919561386,0.10130041837692261,-0.1344885379076004,0.09779776632785797,0.08737488090991974,0.06839361786842346,0.022444888949394226,-0.09933726489543915,0.07206760346889496,0.00616053119301796,-0.021009614691138268,0.02916792407631874,0.0035440600477159023,-0.06022316962480545,0.1492244303226471,0.057637035846710205,0.09366512298583984,-0.004085242748260498,0.03839532285928726,-0.010608014650642872,0.14576882123947144,0.11228522658348083,-0.018683137372136116,-0.05094663053750992,0.17551645636558533,-0.055121272802352905,0.012263525277376175,-0.004095288459211588,-0.050985366106033325,0.07252532988786697,0.04862019419670105,-0.09119148552417755,-0.01714906096458435,0.1841547191143036,0.042323146015405655,-0.11296799033880234,0.06726757436990738,0.04371096193790436,0.10100486129522324,0.1339145302772522,0.21346430480480194,-0.02468469925224781,-0.026763971894979477,0.04481372982263565,0.13340148329734802,0.06993162631988525,0.08988017588853836,0.07061197608709335,-0.004451203625649214,0.0933794379234314,0.033068738877773285,0.010173206217586994,0.021127523854374886,-0.030692610889673233,-0.07316044718027115,0.040826525539159775,-0.0355793833732605,0.10969967395067215,0.03406911715865135,0.02066042460501194,0.01448079850524664,0.12850525975227356,-0.09884516894817352,0.13548675179481506,0.025555212050676346,-0.05098357051610947,-0.0497579425573349,0.07014534622430801,0.007947348058223724,0.00021953383111394942,0.06561411917209625,0.1486179381608963,-0.047296829521656036,0.03254636377096176,0.16296356916427612,0.2423321008682251,0.03750944510102272,0.006711478345096111,0.01926383003592491,0.07533621788024902,-0.13553830981254578,0.07187464088201523,-0.021090827882289886,-0.07494629919528961,0.1845254898071289,-0.022188013419508934,-0.020772840827703476,-0.039753079414367676,0.009190447628498077,-0.11205384135246277,0.14895007014274597,0.011156277731060982,-0.06773189455270767,-0.06151792034506798,-0.06647689640522003,0.007992089726030827,0.02193240262567997,0.09607935696840286,-0.0038759433664381504,-0.031260743737220764,0.08917790651321411,0.06718651950359344,-0.059628818184137344,0.08882541954517365,-0.3138243556022644,0.005620126146823168,0.1079944372177124,0.0212562158703804,0.029859153553843498,0.09460728615522385,-0.01608176901936531,0.14387255907058716,0.018676703795790672,0.10482289642095566,0.021541370078921318,0.028029028326272964,0.02749401517212391,-0.012252961285412312,-0.023732438683509827,0.002806776436045766,-0.030096236616373062,-0.2225339412689209,0.03851838782429695,0.29163670539855957,0.028812596574425697,0.03634914383292198,-0.007346240803599358,-0.04681506007909775,-0.04042467847466469,0.023028302937746048,-0.05031765624880791,0.14291459321975708,-0.2207726389169693,0.04535577818751335,-0.020878905430436134,0.05438811331987381,-0.025243200361728668,-0.030070379376411438,-0.03642459586262703,0.05925663188099861,0.016885574907064438,-0.07560304552316666,-0.0877639427781105,-0.08808533847332001,0.02393537387251854,0.07598522305488586,-0.03959793224930763,-0.02146703563630581,0.05224369093775749,-0.07676160335540771,0.13418591022491455,0.062004465609788895,-0.08628331124782562,0.18104872107505798,-0.14417865872383118,0.03913427144289017,-0.014537214301526546,-0.003923038486391306,0.086712546646595,0.06144121661782265,0.1353827267885208,-0.14699412882328033,-0.19685889780521393,0.05738481134176254,0.1300857663154602,-0.05340982601046562,0.0043351915664970875,0.008841676637530327,0.03546921908855438,0.009103662334382534,-0.06777878850698471,-0.08157342672348022,0.053731054067611694,0.03413974866271019,-0.012300180271267891,-0.13573095202445984,-0.06361700594425201,-0.006728142034262419,0.2952403128147125,-0.08359402418136597,-0.07052989304065704,-0.061713483184576035,-0.03563031554222107,0.052352286875247955,0.21227803826332092,0.05193302407860756,-0.009806381538510323,-0.0574658177793026,0.030251581221818924,-0.053286176174879074,-0.04135763272643089,0.09780183434486389,0.005983860697597265,0.13420246541500092,0.010801300406455994,0.05932621657848358,-0.03659164905548096,0.05525822937488556,-0.09669269621372223,-0.10301068425178528,-0.18383103609085083,0.06915540993213654,-0.1709420382976532,-0.04678777605295181,-0.05610981211066246,0.03357365354895592,-0.12159890681505203,-0.03689248114824295,0.08060750365257263,-0.1280515193939209,0.12005885690450668,0.06254435330629349,-0.0029329084791243076,-0.11625652015209198,-0.06401961296796799,-0.07645871490240097,-0.10110177844762802,-0.03552401810884476,-0.06070343405008316,0.06625546514987946,-0.00616290420293808,-0.08774684369564056,0.15812987089157104,0.0038634806405752897,0.021221861243247986,0.0002450495958328247,0.11182807385921478,-0.09607776254415512,-0.046563081443309784,0.16820552945137024,0.12227850407361984,-0.0664563775062561,-0.05703799054026604,0.009529009461402893,0.035369064658880234,0.0016440445324406028,-0.08883628994226456,0.005178230348974466,0.09658180177211761,0.05196792259812355,-0.07086630910634995,0.08403659611940384,-0.09014006704092026,-0.16156554222106934,0.034799691289663315,0.08281886577606201,-0.0277825016528368,0.19977816939353943,-0.025105169042944908,-0.06996149569749832,0.03882843255996704,-0.12764878571033478,-0.03442664071917534,0.12749436497688293,0.027505503967404366,0.04985128715634346,-0.17546825110912323,0.008406592532992363,-0.10556068271398544,-0.03865405172109604,-0.021338684484362602,-0.02479686588048935,0.0043522948399186134,-0.0014503137208521366,0.02535383775830269,-0.046915117651224136,0.1092633306980133,-0.008703270927071571,0.08247563987970352,0.0488508976995945,0.015764016658067703,0.1527216136455536,0.016518346965312958,-0.0026775819715112448,-0.17365911602973938,-0.08484779298305511,-0.0023424208629876375,0.05997680127620697,0.07909449934959412,-0.06749532371759415,-0.15673865377902985,-0.007638158276677132,-0.11168686300516129,-0.059027183800935745,0.04200448840856552,-0.005809121765196323,-0.016282586380839348,0.01010255515575409,-0.033931005746126175,-0.0470147468149662,-0.009653553366661072,0.008091159164905548,0.07160550355911255,0.07189218699932098,0.06192489713430405,-0.0476580448448658,-0.15201862156391144,-0.10816226899623871,0.014553184621036053,-0.16234727203845978,-0.18370817601680756,-0.06711907684803009,9.98627147055231e-05,-0.06618870049715042,-0.11469241231679916,0.09019848704338074,0.23636266589164734,0.027723083272576332,-0.03579849749803543,0.0014929965836927295,0.1551872342824936,0.050890304148197174,-0.11949291825294495,0.025764044374227524,0.06594862788915634,-0.13519485294818878,0.0036545295733958483,-0.09169422090053558,0.07396729290485382,-0.020014621317386627,0.000545423710718751,0.06431814283132553,-0.2018698900938034,-0.0200007576495409,0.013754825107753277,0.010903285816311836,0.08097048103809357,-0.12246401607990265,0.10686419159173965,-0.07010627537965775,-0.08675406873226166,0.0748545229434967,-0.13262753188610077,0.06574687361717224,-0.08237229287624359,0.08629756420850754,-0.03889818117022514,0.042731985449790955,0.182219460606575,0.04056503251194954,-0.07106857001781464,-0.05874594300985336,-0.21940982341766357,0.046689338982105255,0.04281138256192207,-0.08084931969642639,-0.00831324327737093,-0.049623023718595505,-0.25050416588783264,0.06183407083153725,-0.0432729534804821,0.01763349585235119,-0.04622837156057358,0.005913651082664728,0.010594358667731285,0.0031666429713368416,0.20410631597042084,0.012372887693345547,0.151918426156044,-0.09562431275844574,-0.110173799097538,-0.06527683138847351,-0.1472557783126831,0.10611732304096222,-0.2202039510011673,-0.07745743542909622,0.07240306586027145,0.0394018292427063,-0.07451055198907852,-0.0029122454579919577,0.04558718577027321,0.06687071174383163,-0.030337056145071983,-0.038057394325733185,-0.06424769014120102,0.12643440067768097,0.05354119837284088,0.05062524601817131,-0.12845240533351898,-0.022600706666707993,0.3242349624633789,-0.09484711289405823,-0.01691267639398575,-0.12508389353752136,-0.0016552885062992573,-0.003435025457292795,-0.028893282637000084,-0.131962850689888,-0.11019578576087952,-0.056874845176935196,0.05698931962251663,-0.018849818035960197,-0.021117519587278366,-0.05352500453591347,0.03406680375337601,0.09474605321884155,-0.04843687638640404,0.051267195492982864,0.0848042443394661,-0.006460690870881081,0.16612467169761658,0.06270964443683624,-0.02231317199766636,-0.03850637003779411,0.14523671567440033,-0.03783203288912773,-0.010964571498334408,-0.0002417804644210264,0.004676419775933027,-0.06730153411626816,0.08319184929132462,-0.007443507667630911,-0.03411906212568283,0.023458383977413177,-0.19176608324050903,0.03422247990965843,-0.03515010327100754,-0.05308128520846367,-0.045801952481269836,0.11588943004608154,-0.019065072759985924,-0.050614017993211746,-0.021975835785269737,0.002083816798403859,-0.0370708703994751,0.11568114161491394,-0.10446882247924805,-0.01204932015389204,0.05649940297007561,-0.02080392837524414,0.014826137572526932,-0.06486950814723969,0.020667467266321182,-0.014128641225397587,0.033773764967918396,-0.040417447686195374,-0.019955338910222054,0.05287588760256767,0.038723718374967575,-0.0394098125398159,0.011303979903459549,-0.017574375495314598,0.11317837238311768,0.007834807969629765,-0.12781864404678345,-0.05105188861489296,-0.08688142150640488,0.03257470950484276,0.044650137424468994,0.005275130737572908,-0.048899490386247635,-0.12925660610198975,-0.004356862977147102,-0.003900179173797369,-0.018610810860991478,-0.07104294002056122,-0.04218527302145958,0.13384296000003815,-0.10348113626241684,0.05271634832024574,-0.03449249640107155,-0.10502340644598007,-0.07960112392902374,0.01786980777978897,0.08017727732658386,-0.005050336942076683,0.09013336896896362,-0.00047112294123508036,0.005859663709998131,-0.036379531025886536,-0.03314290568232536,-0.07046505063772202,-0.02102486416697502,-0.06706729531288147,-0.08405298739671707,0.030160387977957726,-0.16993291676044464,0.02643127180635929,-0.029932785779237747,-0.06981391459703445,0.0024233199656009674,0.1713762730360031,0.002898967359215021,0.06651726365089417,-0.04098700359463692,0.01973160356283188,-0.04758539795875549,-0.004728438798338175,0.05103634297847748,0.12668877840042114,0.011100972071290016,-0.13900820910930634,-0.017588147893548012,0.01400867011398077,-0.1124131828546524,-0.07739687711000443,0.06985688209533691,0.04977516084909439,0.06929489225149155,-0.015664638951420784,0.19690276682376862,-0.09691932052373886,0.020913751795887947,-0.043548185378313065,0.014350938610732555,0.043888356536626816,0.2148037701845169,0.043087657541036606,0.07732252776622772,0.04607415571808815,0.02034671977162361,1.0965278306684922e-05,0.06354346871376038,0.001635015127249062,-0.008600837551057339,0.18849621713161469,0.09257573634386063,-0.05474616959691048,-0.07656686007976532,0.01022577378898859,0.005615624133497477,-0.0573083721101284,-0.015116901136934757,-0.1119902953505516,0.006447978783398867,0.022354787215590477,-0.07855529338121414,-0.051979225128889084,-0.06716745346784592,-0.12994571030139923,-0.026879042387008667,0.10267011821269989,0.0057176570408046246,0.09777645021677017,-0.012146961875259876,-0.053479086607694626,-0.07304758578538895,-0.04918912425637245,0.01232396811246872,0.03872708976268768,0.020291248336434364,-0.02445359155535698,0.06899946928024292,-0.08609946072101593,-0.05730840936303139,-0.05277767404913902,0.01428938563913107,-0.04355379566550255,0.12948857247829437,0.010132909752428532,-0.17504945397377014,-0.03872274234890938,-0.024202490225434303,0.007671036757528782,0.005561888217926025,0.011899984441697598,0.03783603012561798,-0.09247659146785736,-0.08357974141836166,-0.020026562735438347,-0.04966021701693535,0.08647734671831131,-0.201071634888649,-0.027991941198706627,0.12415958940982819,-0.02956526167690754,-0.05909932032227516,0.04609043151140213,-0.11062002927064896,-0.11016785353422165,-0.0839705839753151,-0.06910146027803421,-0.0037662475369870663,-0.07834366708993912,-0.09855236113071442,0.19985836744308472,-0.09209896624088287,0.017154527828097343,0.0412442721426487,-0.1267024129629135,0.013924329541623592,0.021445713937282562,0.019047416746616364,0.0626104548573494,-0.08375291526317596,0.2483096867799759,-0.07688978314399719,-0.05101550370454788,0.0011175384279340506,0.004710139706730843,0.07475785911083221,-0.016837239265441895,0.10942260921001434,0.05690647289156914,-0.08382020890712738,0.08032287657260895,-0.036382000893354416,-0.13852673768997192,0.07652901858091354,0.10060412436723709,-0.09271825850009918,0.01976979896426201,0.06808669865131378,-0.019497103989124298,0.14734521508216858,-0.03195378556847572,0.1468113213777542,0.025623591616749763,-0.07049292325973511,-0.06389282643795013,0.04384831339120865,-0.05426948517560959,-0.025502076372504234,-0.04409318417310715,-0.1704585999250412,-0.07233469188213348,-0.06008980795741081,0.0479179248213768,0.025956550613045692,0.012611160054802895,-0.008554773405194283,0.09979178756475449,0.03813212364912033,0.15932045876979828,-0.04285845160484314,0.017746224999427795,-0.09680306911468506,-0.046390339732170105,-0.04210130125284195,-0.06254522502422333,0.08444339036941528,0.010865028947591782,-0.03965029492974281
OQdxryipIEA,0.033259645104408264,-0.005376742221415043,-0.006160562392324209,-0.06810511648654938,0.004487312398850918,0.10594967752695084,0.3019533157348633,0.03224097937345505,0.01942472532391548,0.029368586838245392,-0.012200683355331421,-0.07194622606039047,0.06551805138587952,0.11478135734796524,0.10005483776330948,-0.31801027059555054,0.02234678342938423,0.025416862219572067,-0.228864848613739,0.04421424865722656,0.04526282846927643,-0.09467460960149765,0.07375998049974442,0.07364767789840698,0.13755565881729126,-0.03399287536740303,0.02017923630774021,-0.12197263538837433,0.007774597033858299,0.008676735684275627,0.20325033366680145,-0.09475218504667282,-0.04402529448270798,0.03998391702771187,0.0657886490225792,0.0629337877035141,-0.0022126585245132446,0.033674731850624084,-0.10523905605077744,-0.024008527398109436,0.20525990426540375,-0.14835265278816223,0.11087716370820999,-0.004894127603620291,-0.10617569833993912,-0.1586063951253891,0.11028105020523071,-0.09772992134094238,0.10949671268463135,0.040329478681087494,0.01592451147735119,0.12992219626903534,-0.07976261526346207,0.07440176606178284,0.1256069839000702,-0.15685924887657166,-0.11504186689853668,-0.03753605857491493,0.06586341559886932,-0.13637907803058624,-0.030769113451242447,0.09885472059249878,-0.06301299482584,0.11951421946287155,-0.07689554244279861,-0.06353870779275894,-0.07239444553852081,-0.09450747072696686,-0.008264741860330105,0.044675543904304504,-0.05747414380311966,0.021116185933351517,-0.08357568830251694,-0.05018084868788719,-0.032585639506578445,-0.007821179926395416,-0.1399564892053604,-0.0426345020532608,0.10161247104406357,-0.059998173266649246,-0.061963025480508804,0.012630014680325985,-0.10989633947610855,0.025565462186932564,-0.16722291707992554,0.35366931557655334,-0.0066472007893025875,0.18627765774726868,-0.2394976019859314,-0.1562509834766388,-0.06020625680685043,-0.08067438751459122,0.05048670619726181,-0.03377923369407654,0.08255740255117416,0.061379771679639816,-0.10791268199682236,-0.42832234501838684,0.06217663362622261,-0.20602157711982727,-0.012659130617976189,0.028426874428987503,0.03922532871365547,0.126288041472435,0.07199641317129135,0.072943776845932,0.019193103536963463,-0.0037799826823174953,0.017877645790576935,0.014780325815081596,0.1450699120759964,-0.010587071068584919,-0.12437083572149277,0.10622932761907578,-0.1637342870235443,-0.04961387813091278,0.12414969503879547,-0.04523279145359993,-0.00531086977571249,-0.06240472570061684,0.05115760490298271,-0.04513096436858177,0.05096796154975891,0.046238262206315994,0.04275324568152428,0.10474096238613129,0.08945862203836441,0.07164644449949265,-0.008407806977629662,0.1525106132030487,-0.011116806417703629,0.09980008751153946,-0.07174620032310486,-0.05920596048235893,-0.06467296928167343,-0.008262424729764462,-0.0033318870700895786,-0.11116892844438553,-0.028670817613601685,0.08519868552684784,0.21024677157402039,0.05694618076086044,-0.04360155016183853,0.004562656860798597,-0.011388348415493965,-0.10911664366722107,0.08411877602338791,0.01574118435382843,-0.00847712904214859,-0.09939868748188019,0.02698160894215107,0.16921642422676086,-0.1435011923313141,-0.02377360127866268,-0.07000599801540375,0.02594142034649849,-0.013950755819678307,-0.002027152106165886,0.054560381919145584,-0.015719098970294,0.05840413644909859,-0.08194994926452637,-0.2403673529624939,0.10566873103380203,-0.018767373636364937,-0.038885269314050674,-0.16891315579414368,-0.17996275424957275,0.08114229142665863,-0.09172812104225159,-0.009395611472427845,-0.017627134919166565,0.0033597652800381184,-0.007922060787677765,0.08571357280015945,-0.2551708519458771,0.000923800515010953,-0.12048999220132828,0.012546107172966003,-0.1388120800256729,-0.035012103617191315,0.03928043320775032,0.06552192568778992,0.0787917897105217,0.17582152783870697,0.02261606603860855,0.08550410717725754,-0.02019033022224903,-0.04383999854326248,-0.08470527827739716,0.07486887276172638,-0.12201704829931259,0.0830506682395935,0.023585757240653038,0.050771571695804596,0.0037730783224105835,-0.07222142070531845,-0.05637774243950844,-0.09566320478916168,0.09362918138504028,0.04690054431557655,-0.14810563623905182,0.023129891604185104,-0.001086477655917406,0.052082814276218414,-0.015979720279574394,-0.12823890149593353,0.010262022726237774,-0.04293803498148918,0.10766489058732986,0.06438194215297699,0.10455881059169769,0.08883325755596161,-0.004481301177293062,0.074367456138134,-0.13137146830558777,-0.006311091128736734,0.09231827408075333,-0.12717723846435547,0.04207347333431244,-0.02639542892575264,0.023771993815898895,0.005713202059268951,-0.020680584013462067,-0.22818373143672943,0.059052370488643646,0.08603739738464355,-0.01063683070242405,0.015771491453051567,-0.02168700285255909,0.08717416971921921,-0.0417315773665905,0.033658139407634735,0.0055440450087189674,-0.03973064571619034,-0.014277450740337372,-0.010814113542437553,0.059740349650382996,0.04105628281831741,-0.13994187116622925,0.0652775689959526,0.2601490318775177,-0.03926369547843933,0.00866449624300003,-0.04327954351902008,0.21285778284072876,0.18851009011268616,0.04898393899202347,-0.0309486985206604,-0.021838588640093803,0.09685736894607544,0.1607571542263031,-0.07639705389738083,-0.07590804994106293,-0.20166605710983276,-0.03348507359623909,-0.027157194912433624,-0.05293378606438637,0.08281935751438141,-0.14233066141605377,0.13862453401088715,0.0522577129304409,-0.04101882874965668,-0.017796603962779045,-0.11915740370750427,0.024044513702392578,0.23296590149402618,-0.05888441950082779,-0.03964834287762642,0.05049922317266464,-0.012530876323580742,-0.02419559843838215,-0.003438273910433054,0.04722949117422104,0.0577973872423172,-0.014317348599433899,-0.16569213569164276,-0.08098027110099792,0.020180583000183105,0.039976295083761215,0.019139563664793968,0.025903800502419472,-0.06800884753465652,-0.08267436176538467,0.04932020232081413,0.1477985829114914,0.038013096898794174,-0.24433541297912598,-0.08350542932748795,0.0626431331038475,-0.04592915251851082,-0.014776591211557388,-0.03840719163417816,-0.03162049502134323,-0.03295981138944626,0.06708667427301407,-0.05750390887260437,0.08763128519058228,0.1183946430683136,-0.06585346907377243,0.028534511104226112,0.043942712247371674,-0.09456569701433182,-0.016487104818224907,-0.18892815709114075,0.02401903085410595,0.12321969121694565,0.09476090967655182,-0.11515481024980545,0.048185914754867554,-0.1591911017894745,-0.0001297001726925373,0.016767626628279686,0.08982419967651367,-0.0027993011754006147,-0.01350235752761364,0.12585337460041046,0.019168682396411896,-0.035394422709941864,0.04199592024087906,0.03316904231905937,-0.009744073264300823,-0.10178214311599731,0.060977645218372345,-0.11102761328220367,-0.08734892308712006,0.01584135927259922,-0.03865973278880119,-0.003072284394875169,-0.08021403849124908,0.050051506608724594,0.0746791660785675,-0.020020533353090286,0.1658024936914444,0.09678922593593597,-0.03904728591442108,-0.07715149223804474,-0.054800353944301605,0.11448269337415695,0.07688736170530319,0.011498121544718742,-0.08479513227939606,-0.03324718028306961,-0.12501980364322662,0.053618770092725754,0.13467378914356232,0.02544769085943699,0.054359886795282364,-0.21867205202579498,0.08532077074050903,0.12416943162679672,-0.060829047113657,-0.07735245674848557,0.0592501275241375,-0.07886463403701782,-0.0647682473063469,0.027086662128567696,0.16471144556999207,0.06972941756248474,0.19653534889221191,0.24377109110355377,-0.07287035137414932,0.18632875382900238,-0.039126161485910416,-0.14075855910778046,-0.025997914373874664,-0.0180808175355196,0.06744395941495895,-0.022053202614188194,-0.04823392629623413,0.009135461412370205,0.016472939401865005,0.06691690534353256,-0.07997055351734161,0.046373579651117325,0.06352239102125168,0.02429986745119095,0.04679561033844948,0.0921812355518341,0.07722924649715424,-0.03650818020105362,0.004403432831168175,-0.05337340757250786,-0.05340594798326492,0.08835434913635254,0.022971421480178833,0.028730852529406548,-0.0034169999416917562,0.07658802717924118,0.0560302808880806,0.08737407624721527,-0.15290379524230957,0.11242556571960449,-0.1786670684814453,0.10445183515548706,0.00865970365703106,0.025243796408176422,0.056871768087148666,0.06266040354967117,-0.045553162693977356,0.0712696835398674,0.2711138427257538,-0.09182240813970566,0.017601151019334793,-0.006509156432002783,0.01565404050052166,-0.06880303472280502,0.0018893586238846183,-0.15636244416236877,-0.011840645223855972,0.11277653276920319,0.019130492582917213,0.06424195319414139,-0.04416642338037491,0.013122175820171833,-0.07255128771066666,-0.040018655359745026,0.024942807853221893,-0.05194268748164177,0.10476408153772354,0.05282679200172424,-0.11800286173820496,0.0924740731716156,-0.048601146787405014,0.05146191269159317,-0.13676200807094574,-0.025270795449614525,-0.0360005721449852,0.094903364777565,-0.03662572801113129,0.03358025103807449,0.023184195160865784,0.09396012872457504,0.04300205036997795,0.10621073842048645,-0.006729477550834417,0.03874596953392029,0.020854949951171875,-0.24822664260864258,0.017777342349290848,0.18783937394618988,0.1276625394821167,0.042693786323070526,0.03664521500468254,0.09399951994419098,-0.029459979385137558,0.08404400199651718,-0.0211823470890522,-0.01704401895403862,-0.023190408945083618,0.1335827261209488,-0.01886129379272461,-0.17067275941371918,0.19756291806697845,-0.1107325404882431,0.004583996254950762,0.4290606677532196,-0.0887552946805954,-0.06286481767892838,0.21530264616012573,0.09250899404287338,0.23915483057498932,-0.1207955852150917,0.01466786302626133,-0.08086363226175308,-0.11016343533992767,0.27833929657936096,-0.09013667702674866,0.08478203415870667,0.02288287691771984,0.09157838672399521,-0.06264831870794296,0.03993017598986626,-0.07340193539857864,-0.1866263449192047,-0.0973510891199112,0.04303543642163277,-0.14653454720973969,0.17097687721252441,0.03778311610221863,0.025145726278424263,0.0743032842874527,-0.08829367905855179,0.10994108766317368,-0.0027294715400785208,-0.040689866989851,0.10355942696332932,-0.015160824172198772,-0.07848116755485535,0.08702223747968674,-0.0038838600739836693,0.023009784519672394,0.03517141938209534,0.21070218086242676,-0.0033943387679755688,0.04323200136423111,-0.11676164716482162,0.04344169422984123,-0.026262741535902023,-0.18428663909435272,-0.1254788339138031,-0.014191819354891777,0.0935111790895462,0.01516376156359911,-0.042772870510816574,-0.05250629037618637,0.006226356606930494,-0.032414838671684265,-0.004647121764719486,-0.09778061509132385,0.0012424676679074764,0.07306057959794998,0.0279160737991333,0.010967499576508999,0.08853799104690552,0.2558740973472595,-0.03551189973950386,-0.08577477931976318,0.038607873022556305,-0.05580531805753708,-0.020623650401830673,-0.01918920688331127,-0.10088653862476349,-0.07282444834709167,-0.1883900910615921,0.15090622007846832,0.025936806574463844,0.003509998321533203,-0.08366068452596664,-0.0488128699362278,0.056438468396663666,0.004624976776540279,0.11387161910533905,0.04595039784908295,-0.025552483275532722,0.12586744129657745,0.22833797335624695,0.24387000501155853,-0.1415356546640396,-0.09934432804584503,-0.1382507085800171,-0.0007341266609728336,-0.1172645166516304,0.025744477286934853,0.003775326767936349,-0.09103737771511078,0.09018510580062866,0.009012849070131779,-0.014422367326915264,-0.1714821606874466,0.03887275978922844,-0.06586097925901413,-0.07620353251695633,-0.003542802296578884,0.03937263414263725,-0.10859552025794983,-0.04379088804125786,0.04540768265724182,-0.00378585048019886,0.009957350790500641,0.06079721450805664,0.01619640551507473,-0.0653127133846283,0.018828269094228745,0.005111075006425381,-0.12835575640201569,0.010941454209387302,-0.004106607288122177,-0.07402024418115616,-0.0878705382347107,-0.15093731880187988,-0.10571414232254028,0.01763458177447319,0.0021999019663780928,-0.013899137265980244,-0.0648132935166359,0.08808175474405289,-0.009532066062092781,0.0010882234200835228,-0.08179701864719391,-0.03529930114746094,0.05560675263404846,-0.04404531419277191,0.0025150515139102936,-0.04666263610124588,0.012311656959354877,0.0017248615622520447,0.07541288435459137,0.037022896111011505,0.009771367534995079,-0.06241156533360481,-0.011950314044952393,0.04918710142374039,-0.08864042907953262,0.0755113735795021,-0.1921621561050415,-0.07168739289045334,-0.0461365208029747,0.18126346170902252,-0.0034956717863678932,0.06001826003193855,-0.07507684826850891,-0.012867351062595844,0.03041389398276806,0.02143261581659317,-0.047779716551303864,0.06386357545852661,0.04896322637796402,-0.0724346935749054,-0.054258424788713455,0.20007534325122833,-0.07477444410324097,0.040098801255226135,0.07578295469284058,0.021803196519613266,0.1165240928530693,-0.05316042900085449,0.06515058875083923,-0.03257996216416359,0.0034457496367394924,-0.1044066771864891,0.09995993226766586,0.015086534433066845,0.22434286773204803,0.02681925520300865,0.24729087948799133,0.15907639265060425,0.09533809870481491,0.25138506293296814,-0.15793398022651672,0.02924109809100628,-0.10690139979124069,0.10842140763998032,0.0844544991850853,-0.07948850095272064,0.10449976474046707,-0.10730557888746262,0.07372363656759262,-0.0740700364112854,0.038250118494033813,-0.08100201934576035,-0.13054078817367554,-0.034350667148828506,0.018966589123010635,0.03572205454111099,0.02556920051574707,-0.15837550163269043,-0.008377833291888237,-0.05565750226378441,0.02098969556391239,0.21174626052379608,-0.1322927176952362,0.07112177461385727,-0.02163396216928959,0.018890023231506348,-0.003038170747458935,0.19632941484451294,0.014095399528741837,-0.06647108495235443,-0.0002513212093617767,0.08692850172519684,-0.03839960694313049,-0.043340593576431274,0.047632742673158646,0.0647054985165596,-0.14400815963745117,-0.027445511892437935,-0.09192410111427307,-0.028927059844136238,-0.21845924854278564,0.025076664984226227,0.04397924989461899,0.014243525452911854,-0.04496297985315323,0.032716020941734314,-0.23644287884235382,-0.11377821117639542,-0.06301560997962952,-0.13018231093883514,0.09005303680896759,-0.09674249589443207,-0.05677046626806259,-0.15899629890918732,0.02193349413573742,0.23991090059280396,-0.06823460757732391,0.003151730867102742,0.23373451828956604,-0.013729561120271683,-0.20718534290790558,-0.007746997755020857,0.009382074698805809,0.1980610489845276,-0.03196650370955467,-0.03785356134176254,-0.041336625814437866,-0.03837301582098007,-0.0823720246553421,-0.07851197570562363,0.10308507084846497,0.05187450349330902,-0.06105952709913254,0.004459551069885492,-0.09495474398136139,0.1176174059510231,0.19617898762226105,-0.24111270904541016,-0.06722337752580643,-0.013271401636302471,0.07830880582332611,0.1462176889181137,0.12406595051288605,-0.022113781422376633,-0.07035829871892929,-0.08512388914823532,-0.02759299986064434,-0.06161323934793472,0.024423548951745033,0.011634578928351402,-0.24350246787071228,0.21267908811569214,0.039704419672489166,0.013967555947601795,0.02537611499428749,-0.012279145419597626,0.16346809267997742,-0.09328509122133255,-0.025304853916168213,0.07567162811756134,-0.059844642877578735,0.2066420167684555,-0.018936611711978912,-0.19118617475032806,0.12917447090148926,0.11682061851024628,-0.044826485216617584,-0.10787925869226456,-0.01429986022412777,0.08130195736885071,0.16766764223575592,-0.03243410214781761,-0.06085611879825592,-0.0227716863155365,0.024912375956773758,-0.045015279203653336,0.030826104804873466,0.024606429040431976,0.14647066593170166,-0.05978665128350258,-0.14413507282733917,0.09650050103664398,-0.04233648627996445,-0.026463583111763,-0.04167744517326355,-0.33824992179870605,-0.10618135333061218,-0.07010979950428009,-0.0432274229824543,-0.011785746552050114,-0.18378232419490814,0.08101186901330948,0.018005169928073883,-0.026687268167734146,0.04350494593381882,0.0675554946064949,0.022763609886169434,-0.07110379636287689,-0.09704118221998215
x2j_l6YqfHc,-0.021343331784009933,-0.1420295685529709,-0.013983402401208878,-0.010675076395273209,0.009669562801718712,-0.014973378740251064,0.0049203806556761265,0.0340440571308136,-0.17967581748962402,0.08394074440002441,0.08172870427370071,-0.06126421317458153,0.004895226564258337,0.09703709185123444,0.08721039444208145,-0.116668201982975,-0.037765808403491974,-0.005005821119993925,0.0035305777564644814,0.0570698045194149,0.1017504632472992,-0.010895111598074436,0.0520588718354702,0.04007085785269737,0.050645194947719574,-0.01211223378777504,0.0734533965587616,-0.04982306808233261,0.09997466206550598,0.002324765082448721,0.15854647755622864,-0.006836425978690386,0.03950218856334686,-0.057980798184871674,0.05073700472712517,0.08094184845685959,-0.04187644645571709,0.027747301384806633,-0.11055463552474976,-0.0269458144903183,0.14707601070404053,-0.05392870679497719,-0.019069354981184006,0.028612889349460602,-0.17488673329353333,-0.1028958186507225,0.006686095613986254,0.027459222823381424,0.21146395802497864,0.053827282041311264,0.0009939281735569239,0.054596949368715286,-0.019322942942380905,0.03342094644904137,0.06982429325580597,-0.16223569214344025,-0.09880074113607407,-0.09155423939228058,0.02484552375972271,-0.1355041116476059,-0.08051243424415588,0.05335652083158493,0.01676119863986969,0.031977493315935135,-0.1150786280632019,0.014325118623673916,-0.009369473904371262,0.03396720439195633,-0.043233465403318405,0.002360591432079673,-0.05471751093864441,0.06640753149986267,-0.029162423685193062,-0.019779112190008163,-0.06052523851394653,-0.07736659795045853,0.06332428753376007,-0.08294999599456787,-0.0028115040622651577,0.03370353952050209,0.11866816133260727,0.028798947110772133,-0.10602685809135437,-0.08958256244659424,-0.10765347629785538,0.2072555273771286,-0.08704239130020142,0.0692930594086647,-0.05239683762192726,-0.004952345043420792,0.02425142377614975,-0.08838257193565369,0.06874096393585205,-0.010586013086140156,0.00849064253270626,0.004544518887996674,-0.02601665072143078,-0.13472826778888702,0.001039822120219469,-0.21629740297794342,-0.023388026282191277,0.005960595794022083,0.10347730666399002,0.0855344608426094,-0.04381236433982849,-0.0051541756838560104,-0.029506677761673927,-0.0843951627612114,0.03354436531662941,0.053434647619724274,0.026396173983812332,-0.0357980914413929,-0.0029792783316224813,0.07445193827152252,-0.14756664633750916,-0.032373469322919846,0.05682474002242088,-0.08781085163354874,0.028438590466976166,0.06363563984632492,0.04963836073875427,-0.01280945260077715,-0.10064662247896194,0.0124597093090415,0.026856232434511185,-0.049638357013463974,0.06470709294080734,-0.006783964112401009,0.06174105405807495,0.06351383030414581,-0.008577704429626465,0.021097537130117416,0.04366840422153473,-0.009151080623269081,-0.06126152351498604,0.05633660405874252,-0.070297472178936,-0.061294518411159515,-0.028589190915226936,0.025028487667441368,0.09806746244430542,0.008686729706823826,-0.046831563115119934,0.04506651312112808,-0.038170523941516876,0.009579065255820751,0.05057475343346596,0.04227595031261444,-0.01367119513452053,0.024163994938135147,0.05676017329096794,0.14022521674633026,-0.07062046974897385,0.02436760440468788,-0.013927397318184376,0.09054580330848694,-0.16608600318431854,0.016841139644384384,0.013690114952623844,-0.03829650953412056,0.08516843616962433,-0.024301549419760704,-0.07294195145368576,0.0058506568893790245,0.026758164167404175,0.04379473626613617,-0.17991968989372253,-0.06190437078475952,-0.01500086858868599,-0.034808509051799774,0.07545264065265656,-0.0442233569920063,-0.0019133836030960083,0.06841982901096344,0.011236587539315224,0.03113161213696003,-0.06724639236927032,-0.03604329377412796,0.07561901211738586,0.030321937054395676,-0.16610166430473328,0.19820816814899445,0.044794630259275436,0.04632218927145004,0.0015616146847605705,-0.04500078409910202,0.10095100104808807,0.0463905856013298,-0.07482677698135376,-0.08365382254123688,0.0834115743637085,-0.05047483369708061,-0.004748404026031494,-0.020344316959381104,-0.006437241565436125,-0.010010596364736557,0.03504137694835663,0.029986992478370667,0.02824965864419937,0.12513497471809387,-0.05798574537038803,-0.03303273022174835,-0.03240938484668732,0.03697764500975609,-0.023855416104197502,0.01978224702179432,0.01631271094083786,-0.0749654471874237,0.12300729006528854,0.002567549468949437,0.09810865670442581,0.10698171705007553,0.05810319259762764,-0.04599377140402794,0.020464712753891945,-0.0977187380194664,0.03887230530381203,0.023123476654291153,-0.166182279586792,0.057251330465078354,-0.06922094523906708,0.1170920580625534,-0.10825402289628983,-0.017613667994737625,-0.14586269855499268,-0.0533265545964241,-0.023952320218086243,-0.07452242076396942,0.02432357892394066,-0.06662444770336151,0.056484155356884,-0.022878998890519142,-0.04971840977668762,0.012229490093886852,-0.11130880564451218,0.0609806589782238,-0.0633893758058548,0.0842079222202301,0.05120444670319557,-0.17089812457561493,-0.04197947308421135,0.1324903666973114,-0.05853920429944992,-0.026306776329874992,0.0865083560347557,0.03154228255152702,0.049828365445137024,0.10525702685117722,0.04214688763022423,0.059162821620702744,0.03661002591252327,0.08578195422887802,-0.002384546445682645,0.004990111105144024,-0.00035708979703485966,-0.10628987103700638,-0.045767441391944885,-0.005037527531385422,0.188664048910141,-0.06519421190023422,0.04962977021932602,0.03163903206586838,-0.03178947791457176,-0.09875855594873428,0.10259468108415604,0.010487334802746773,0.20972993969917297,-0.04185299947857857,0.038027074187994,-0.007606931030750275,-0.02269018441438675,-0.019741035997867584,-0.016506226733326912,-0.10111688077449799,0.05040086433291435,-0.07676881551742554,-0.09034982323646545,-0.0024175746366381645,-0.08507592231035233,0.04534895718097687,-0.034880317747592926,-0.09393280744552612,-0.07980497926473618,-0.01934184320271015,0.05296245962381363,0.09000446647405624,0.09975693374872208,-0.025504587218165398,-0.045891173183918,0.014059048146009445,-0.06521598994731903,0.03933185338973999,-0.019489873200654984,-0.06684806942939758,0.06870198994874954,0.06576447188854218,-0.05054745078086853,-0.0863172709941864,0.052208006381988525,0.09175534546375275,-0.0020236889831721783,0.09912960231304169,-0.023957950994372368,0.006341592408716679,-0.09828578680753708,-0.08524633944034576,0.05398785322904587,0.15066596865653992,-0.06329221278429031,0.07966430485248566,-0.048165272921323776,0.002722318284213543,0.0213528610765934,0.0569465272128582,-0.08353877067565918,0.03138161823153496,0.11057838052511215,-0.05738449469208717,-0.031141456216573715,0.030758138746023178,0.05289217084646225,-0.027090352028608322,-0.05349914729595184,-0.002807705197483301,-0.07486818730831146,-0.03786322474479675,0.011793512850999832,-0.0462455190718174,0.051903050392866135,-0.15045791864395142,0.005618627183139324,-0.04376020282506943,-0.012891723774373531,0.037438370287418365,-0.0044479938223958015,0.002530528698116541,-0.05013255774974823,-0.05849550664424896,-0.08251744508743286,0.052430830895900726,0.011870082467794418,-0.13399991393089294,0.02853228896856308,-0.1386634111404419,-0.10090905427932739,0.13439738750457764,-0.018834557384252548,0.04802555590867996,-0.15985819697380066,-0.03287121281027794,0.1315554976463318,-0.00428306357935071,-0.09969374537467957,-0.02836441993713379,-0.04448511078953743,0.012415236793458462,0.04496525600552559,0.049447473138570786,0.10298018157482147,0.07320018112659454,0.16261816024780273,-0.011206049472093582,0.11844969540834427,-0.048502322286367416,-0.025285828858613968,-0.06885643303394318,-0.009234173223376274,0.0022988412529230118,0.03860243782401085,-0.0004526757402345538,0.1329701989889145,0.1245521754026413,0.0014588054036721587,0.01659288816154003,0.0434424988925457,0.10623666644096375,0.0306999534368515,-0.12399883568286896,-0.07323954254388809,-0.009388839825987816,0.004039997234940529,-0.02092660777270794,0.050461288541555405,-0.04575134813785553,-0.04499535635113716,0.08059361577033997,0.012334376573562622,0.0521022193133831,0.033705029636621475,0.14457938075065613,0.042250022292137146,0.021668246015906334,-0.03384330868721008,-0.19346001744270325,0.05351696535944939,0.0019521048525348306,0.02458750270307064,0.0177900567650795,0.13148654997348785,0.013322423212230206,0.06299838423728943,0.31835904717445374,-0.08478347212076187,0.0835753008723259,-0.03911919891834259,0.012905146926641464,-0.12816229462623596,-0.06372325122356415,-0.06663541495800018,0.006196462549269199,0.025752270594239235,0.029116902500391006,0.06452025473117828,-0.023845626041293144,-0.021899696439504623,-0.09520335495471954,0.03979269042611122,-0.025288935750722885,0.022156156599521637,-0.08081408590078354,-0.04981241002678871,0.025251241400837898,0.060133397579193115,-0.08644061535596848,-0.039988383650779724,-0.125053271651268,0.04379601776599884,0.10139451920986176,0.10188380628824234,-0.030106425285339355,-0.06303376704454422,-0.0997263640165329,-0.04522401839494705,0.15520986914634705,-0.012359367683529854,-0.16098742187023163,-0.07447127997875214,0.09423607587814331,-0.013928232714533806,-0.06229837238788605,0.13171708583831787,0.14992837607860565,0.13107971847057343,-0.05758877098560333,0.09787888079881668,-0.06354201585054398,0.06069229543209076,-0.0453624427318573,0.012966012582182884,-0.021084120497107506,0.07339143007993698,0.009412288665771484,-0.027668491005897522,0.13328611850738525,0.042301446199417114,-0.010026166215538979,0.32374873757362366,-0.00520524475723505,-0.036408353596925735,0.16389723122119904,-0.06171851605176926,0.34015151858329773,-0.08824422955513,0.08414550125598907,-0.11433055996894836,-0.013338894583284855,0.07830110192298889,-0.14751392602920532,0.08974462747573853,-0.047839924693107605,0.011954746209084988,-0.03784758970141411,0.024651341140270233,0.025845924392342567,-0.13914048671722412,-0.00732695497572422,-0.006334105506539345,-0.2345283478498459,0.13063035905361176,0.007778600323945284,-0.017377277836203575,0.020060647279024124,-0.07427244633436203,-0.11563023924827576,0.0011036470532417297,-0.06527546793222427,0.10787917673587799,-0.06528373062610626,0.006427743937820196,0.13214917480945587,0.030509378761053085,0.0426313690841198,0.06441331654787064,-0.06851934641599655,-0.030109114944934845,0.02886698767542839,-0.10058562457561493,0.0023301858454942703,0.09853748232126236,-0.13028648495674133,-0.022610915824770927,0.00787243340164423,0.08531972765922546,-0.132720485329628,-0.03772534802556038,-0.08198654651641846,0.07569187879562378,-0.03553370386362076,0.06796105206012726,-0.04248133674263954,0.06754585355520248,0.04959528148174286,-0.09988748282194138,-0.004641225561499596,-0.010620680637657642,0.03764773905277252,0.07560401409864426,0.009150121361017227,-0.031176188960671425,-0.08140872418880463,0.07514738291501999,0.04977889358997345,-0.09867751598358154,-0.11354339867830276,0.0009209872223436832,0.1183081641793251,0.045260921120643616,0.040387846529483795,-0.052491992712020874,0.02993014082312584,0.10732191801071167,-0.011203110218048096,-0.030688408762216568,0.09511347115039825,-0.004763327538967133,-0.09016340225934982,0.061182621866464615,0.22118891775608063,0.04043281450867653,-0.09674139320850372,-0.06614084541797638,0.045179471373558044,0.023396119475364685,0.024354897439479828,-0.04216662049293518,-0.01865067519247532,0.10005693882703781,0.07254767417907715,0.03762565925717354,-0.03744129091501236,0.009292438626289368,-0.03303257375955582,0.1254432052373886,-0.04920759052038193,0.06394477188587189,-0.055038634687662125,0.003948221914470196,0.007701082620769739,0.023246891796588898,0.03954038769006729,-0.018061356619000435,0.06741095334291458,-0.008292745798826218,0.051284633576869965,0.09592088311910629,-0.08123400807380676,0.020718593150377274,-0.005654247477650642,0.0288506131619215,-0.03873830288648605,-0.007835687138140202,-0.09363942593336105,0.03739013895392418,0.013649214059114456,-0.017444545403122902,0.01433121133595705,0.10101166367530823,0.0747033879160881,-0.07465483248233795,-0.18823613226413727,-0.056640625,0.01009683683514595,-0.05652404576539993,0.03097330592572689,-0.056765295565128326,-0.006772566586732864,-0.07166433334350586,-0.05612573400139809,0.015109928324818611,0.05997154489159584,-0.04437894746661186,-0.03325987979769707,0.13564974069595337,-0.03927162289619446,0.09692337363958359,-0.1588357388973236,0.0561673641204834,0.0013471493730321527,0.02835439145565033,0.08413764089345932,0.09310182183980942,-0.2251003086566925,-0.04126662015914917,0.03323832154273987,-0.015481785871088505,-0.046477433294057846,-0.006486530881375074,0.06784363090991974,-0.0029468736611306667,-0.056676603853702545,-0.0411764532327652,-0.12803956866264343,0.01120778638869524,0.0033134655095636845,0.020802607759833336,0.0018905287142843008,0.025621332228183746,0.09563851356506348,0.0024455334059894085,0.006770461332052946,-0.07675285637378693,0.08497169613838196,0.06730889528989792,0.11181135475635529,0.04193264991044998,-0.00978630967438221,0.06784790009260178,0.023431744426488876,0.04461522400379181,-0.06381925195455551,-0.06158056855201721,-0.07777268439531326,0.00836221594363451,0.052591659128665924,-0.13946425914764404,0.10097570717334747,0.0005484799621626735,0.047203369438648224,-0.08661849796772003,0.03786858171224594,-0.0313551127910614,0.05504874140024185,0.03770395740866661,0.10867611318826675,0.011839576065540314,0.042820706963539124,-0.029950225725769997,0.005600918550044298,-0.010904673486948013,0.06859162449836731,0.2776825726032257,-0.0007514464668929577,-0.0013281460851430893,0.05047069489955902,-0.004883782006800175,-0.049291010946035385,-0.007310351822525263,0.006121949292719364,-0.007250805385410786,-0.12333039939403534,-0.0049093118868768215,-0.03940572217106819,-0.04540083557367325,0.035509441047906876,0.05281296744942665,-0.08122040331363678,-0.029315318912267685,-0.05056339502334595,0.016803549602627754,-0.04736533388495445,0.017530284821987152,0.05459630861878395,-0.009664543904364109,-0.1271926909685135,0.02153436280786991,-0.11709388345479965,0.07113762944936752,0.05121760070323944,-0.12747131288051605,0.08257341384887695,-0.18523991107940674,0.06170392036437988,0.004544017370790243,0.05472424253821373,0.13633567094802856,-0.12785260379314423,0.02422388456761837,0.13645653426647186,0.034479424357414246,-0.07934854924678802,-0.06475812941789627,0.057455047965049744,-0.047350216656923294,-0.04899480193853378,-0.05176084488630295,-0.10660664737224579,-0.01711912639439106,0.003664916381239891,0.011950249783694744,0.19004960358142853,0.07447671890258789,-0.09656834602355957,0.05654555931687355,0.017772648483514786,-0.046201191842556,0.008238458074629307,-0.20444899797439575,-0.009081234224140644,-0.0888710469007492,0.10555937141180038,0.04774574562907219,-0.025282517075538635,-0.005026302766054869,-0.01908402517437935,-0.04644381254911423,0.02204214408993721,-0.026242922991514206,-0.024332676082849503,0.030716629698872566,-0.10058553516864777,0.14442405104637146,-0.02954901196062565,-0.015156927518546581,0.03275105357170105,0.011444258503615856,0.1498473584651947,0.15077707171440125,0.012250696308910847,-0.07509231567382812,-0.15372519195079803,0.11098393052816391,-0.03238191828131676,-0.05370213836431503,0.040319912135601044,-0.03724060580134392,0.018806302919983864,0.07638140767812729,-0.15568041801452637,0.025770192965865135,0.1005084440112114,0.035442743450403214,0.044198207557201385,0.15746310353279114,-0.006858754903078079,0.02527356892824173,-0.06337200105190277,-0.033161770552396774,0.1519073098897934,0.07014409452676773,-0.1196407899260521,0.07273481786251068,0.02664332091808319,-0.07490458339452744,0.04400080069899559,-0.038443125784397125,-0.05154072865843773,0.00010197330266237259,-0.10153588652610779,0.1189935952425003,-0.08959294855594635,-0.017843935638666153,0.06322814524173737,-0.02850007824599743,0.009241773746907711,0.05063950642943382,0.05097878724336624,-0.004863852635025978,-0.03449301794171333
