link,0,1,2,3,4,5,6,7,8,9,10,11,12,13,14,15,16,17,18,19,20,21,22,23,24,25,26,27,28,29,30,31,32,33,34,35,36,37,38,39,40,41,42,43,44,45,46,47,48,49,50,51,52,53,54,55,56,57,58,59,60,61,62,63,64,65,66,67,68,69,70,71,72,73,74,75,76,77,78,79,80,81,82,83,84,85,86,87,88,89,90,91,92,93,94,95,96,97,98,99,100,101,102,103,104,105,106,107,108,109,110,111,112,113,114,115,116,117,118,119,120,121,122,123,124,125,126,127,128,129,130,131,132,133,134,135,136,137,138,139,140,141,142,143,144,145,146,147,148,149,150,151,152,153,154,155,156,157,158,159,160,161,162,163,164,165,166,167,168,169,170,171,172,173,174,175,176,177,178,179,180,181,182,183,184,185,186,187,188,189,190,191,192,193,194,195,196,197,198,199,200,201,202,203,204,205,206,207,208,209,210,211,212,213,214,215,216,217,218,219,220,221,222,223,224,225,226,227,228,229,230,231,232,233,234,235,236,237,238,239,240,241,242,243,244,245,246,247,248,249,250,251,252,253,254,255,256,257,258,259,260,261,262,263,264,265,266,267,268,269,270,271,272,273,274,275,276,277,278,279,280,281,282,283,284,285,286,287,288,289,290,291,292,293,294,295,296,297,298,299,300,301,302,303,304,305,306,307,308,309,310,311,312,313,314,315,316,317,318,319,320,321,322,323,324,325,326,327,328,329,330,331,332,333,334,335,336,337,338,339,340,341,342,343,344,345,346,347,348,349,350,351,352,353,354,355,356,357,358,359,360,361,362,363,364,365,366,367,368,369,370,371,372,373,374,375,376,377,378,379,380,381,382,383,384,385,386,387,388,389,390,391,392,393,394,395,396,397,398,399,400,401,402,403,404,405,406,407,408,409,410,411,412,413,414,415,416,417,418,419,420,421,422,423,424,425,426,427,428,429,430,431,432,433,434,435,436,437,438,439,440,441,442,443,444,445,446,447,448,449,450,451,452,453,454,455,456,457,458,459,460,461,462,463,464,465,466,467,468,469,470,471,472,473,474,475,476,477,478,479,480,481,482,483,484,485,486,487,488,489,490,491,492,493,494,495,496,497,498,499,500,501,502,503,504,505,506,507,508,509,510,511,512,513,514,515,516,517,518,519,520,521,522,523,524,525,526,527,528,529,530,531,532,533,534,535,536,537,538,539,540,541,542,543,544,545,546,547,548,549,550,551,552,553,554,555,556,557,558,559,560,561,562,563,564,565,566,567,568,569,570,571,572,573,574,575,576,577,578,579,580,581,582,583,584,585,586,587,588,589,590,591,592,593,594,595,596,597,598,599,600,601,602,603,604,605,606,607,608,609,610,611,612,613,614,615,616,617,618,619,620,621,622,623,624,625,626,627,628,629,630,631,632,633,634,635,636,637,638,639,640,641,642,643,644,645,646,647,648,649,650,651,652,653,654,655,656,657,658,659,660,661,662,663,664,665,666,667,668,669,670,671,672,673,674,675,676,677,678,679,680,681,682,683,684,685,686,687,688,689,690,691,692,693,694,695,696,697,698,699,700,701,702,703,704,705,706,707,708,709,710,711,712,713,714,715,716,717,718,719,720,721,722,723,724,725,726,727,728,729,730,731,732,733,734,735,736,737,738,739,740,741,742,743,744,745,746,747,748,749,750,751,752,753,754,755,756,757,758,759,760,761,762,763,764,765,766,767
0UqlrYj0oSA,0.012961338274180889,-0.1361672580242157,-0.00789407268166542,0.0073975687846541405,0.03753698617219925,-0.04124331474304199,0.03748621791601181,0.10429196059703827,-0.15888917446136475,0.08371642976999283,0.1746392399072647,0.08921068161725998,0.046127285808324814,0.11462222039699554,0.013514681719243526,-0.1865113377571106,0.04960569739341736,0.041073039174079895,0.14048488438129425,0.12210039049386978,0.15023620426654816,-0.12183472514152527,0.06214430555701256,0.03006703406572342,-0.09714746475219727,-0.04234705865383148,0.027157388627529144,-0.12640054523944855,0.0023119908291846514,0.06180020794272423,-0.02401892840862274,0.014529393054544926,-0.07062830775976181,-0.0183698907494545,0.025084130465984344,-0.014857269823551178,-0.034174442291259766,0.0032649075146764517,-0.05989128723740578,0.10428077727556229,-0.0033713115844875574,-0.14447103440761566,0.002320153871551156,-0.027988526970148087,-0.12117782980203629,0.05893685668706894,0.08200155943632126,-0.04629017785191536,0.14182685315608978,0.028291847556829453,0.020758680999279022,0.14751002192497253,-0.24483725428581238,0.037184882909059525,0.141356959939003,-0.257947713136673,-0.1560295969247818,0.0359792560338974,0.11918921023607254,-0.034806620329618454,-0.08218999952077866,0.11403956264257431,0.01801864430308342,-0.08281818777322769,-0.05599934607744217,-0.048465579748153687,0.010198570787906647,-0.04200967028737068,-0.008519887924194336,0.009907422587275505,0.19298627972602844,-0.02429640106856823,0.09055904299020767,0.029561806470155716,0.007597936317324638,0.015835318714380264,-0.14192020893096924,-0.029943076893687248,0.013925355859100819,0.0144817428663373,0.1200651079416275,0.09471884369850159,-0.02750314027070999,-0.06481079012155533,-0.007263896521180868,0.15875865519046783,-0.025568796321749687,0.08389028161764145,-0.1270451545715332,-0.15471762418746948,0.04987986385822296,-0.10172667354345322,0.023260677233338356,-0.06014934182167053,0.18658730387687683,0.032672278583049774,-0.030820118263363838,-0.10406378656625748,0.02294894866645336,-0.10818643867969513,0.19609516859054565,0.10593564063310623,0.17598579823970795,0.10426896065473557,0.001189660164527595,-0.04880748689174652,0.07614259421825409,-0.10620733350515366,0.09894672781229019,0.07027462869882584,0.04214195907115936,-0.14309445023536682,-0.09096764028072357,0.06024399399757385,-0.04829689487814903,-0.0041205924935638905,0.04723862186074257,0.046294137835502625,-0.05355343595147133,-0.09723439067602158,0.08973535150289536,-0.11474805325269699,0.08875870704650879,0.03695623204112053,-0.05959470570087433,-0.06255854666233063,-0.14903615415096283,-0.013219952583312988,-0.04245978221297264,-0.028346654027700424,-0.023500852286815643,-0.04548689350485802,-0.10598316788673401,-0.04371212050318718,-0.03103434294462204,0.056186970323324203,0.030891718342900276,-0.12645882368087769,-0.0016981528606265783,-0.014763548038899899,0.06125560402870178,-0.041345030069351196,-0.03828153759241104,-0.11215801537036896,-0.04894734174013138,0.10110993683338165,-0.010464020073413849,0.06004345417022705,-0.05405014008283615,0.02298075146973133,0.015551346354186535,0.09283207356929779,-0.1629931479692459,0.03751888498663902,0.0010541429510340095,0.10560750961303711,0.05486650764942169,0.10429096221923828,-0.06315959990024567,0.05538787692785263,-0.004102705977857113,0.01419430784881115,0.0011204442707821727,0.04867643490433693,0.03053772822022438,0.05029278248548508,-0.31770989298820496,-0.08503761887550354,-0.018911579623818398,-0.04331337660551071,-0.12983939051628113,0.04903912544250488,-0.009533492848277092,0.07134728133678436,0.11265629529953003,0.13461190462112427,0.11813820898532867,0.1864866018295288,0.10484351217746735,0.04485688731074333,0.020268352702260017,0.0169113390147686,0.061544269323349,0.22301991283893585,-0.13807542622089386,0.006633413955569267,0.09237893670797348,-0.07085243612527847,-0.055898673832416534,-0.07495268434286118,0.1005423441529274,0.0034411102533340454,-0.0007318390998989344,0.004353665746748447,0.06252160668373108,-0.07579370588064194,0.046200674027204514,-0.04485034570097923,-0.021768687292933464,0.10661178082227707,-0.053808849304914474,-0.21495822072029114,0.06007492169737816,0.026976261287927628,0.019824517890810966,0.017816929146647453,0.15029820799827576,0.03581583499908447,0.10261861234903336,-0.023309675976634026,0.07295218110084534,0.014638091437518597,-0.07209063321352005,0.09344347566366196,0.024393077939748764,0.03553800284862518,0.05652955546975136,-0.020151708275079727,-0.12672056257724762,0.03234038129448891,0.010805932804942131,-0.14712558686733246,-0.09630464762449265,-0.045679058879613876,-0.021020840853452682,0.04452567547559738,-0.003417866537347436,0.044479794800281525,-0.03697074204683304,-0.006843858398497105,0.04088196903467178,0.08154325187206268,0.033029843121767044,0.005999487824738026,-0.025687498971819878,0.06381534039974213,-0.027616767212748528,0.09643950313329697,0.09836551547050476,-0.35414794087409973,0.09196344763040543,0.18037375807762146,0.01756911911070347,0.013708819635212421,0.18845024704933167,-0.06450069695711136,0.12851744890213013,-0.07552772760391235,0.07081909477710724,-0.09712871164083481,0.02191181667149067,0.03582671657204628,-0.025775648653507233,0.013681073673069477,0.03418223187327385,0.06911643594503403,-0.2682564854621887,0.03398626670241356,0.15352962911128998,0.015129368752241135,0.16126880049705505,-0.015387422405183315,0.029931597411632538,0.0165474321693182,-0.01929301768541336,0.0042401934042572975,0.07143910974264145,-0.20073871314525604,-0.08241867274045944,0.03515293076634407,-0.05978991091251373,-0.03687310963869095,-0.06262005120515823,-0.06638971716165543,0.007293770555406809,0.07254472374916077,-0.05204610526561737,-0.14211249351501465,-0.041196562349796295,0.032964203506708145,0.12022345513105392,-0.07293159514665604,-0.0001092508973670192,-0.08727054297924042,-0.06184808909893036,0.07623052597045898,-0.06915710121393204,-0.34565141797065735,0.028231943026185036,-0.005668800324201584,-0.013768397271633148,0.004366498440504074,-0.00402445811778307,-0.042548492550849915,-0.03124123625457287,-0.0041870493441820145,0.005003145430237055,-0.08684486895799637,0.07086361944675446,0.1343085616827011,0.032045863568782806,0.019533643499016762,-0.06133923679590225,0.03194761648774147,-0.06389602273702621,0.05232640728354454,0.07322689890861511,-0.055712491273880005,0.012209129519760609,0.02766779623925686,-0.045107290148735046,0.0069910138845443726,0.017452087253332138,0.27267491817474365,-0.05795598775148392,0.025208434090018272,0.042091913521289825,-0.005672984756529331,-0.01613817922770977,0.16989558935165405,0.06274495273828506,-0.1409715861082077,-0.020630987361073494,-0.04162599891424179,-0.014945869334042072,0.018248898908495903,-0.06621921062469482,-0.11979600787162781,0.07917753607034683,0.01086480263620615,0.04500251263380051,-0.1290920376777649,-0.008063453249633312,0.0370907224714756,0.11582741886377335,0.027219640091061592,-0.001474197837524116,0.14488182961940765,0.007386333309113979,0.07675716280937195,-0.010632158257067204,-0.03160065785050392,0.06395525485277176,-0.027306335046887398,-0.0826517716050148,0.11735827475786209,0.20561759173870087,0.060587141662836075,-0.06505249440670013,0.14460617303848267,0.06115492060780525,-0.12325688451528549,-0.06462006270885468,-0.0487479530274868,-0.02766965888440609,-0.28767865896224976,0.03166726976633072,0.04408221319317818,0.02549566887319088,0.08067446947097778,0.12391463667154312,-0.0025428468361496925,0.03816313296556473,0.016669321805238724,-0.14604057371616364,-0.06352648138999939,0.003018175484612584,-0.0796673446893692,-0.08112287521362305,0.06750839948654175,0.07885389775037766,-0.015442932955920696,0.017901727929711342,0.12668496370315552,0.13820116221904755,-0.02008119970560074,0.04550941661000252,-0.1167941614985466,-0.1298947036266327,0.09758205711841583,0.09619930386543274,-0.3300246596336365,0.0003057850699406117,0.05838596820831299,0.07219498604536057,-0.004613964818418026,-0.04948774352669716,-0.06221369281411171,0.003661000169813633,-0.009535650722682476,0.030642056837677956,-0.1251673549413681,-0.016748998314142227,-0.17876110970973969,-0.002768833888694644,0.1133044883608818,-0.0037263354752212763,-0.0792493000626564,-0.033128779381513596,0.012515531852841377,-0.0029084652196615934,-0.03606545180082321,-0.015414790250360966,-0.059715405106544495,0.0472436398267746,0.07081426680088043,-0.07242227345705032,0.0067228833213448524,-0.004961888771504164,0.07263880968093872,0.07625308632850647,-0.09913560003042221,0.02048448473215103,0.029605992138385773,-0.12246036529541016,-0.05790204554796219,0.0028470526449382305,0.036580972373485565,-0.01872931607067585,0.08259114623069763,0.03242889791727066,-0.056700460612773895,0.16713112592697144,-0.1014191061258316,-0.035440221428871155,-0.1725207418203354,0.11082249134778976,-0.05844991281628609,0.07476016134023666,0.07267004996538162,0.03509727492928505,-0.1093209758400917,-0.07530544698238373,-0.052688661962747574,0.008556094020605087,-0.30273547768592834,-0.1569450944662094,0.020009759813547134,0.01434556394815445,0.0486755296587944,0.08788326382637024,0.14293506741523743,0.19737942516803741,-0.024099120870232582,0.1486240029335022,0.09298938512802124,0.1001146137714386,-0.27441027760505676,-0.11713796108961105,0.044727034866809845,0.022459181025624275,-0.21807488799095154,-0.10387298464775085,0.10065945982933044,-0.11732946336269379,0.004762428812682629,0.15528571605682373,-0.16443197429180145,-0.01786898262798786,-0.0573723129928112,-0.004451590124517679,0.39899352192878723,-0.07195502519607544,-0.07997037470340729,0.0086880037561059,-0.11435968428850174,0.2069726139307022,0.07221661508083344,0.03157710283994675,-0.026095403358340263,-0.19837802648544312,-0.024206003174185753,0.06676163524389267,0.05150745436549187,-0.06247608736157417,-0.03293326124548912,-0.07147175073623657,-0.10844078660011292,0.1739024817943573,0.02404322475194931,-0.070863738656044,-0.03594474866986275,-0.07213428616523743,-0.4277348816394806,0.010100269690155983,-0.06593699008226395,-0.046761516481637955,-0.08781520277261734,0.035541798919439316,0.01285545714199543,-0.03864626586437225,0.10466905683279037,0.11780557036399841,0.129632830619812,0.005346540827304125,-0.07861557602882385,0.19129545986652374,0.11123637855052948,-0.28713908791542053,0.10373920947313309,0.027769234031438828,0.03365620598196983,0.20523282885551453,-0.06441120058298111,0.05310995876789093,-0.016844380646944046,-0.0024369845632463694,-0.04196411743760109,0.019973721355199814,0.02044936828315258,0.011997251771390438,0.12480246275663376,-0.10724366456270218,-0.0208921916782856,2.4364018827327527e-05,0.2948787808418274,0.10924115031957626,-0.08786854892969131,-0.052631039172410965,0.010289142839610577,-0.02916707657277584,0.016393588855862617,0.01429821364581585,-0.10190916061401367,-0.0033508692868053913,0.0471644327044487,0.10129234194755554,-0.14533890783786774,-0.040651753544807434,0.08971232175827026,-0.020676150918006897,-0.010230020619928837,0.16009368002414703,-0.043416716158390045,-0.07368041574954987,0.07139620929956436,0.16717539727687836,0.10375494509935379,-0.034227367490530014,-0.02920970693230629,-0.18128080666065216,0.053141895681619644,0.02972993068397045,-0.008926584385335445,0.10344185680150986,0.04285145550966263,0.0925595685839653,0.0625380128622055,0.005558961536735296,-0.004465748555958271,0.025428367778658867,0.08272399008274078,-0.14378999173641205,0.0325254462659359,0.0987754762172699,-0.12405673414468765,-0.009476516395807266,-0.022488854825496674,0.06062876805663109,0.06691957265138626,0.13340812921524048,-0.034123506397008896,0.011373535729944706,0.018677178770303726,0.04059942439198494,-0.10136046260595322,-0.023907700553536415,-0.0006592152058146894,0.013052253983914852,-0.013665514066815376,-0.007571897469460964,-0.0004922951920889318,-0.018531424924731255,0.05634451285004616,-0.04542924836277962,0.006090251263231039,-0.03048442117869854,0.033606912940740585,-0.0322524830698967,-0.020584575831890106,-0.11396277695894241,0.03049233928322792,0.08650562167167664,0.060860201716423035,0.13946199417114258,0.08149594068527222,0.05181362107396126,-0.06828957051038742,-0.028294838964939117,-0.05749184638261795,-0.03352056443691254,0.012921911664307117,-0.03588320314884186,-0.18886086344718933,0.09389031678438187,-0.033572714775800705,0.009141935035586357,-0.08120042085647583,0.06777839362621307,0.01197567954659462,-0.052875492721796036,0.07861563563346863,0.008699788711965084,-0.006024292670190334,-0.09064574539661407,-0.14342640340328217,-0.09807504713535309,0.030622009187936783,-0.08396659791469574,0.11921519041061401,0.10797054320573807,-0.22309698164463043,0.028720369562506676,-0.11449428647756577,-0.1358812153339386,0.08611946552991867,0.2103273570537567,0.10872703045606613,0.023195359855890274,-0.06808234751224518,-0.07712040096521378,0.05711299553513527,0.02012956142425537,-0.08745528012514114,0.17280663549900055,0.18225495517253876,0.09639420360326767,0.10425890982151031,0.10742944478988647,-0.16428214311599731,0.2334490865468979,-0.13264496624469757,0.08600042760372162,0.02669304981827736,-0.15404589474201202,0.10267797857522964,-0.01474535372108221,0.006363159976899624,-0.09239417314529419,0.02062864415347576,-0.01231042668223381,-0.05475621670484543,-0.09281270951032639,-0.07119069993495941,-0.017311684787273407,-0.039864737540483475,-0.06747937202453613,0.03331613168120384,0.022854605689644814,-0.01070372574031353,0.19723884761333466,0.10867215692996979,0.01904197968542576,0.12726715207099915,-0.015148414298892021,0.02171519212424755,-0.05313580855727196,-0.0011054796632379293,-0.0027734560426324606,0.00887146033346653,0.01219900418072939,0.024563046172261238,0.042388416826725006,-0.05606315657496452,0.04834536090493202,-0.15438316762447357,0.03719490021467209,-0.08381915837526321,-0.04046006128191948,0.024189623072743416,0.031256839632987976,-0.0010842151241376996,0.023719025775790215,0.03502717614173889,0.09763900190591812,0.00651535065844655,0.027765663340687752,-0.02025716006755829,-0.0762503519654274,0.16236494481563568,-0.11647287756204605,0.0301183070987463,-0.1347755789756775,0.12746703624725342,0.14575189352035522,-0.19608701765537262,0.001674625906161964,0.04035796970129013,0.052488915622234344,-0.040769919753074646,0.1462889313697815,-0.012491864152252674,-0.009115141816437244,-0.0008444068371318281,-0.1621207892894745,-0.13805456459522247,0.00025681653642095625,-0.11017732322216034,-0.011040017940104008,0.12689900398254395,-0.036021001636981964,-0.09789206087589264,-0.04065758362412453,-0.14057935774326324,-0.012664190493524075,0.031035427004098892,-0.2556895613670349,-0.07512539625167847,-0.04021797701716423,0.053218502551317215,0.18365681171417236,0.07340799272060394,0.03234315291047096,-0.016053332015872,-0.193548783659935,-0.011935179121792316,0.02946002222597599,0.04269757866859436,0.10997957736253738,-0.1620895266532898,0.16854162514209747,-0.021694891154766083,-0.06626320630311966,-0.013344502076506615,0.00759919872507453,0.06702626496553421,0.06592917442321777,0.09909556806087494,0.09726368635892868,-0.013385726138949394,0.13918311893939972,0.052505042403936386,0.19896875321865082,0.15112899243831635,-0.06624437123537064,-0.04236561432480812,0.029518291354179382,-0.033713486045598984,-0.01803758554160595,0.08972974121570587,-0.049301616847515106,0.09595175832509995,0.06812085956335068,-0.053823232650756836,-0.0898626446723938,-0.015663988888263702,0.036871980875730515,-0.0069480035454034805,0.062481530010700226,-0.14078138768672943,-0.0828479751944542,-0.04856538027524948,-0.022289080545306206,0.17616841197013855,-0.057737547904253006,0.033882297575473785,-0.09238354116678238,-0.01330510526895523,0.037962693721055984,0.04227165877819061,0.03373808413743973,0.008895483799278736,-0.07568463683128357,-0.3163045346736908,0.08241730183362961,0.027704991400241852,0.06350629031658173,-0.11254759132862091
stvHycAgOVk,0.04706079885363579,0.053355954587459564,-0.009238820523023605,-0.0689123272895813,-0.026032257825136185,0.052235398441553116,0.27451232075691223,-0.011558158323168755,0.0025000832974910736,-0.07561606168746948,0.18926693499088287,0.030052270740270615,0.07944457232952118,0.06748440861701965,0.08610369265079498,-0.0569591149687767,0.011485710740089417,0.030589589849114418,0.021101931110024452,0.059239789843559265,0.06544072180986404,-0.028886033222079277,0.06446821987628937,0.0105963796377182,0.014214578084647655,-0.10662020742893219,-0.03777929022908211,-0.018962861970067024,0.02936388924717903,0.03988797962665558,0.12040438503026962,0.015320934355258942,0.03749672323465347,0.0058847698383033276,0.04051589220762253,0.025339074432849884,-0.023561280220746994,0.06566247344017029,-0.04168323799967766,-0.03888200223445892,0.27614012360572815,-0.029383953660726547,-0.052961315959692,-0.04270925745368004,-0.12848585844039917,0.09560968726873398,0.12205205112695694,0.13305731117725372,0.12582074105739594,-0.023693988099694252,0.028209181502461433,0.028431937098503113,0.09155349433422089,0.11897695809602737,1.8197577446699142e-05,-0.03454102575778961,-0.10923125594854355,-0.010751410387456417,-0.04181285947561264,0.030374815687537193,-0.04872741550207138,0.13707156479358673,0.0002891281619668007,-0.03625677898526192,-0.017855815589427948,-0.07618716359138489,-0.0192386656999588,-0.06649854779243469,-0.07829342782497406,-0.06792326271533966,0.18561671674251556,-0.017291873693466187,-0.013387642800807953,0.09654248505830765,-0.08246659487485886,0.05409974232316017,-0.040372829884290695,-0.10355626791715622,-0.05155827850103378,0.0011785910464823246,0.12856942415237427,-0.07855182886123657,0.017633110284805298,-0.04315008968114853,-0.05747425556182861,0.19191431999206543,-0.019968468695878983,0.08452639728784561,-0.04201193153858185,-0.0679803341627121,0.15037377178668976,0.05049732327461243,0.04387981817126274,-0.006673410534858704,0.0634334459900856,-0.05488879606127739,0.055970996618270874,0.06876389682292938,-0.025558307766914368,-0.058220937848091125,0.10357822477817535,0.061692070215940475,0.13812890648841858,0.08434116095304489,0.022291259840130806,0.015799645334482193,0.087246373295784,0.09530626237392426,0.0013046995736658573,0.0942574292421341,0.07669728994369507,-0.06588761508464813,-0.13176025450229645,0.1168825700879097,0.09936819970607758,-0.09260504692792892,0.0380144938826561,0.07408186048269272,0.0028561153449118137,-0.040624041110277176,0.0004890458658337593,0.017831280827522278,-0.023365609347820282,-0.007158865686506033,-0.01896396465599537,-0.11377137899398804,-0.04155311360955238,0.03717997297644615,-0.07662073522806168,4.625832661986351e-05,-0.04417822137475014,-0.0020471529569476843,0.04210368171334267,0.09159804880619049,-0.025389300659298897,0.09996695816516876,0.07243134081363678,-0.14706914126873016,-0.13689294457435608,-0.010296923108398914,0.11092522740364075,0.045285020023584366,0.05911301076412201,-0.028099142014980316,-0.035040587186813354,-0.028946010395884514,-0.0723879337310791,0.0470973402261734,-0.0191867183893919,0.08074672520160675,0.01676170341670513,0.03292250633239746,-0.07699017226696014,0.0005437099607661366,-0.01721678115427494,0.10144810378551483,0.05959952250123024,0.07461817562580109,0.014080194756388664,-0.032684240490198135,-0.061037614941596985,0.07946771383285522,0.04135766997933388,0.05263908952474594,-0.013616069220006466,0.16627612709999084,-0.16025948524475098,-0.0999700129032135,-0.09098786115646362,-0.000593325006775558,-0.19715814292430878,0.06613846868276596,-0.04057146608829498,0.1297304481267929,0.08951966464519501,0.14112459123134613,-0.045756977051496506,0.10458611696958542,-0.10311228781938553,0.06492345035076141,0.02738705836236477,0.1053324043750763,0.052025359123945236,0.26672235131263733,-0.04247451573610306,-0.022476423531770706,0.0016420675674453378,-0.05822230875492096,0.0032483891118317842,-0.0880483016371727,0.07468372583389282,-0.009352154098451138,0.025951707735657692,0.11083626002073288,0.04038955271244049,0.04069218784570694,0.07759279012680054,-0.14118316769599915,0.020970338955521584,0.1003747209906578,-0.04893502965569496,-0.12597613036632538,0.06924249976873398,-0.014091640710830688,0.06484965234994888,-0.02327776700258255,-0.046638552099466324,-0.07539813220500946,0.019220486283302307,0.09494509547948837,0.046367790549993515,0.026958376169204712,-0.021043257787823677,0.0022124263923615217,0.010724853724241257,0.011550778523087502,0.026327671483159065,-0.0843416377902031,-0.07007533311843872,0.04904267564415932,0.08084888011217117,0.050281982868909836,-0.14279215037822723,-0.04673328250646591,-0.06837461143732071,0.11494564265012741,0.002057306468486786,0.020039113238453865,0.0011356857139617205,0.010426176711916924,-0.04009208455681801,-0.0017627126071602106,0.06874746084213257,-0.040404997766017914,-0.21726249158382416,-0.035511281341314316,-0.03479871153831482,0.21148094534873962,0.04535495489835739,-0.2547657787799835,-0.027616215869784355,0.07948900759220123,-0.006786910351365805,0.022770274430513382,0.21663306653499603,0.01979650929570198,0.19564644992351532,-0.0681895986199379,0.03753837198019028,-0.03115014359354973,0.016159331426024437,-0.014693900011479855,-0.026208508759737015,-0.022001806646585464,0.058117903769016266,0.040688421577215195,-0.19740702211856842,0.05881323665380478,0.3351013660430908,-0.010222561657428741,0.09224789589643478,-0.029354259371757507,0.07569700479507446,-0.009841442108154297,-0.049371249973773956,-0.048854224383831024,0.0687975063920021,-0.15118515491485596,-0.04144299030303955,-0.029861701652407646,-0.008213620632886887,-0.030250268056988716,-0.07867707312107086,-0.024148721247911453,-0.08668609708547592,-0.001316283131018281,-0.09397418051958084,-0.054651811718940735,-0.11748256534337997,0.06788761168718338,0.05137236788868904,-0.058831147849559784,0.010866007767617702,0.01261543296277523,-0.09476308524608612,0.08600781112909317,0.06868302077054977,-0.0886569693684578,0.12045697122812271,0.04046588018536568,-0.08328253030776978,0.02838839404284954,-0.07117126137018204,0.078414186835289,0.0385017916560173,0.007976183667778969,0.028082579374313354,-0.0947747528553009,-0.029232503846287727,0.1471092402935028,-0.02132941596210003,-0.040977392345666885,0.018502168357372284,-0.033669210970401764,-0.012834174558520317,-0.014728199690580368,0.003767630085349083,-0.057143304497003555,0.0037232765462249517,-0.061920780688524246,-0.029288707301020622,-0.019590025767683983,0.020557431504130363,0.38312339782714844,-0.15460218489170074,0.10608406364917755,-0.06231646612286568,-0.05938439816236496,0.019020861014723778,0.14105035364627838,-0.014995034784078598,-0.0671067088842392,0.002613947493955493,-0.040990814566612244,-0.03440486639738083,-0.005596812814474106,-0.06644517928361893,-0.03149077296257019,0.05515042319893837,-0.018302645534276962,0.05297751724720001,-0.09651479870080948,0.04534442350268364,-0.12674593925476074,0.14829282462596893,-0.037842560559511185,0.00519461277872324,-0.003612720873206854,-0.02966831997036934,0.026925215497612953,-0.03698078542947769,-0.0715777575969696,0.03680354356765747,0.10053951293230057,-0.1244978979229927,0.023029757663607597,0.05675511807203293,0.04247754067182541,-0.0051046269945800304,-0.0033825053833425045,0.04403410479426384,0.03606612607836723,-0.06209522485733032,-0.0465572215616703,0.041347842663526535,-0.2522723078727722,0.13266876339912415,-0.03035815805196762,-0.016819240525364876,0.09875884652137756,0.061892084777355194,0.05021555349230766,-0.07552792131900787,-0.006747473031282425,-0.12278647720813751,-0.026016589254140854,0.10785415768623352,-0.033567164093256,-0.13533125817775726,0.03876876085996628,-0.07627566158771515,-0.09796658158302307,0.062191784381866455,0.04917638376355171,0.07619600743055344,-0.19376826286315918,0.034867994487285614,-0.24386727809906006,-0.19467884302139282,0.06670074909925461,0.1033695787191391,-0.2741135358810425,0.13843987882137299,0.055000826716423035,0.02577676624059677,-0.09296471625566483,-0.06857828795909882,0.017276952043175697,0.16205304861068726,0.04465499892830849,0.07495009899139404,-0.123966746032238,-0.10506555438041687,-0.026500025764107704,0.01736554503440857,0.11845894157886505,-0.08615324646234512,-0.05674301087856293,-0.014711998403072357,0.019538886845111847,-0.038109127432107925,0.06834232062101364,0.0417005717754364,-0.04597019404172897,0.05345416069030762,0.05627840384840965,0.1155281811952591,0.031025877222418785,-0.0229916051030159,0.08391324430704117,-0.05559207871556282,-0.11580580472946167,-0.08406202495098114,0.03207863122224808,-0.06935545057058334,-0.1264733374118805,-0.037852853536605835,-0.11686805635690689,-0.10305100679397583,-0.01833673194050789,0.012859276495873928,-0.019036266952753067,0.014404905028641224,-0.1150050163269043,-0.0813911184668541,-0.07064297050237656,0.038937557488679886,0.003912632819265127,0.022524304687976837,-0.013651618734002113,-0.032750602811574936,-0.07994966208934784,-0.04789820685982704,0.0968281552195549,-0.040381286293268204,-0.11159097403287888,-0.022068796679377556,0.07485734671354294,0.06437195837497711,-0.03451956808567047,-0.04863455519080162,-0.051040373742580414,0.032675206661224365,0.1021442860364914,0.013098713010549545,0.24189792573451996,0.04584013670682907,-0.2289993017911911,-0.18112747371196747,0.018441688269376755,-0.019516127184033394,-0.07609564810991287,-0.13093796372413635,0.04783659800887108,-0.16343511641025543,0.014530094340443611,0.07238506525754929,-0.07625743746757507,-0.02631210908293724,0.12134883552789688,0.051780667155981064,0.3252250850200653,-0.11627782881259918,0.05871916934847832,-0.10576467216014862,0.1167389526963234,0.08967888355255127,0.012092756107449532,0.02805165760219097,-0.01694587804377079,0.05789930000901222,-0.10032153874635696,0.09029772877693176,0.034782860428094864,-0.036416903138160706,0.002623633947223425,-0.10938689112663269,-0.19157461822032928,0.03710781782865524,0.007835628464818,-0.12897324562072754,0.02007587067782879,0.0352201946079731,-0.12122208625078201,0.0037474415730684996,-0.029869798570871353,-0.019997883588075638,-0.04090261831879616,-0.06849111616611481,-0.04197894409298897,0.012403126806020737,0.016648873686790466,0.032440658658742905,0.1199931800365448,0.09168198704719543,-0.036772407591342926,-0.026501508429646492,0.11098881810903549,-0.15610383450984955,0.13729125261306763,-0.07703240215778351,0.044586893171072006,0.04585551097989082,-0.05770254135131836,-0.0582418367266655,0.05020926147699356,-0.01787264086306095,-0.014563562348484993,-0.013736964203417301,-0.023943152278661728,0.010953706689178944,0.04868219047784805,-0.11639127880334854,-0.2650037109851837,-0.04207088425755501,0.1573239415884018,-0.005785790272057056,0.06847544014453888,0.0432279035449028,-0.02171974629163742,-0.016592755913734436,-0.005247605498880148,-0.03583163395524025,-0.017621731385588646,-0.05561147257685661,-0.02489226683974266,0.056718870997428894,-0.056351225823163986,0.052523523569107056,0.042436160147190094,0.061382655054330826,0.04522047936916351,0.0017682826146483421,-0.08476392179727554,-0.03431524708867073,-0.10697294771671295,0.15564900636672974,0.006529942620545626,-0.05369151383638382,0.050050195306539536,-0.08311827480792999,-0.015157567337155342,0.048829447478055954,0.036351703107357025,0.010087129659950733,0.0030421053525060415,0.05159606412053108,0.1465463489294052,0.04856228083372116,-0.06219753995537758,-0.10966633260250092,-0.025447633117437363,-0.08259308338165283,0.01636437699198723,0.18834929168224335,-0.06023494526743889,0.011688998900353909,-0.1086200550198555,0.06759350746870041,-0.049671586602926254,-0.005680798552930355,-0.0900917574763298,0.028112832456827164,0.039406273514032364,-0.07046249508857727,-0.12361569702625275,-0.08571198582649231,0.01285302359610796,0.07748280465602875,0.04173882305622101,0.045148059725761414,-0.05576685070991516,0.04686597362160683,0.05612298101186752,0.03470209240913391,0.004304521717131138,0.006992993410676718,0.04976242035627365,0.07207787781953812,-0.10763750970363617,0.07681947201490402,-0.03052789345383644,0.053611963987350464,-0.002344456035643816,0.00974318291991949,-0.07505519688129425,0.03766065835952759,0.058645833283662796,0.04913708567619324,-0.06120871752500534,0.06249966844916344,-0.007683906238526106,0.003938224166631699,-0.04947361722588539,0.012028519064188004,0.036816250532865524,-0.019764045253396034,-0.07039360702037811,0.14292313158512115,0.040887922048568726,-0.06664414703845978,0.040932346135377884,0.07271996885538101,0.058337241411209106,-0.1421440690755844,-0.08651412278413773,-0.1876550316810608,-0.03723558783531189,-0.10480032116174698,0.14486689865589142,0.05164963752031326,-0.06482154875993729,0.05336630716919899,0.08219139277935028,-0.11047910898923874,-0.012578979134559631,-0.04580487310886383,0.08380652219057083,-0.017192620784044266,-0.06606767326593399,-0.0029129679314792156,0.034713782370090485,0.16785256564617157,-0.06892891228199005,0.03904656693339348,-0.021333271637558937,0.07365812361240387,-0.1221444308757782,0.0860901027917862,-0.07958198338747025,-0.042984575033187866,-0.021435722708702087,-0.003820737823843956,-0.05665076896548271,0.01323170866817236,0.10047566145658493,-0.002004253678023815,-0.033608194440603256,-0.07075774669647217,-0.051353976130485535,-0.014539890922605991,-0.11702749133110046,0.001058319816365838,0.06965088844299316,-0.027601884678006172,0.008366188034415245,-0.08857113867998123,0.10004899650812149,-0.019333625212311745,-0.07695619761943817,0.22996744513511658,0.04708793759346008,0.01213675457984209,0.07026199996471405,-0.006512352265417576,0.006854278035461903,-0.05707462877035141,-0.09689543396234512,-0.042824637144804,-0.022107310593128204,0.06468847393989563,-0.0010897719766944647,-0.05212670564651489,0.007754504680633545,-0.07256575673818588,-0.1059507355093956,-0.043643657118082047,-0.027774851769208908,-0.018816927447915077,0.008849916979670525,-0.042524680495262146,0.010076777078211308,0.034190382808446884,0.10306970775127411,0.05013022944331169,0.10327962040901184,-0.013214627280831337,0.07358944416046143,-0.1835518181324005,-0.026214731857180595,-0.009908302687108517,0.07957710325717926,-0.07032881677150726,0.28560376167297363,0.09819170832633972,-0.18797257542610168,-0.07712950557470322,-0.02082083187997341,0.05169283598661423,-0.10580039024353027,0.04859814792871475,0.002089850138872862,-0.003632626961916685,-0.042984090745449066,-0.04502267390489578,-0.016575783491134644,-0.006273902021348476,0.07877857238054276,0.041715286672115326,0.08566164970397949,0.02420879155397415,-0.11303241550922394,0.01509476825594902,-0.20631223917007446,-0.30822739005088806,-0.16846713423728943,-0.12560273706912994,0.011952290311455727,0.009082714095711708,-0.015507180243730545,0.14023421704769135,0.03351595997810364,0.0181598961353302,-0.03825319558382034,-0.11641964316368103,-0.048718735575675964,-0.00871138833463192,0.07779243588447571,0.09896523505449295,-0.049431875348091125,0.1251283884048462,-0.0190860778093338,0.024866869673132896,0.015562152490019798,-0.05706022307276726,0.10082144290208817,0.053203221410512924,0.08675508201122284,0.08874266594648361,-0.05550738051533699,0.16552279889583588,0.02690620720386505,-0.01669769547879696,0.209360271692276,0.08122816681861877,-0.013070234097540379,0.04379299283027649,-0.019057605415582657,-0.01142839901149273,0.130001962184906,-0.06947822868824005,0.09780586510896683,0.1178685873746872,0.006720487028360367,0.002151510212570429,0.0069352989085018635,0.014861293137073517,-0.013786930590867996,0.006299078464508057,0.04338112473487854,0.005316863302141428,-0.02424989454448223,-0.08808101713657379,0.025732794776558876,-0.04197296127676964,0.04860464856028557,-0.0908566489815712,-0.004960083402693272,0.061059046536684036,0.0067422715947031975,-0.01874024048447609,-0.037458620965480804,-0.00484895845875144,-0.05635952204465866,-0.028703374788165092,-0.042845532298088074,0.03322457894682884,-0.10961975902318954
g0x2LONwAA0,0.01997319981455803,-0.050662487745285034,-0.006455772556364536,-0.015790864825248718,0.05207650735974312,-0.00554895494133234,0.026533877477049828,0.032900746911764145,-0.06203223019838333,0.07366175204515457,0.17011111974716187,0.09606355428695679,0.09208989888429642,0.12176834046840668,0.013265932910144329,-0.21354389190673828,0.08704693615436554,0.03459744155406952,-0.07225768268108368,0.08696327358484268,0.15020039677619934,-0.09334675967693329,0.02808016911149025,0.030366325750947,-0.13834895193576813,-0.09749013185501099,0.021305225789546967,-0.1000894159078598,0.00277890358120203,0.1331281065940857,0.0060878838412463665,-0.019842401146888733,-0.001181779894977808,0.007219715043902397,0.02222999557852745,-0.007006947882473469,0.012651653029024601,0.0776282399892807,-0.07160837203264236,0.06854276359081268,0.1661594659090042,-0.04576139524579048,0.03139775991439819,0.0017093074275180697,-0.08234959095716476,0.1605205237865448,0.1027170792222023,-0.1140415146946907,0.14132364094257355,0.02541477419435978,0.01180635578930378,0.07301023602485657,-0.1477476805448532,0.07506150752305984,-0.05274464935064316,-0.15180595219135284,-0.14626812934875488,-0.052819736301898956,0.09664246439933777,-0.01661815121769905,-0.05739392340183258,0.10096728801727295,0.057612091302871704,-0.06289192289113998,0.07865031063556671,-0.008528951555490494,-0.005188372451812029,-0.08722160756587982,-0.02927820011973381,-0.08711417019367218,0.20820346474647522,0.04135550186038017,0.04458744078874588,-0.017226044088602066,0.010964689776301384,-0.019273899495601654,-0.0843600183725357,-0.04176764190196991,0.04218818619847298,-0.004831117112189531,0.11044155061244965,0.10046615451574326,0.00012877931294497102,-0.04436870664358139,0.013602727092802525,0.2621506452560425,-0.060152746737003326,0.05807714909315109,-0.058349061757326126,-0.10483759641647339,0.1990119069814682,-0.0022858965676277876,0.04797426983714104,0.018469247967004776,0.04764893651008606,0.06700440496206284,-0.024189168587327003,0.017100565135478973,-0.03311232849955559,-0.09196748584508896,0.1597747653722763,0.0494198314845562,0.1503731906414032,0.09889017790555954,0.03363410755991936,0.0134838055819273,0.004156278446316719,0.0937185138463974,0.07797722518444061,0.11692874878644943,0.027663500979542732,-0.16968128085136414,-0.01603163406252861,0.11184331029653549,0.024633338674902916,-0.041725702583789825,0.04534788429737091,0.08888103067874908,-0.12907440960407257,-0.04339079558849335,-0.012859535403549671,-0.06705718487501144,0.055195294320583344,0.025263797491788864,-0.03191367909312248,-0.05432942137122154,-0.0676506981253624,0.06781449168920517,-0.005456229206174612,0.026841923594474792,-0.10636459290981293,-0.06345858424901962,-0.1184573620557785,-0.04195002466440201,-0.0158612709492445,0.08626803755760193,0.0644916296005249,-0.07476316392421722,0.08465386182069778,-0.057286471128463745,0.09866497665643692,-0.029692266136407852,-0.040154170244932175,-0.09189702570438385,-0.059339869767427444,0.06256619840860367,0.046422138810157776,0.0795040875673294,-0.020955005660653114,0.0790647566318512,-0.0749678835272789,0.08121149241924286,-0.17063939571380615,0.0700620636343956,-0.012472863309085369,0.09692567586898804,-0.014054854400455952,0.0829121544957161,-0.11519093066453934,0.04045464098453522,0.051092714071273804,-0.002742833225056529,0.025242675095796585,0.1234603300690651,0.008739834651350975,0.046902138739824295,-0.21000315248966217,-0.07455293834209442,-0.021593812853097916,-0.020469143986701965,-0.09494773298501968,0.02864808589220047,-0.00708030816167593,0.011631229892373085,0.01314137689769268,0.14772647619247437,0.08054615557193756,0.16196192800998688,0.07912404835224152,0.07793966680765152,0.023545876145362854,0.09152092039585114,0.06612934917211533,0.19803236424922943,-0.1610444337129593,-9.827442409005016e-05,-0.0140970004722476,-0.10449843108654022,-0.043822068721055984,-0.09166646748781204,0.08837234973907471,-0.0035096206702291965,-0.07525071501731873,0.054028481245040894,0.0675930380821228,-0.0448700450360775,-0.013402363285422325,-0.11479377001523972,0.0019783591851592064,-0.0057244738563895226,-0.05549017712473869,-0.23696008324623108,0.07278496026992798,0.1879233568906784,0.02738773450255394,-0.04676876962184906,0.1769484579563141,0.03751526400446892,0.098283551633358,-0.03187344968318939,0.06462284922599792,-0.03233727067708969,-0.04909496381878853,0.14490927755832672,0.008788024075329304,-0.07636113464832306,0.08108744770288467,-0.047936417162418365,-0.11624118685722351,0.06466937065124512,0.03458571434020996,0.15417708456516266,-0.1650942862033844,-0.05339713394641876,-0.009488279931247234,0.11305539309978485,0.0015325533458963037,0.010027727112174034,-0.10291840136051178,0.06145458295941353,0.0005622092867270112,0.07771409302949905,0.031634967774152756,-0.02296741120517254,-0.07009410858154297,-0.07691346108913422,-0.02543959952890873,0.04066215083003044,0.08595682680606842,-0.36059901118278503,0.0038990809116512537,0.19450274109840393,-0.00029229794745333493,0.016737354919314384,0.21327228844165802,-0.12984269857406616,0.13568435609340668,-0.10105600208044052,-0.005068530328571796,-0.03399220481514931,0.0668349638581276,0.03515101224184036,-0.0866122841835022,0.03812551870942116,0.005874501541256905,0.15133632719516754,-0.07128605991601944,0.039580587297677994,0.13501393795013428,-0.09047815203666687,0.10624848306179047,-0.09945674240589142,0.009444230236113071,0.01176734920591116,-0.04767138883471489,-0.013024520128965378,0.08485393971204758,-0.16799142956733704,-0.06752932816743851,0.013729007914662361,-0.131189227104187,-0.01812596060335636,-0.10789384692907333,-0.021338343620300293,-0.009316323325037956,0.07975013554096222,-0.003116941312327981,-0.15726147592067719,-0.10085276514291763,0.0631507858633995,0.12491659820079803,-0.11672341823577881,-0.025120804086327553,-0.06607217341661453,-0.11188268661499023,0.04427919164299965,-0.012547970749437809,-0.24575933814048767,-0.028359506279230118,0.23813512921333313,0.07535893470048904,-0.010235154069960117,-0.09941165149211884,0.07551852613687515,-0.06368418782949448,-0.0366792194545269,-0.11492608487606049,-0.009875296615064144,0.0020910254679620266,0.2745126187801361,0.011830475181341171,0.03231087327003479,-0.006979682482779026,-0.00755290174856782,-0.008052913472056389,0.05400374159216881,0.09847130626440048,0.013032454065978527,0.08291096985340118,0.006937088444828987,-0.06002820283174515,-0.012435436248779297,0.002269488526508212,0.21135558187961578,-0.10839220881462097,0.027880141511559486,-0.07050621509552002,-0.07837477326393127,-0.014389683492481709,0.08872782438993454,0.056526049971580505,-0.11338378489017487,-0.010800004005432129,-0.050715118646621704,-0.0712401494383812,0.09023509919643402,-0.12349066883325577,-0.09632895141839981,0.11051708459854126,-0.05717694014310837,0.0059108552522957325,-0.08752182126045227,0.008048245683312416,0.04453210532665253,0.11219189316034317,-0.07927024364471436,-0.08023029565811157,0.022204861044883728,-0.006123737897723913,0.07587593793869019,-0.04329392686486244,-0.02651396580040455,0.045276690274477005,-0.010297639295458794,0.005107033532112837,0.05273999273777008,0.05626808851957321,0.04500681161880493,-0.030097123235464096,0.08126439154148102,0.07686307281255722,-0.05935707688331604,-0.05862654745578766,-0.06926143169403076,-0.0024232540745288134,-0.3158085346221924,0.1621168553829193,0.07492709904909134,-0.10472002625465393,0.06695403903722763,0.1885475069284439,0.0008314483566209674,0.17808109521865845,-0.05492723733186722,-0.18144875764846802,-0.08287902176380157,0.07245951890945435,-0.025036338716745377,-0.10966579616069794,0.11861538141965866,0.04897554963827133,-0.023539794608950615,0.014104659669101238,0.09836636483669281,0.029538435861468315,-0.09386462718248367,0.03804471716284752,-0.09816140681505203,-0.12691234052181244,0.1272837072610855,0.0872928574681282,-0.35620954632759094,0.05755351111292839,0.0027238749898970127,0.044548600912094116,-0.049532193690538406,0.008704742416739464,-0.05769842490553856,-0.035421039909124374,0.04787978157401085,0.03853129595518112,-0.0950024202466011,-0.10458089411258698,-0.09560106694698334,0.03770837560296059,0.08763113617897034,-0.017737342044711113,-0.01589944399893284,-0.03743058443069458,0.020005131140351295,-0.011950098909437656,-0.16455644369125366,0.05639343708753586,-0.08093889057636261,0.04368111863732338,-0.05672289803624153,0.08664222061634064,-0.027963748201727867,-0.0390629842877388,0.08165308833122253,0.044126249849796295,-0.13378743827342987,0.07654262334108353,0.03516962006688118,-0.08320100605487823,-0.19716715812683105,0.013169392012059689,0.06299693137407303,-0.021242154762148857,0.03362765908241272,0.047368813306093216,0.026091355830430984,0.20374277234077454,-0.08432790637016296,-0.06991409510374069,-0.1534697562456131,0.012568782083690166,0.017516162246465683,0.10594938695430756,-0.005280545447021723,0.032119087874889374,-0.00738916639238596,-0.08711133152246475,0.06530400365591049,0.06700301915407181,-0.3136001229286194,-0.07369653135538101,0.059343546628952026,-0.07084020972251892,0.035435985773801804,0.044428806751966476,0.10510270297527313,0.08667755126953125,-0.06238511949777603,0.01130283810198307,0.1420934498310089,0.0882519781589508,-0.3320804238319397,-0.03920605778694153,0.03847375884652138,0.08096110075712204,-0.11636976152658463,-0.16271747648715973,0.04610759764909744,-0.05774235725402832,-0.03380286321043968,0.07396253198385239,-0.028881525620818138,-0.015398355200886726,0.017563529312610626,0.09735320508480072,0.12568464875221252,-0.06719185411930084,-0.006547374650835991,0.03452764451503754,-0.08058395236730576,0.1960505247116089,0.1148945763707161,0.010099624283611774,0.022409558296203613,-0.17129166424274445,-0.012358687818050385,0.03287496790289879,0.02771037444472313,-0.21028052270412445,0.000340731639880687,-0.05693968012928963,-0.1165400967001915,0.10116655379533768,0.061024926602840424,-0.07123308628797531,-0.003286898136138916,-0.030875934287905693,-0.2006518840789795,0.03670167177915573,-0.06676296144723892,-0.033386945724487305,-0.06333163380622864,-0.0259266197681427,-0.05536952242255211,-0.019087085500359535,0.04844551160931587,0.10928753018379211,0.004605279769748449,0.01510241162031889,-0.10633619874715805,0.19152025878429413,0.20004718005657196,-0.19693493843078613,0.11672500520944595,-0.0024502750020474195,0.023117849603295326,0.18262183666229248,-0.10644607990980148,0.02347092516720295,0.08062943071126938,-0.01525383535772562,-0.0025305477902293205,-0.015068218111991882,0.0241282619535923,0.05845622718334198,0.13418933749198914,-0.19071611762046814,-0.25483936071395874,0.03160373121500015,0.15793615579605103,0.07582349330186844,-0.08057411015033722,-0.056360285729169846,-0.02046365849673748,0.011872584000229836,-0.005013701040297747,0.1015828400850296,-0.0721215009689331,-0.0963502824306488,-0.001561849727295339,0.06049969792366028,-0.05212990194559097,-0.056538600474596024,0.055902913212776184,-0.14030343294143677,0.07174642384052277,0.032387323677539825,0.007380192168056965,-0.002058409620076418,-0.09737326204776764,0.07139674574136734,0.09453688561916351,-0.07465364038944244,-0.05507427453994751,-0.16805031895637512,-0.017073823139071465,-0.10657436400651932,-0.047299519181251526,0.07823215425014496,0.020044464617967606,0.1529773473739624,0.06709485501050949,-0.047359444200992584,-0.0645265281200409,-0.03255118802189827,-0.0020629081409424543,-0.1056208461523056,0.06621450185775757,0.08568079769611359,-0.11041039973497391,-0.01434053760021925,-0.03194493055343628,0.029892757534980774,0.09007240831851959,0.023225734010338783,-0.09780648350715637,-0.014940129593014717,0.08945751935243607,-0.014292593114078045,-0.09231698513031006,-0.04301736131310463,0.001940047019161284,0.03410724550485611,0.01607743836939335,0.03603773191571236,0.0032294592820107937,0.04665130004286766,0.096449114382267,-0.05050487071275711,0.03454362973570824,-0.03565790504217148,0.014884446747601032,-0.04912375658750534,-0.08444568514823914,0.020669039338827133,0.09501209855079651,0.08408144861459732,0.008880398236215115,0.05005623772740364,-0.016429107636213303,0.054753366857767105,-0.016169365495443344,-0.04390544444322586,0.017533661797642708,-0.039962079375982285,0.09090601652860641,0.1033153384923935,-0.14879931509494781,0.0034457978326827288,0.02476208657026291,0.08186976611614227,-0.11785692721605301,0.08113609999418259,0.0263027623295784,-0.053746555000543594,0.033572446554899216,0.051875822246074677,0.03740490972995758,0.011814652010798454,-0.11377204954624176,-0.11537174135446548,0.03330669179558754,-0.10938196629285812,0.11495659500360489,0.09579974412918091,-0.1575721949338913,0.040818605571985245,-0.04626896604895592,-0.013797178864479065,0.13049574196338654,0.08403927087783813,0.08953605592250824,0.02575131691992283,-0.11269275844097137,-0.09580183029174805,0.023722050711512566,0.053355440497398376,-0.05483706668019295,0.1063491702079773,0.012339744716882706,0.1009213775396347,0.1225677952170372,0.09863407909870148,-0.2481902688741684,0.18651604652404785,-0.1562979519367218,0.07661696523427963,-0.04699570685625076,-0.09002961218357086,0.07499109953641891,-0.056330230087041855,0.014671855606138706,-0.11823675781488419,-0.049006156623363495,0.034420862793922424,-0.041573770344257355,-0.058432258665561676,-0.08232654631137848,0.007399443536996841,-0.03644265606999397,-0.02484259381890297,0.0676572173833847,-0.03713727369904518,-0.13366778194904327,0.2265223264694214,0.01805528625845909,0.07904331386089325,0.1273510903120041,0.017187396064400673,-0.0023069707676768303,-0.12465603649616241,-0.09700463712215424,-0.0389692485332489,0.10774616152048111,0.10007748752832413,0.04264966771006584,-0.024329381063580513,0.018401730805635452,0.04396388679742813,-0.06494197994470596,0.06299936026334763,-0.11030960083007812,-0.05564834550023079,-0.061817947775125504,0.011572420597076416,0.0364321731030941,0.034594401717185974,0.020595047622919083,-0.019970402121543884,0.0760793536901474,-0.07719302922487259,0.02079140953719616,-0.1678578406572342,0.13609710335731506,-0.016869675368070602,0.029087388888001442,-0.1466497778892517,0.11486990004777908,0.10457129031419754,-0.22383499145507812,-0.015763813629746437,-0.028120920062065125,0.04098660126328468,-0.14610488712787628,0.17958219349384308,0.026702092960476875,0.04995005577802658,-0.0032904702238738537,-0.17078110575675964,-0.16174113750457764,-0.029837211593985558,-0.01550375483930111,-0.014716209843754768,0.12458816915750504,-0.0055102817714214325,-0.13302257657051086,-0.09016729891300201,-0.10574046522378922,-0.1516520231962204,-0.08379559218883514,-0.18702152371406555,-0.046853698790073395,0.06088691204786301,-0.014394212514162064,0.119881272315979,0.07485434412956238,-0.0039374264888465405,-0.07531140744686127,-0.1083221435546875,-0.010653158649802208,0.09772597253322601,0.2270507514476776,0.08045611530542374,-0.3447277247905731,0.1747342050075531,-0.010063555091619492,0.00607170257717371,0.03744204714894295,0.08194612711668015,0.07857835292816162,0.06487049907445908,0.10462396591901779,0.08729560673236847,-0.036908216774463654,0.16417129337787628,0.043530166149139404,0.10389422625303268,0.20169802010059357,-0.005755907855927944,0.016377534717321396,-0.13958939909934998,-0.05107580125331879,-0.016911547631025314,0.028104519471526146,-0.08312572538852692,0.1265634447336197,0.12026900053024292,-0.0430486686527729,-0.08788041025400162,-0.021215327084064484,-0.0033171232789754868,-0.03464322164654732,0.08050373196601868,-0.07817583531141281,-0.159139946103096,-0.0082832807675004,0.04252913221716881,0.12814530730247498,0.04605740308761597,0.06986844539642334,-0.09072589874267578,0.017298761755228043,0.10125628113746643,0.0023436425253748894,0.09512050449848175,-0.030797777697443962,-0.06063537672162056,-0.20907294750213623,0.0005256023141555488,0.07356303930282593,0.09212328493595123,-0.10689563304185867
lk6zvSrT5_Y,-0.03726298734545708,-0.051036007702350616,-0.01203980017453432,-0.09316863864660263,0.043102703988552094,0.06540166586637497,0.13195963203907013,-0.004862542729824781,-0.06745833903551102,0.0711880698800087,0.11241518706083298,-0.11490238457918167,0.06513068079948425,0.032556015998125076,0.08371414989233017,-0.15688428282737732,0.07687367498874664,-1.1207162970094942e-05,0.1117183193564415,0.06530904769897461,0.14059486985206604,0.035584963858127594,0.04900343343615532,0.005717389285564423,-0.10836221277713776,-0.04138209670782089,-0.0015909612411633134,-0.040745776146650314,0.02287229709327221,0.024337340146303177,0.11397646367549896,0.032454729080200195,-0.01997639797627926,-0.09110809862613678,0.02006838284432888,-0.005354056600481272,-0.004214207176119089,-0.013705295510590076,-0.04135723412036896,-0.019780835136771202,0.20800133049488068,-0.10387217253446579,-0.08578665554523468,-0.015530947595834732,-0.09826520085334778,-0.029000381007790565,0.086051344871521,0.11230908334255219,0.14930513501167297,0.0008458970696665347,-0.007367290090769529,0.011114055290818214,-0.09263191372156143,0.07461916655302048,0.06883453577756882,-0.07998399436473846,-0.10409004241228104,-0.0371733196079731,-0.034336984157562256,0.002581666922196746,-0.11323712766170502,0.06761134415864944,-0.022635765373706818,-0.08821512013673782,-0.16540518403053284,-0.022094789892435074,0.014828537590801716,-0.11369697004556656,0.02190481498837471,-0.0027352492325007915,0.13000719249248505,0.09954571723937988,-0.017487339675426483,0.07417929917573929,-0.026218213140964508,0.12703236937522888,-0.11601722985506058,0.03924095630645752,-0.007917369715869427,0.0033866858575493097,0.17880327999591827,0.12107659131288528,-0.08311455696821213,-0.08461503684520721,-0.12023361772298813,0.04019061475992203,0.01657518558204174,0.07939043641090393,-0.053699612617492676,-0.1294776350259781,-0.02726115845143795,0.013856162317097187,-0.024392712861299515,-0.03501118719577789,0.125091552734375,0.0029525181744247675,0.03256325051188469,-0.062346626073122025,0.01573404297232628,-0.20461887121200562,-0.09692804515361786,0.16083750128746033,-0.006341405678540468,0.14047826826572418,-0.019317185506224632,-0.01128592249006033,-0.03814736381173134,0.0480370931327343,-0.08772266656160355,0.051623571664094925,0.07716485112905502,0.017100708559155464,-0.023192811757326126,0.06331268697977066,-0.06595834344625473,-0.11393701285123825,-0.06445909291505814,0.10977975279092789,0.00894255843013525,-0.0034943234641104937,0.06665041297674179,-0.10232028365135193,0.002419499447569251,-0.00273533770814538,-0.05930175632238388,0.048539698123931885,-0.04769325256347656,0.0803290531039238,-0.007856798358261585,-0.05573033168911934,0.0006406456232070923,0.04677499830722809,0.031233735382556915,0.09697172045707703,0.016430530697107315,0.011673012748360634,0.035169560462236404,-0.15483342111110687,-0.017525695264339447,0.017744489014148712,0.033839356154203415,0.04734143242239952,-0.010695738717913628,-0.020694375038146973,0.024340340867638588,0.14964190125465393,-0.037205394357442856,0.035557929426431656,-0.034732259809970856,0.037675872445106506,0.15532998740673065,0.07546333968639374,0.03949926421046257,0.06919953227043152,0.045141007751226425,0.1299704760313034,-0.003712755860760808,0.031934283673763275,-0.10458699613809586,0.02253582887351513,-0.0719674602150917,0.06893645972013474,-0.07144805788993835,0.02048751711845398,0.04875694215297699,0.07479369640350342,-0.12395051121711731,-0.12502425909042358,0.07425013184547424,-0.056438326835632324,-0.12393851578235626,-0.008670836687088013,0.02638305351138115,0.08733644336462021,0.01685144193470478,0.005698313470929861,0.01229054108262062,-0.05295930057764053,-0.06541077047586441,0.10798563808202744,0.023744871839880943,0.09266948699951172,0.10496824234724045,0.06006782874464989,0.12871955335140228,0.005899942014366388,0.11115296930074692,-0.03759535402059555,0.021209577098488808,-0.030346162617206573,0.0911165401339531,-0.03355766460299492,-0.014059302397072315,0.07093188166618347,0.08154288679361343,0.013201183639466763,0.04233891889452934,-0.11769447475671768,0.0724211186170578,0.05940790846943855,0.04518671706318855,-0.20277896523475647,0.005674706771969795,-0.044993169605731964,-0.016187451779842377,0.08914019167423248,0.047508757561445236,-0.035003017634153366,0.10629431158304214,-0.04228367283940315,0.0379868820309639,0.07312838733196259,-0.018821334466338158,0.047839317470788956,-0.027726104483008385,0.002547122072428465,0.07054554671049118,-0.009332646615803242,-0.11771830171346664,0.07090461999177933,0.03513413295149803,0.1335468888282776,-0.06100071221590042,-0.04658565670251846,0.08421988040208817,0.09015072137117386,0.001791680813767016,0.028173811733722687,0.05685938149690628,0.03155664727091789,0.0698220431804657,0.0329163521528244,0.08041135221719742,0.03180121257901192,-0.07870730012655258,0.25858891010284424,-0.08221585303544998,0.1230497658252716,0.04549594223499298,-0.28518322110176086,0.043477416038513184,0.14596273005008698,-0.013873575255274773,-0.006094055715948343,0.2759608030319214,-0.02596316859126091,0.040371887385845184,-0.03842225298285484,0.07159189879894257,-0.011697127483785152,0.04639037698507309,0.07449673861265182,-0.05335802212357521,-0.18071702122688293,0.04476727917790413,0.025642605498433113,-0.20257213711738586,0.08103297650814056,0.25020602345466614,0.1199638769030571,0.06889371573925018,0.02305489405989647,0.022382386028766632,-0.00684433663263917,-0.021308697760105133,-0.06356704235076904,0.05017199367284775,-0.048709478229284286,-0.057308539748191833,-0.04208832606673241,0.04524791240692139,0.023031363263726234,-0.002884099492803216,-0.07590246200561523,0.009746803902089596,0.0037936726585030556,-0.22733323276042938,-0.018308231607079506,-0.024541687220335007,0.040510740131139755,0.0986817330121994,-0.03799115866422653,-0.00559308473020792,-0.02266552858054638,-0.15534187853336334,-0.0020970390178263187,-0.059657566249370575,-0.15846331417560577,0.20108264684677124,-0.10769190639257431,0.0008193609537556767,-0.029797609895467758,-0.08212810009717941,-0.0035350793041288853,0.04648442566394806,-0.04670415818691254,-0.14382079243659973,-0.06003355234861374,-0.006272869650274515,0.19296230375766754,-0.04319876804947853,0.0551656037569046,-0.07432668656110764,-0.05641921982169151,-0.07928439229726791,-0.05008067190647125,0.03796028345823288,-0.10948365181684494,0.0648593008518219,-0.08733007311820984,-0.023956943303346634,-0.007582271937280893,0.030506130307912827,0.2708711326122284,-0.06711002439260483,0.175306037068367,0.010542182251811028,0.0207182876765728,0.04542297124862671,0.2541765868663788,0.06727304309606552,-0.06710775941610336,-0.06773094832897186,0.039145588874816895,0.02490876242518425,0.10267212986946106,0.004809059668332338,-0.10592900961637497,-0.019818119704723358,-0.09070245176553726,0.016226202249526978,-0.07496482878923416,-0.040882933884859085,-0.019153844565153122,0.030880896374583244,0.022217227146029472,0.05344785749912262,0.014747971668839455,-0.03355521336197853,0.02757623977959156,-0.09181059151887894,0.08330865204334259,0.020317595452070236,0.056399259716272354,-0.13106253743171692,0.05887118726968765,0.07196163386106491,0.16356201469898224,0.02435382269322872,0.09230604022741318,-0.13702936470508575,-0.0743052288889885,-0.11552492529153824,-0.0036032649222761393,0.013472392223775387,-0.19766394793987274,0.03357153385877609,-0.01757870800793171,-0.015268105082213879,0.049529027193784714,-0.037883028388023376,0.012514031492173672,-0.13472209870815277,0.021912284195423126,0.004327067174017429,0.07960162311792374,0.021891212090849876,0.006027521099895239,-0.03224574774503708,-0.022672228515148163,-0.12746816873550415,-0.07902507483959198,0.12519842386245728,0.1216052919626236,0.03087591752409935,-0.017787281423807144,0.038837965577840805,-0.12483282387256622,-0.25891774892807007,-0.04875661060214043,0.038968104869127274,-0.22249847650527954,0.23820365965366364,0.10699434578418732,0.08776060491800308,0.08589918166399002,-0.046620357781648636,0.04873180389404297,0.2364407479763031,-0.02548438124358654,0.07369847595691681,-0.18576110899448395,-0.08283302187919617,-0.042266566306352615,0.045209091156721115,0.09413406252861023,-0.05029064789414406,-0.07251545786857605,0.041804924607276917,-0.0012923360336571932,-0.038498807698488235,0.1762719601392746,-0.207715705037117,-0.004066913854330778,0.0790327712893486,0.15901103615760803,-0.027763521298766136,-0.012826190330088139,0.003522497834637761,-0.20144310593605042,-0.060416482388973236,-0.20381110906600952,-0.033032771199941635,0.035665757954120636,-0.15424980223178864,-0.18338660895824432,-0.05636464059352875,-0.18979905545711517,-0.0969979539513588,-0.054827336221933365,0.02131778746843338,-0.037735335528850555,-0.00760277034714818,-0.0557345412671566,-0.027394913136959076,-0.02665269561111927,0.04779083654284477,0.015740536153316498,-0.04157940670847893,-0.0405350960791111,-0.012129425071179867,0.006912116892635822,-0.02582973800599575,0.08045920729637146,0.018062548711895943,-0.16487933695316315,-0.058243442326784134,0.030130337923765182,-0.012059818021953106,-0.00018070887017529458,0.010838636197149754,-0.027529528364539146,0.24253495037555695,0.10871729999780655,0.1207285225391388,0.19873549044132233,0.06814220547676086,-0.11387744545936584,-0.15918168425559998,0.01792449690401554,-0.018282808363437653,-0.12585173547267914,-0.19146834313869476,-0.03635243698954582,-0.11874502152204514,0.011151587590575218,0.02590382657945156,-0.15512442588806152,-0.03187372535467148,0.012653859332203865,-0.03641074523329735,0.3776649832725525,-0.07103759795427322,0.08176016062498093,-0.011455248109996319,-0.1458144187927246,-0.04442264512181282,0.05970846861600876,0.018948392942547798,-0.08343178778886795,0.08542940020561218,-0.09653129428625107,0.08848254382610321,0.07421744614839554,-0.04559216648340225,-0.055904921144247055,-0.2168048918247223,-0.09738936275243759,0.06186998635530472,0.005624693352729082,-0.04113392159342766,-0.0413302443921566,-0.10169243812561035,-0.3225989043712616,0.011587854474782944,-0.1097976416349411,-0.05408148467540741,-0.029654599726200104,0.03268413618206978,0.041595399379730225,0.045540161430835724,0.07665159553289413,0.047860193997621536,0.04538897052407265,-0.07883569598197937,0.00124632369261235,-0.12433013319969177,-0.045246053487062454,-0.08301804959774017,-0.09505220502614975,-0.035805393010377884,0.06978955119848251,0.07455942034721375,-0.12420089542865753,-0.04848811402916908,-0.06763415038585663,-0.032788943499326706,-0.08332160115242004,0.012456456199288368,-0.056798916310071945,0.09174026548862457,0.1398857682943344,0.11792265623807907,-0.004962535575032234,0.0018469864735379815,-0.007770597469061613,0.053005900233983994,-0.05129323899745941,0.048848651349544525,0.05105001851916313,0.058492694050073624,0.0244425218552351,-0.0387529656291008,-0.003329274943098426,-0.1311270147562027,0.09098061919212341,0.03816791996359825,-0.015961702913045883,0.06879481673240662,-0.017292378470301628,0.0780549868941307,0.016379663720726967,0.09690206497907639,-0.014576679095625877,-0.0405360572040081,-0.12473026663064957,0.10224930197000504,0.035616401582956314,-0.1415543109178543,0.05841735377907753,-0.05797633156180382,0.0014822590164840221,0.07965696603059769,-0.03576838970184326,0.0859203189611435,0.08764279633760452,0.020319711416959763,0.10003935545682907,0.02872977778315544,-0.07942257821559906,-0.028264012187719345,-0.06982053071260452,-0.12901632487773895,-0.01237474288791418,0.21751172840595245,-0.008693898096680641,-0.05750273913145065,-0.008782675489783287,0.025208700448274612,-0.06759753078222275,-0.024269862100481987,-0.02150639146566391,0.015019472688436508,0.04821798950433731,0.06737954169511795,-0.08536731451749802,-0.039752185344696045,0.07623856514692307,0.02077225036919117,0.005511643830686808,0.007733251433819532,-0.08278403431177139,0.027762843295931816,0.011141151189804077,-0.041966211050748825,-0.017025677487254143,0.07761435210704803,0.05706486478447914,0.03725181519985199,-0.16426540911197662,-0.0278317853808403,-0.05576004087924957,-0.07038453966379166,0.042073410004377365,0.126688152551651,-0.0537160187959671,0.006769542116671801,-0.0227583646774292,0.017419395968317986,0.04946019500494003,0.01206036563962698,0.07482872158288956,0.0027028790209442377,-0.08553914725780487,0.06538866460323334,0.029951071366667747,-0.013362082652747631,0.020022200420498848,0.024294413626194,0.05282885208725929,-0.1162349283695221,0.11191470921039581,0.0004340683517511934,0.05013125017285347,-0.01756025105714798,-0.006191104184836149,-0.08649363368749619,0.013211044482886791,-0.07784126698970795,0.022697629407048225,-0.02922661416232586,-0.1970871537923813,0.047911014407873154,-0.05692907050251961,-0.2084222435951233,0.055472373962402344,0.03564194217324257,0.06807662546634674,0.002589690964668989,-0.05408145487308502,-0.06447058171033859,-0.05201277881860733,-0.010969515889883041,-0.11768362671136856,0.1215352714061737,0.09633367508649826,0.0735359713435173,-0.04432714730501175,-0.033092375844717026,-0.03724623844027519,-0.024013536050915718,-0.16602808237075806,-0.011175540275871754,0.012531142681837082,-0.10632383078336716,0.22610655426979065,0.0466640405356884,-0.03225802257657051,-0.11668790876865387,0.0006062735919840634,0.00276161334477365,0.032200951129198074,-0.027315886691212654,0.07215490192174911,0.03277818113565445,0.007625334896147251,-0.06407437473535538,0.0699678435921669,0.0005435387138277292,0.05444292351603508,0.24787095189094543,0.04601040109992027,-0.04320472106337547,0.08432979881763458,0.012961892411112785,0.07482333481311798,0.006643316242843866,-0.01142596174031496,0.08320069313049316,0.0001180256440420635,0.08784511685371399,-0.011560555547475815,0.03819423168897629,0.03684593737125397,-0.08347268402576447,-0.11724571883678436,0.02084564045071602,0.07902994751930237,0.06482473015785217,-0.022696513682603836,0.027437645941972733,0.03796596825122833,-0.11711852252483368,0.022093264386057854,0.08051495254039764,-0.01591470278799534,-0.03594057261943817,-0.01604008488357067,-0.05931883677840233,-0.01871385984122753,-0.06387808173894882,0.010021418333053589,-0.061700835824012756,0.11518082767724991,0.10140305012464523,-0.16334952414035797,-0.02660268545150757,-0.06092260777950287,0.062090080231428146,-0.024875430390238762,0.08491811156272888,-0.008218999952077866,0.10553929954767227,-0.014096391387283802,-0.026718828827142715,-0.07383950054645538,0.024248631671071053,-0.05081867426633835,0.013086536899209023,0.09816338866949081,-0.048491064459085464,-0.08867523074150085,0.08224030584096909,-0.09461185336112976,-0.06946299970149994,0.019747639074921608,-0.08740326017141342,0.03965836763381958,-0.07123204320669174,0.075453981757164,0.16908417642116547,0.013198749162256718,0.010294484905898571,-0.02667994052171707,-0.06960614025592804,0.020032070577144623,0.06264714151620865,-0.007291621994227171,0.04767002910375595,-0.058486055582761765,0.09804867953062057,-0.0037157684564590454,0.023159394040703773,0.019673867151141167,0.0021664092782884836,0.0453554168343544,0.13381735980510712,0.048120953142642975,0.08971825987100601,-0.12242034077644348,0.12838059663772583,0.05722973123192787,-0.06235091760754585,0.13736513257026672,-0.0004461089847609401,0.04516879469156265,-0.013305316679179668,-0.03903475031256676,0.03809763491153717,0.16083310544490814,-0.055427201092243195,0.13691067695617676,0.10855822265148163,0.06139421463012695,0.00361558492295444,0.009995120577514172,0.0005109038902446628,-0.05052024498581886,-0.14731217920780182,0.018178308382630348,0.06889260560274124,0.015241270884871483,-0.04612581431865692,0.13369332253932953,-0.006553946062922478,0.014182314276695251,-0.03606577590107918,0.0515664778649807,0.13575905561447144,0.0504080206155777,-0.04359344765543938,-0.020401565358042717,-0.0033723365049809217,-0.16375906765460968,0.0338883176445961,0.017250483855605125,0.05675940588116646,-0.07861499488353729
LuY6VXH7W0I,-0.0005993532831780612,-0.05592111870646477,-0.013959730975329876,-0.0312016811221838,0.09757653623819351,0.06221425533294678,0.1350899636745453,0.004720394965261221,-0.06539014726877213,0.023087045177817345,-0.00873617548495531,0.010450239293277264,0.06109124422073364,0.023892922326922417,0.023211071267724037,-0.20449857413768768,0.009550224989652634,0.008328666910529137,-0.0034579697530716658,0.09419921785593033,0.0889936313033104,0.009282163344323635,0.061759818345308304,-0.016201326623558998,-0.10234815627336502,-0.034336548298597336,0.016034981235861778,-0.004229869227856398,-0.03669315576553345,-0.06211003661155701,0.03554271534085274,-0.014057454653084278,-0.03603043034672737,0.0031199094373732805,0.044632405042648315,-0.002084752544760704,-0.034934502094984055,-0.04268741235136986,-0.0022702813148498535,-0.017058221623301506,0.17441846430301666,-0.08567288517951965,-0.12511812150478363,0.06597777456045151,-0.05062587559223175,0.0615399070084095,0.12497249990701675,0.11367712169885635,0.10815182328224182,0.02329791896045208,0.019865363836288452,0.03683626651763916,-0.1571809947490692,0.06307753175497055,0.19419200718402863,-0.016282660886645317,-0.12725652754306793,0.11817268282175064,0.06696456670761108,-0.029112443327903748,-0.1127917692065239,0.0823020413517952,-0.10161902755498886,-0.06922008842229843,-0.19830100238323212,-0.08647450059652328,0.24371536076068878,-0.11514892429113388,-0.02771400474011898,0.04087509587407112,0.14007911086082458,0.07981265336275101,-0.020460180938243866,0.1654662936925888,-0.03203273564577103,0.1565002202987671,-0.10021530836820602,0.10316913574934006,0.0023859969805926085,-0.01685439981520176,0.04772790148854256,0.10301107168197632,0.003217920660972595,-0.014775996096432209,-0.10923749953508377,0.2412494271993637,-0.045505624264478683,0.07102538645267487,-0.14223499596118927,-0.15196837484836578,0.07373896986246109,-0.00016732265066821128,0.024020329117774963,-0.011714372783899307,0.07887303829193115,0.06687586009502411,0.02093939483165741,-0.09294881671667099,0.07680530101060867,-0.18759293854236603,0.019436225295066833,0.1353425681591034,0.02878262661397457,0.1266225129365921,0.03374128416180611,-0.06784564256668091,-0.04840904474258423,-0.007810935843735933,-0.016312552616000175,0.0781237781047821,0.0732039287686348,-0.00898806657642126,-0.09865554422140121,0.0458616204559803,-0.05497519671916962,-0.040987271815538406,0.05155182257294655,0.11369248479604721,0.03186741843819618,-0.08978920429944992,-0.04909476637840271,-0.0804855227470398,0.00643402524292469,0.0006342648412100971,-0.06724665313959122,-0.006154969800263643,-0.15141479671001434,0.08459237962961197,-0.0014865472912788391,-0.04416755214333534,-0.01815144531428814,0.03811199590563774,0.008001665584743023,0.09515326470136642,0.04666399955749512,0.07356276363134384,0.052812010049819946,-0.10446286201477051,0.004924628417938948,0.03923870995640755,0.05497211217880249,0.06977439671754837,-0.016648171469569206,0.01881829835474491,0.0026830844581127167,0.024976195767521858,0.009269987232983112,0.16933248937129974,0.01734042912721634,0.0359811969101429,0.07163378596305847,0.029442517086863518,0.07850445061922073,0.016024835407733917,0.1131325364112854,0.1327616423368454,0.12009620666503906,-0.05504371225833893,0.008242088370025158,-0.020748412236571312,0.0115658612921834,0.04413599893450737,-0.023405244573950768,0.01853928156197071,-0.02796165645122528,0.05843733623623848,-0.04729599878191948,-0.08562305569648743,-0.04038345441222191,-0.024818532168865204,-0.08734313398599625,-0.007288170978426933,0.048361241817474365,0.06791550666093826,0.005790113005787134,0.06204165890812874,-0.09905938059091568,-0.08049162477254868,0.021623892709612846,-0.010289576835930347,0.003991165664047003,0.05038401484489441,0.17463938891887665,0.10273846983909607,0.01887529529631138,-0.003821602091193199,0.028659338131546974,-0.03934662416577339,-0.01698111928999424,-0.04781700298190117,0.08451452106237411,-0.029879480600357056,-0.011251558549702168,0.07521436363458633,0.02019900269806385,-0.0004137037321925163,0.07690376043319702,-0.10308703035116196,0.08583971112966537,0.07718218117952347,0.01711028255522251,-0.15462757647037506,0.03741626814007759,-0.015253058634698391,-0.021783307194709778,0.0654459074139595,0.0883796215057373,-0.07319828122854233,0.009000204503536224,0.05093252286314964,-0.061430975794792175,0.007789744529873133,-0.021005788818001747,0.006791721563786268,0.01182617712765932,-0.0552673377096653,0.08881352096796036,0.0285335723310709,-0.06303045153617859,0.0395868681371212,0.060104817152023315,0.12034487724304199,0.022129444405436516,-0.02096673846244812,0.009008022956550121,0.06429221481084824,0.01437122467905283,0.0020419564098119736,0.11375018954277039,-0.02873554825782776,0.03039141558110714,0.060875654220581055,0.10877955704927444,0.06485790759325027,-0.00686012813821435,0.17059510946273804,-0.10705218464136124,0.07794300466775894,0.044532012194395065,-0.28889185190200806,0.129043310880661,-0.02503873221576214,-0.02140159346163273,0.01369145791977644,0.17025530338287354,-0.025238433852791786,-0.001702606212347746,-0.030012356117367744,0.05195658281445503,-0.025896785780787468,0.02402733825147152,0.10196569561958313,-0.07929755747318268,-0.13939565420150757,0.03407125547528267,0.03394155204296112,-0.1893751472234726,0.04184539243578911,0.22747699916362762,0.09136103838682175,0.207593634724617,-0.007433803752064705,0.09445071965456009,-0.12837286293506622,-0.08074533194303513,-0.04098982736468315,0.07893875986337662,-0.11240687966346741,-0.00021751846361439675,-0.01710416190326214,0.05254474654793739,0.06522101908922195,0.027356207370758057,-0.0926189199090004,0.02943805791437626,0.029567977413535118,-0.20011688768863678,-0.0003976002335548401,-0.06712795048952103,0.03125344589352608,0.03849818930029869,-0.016435297206044197,0.010934640653431416,-0.03366215527057648,-0.0619349330663681,0.008019556291401386,-0.08353693038225174,-0.10386959463357925,0.1506992131471634,-0.14859677851200104,-0.15349401533603668,-0.058388758450746536,-0.07579951733350754,0.000383070349926129,0.07568531483411789,0.04723108932375908,-0.08891928941011429,-0.1519388109445572,-0.04560595750808716,0.1269400417804718,0.057418834418058395,-0.054351720958948135,-0.008468907326459885,-0.056025922298431396,-0.058352019637823105,-0.09966856241226196,0.07009685039520264,-0.15922369062900543,0.03592529892921448,0.052285388112068176,0.017915824428200722,0.07503305375576019,0.050662968307733536,0.1020585373044014,-0.04567785561084747,0.12718357145786285,0.09487078338861465,0.05266382172703743,0.007172924932092428,0.18753725290298462,0.05122256278991699,-0.018035922199487686,-0.04790584370493889,0.0030479608103632927,-0.03643975779414177,0.006581662688404322,0.002005170565098524,-0.10041924566030502,-0.02480209805071354,-0.11638955026865005,0.03476366773247719,-0.07587403804063797,-0.04059357941150665,0.0038402241189032793,-0.07407335191965103,0.041787851601839066,0.014500857330858707,-0.08803331851959229,0.019541574642062187,-0.04596495255827904,0.019201138988137245,0.04388464614748955,0.006892506033182144,0.1064559817314148,-0.13860802352428436,0.06229270622134209,0.013609066605567932,0.13274799287319183,-0.11558238416910172,0.05603082478046417,-0.04481145367026329,-0.021532313898205757,-0.0708635002374649,-0.010716316290199757,-0.03459938243031502,-0.07506663352251053,-0.03094506822526455,0.032864224165678024,-0.007256301585584879,0.0044443621300160885,0.010760121047496796,0.010562517680227757,-0.13808022439479828,-0.07297275215387344,0.16517221927642822,0.10398993641138077,-9.27861183299683e-05,0.09660805016756058,-0.00939327571541071,0.022700592875480652,-0.08536803722381592,-0.09286057949066162,0.07800664752721786,0.08569464087486267,0.0623878538608551,0.09278468042612076,0.03095424175262451,-0.08274098485708237,-0.12538008391857147,-0.021617546677589417,0.0390029177069664,-0.14763318002223969,0.2067602127790451,0.09625812619924545,0.0444394014775753,-0.0033534758258610964,-0.10103752464056015,0.05521349236369133,0.15788131952285767,0.011964104138314724,0.11067059636116028,-0.20108197629451752,-0.07511616498231888,0.020898103713989258,0.0212814062833786,0.11877322942018509,-0.058979351073503494,-0.013058960437774658,-0.0017669544322416186,-0.028065994381904602,-0.036742497235536575,0.23747508227825165,-0.16322755813598633,0.08198251575231552,0.07959505170583725,0.10516589134931564,-0.08506124466657639,-0.047962743788957596,-0.0349726676940918,-0.016555054113268852,-0.015689967200160027,-0.05500157177448273,-0.03997011482715607,-0.011571667157113552,-0.15224915742874146,-0.17110683023929596,-0.05556979775428772,-0.16108082234859467,-0.07185790687799454,0.11691426485776901,-0.035175129771232605,-0.06661922484636307,0.0365506075322628,-0.07292300462722778,-0.033067137002944946,-0.06059206649661064,0.11753618717193604,0.0009673722088336945,0.042290329933166504,0.03176823630928993,-0.04266743361949921,0.022265061736106873,-0.020784346386790276,0.060204166918992996,0.0303206667304039,-0.04033657908439636,0.028166988864541054,-0.041340421885252,0.014500017277896404,-0.03438799828290939,-0.048373445868492126,0.034184616059064865,0.20628219842910767,0.12486392259597778,-0.02109108865261078,0.11910166591405869,0.03985290229320526,-0.11232013255357742,-0.1569923609495163,0.02250826358795166,-0.050318643450737,-0.12425491958856583,-0.0702846571803093,-0.044847872108221054,-0.0657849982380867,-0.0024332543835043907,0.0671408548951149,-0.2554719150066376,-0.018354952335357666,-0.027684614062309265,0.045868534594774246,0.4340876042842865,-0.11392221599817276,0.08931541442871094,-0.05726918578147888,-0.09822776168584824,0.05386338755488396,-0.0575421117246151,0.06259147077798843,-0.06823821365833282,0.08311858028173447,-0.07341495156288147,0.048447880893945694,0.043248821049928665,0.06017876788973808,-0.07082916051149368,-0.14483952522277832,-0.2986713945865631,0.10192066431045532,-0.03737243637442589,-0.13958582282066345,0.03342099115252495,-0.10184639692306519,-0.2734992802143097,0.002979893470183015,-0.10634442418813705,-0.03433413431048393,-0.0748368501663208,-0.035460200160741806,0.02309247851371765,0.12575767934322357,0.06839313358068466,0.05688673257827759,0.0324958898127079,-0.1318737119436264,-0.0423719547688961,0.12629111111164093,-0.050096165388822556,-0.13664038479328156,-0.13737274706363678,-0.09434176236391068,0.04883364960551262,0.020685452967882156,0.06038329005241394,-0.03193110600113869,-0.014795993454754353,0.02378006838262081,-0.010581747628748417,0.013164124451577663,-0.05480403080582619,0.054685596376657486,0.07046765834093094,0.11318496614694595,0.02915077656507492,-0.09132733941078186,0.16967375576496124,0.028713269159197807,-0.09223373979330063,0.0023872293531894684,0.09310338646173477,0.0007689120247960091,-0.015031321905553341,-0.01968415640294552,-0.022586068138480186,-0.08268532156944275,0.13947319984436035,0.05766461417078972,-0.0178681667894125,0.052103396505117416,0.0018514165421947837,0.13081027567386627,-0.05928197503089905,0.14695097506046295,0.035945791751146317,-0.0647321417927742,0.03760410472750664,0.13203845918178558,0.02117738127708435,-0.07946210354566574,0.013470791280269623,-0.10189040750265121,0.011944872327148914,-0.0050703068263828754,0.003158046631142497,-0.015062361024320126,0.04513796791434288,-0.033905964344739914,0.01386617124080658,0.028285091742873192,0.0024801481049507856,-0.015373475849628448,-0.04401246830821037,-0.06233798339962959,-0.005779919680207968,0.20252883434295654,-0.050504595041275024,-0.0940069779753685,-0.0525197796523571,0.04962432384490967,-0.02809222973883152,0.02439126931130886,-0.03868646174669266,-0.011286630295217037,0.01636119745671749,-0.0033153388649225235,-0.1549544334411621,-0.0087963305413723,0.013205003924667835,0.046603113412857056,0.012949809432029724,-0.025223203003406525,0.04356766864657402,-0.030895821750164032,0.01986507512629032,-0.026628568768501282,-0.06393600255250931,0.03640491142868996,0.03465145453810692,0.021319804713129997,-0.1429518759250641,-0.05227409675717354,-0.11544229835271835,-0.06530827283859253,0.022171789780259132,0.013771779835224152,0.0334542877972126,-0.0006904906476847827,-0.02179826609790325,0.0006868261843919754,0.07288894057273865,-0.06000314652919769,0.03284456580877304,0.02544272504746914,-0.08891160041093826,0.010799809359014034,-0.028816120699048042,-0.050911739468574524,-0.03563506528735161,0.04561789333820343,0.07198427617549896,-0.011383026838302612,0.010849750600755215,0.0010227032471448183,0.014949191361665726,-0.04106215015053749,0.11339464038610458,-0.04036188870668411,-0.014393518678843975,-0.1116107925772667,-0.01061240304261446,0.07494623214006424,-0.18423397839069366,-0.010470292530953884,-0.009858711622655392,-0.05353419855237007,0.02569713443517685,0.10793885588645935,0.038031838834285736,0.03956412896513939,0.0036170382518321276,-0.04664228856563568,-0.0184953436255455,0.05525076761841774,-0.036334890872240067,0.05646631121635437,0.13551098108291626,0.07846704125404358,0.03007417358458042,0.05652904137969017,-0.06579375267028809,-0.0334475040435791,-0.07594849169254303,-0.02005205675959587,-0.025518635287880898,-0.12503062188625336,0.24020074307918549,-0.045915037393569946,0.0018465261673554778,-0.08622947335243225,0.028555242344737053,-0.010906822048127651,-0.05275813862681389,-0.028759567067027092,0.09550223499536514,3.70217785530258e-05,0.01258865837007761,-0.07937798649072647,0.05973340570926666,0.01624298095703125,0.09303482621908188,0.16294007003307343,-0.01682908646762371,-0.04636462405323982,0.07114055007696152,-0.03911557421088219,0.02226695418357849,0.03400367125868797,0.0026632125955075026,0.018527168780565262,-0.13779425621032715,0.09268642216920853,-0.005792473908513784,0.02455630898475647,-0.06820110231637955,-0.10622742027044296,-0.09747684001922607,0.0073362295515835285,-0.03314691409468651,0.0767875537276268,0.0423857755959034,-0.05431075766682625,-0.005699461791664362,-0.048333898186683655,-0.07548823952674866,0.1097368597984314,-0.05184942111372948,0.050867196172475815,0.03455633670091629,-0.050875261425971985,-0.07128845900297165,-0.06407566368579865,0.061772774904966354,-0.06631936132907867,0.1647590547800064,0.20307748019695282,-0.1242200955748558,-0.04303520917892456,0.03188556432723999,0.03538188710808754,-0.005012097302824259,0.16037170588970184,-0.06495129317045212,0.04888667166233063,0.03694675490260124,0.016361786052584648,-0.08743486553430557,0.02915491908788681,-0.03406263515353203,0.04134957119822502,0.14696668088436127,-0.054986268281936646,-0.017681756988167763,0.08736270666122437,-0.09052232652902603,0.028512785211205482,-0.026757339015603065,-0.08601551502943039,0.015708422288298607,-0.06826934963464737,-0.0347345732152462,0.1776159405708313,0.07438644021749496,-0.014372727833688259,-0.0360935777425766,-0.18787901103496552,0.020042357966303825,0.011331714689731598,-0.022546157240867615,0.07375726848840714,-0.04291565343737602,0.20573003590106964,-0.024395287036895752,-0.059248071163892746,0.04700465127825737,-0.06490068882703781,0.05581653118133545,0.13869859278202057,0.059394169598817825,0.12467626482248306,-0.0672794058918953,0.15519337356090546,-0.03711937740445137,-0.11446390300989151,0.09831599146127701,0.16396889090538025,0.021010084077715874,-0.017802922055125237,0.04920513555407524,0.011398588307201862,0.24518859386444092,-0.07876545190811157,0.07585247606039047,0.06443700939416885,0.02419249713420868,-0.05945656821131706,-0.05166076123714447,0.04744541645050049,0.017201680690050125,-0.09589847177267075,-0.038781289011240005,0.0725606307387352,0.01871866174042225,-0.045556504279375076,0.03920484334230423,-0.036488451063632965,0.024648239836096764,-0.1153169497847557,-0.01939358562231064,0.06557276099920273,0.007334867957979441,-0.033499643206596375,-0.0006124998326413333,-0.016627440229058266,-0.12423167377710342,0.03666721656918526,0.016619322821497917,0.00439071049913764,-0.05053158476948738
CHagpJEA8mc,0.18304511904716492,0.02451399341225624,-0.002680689562112093,-0.04936850443482399,0.17500628530979156,0.017867159098386765,0.02586434595286846,0.08941512554883957,0.04446026310324669,0.141367107629776,0.09130893647670746,0.08050627261400223,0.015415878966450691,0.10444348305463791,0.19718235731124878,-0.1800556182861328,0.06283159554004669,0.038286495953798294,0.12430306524038315,0.07448849081993103,0.017596593126654625,-0.0888606533408165,0.06559700518846512,0.0010108829010277987,-0.15842659771442413,-0.0853189006447792,0.029346568509936333,0.02156158722937107,0.02553081139922142,-0.11763714998960495,0.018965017050504684,-0.0664878711104393,0.000739189563319087,-0.054683081805706024,0.034480586647987366,0.052475254982709885,0.0810387060046196,0.08240868896245956,-0.055686961859464645,-0.02675515040755272,0.21246546506881714,-0.09548157453536987,-0.029610056430101395,0.10719601064920425,-0.04323115572333336,-0.15999969840049744,-0.022849779576063156,0.16350486874580383,-0.019318994134664536,-0.0022118736524134874,-0.05014536529779434,0.1215372383594513,0.08244519680738449,0.037044454365968704,0.3443982005119324,0.17007604241371155,-0.07679622620344162,0.039686884731054306,-0.06376141309738159,-0.04813069850206375,0.005424681585282087,0.04879146069288254,-0.0009005831088870764,0.1292102336883545,-0.14765626192092896,-0.007353843655437231,0.04190536215901375,0.018288832157850266,-0.05120272561907768,0.04865498095750809,0.06632658839225769,-0.12086287140846252,-0.02203400619328022,-0.11228109151124954,0.03559596464037895,0.20087295770645142,-0.06743606179952621,-0.036380115896463394,0.08532734215259552,-0.09497141093015671,-0.018881000578403473,-0.08409490436315536,-0.03386775404214859,0.04333651065826416,-0.029273491352796555,0.38660359382629395,-0.050401508808135986,0.07349652051925659,0.04970784857869148,0.012158294208347797,0.06157837435603142,0.03016192652285099,-0.04748038202524185,-0.03622841089963913,0.08298937976360321,-0.0323946475982666,0.04721901938319206,0.09956300258636475,0.01927817240357399,-0.027858197689056396,0.04819868505001068,0.03868718445301056,0.0421116016805172,0.015157577581703663,0.05881465598940849,-0.19039198756217957,-0.25039657950401306,0.19686591625213623,-0.14083673059940338,-0.00041222514118999243,-0.012647660449147224,-0.05457300692796707,-0.07376297563314438,0.13386216759681702,-0.03048885613679886,-0.014575965702533722,0.10029090195894241,-0.06446842849254608,-0.010756569914519787,-0.13311435282230377,-0.048792243003845215,-0.029837746173143387,0.0024903593584895134,0.03674287721514702,-0.05028688162565231,0.2680988907814026,-0.08723939210176468,0.015236477367579937,-0.008176326751708984,0.20819222927093506,-0.14861613512039185,0.026723209768533707,-0.048812516033649445,0.0028033130802214146,0.02628779225051403,0.030438430607318878,-0.006065874360501766,-0.08979886770248413,-0.0458548367023468,-0.06460100412368774,0.07058130949735641,-0.08651900291442871,0.11688712239265442,0.10647832602262497,-0.1051902025938034,-0.12186981737613678,0.005771932657808065,-0.03448066860437393,-0.03715679794549942,0.007684470620006323,-0.09449123591184616,0.05498327687382698,-0.04380796104669571,0.0017436465714126825,0.010248566046357155,0.0660906434059143,-0.041110530495643616,-0.16561821103096008,0.08062631636857986,0.1090659350156784,-0.0777658149600029,-0.13163353502750397,-0.15367141366004944,-0.00946996919810772,-0.036671027541160583,-0.0008099775295704603,-0.15200184285640717,-0.09938980638980865,0.06530697643756866,0.04185383394360542,-0.1242414191365242,-0.06960686296224594,-0.022673310711979866,0.25365719199180603,0.0995723232626915,0.09191107749938965,-0.2323123663663864,-0.06558748334646225,-0.13355839252471924,-0.1704908311367035,-0.013213268481194973,0.09562312066555023,0.11959192901849747,0.09186404198408127,-0.06670019030570984,0.06105944514274597,-0.06757635623216629,0.04360206052660942,-0.046245817095041275,0.01502486877143383,0.10834493488073349,-0.026334017515182495,0.04821937903761864,0.026901250705122948,-0.09643089026212692,-0.009046765975654125,0.05203760415315628,0.203420490026474,-0.04652877151966095,0.01885771006345749,-0.09167365729808807,-0.023279253393411636,0.2199987769126892,0.011275799944996834,0.002265969756990671,-0.01079699769616127,-0.0862104669213295,-0.09213424474000931,0.05375637114048004,0.06876426190137863,-0.07704350352287292,0.004496046341955662,0.005018823780119419,0.0214748103171587,0.12556350231170654,-0.05952056869864464,0.054668884724378586,0.17848536372184753,-0.05577709525823593,0.1494763195514679,0.01623310148715973,0.05696619674563408,0.05108457803726196,-0.04154874384403229,-0.11276320368051529,0.13676564395427704,0.0019701290875673294,-0.044205181300640106,-0.0409335196018219,-0.04512797296047211,0.05847941339015961,0.008601351641118526,0.09909631311893463,-0.08482284098863602,0.06972027570009232,-0.01087264809757471,-0.007610817439854145,-0.07339959591627121,0.07347200065851212,-0.06351028382778168,-0.09562180936336517,0.036423344165086746,-0.08456061780452728,-0.023630311712622643,-0.02106083370745182,-0.1053825169801712,0.16028457880020142,0.020568538457155228,-0.09244398772716522,-0.08981654047966003,0.013181420043110847,0.02501237951219082,-0.028970420360565186,0.009885893203318119,-0.1493300497531891,0.04174729064106941,0.029206231236457825,0.041706059128046036,0.06214499473571777,0.00025159993674606085,0.08159462362527847,-0.008580728434026241,-0.03150772675871849,-0.1032872423529625,-0.14015105366706848,-0.04347016289830208,0.06433993577957153,0.15338146686553955,0.027669502422213554,0.06164587289094925,-0.05289444699883461,0.04462210461497307,-0.03082646057009697,-0.0312737300992012,-0.01301592867821455,0.06804128736257553,-0.04165221378207207,0.061320770531892776,-0.04748353734612465,0.041433341801166534,0.09903230518102646,0.13591168820858002,-0.09031820297241211,-0.008027958683669567,-0.10389147698879242,0.09573409706354141,-0.03194466605782509,-0.1767888069152832,0.02793990820646286,-0.09292768687009811,0.11047716438770294,-0.007660670205950737,-0.10448861122131348,0.01582077518105507,-0.008031519129872322,0.009934951551258564,0.05093536525964737,0.19831812381744385,-0.06296083331108093,0.030586611479520798,-0.08396124839782715,-0.044690608978271484,0.021430790424346924,-0.01500000525265932,0.005739606451243162,0.06602980196475983,-0.014797398820519447,-0.08958403766155243,0.07289566099643707,0.13270340859889984,-0.1046140268445015,0.059244222939014435,-0.019804546609520912,0.24356749653816223,-0.06740027666091919,0.025953009724617004,0.05820240452885628,0.031236618757247925,-0.04099138081073761,0.029831482097506523,-0.013125777244567871,0.028052251785993576,-0.013997478410601616,0.011077877134084702,-0.03561284765601158,-0.10361286252737045,-0.11469867825508118,0.06534416973590851,0.018416866660118103,-0.028715496882796288,0.03841329365968704,0.02764236181974411,0.05837755650281906,0.008638718165457249,-0.1088559627532959,-0.1502356231212616,0.09470246732234955,-0.14121785759925842,-0.1367078721523285,0.02599763125181198,0.04501551762223244,-0.1353611946105957,0.08268691599369049,-0.010697541758418083,0.10186788439750671,0.025280937552452087,0.1654110848903656,0.08400964736938477,-0.31059929728507996,-0.042053788900375366,0.11694706976413727,-0.11476095765829086,-0.04905901104211807,-0.01626511849462986,-0.09939677268266678,0.06298021227121353,0.09775824099779129,0.0906437486410141,0.0020411312580108643,0.10817057639360428,-0.12206222116947174,0.11953305453062057,-0.15021178126335144,-0.11273659765720367,-0.07392477244138718,0.050820767879486084,0.0404265895485878,0.09917488694190979,-0.09287271648645401,0.02133559249341488,0.03760699927806854,-0.01605651155114174,0.012801434844732285,-0.09762309491634369,0.09852415323257446,0.06381538510322571,0.023373793810606003,0.054107002913951874,-0.14391404390335083,0.02657311037182808,0.10344906151294708,0.09166650474071503,-0.059957195073366165,-0.04009408876299858,-0.13789285719394684,-0.009901696816086769,-0.02388145960867405,0.016828356310725212,-0.0317193903028965,0.12551310658454895,0.03506109118461609,-0.1204821914434433,0.051497623324394226,-0.049794502556324005,-0.017984488978981972,0.10073980689048767,0.053778890520334244,0.0666903555393219,-0.013811316341161728,0.05064849928021431,-0.03867829963564873,-0.03608672320842743,-0.07613486051559448,0.01945982314646244,0.12026835978031158,-0.15425343811511993,0.039878711104393005,-0.021584484726190567,-0.15370580554008484,-0.09331541508436203,-0.046311154961586,0.13372498750686646,0.007294227369129658,-0.09655225276947021,-0.034804366528987885,0.04333712160587311,0.03834526985883713,-0.01550343632698059,0.005681305658072233,0.029960935935378075,-0.012160968035459518,0.06892553716897964,0.003325499827042222,-0.03263312578201294,-0.10616245865821838,-0.06723445653915405,-0.035240527242422104,0.04003802314400673,0.03545977175235748,-0.06560135632753372,0.04683437943458557,-0.10045739263296127,-0.14732179045677185,0.1487707495689392,0.006545186508446932,-0.021790962666273117,0.03582480177283287,0.04560732841491699,0.1108756884932518,-0.10129987448453903,0.09809776395559311,-0.010722747072577477,0.011475363746285439,-0.04931624233722687,0.015543412417173386,0.09477074444293976,0.00024130428209900856,-0.27232077717781067,0.09867766499519348,-0.029633797705173492,0.0014766892418265343,-0.042990271002054214,-0.09971988201141357,0.1550222784280777,-0.0006325290887616575,-0.022559205070137978,0.1875922530889511,-0.02210984192788601,-0.08859404176473618,0.029692765325307846,0.11550045758485794,-0.0945153534412384,-0.10100872814655304,0.03181328624486923,-0.05776900798082352,-0.04844176769256592,0.10297726839780807,-0.12394072115421295,0.02919888310134411,-0.08320878446102142,0.1885668784379959,0.039791446179151535,-0.08498500287532806,0.13713335990905762,-0.08290935307741165,-0.07051803171634674,-0.057867422699928284,-0.34709250926971436,0.09960519522428513,0.052541203796863556,0.07489005476236343,0.09212930500507355,0.02876901999115944,0.26172423362731934,-0.02471943572163582,-0.11214247345924377,0.01990268938243389,-0.012880399823188782,-0.06146790087223053,-0.20625483989715576,0.21559932827949524,0.041901443153619766,-0.023069120943546295,-0.04323027282953262,-0.09704431146383286,0.05649077519774437,0.08669962733983994,-0.09805363416671753,-0.14672361314296722,-0.04576973617076874,0.06350918859243393,-0.026837287470698357,0.01993872970342636,-0.1145436093211174,-0.0954660102725029,0.16337552666664124,-0.023319628089666367,0.10791513323783875,0.04471314698457718,-0.16612684726715088,-0.09805061668157578,0.08166355639696121,-0.11080323159694672,-0.2373562455177307,-0.058826617896556854,0.09382147341966629,-0.1468714028596878,-0.17052093148231506,-0.06411578506231308,-0.09550488740205765,-0.0018782222177833319,0.04975834861397743,-0.08268830180168152,-0.02955426461994648,0.01977342739701271,0.12833961844444275,0.04034785181283951,-0.04058614373207092,-0.110953189432621,0.05654996261000633,0.007487578317523003,-0.10991407185792923,-0.02520626410841942,-0.06445173174142838,0.018575290217995644,0.0621928796172142,-0.07490453869104385,0.10179492831230164,-0.06498408317565918,-0.08167634904384613,-0.08601097017526627,0.006445532198995352,-0.05959594249725342,0.036979760974645615,-0.0322003997862339,-0.03908786550164223,-0.07020030915737152,0.020253796130418777,0.17850527167320251,-0.19366277754306793,0.020474441349506378,0.05040137097239494,-0.046704623848199844,0.01260244008153677,0.14556512236595154,-0.10480469465255737,0.006120600271970034,-0.014083257876336575,0.0054632918909192085,-0.08576750010251999,0.0006925240159034729,-0.08582638949155807,-0.18244874477386475,0.05558477342128754,0.05592019483447075,0.000987320439890027,-0.024249523878097534,-0.011867616325616837,0.02559705823659897,0.008914921432733536,0.0009653872111812234,-0.05476396903395653,0.026046322658658028,0.11054401844739914,0.07528027892112732,-0.008220918476581573,-0.050719790160655975,0.02779052034020424,0.01947678253054619,-0.02898094803094864,-0.03048810176551342,0.04767701029777527,0.11878751218318939,-0.05110606551170349,-0.3026834726333618,-0.08381426334381104,-0.06185758486390114,0.0095065301284194,0.1157723143696785,-0.09476671367883682,0.038982681930065155,0.052599214017391205,0.016910716891288757,-0.06782089173793793,-0.021628979593515396,-0.05980048328638077,-0.14883437752723694,0.011491656303405762,-0.0372573621571064,0.052339520305395126,0.1132015511393547,0.06390067934989929,0.011394890025258064,-0.0036269843112677336,0.03725138306617737,0.07653618603944778,0.03226028382778168,-0.1058359295129776,-0.028373559936881065,0.22797895967960358,0.03819978982210159,-0.25547775626182556,0.017849823459982872,0.19338718056678772,-0.042766597121953964,0.05489091947674751,-0.03750762343406677,0.05669308453798294,-0.0930960401892662,-0.06141670048236847,0.06462492048740387,-0.1728653758764267,0.10062411427497864,0.2920531630516052,0.12294124811887741,0.13893330097198486,0.02688491903245449,0.0069014145992696285,0.06407662481069565,0.0062290155328810215,0.10213519632816315,0.022967102006077766,-0.032937947660684586,-0.0404428131878376,0.016662439331412315,0.22319293022155762,-0.11298731714487076,0.041256166994571686,0.048456721007823944,-0.04107996076345444,-0.03595168888568878,0.02673994190990925,-0.0036195660941302776,0.002876381855458021,0.017026443034410477,0.012551679275929928,-0.10844937711954117,0.07853835076093674,0.019443649798631668,-0.0005150445504114032,0.2659245729446411,-0.13008703291416168,-0.08263947814702988,-0.04419071227312088,0.017684055492281914,0.021297305822372437,-0.18530702590942383,0.0959726944565773,-0.07636770606040955,-0.0722348690032959,0.12399029731750488,0.017431413754820824,-0.014512256719172001,-0.055292773991823196,-0.03288375958800316,-0.03309271112084389,0.01977093331515789,0.011571897193789482,0.0005764809902757406,-0.052376385778188705,-0.10155727714300156,0.07373014837503433,-0.04176565632224083,-0.11431135982275009,0.056070610880851746,0.042221397161483765,-0.002181754447519779,-0.031167734414339066,-0.16746953129768372,0.023282721638679504,0.004891472868621349,0.0061159441247582436,-0.1359725296497345,0.1655493974685669,0.2227676808834076,-0.10189606994390488,-0.032916776835918427,0.05796060711145401,0.04863278940320015,-0.013576474040746689,0.14417019486427307,-0.052487485110759735,0.14598870277404785,0.027007365599274635,-0.04602799937129021,-0.07786303758621216,-0.03091851994395256,0.03050517663359642,-0.14188970625400543,0.12474025785923004,0.07232067734003067,-0.09737908840179443,0.02051892690360546,-0.18480324745178223,0.07738446444272995,0.07915325462818146,-0.1380506157875061,-0.0392315573990345,0.03848886489868164,-0.07097360491752625,-0.011874327436089516,0.027377724647521973,-0.06168901175260544,-0.009702937677502632,0.12209360301494598,0.01217073667794466,-0.10027505457401276,0.17037177085876465,0.06964254379272461,-0.00605848478153348,0.18147750198841095,-0.08288303017616272,0.0875437781214714,0.05077699199318886,-0.05149179697036743,0.020219409838318825,-0.003878098912537098,0.04145791009068489,-0.025492683053016663,-0.010305020958185196,0.18464508652687073,-0.008566699922084808,-0.019286345690488815,0.12311727553606033,-0.1436675637960434,-0.05211183428764343,0.10025379061698914,-0.042967330664396286,-0.13003286719322205,0.07995735108852386,-0.11980108916759491,0.05667341500520706,0.09306205809116364,-0.0772351399064064,-0.030222125351428986,0.08237859606742859,0.023353589698672295,0.09781374037265778,0.17197002470493317,0.01617058739066124,-0.0012408270267769694,-0.07593012601137161,-0.1571323126554489,-0.04031461849808693,-0.31372731924057007,0.021282989531755447,-0.011612788774073124,-0.026945624500513077,0.13426032662391663,0.06599052250385284,-0.07462210953235626,0.0381213054060936,-0.05521979182958603,0.025042636319994926,-0.012933782301843166,-0.007898150943219662,-0.05871422216296196,-0.06506570428609848
