link,0,1,2,3,4,5,6,7,8,9,10,11,12,13,14,15,16,17,18,19,20,21,22,23,24,25,26,27,28,29,30,31,32,33,34,35,36,37,38,39,40,41,42,43,44,45,46,47,48,49,50,51,52,53,54,55,56,57,58,59,60,61,62,63,64,65,66,67,68,69,70,71,72,73,74,75,76,77,78,79,80,81,82,83,84,85,86,87,88,89,90,91,92,93,94,95,96,97,98,99,100,101,102,103,104,105,106,107,108,109,110,111,112,113,114,115,116,117,118,119,120,121,122,123,124,125,126,127,128,129,130,131,132,133,134,135,136,137,138,139,140,141,142,143,144,145,146,147,148,149,150,151,152,153,154,155,156,157,158,159,160,161,162,163,164,165,166,167,168,169,170,171,172,173,174,175,176,177,178,179,180,181,182,183,184,185,186,187,188,189,190,191,192,193,194,195,196,197,198,199,200,201,202,203,204,205,206,207,208,209,210,211,212,213,214,215,216,217,218,219,220,221,222,223,224,225,226,227,228,229,230,231,232,233,234,235,236,237,238,239,240,241,242,243,244,245,246,247,248,249,250,251,252,253,254,255,256,257,258,259,260,261,262,263,264,265,266,267,268,269,270,271,272,273,274,275,276,277,278,279,280,281,282,283,284,285,286,287,288,289,290,291,292,293,294,295,296,297,298,299,300,301,302,303,304,305,306,307,308,309,310,311,312,313,314,315,316,317,318,319,320,321,322,323,324,325,326,327,328,329,330,331,332,333,334,335,336,337,338,339,340,341,342,343,344,345,346,347,348,349,350,351,352,353,354,355,356,357,358,359,360,361,362,363,364,365,366,367,368,369,370,371,372,373,374,375,376,377,378,379,380,381,382,383,384,385,386,387,388,389,390,391,392,393,394,395,396,397,398,399,400,401,402,403,404,405,406,407,408,409,410,411,412,413,414,415,416,417,418,419,420,421,422,423,424,425,426,427,428,429,430,431,432,433,434,435,436,437,438,439,440,441,442,443,444,445,446,447,448,449,450,451,452,453,454,455,456,457,458,459,460,461,462,463,464,465,466,467,468,469,470,471,472,473,474,475,476,477,478,479,480,481,482,483,484,485,486,487,488,489,490,491,492,493,494,495,496,497,498,499,500,501,502,503,504,505,506,507,508,509,510,511,512,513,514,515,516,517,518,519,520,521,522,523,524,525,526,527,528,529,530,531,532,533,534,535,536,537,538,539,540,541,542,543,544,545,546,547,548,549,550,551,552,553,554,555,556,557,558,559,560,561,562,563,564,565,566,567,568,569,570,571,572,573,574,575,576,577,578,579,580,581,582,583,584,585,586,587,588,589,590,591,592,593,594,595,596,597,598,599,600,601,602,603,604,605,606,607,608,609,610,611,612,613,614,615,616,617,618,619,620,621,622,623,624,625,626,627,628,629,630,631,632,633,634,635,636,637,638,639,640,641,642,643,644,645,646,647,648,649,650,651,652,653,654,655,656,657,658,659,660,661,662,663,664,665,666,667,668,669,670,671,672,673,674,675,676,677,678,679,680,681,682,683,684,685,686,687,688,689,690,691,692,693,694,695,696,697,698,699,700,701,702,703,704,705,706,707,708,709,710,711,712,713,714,715,716,717,718,719,720,721,722,723,724,725,726,727,728,729,730,731,732,733,734,735,736,737,738,739,740,741,742,743,744,745,746,747,748,749,750,751,752,753,754,755,756,757,758,759,760,761,762,763,764,765,766,767
4tfI7jNbbz4,0.047108981758356094,-0.03830675780773163,-0.009790083393454552,-0.028618482872843742,0.13335153460502625,0.08204422891139984,0.19033974409103394,0.08713077008724213,0.007599541451781988,0.03791125491261482,0.10957048088312149,0.0015575631987303495,0.03210669755935669,0.1575096696615219,0.03512208163738251,-0.17591360211372375,0.1234031468629837,0.08745718747377396,0.13578420877456665,0.06341888755559921,0.06218193098902702,-0.11902298778295517,0.043431732803583145,-0.03496033698320389,-0.17903770506381989,-0.0752088651061058,0.11969888210296631,0.020686453208327293,0.004421726334840059,-0.009733066894114017,0.08812963217496872,0.01284645963460207,0.020302794873714447,0.08717317134141922,0.015860170125961304,0.04630526155233383,0.03469066694378853,0.05598027631640434,-0.05018450319766998,0.10099737346172333,0.08685247600078583,0.046391021460294724,-0.0761338323354721,0.10154908895492554,-0.09442579746246338,0.021173223853111267,0.12648876011371613,-0.0004418469325173646,0.048744771629571915,-0.009953065775334835,-0.045374546200037,0.16883748769760132,-0.08388929069042206,0.059165745973587036,0.1755700260400772,-0.14260178804397583,-0.13170209527015686,-0.005416477099061012,0.14564324915409088,-0.09587334841489792,-0.03802129998803139,0.10340339690446854,0.053271546959877014,-0.03901609033346176,-0.11748728156089783,-0.05221875011920929,-0.03664274886250496,-0.14270243048667908,-0.013532595708966255,0.045036837458610535,0.06190775707364082,0.08165130764245987,-0.007180233485996723,0.026039740070700645,-0.03575730323791504,-0.14660443365573883,-0.17415916919708252,-0.05656524375081062,0.035863202065229416,-0.022502031177282333,0.02632516250014305,0.06289978325366974,-0.05030865967273712,-0.04225778579711914,-0.022150516510009766,0.2518337666988373,0.0190260112285614,0.03466077893972397,-0.11514566093683243,-0.08026301860809326,0.1687168926000595,0.007590274792164564,0.052515264600515366,-0.06365776807069778,-0.02820110321044922,0.04115663468837738,-0.08761756867170334,-0.09989660233259201,0.025204064324498177,-0.1721261590719223,0.11390026658773422,0.04565148800611496,0.09500493109226227,0.1601307988166809,0.09170181304216385,0.05927608534693718,-0.048922330141067505,0.030955182388424873,-0.01348354946821928,0.11460679769515991,0.08150150626897812,-0.12394442409276962,-0.08316527307033539,0.14204677939414978,-0.04005013778805733,-0.1130526140332222,0.05702892318367958,0.06825242191553116,-0.19583304226398468,-0.03349466994404793,0.011956799775362015,0.017060182988643646,0.05827218294143677,-0.01753057725727558,-0.04398728907108307,0.052652809768915176,-0.11317713558673859,0.1391581892967224,-0.019492406398057938,-0.05357223004102707,-0.047037914395332336,0.02512703277170658,-0.0601271353662014,0.01804441399872303,-0.0448385588824749,0.15145839750766754,0.07485301792621613,-0.1248662993311882,0.1477659046649933,0.014759533107280731,0.09146979451179504,-0.019787229597568512,-0.022855626419186592,-0.0833209753036499,0.008147018030285835,-0.007880439050495625,-0.014188934117555618,-0.07115190476179123,0.03564541041851044,0.020527735352516174,-0.009784864261746407,0.10320088267326355,-0.10483568161725998,0.050593696534633636,-0.05527179315686226,0.06672405451536179,-0.02823651395738125,0.06513641029596329,-0.003292824374511838,0.004764760844409466,0.03635409101843834,0.03490692377090454,0.010894587263464928,0.14253288507461548,-0.032381169497966766,0.09885594993829727,-0.2580258548259735,-0.04271048679947853,-0.09908709675073624,-0.014278429560363293,-0.08681906014680862,0.07064762711524963,0.04155701771378517,0.010955155827105045,0.10466320812702179,0.12105290591716766,-0.09759275615215302,0.11200754344463348,-0.01975148357450962,-0.01368020661175251,0.011425929144024849,0.1482095867395401,0.14939448237419128,0.22377270460128784,-0.059553228318691254,-0.035132996737957,0.06962722539901733,0.0400577113032341,-0.06182499974966049,-0.032243382185697556,0.06460588425397873,-0.04402650147676468,0.08116159588098526,0.053436290472745895,0.017702529206871986,-0.005958443507552147,-0.020642170682549477,-0.143135204911232,0.04698743671178818,0.06287389248609543,-0.023701125755906105,-0.25753042101860046,0.06593594700098038,0.11612600088119507,-0.02018813043832779,0.03108028694987297,-0.008630668744444847,0.009160323068499565,0.059505198150873184,0.1497272551059723,0.06481572985649109,-0.011772798374295235,-0.062444962561130524,0.08828513324260712,-0.0708596333861351,-0.0314171127974987,0.0791030302643776,-0.007189466618001461,-0.15022630989551544,0.010364229790866375,-0.0036014679353684187,0.076726034283638,-0.059324122965335846,-0.07437535375356674,-0.17185409367084503,0.12747426331043243,0.05659989267587662,-0.05890106037259102,0.018833421170711517,0.02434086799621582,-0.010231361724436283,0.019214453175663948,0.11718858778476715,-0.022992750629782677,-0.13871102035045624,0.1339167356491089,0.001740508945658803,-0.050698816776275635,0.10548102855682373,-0.3935811519622803,0.025031594559550285,0.21758493781089783,0.06946469098329544,0.0020881150849163532,0.22702212631702423,-0.05832923576235771,0.12813173234462738,-0.05654454231262207,0.06602641195058823,0.004478569142520428,0.021246055141091347,0.056513380259275436,-0.031562622636556625,-0.054373785853385925,-0.031369730830192566,-0.002689101966097951,-0.07377520203590393,0.013788839802145958,0.11412583291530609,0.08047828823328018,0.1431206464767456,0.009636110626161098,0.07368109375238419,-0.07000678777694702,-0.07105423510074615,-0.03473377227783203,0.01695604994893074,-0.19288238883018494,-0.03744706138968468,0.02228347770869732,-0.07917580008506775,-0.08668209612369537,-0.04134941101074219,-0.05163781717419624,-0.02857975848019123,0.030937686562538147,-0.0016931092832237482,-0.030550379306077957,-0.06361249834299088,0.02970297448337078,0.036845363676548004,-0.0967954471707344,-0.014318600296974182,-0.05240204930305481,-0.03595016524195671,-0.006754124537110329,-0.01181925367563963,-0.16399995982646942,0.03842753544449806,-0.00963792484253645,0.007520223967730999,0.02708490937948227,-0.01217513345181942,0.045248545706272125,0.017358368262648582,0.0329146534204483,-0.0347430482506752,-0.01778213493525982,-0.024507228285074234,0.07690592855215073,0.012057090178132057,0.014514722861349583,0.017263244837522507,-0.01438111998140812,0.03486739099025726,-0.03239233046770096,0.08755622804164886,0.010173917748034,-0.04540570080280304,0.05429263785481453,0.00149970268830657,0.022397974506020546,-0.013295971788465977,0.24949389696121216,-0.15497735142707825,0.0014244038611650467,0.0031907802913337946,-0.08514735102653503,-0.08424700051546097,0.16945479810237885,0.06703948229551315,-0.09076743572950363,0.008524218574166298,-0.04750341922044754,0.015283501707017422,-0.01158746238797903,-0.05719894915819168,-0.022217106074094772,0.1546749323606491,-0.041291773319244385,0.002165030688047409,-0.16742828488349915,0.039342671632766724,-0.0877898633480072,0.12145888805389404,-0.10425408184528351,-0.062073271721601486,-0.06689658015966415,-0.03072441555559635,0.0405731126666069,0.028307225555181503,-0.06203767657279968,0.044975992292165756,-0.05903195962309837,-0.09701956808567047,0.12955771386623383,0.05691957473754883,-0.009648746810853481,-0.10705980658531189,0.08316048979759216,0.0014169751666486263,0.07621009647846222,-0.09516368061304092,-0.005634094588458538,0.02898101881146431,-0.18732193112373352,0.09025555104017258,0.11291857063770294,-0.07968410104513168,0.013118821196258068,0.10333392024040222,-0.024905873462557793,0.16506358981132507,0.04967959225177765,-0.09396541118621826,-0.01732505112886429,0.028962982818484306,0.005486443173140287,-0.06576798111200333,0.06597334891557693,0.06736183166503906,-0.08475606888532639,0.023326236754655838,0.08361122757196426,0.012752090580761433,-0.053231704980134964,0.045157335698604584,-0.058242879807949066,-0.17299675941467285,0.07805978506803513,0.03367943316698074,-0.2004871368408203,0.037179362028837204,-0.016507340595126152,-0.014232108369469643,0.07696875929832458,-0.06396301090717316,-0.00828053429722786,0.020432868972420692,0.0440150611102581,0.07835891842842102,-0.17199397087097168,-0.1879177689552307,-0.019869865849614143,-0.03289734944701195,0.08434469252824783,-0.015367969870567322,-0.013317489065229893,-0.061653539538383484,0.026921231299638748,-0.014486334286630154,0.1407037079334259,-0.0478179045021534,0.06439398974180222,0.04333943873643875,0.2312002182006836,0.19931809604167938,-0.022694623097777367,-0.041442740708589554,-0.02869664691388607,0.002722600707784295,-0.09934575855731964,0.049593690782785416,0.062070704996585846,-0.013734989799559116,-0.1169508695602417,-0.0026966463774442673,-0.06972075253725052,-0.04409712553024292,0.14437051117420197,0.01597854681313038,-0.04556800052523613,0.18175727128982544,-0.04272126033902168,-0.13917063176631927,-0.18740962445735931,-0.03662491962313652,0.06321200728416443,0.17620772123336792,0.021863441914319992,-0.005418688524514437,-0.01938413269817829,0.005385494790971279,0.04336624592542648,-0.00972371082752943,-0.18839207291603088,0.022271597757935524,0.020606983453035355,-0.06974855065345764,-0.0661475732922554,0.05069444701075554,0.17292927205562592,0.15385311841964722,-0.05343635380268097,-0.016080964356660843,0.044898129999637604,0.07061488181352615,-0.20423683524131775,-0.09594795852899551,0.12398378551006317,0.0027255688328295946,-0.03598197549581528,-0.09430952370166779,0.06900111585855484,-0.053183261305093765,-0.00532968994230032,0.11285467445850372,-0.09193024784326553,-0.07452432811260223,0.06533773988485336,0.010477357544004917,0.3227500915527344,-0.09182100743055344,0.04121312499046326,-0.012142335996031761,0.032429587095975876,0.13853919506072998,0.13733015954494476,0.07969186455011368,0.027362128719687462,-0.027792735025286674,0.009218515828251839,0.10454012453556061,-0.03862076997756958,-0.0819767415523529,-0.06113323196768761,-0.04477854445576668,-0.290953665971756,-0.06201377883553505,0.03058679588139057,-0.058928459882736206,0.010865962132811546,-0.13846515119075775,-0.19380950927734375,0.03397364914417267,-0.046575646847486496,-0.07654156535863876,-0.0034573785960674286,0.04293956980109215,-0.04375368356704712,0.08395678550004959,-0.0012741729151457548,0.10277770459651947,0.22968338429927826,-0.08799286186695099,-0.06329042464494705,0.011792056262493134,0.014334534294903278,-0.20256781578063965,0.006669849622994661,-0.06769956648349762,-0.00768187316134572,0.14200396835803986,0.09086877852678299,0.050047870725393295,0.029779257252812386,-0.034706082195043564,0.04335140809416771,-0.058481115847826004,-0.030668877065181732,0.09468376636505127,0.1367036998271942,-0.05651054158806801,-0.1847483068704605,-0.04723129794001579,0.2917237877845764,0.09805359691381454,-0.08463488519191742,0.024287229403853416,-0.06407283991575241,-0.0892966240644455,-0.02219783328473568,-0.05253545194864273,-0.08345137536525726,-0.08848308771848679,-0.051100995391607285,0.06254983693361282,-0.08340468257665634,-0.018381400033831596,0.10128200799226761,-0.06463483721017838,0.036024440079927444,0.09775874763727188,0.06165836378931999,-0.07974345982074738,0.008903086185455322,0.08216014504432678,0.11460087448358536,-0.04237712547183037,-0.03297470137476921,-0.13481730222702026,-0.014425713568925858,-0.11961299926042557,-0.007612121757119894,0.0795692652463913,0.07103097438812256,0.026700982823967934,0.08316115289926529,-0.031603243201971054,-0.002429652726277709,0.07360158860683441,-0.10814552754163742,-0.04074065387248993,0.062495920807123184,0.09679114818572998,-0.09715019166469574,-0.05507919564843178,-0.010168034583330154,-0.01020845863968134,0.022932184860110283,0.03073822893202305,-0.05856599286198616,-0.05281201750040054,0.11059042811393738,-0.070721834897995,-0.08912317454814911,-0.04771038144826889,0.02168133482336998,0.004970411770045757,0.07241106778383255,0.008153915405273438,0.0002979992423206568,0.031030619516968727,0.005457592662423849,-0.007187569513916969,-0.0007839798927307129,0.025929633527994156,0.018691152334213257,-0.027939902618527412,-0.13908855617046356,-0.054756853729486465,0.03171752765774727,0.01623505726456642,0.07873737066984177,0.029352309182286263,0.04713810607790947,0.021570155397057533,0.022010507062077522,0.00501198461279273,0.12094166874885559,-0.016093358397483826,-0.03361380845308304,0.08176635950803757,-0.0859319269657135,-0.032805949449539185,-0.09928916394710541,-0.05103176087141037,-0.10178106278181076,0.14543695747852325,-0.007985014468431473,-0.08391832560300827,-0.010632711462676525,0.045787010341882706,-0.02088610641658306,-0.0533292330801487,-0.09092789143323898,-0.12228991091251373,-0.006766614969819784,-0.07234537601470947,-0.044085096567869186,0.01883595436811447,-0.19489945471286774,0.05720679461956024,-0.0736069306731224,-0.13262413442134857,0.08297266811132431,-0.07580213993787766,0.021149303764104843,-0.0015036000404506922,-0.15934650599956512,-0.0034743461292237043,0.08610929548740387,0.09394053369760513,-0.08058565109968185,-0.012867646291851997,0.007836336269974709,0.10718691349029541,0.05208835378289223,0.10558394342660904,-0.23662663996219635,0.14257138967514038,-0.12305907160043716,0.040120527148246765,-0.025225289165973663,0.0493667870759964,0.09858176112174988,-0.03377661481499672,0.00794228445738554,-0.18918077647686005,0.041473694145679474,0.0538070872426033,-0.026056477800011635,-0.034265000373125076,-0.15871569514274597,-0.03689303994178772,0.03381676226854324,-0.07721942663192749,0.014389743097126484,0.006121579557657242,-0.07037366181612015,0.22734490036964417,-0.024986470118165016,0.057061485946178436,0.06628519296646118,-0.014471975155174732,0.007342373952269554,0.04443417862057686,-0.03986237570643425,0.06248883157968521,0.057643990963697433,0.04875193163752556,0.0456421785056591,-0.02592574805021286,-0.0038074692711234093,-0.037437744438648224,-0.18090185523033142,0.05163256824016571,-0.0778159573674202,-0.024569785222411156,-0.06442645192146301,0.008393888361752033,0.06283368170261383,-0.047021448612213135,0.02151678130030632,-0.011061255820095539,0.1387191265821457,-0.06671162694692612,0.06080944463610649,-0.16736745834350586,-0.013247409835457802,-0.10657470673322678,0.0063921259716153145,-0.21516300737857819,0.12922993302345276,0.13892453908920288,-0.22059036791324615,-0.06289496272802353,0.03566649183630943,0.03943316638469696,-0.17386795580387115,0.19736625254154205,-0.06236555054783821,-0.03738008812069893,0.030199045315384865,-0.032920707017183304,-0.09471194446086884,-0.012147510424256325,0.033418260514736176,0.0009268122958019376,0.11697997152805328,0.05259402096271515,-0.08448329567909241,0.03476932272315025,-0.17292520403862,-0.03817211464047432,-0.008717740885913372,-0.12153511494398117,-0.00397411547601223,-0.004435816779732704,0.05758640542626381,0.17083629965782166,0.09992333501577377,-0.021289033815264702,-0.002854388440027833,-0.17142502963542938,-0.07051796466112137,0.067416712641716,0.10083732008934021,-0.029843512922525406,-0.2806469202041626,0.28616803884506226,0.0021790610626339912,-0.03951432928442955,-0.01470846589654684,0.029557177796959877,0.016872864216566086,0.07970011234283447,-0.010100937448441982,0.010814735665917397,-0.03494543582201004,0.2706809639930725,-0.0204821415245533,0.16254445910453796,0.13719229400157928,0.010790808126330376,0.03226824477314949,-0.06054960936307907,-0.03415575250983238,0.025703316554427147,0.11299783736467361,-0.018712462857365608,0.0903550386428833,0.08838608860969543,-0.01574554666876793,-0.101493701338768,0.006980990059673786,-0.033844802528619766,0.0159660205245018,0.13834327459335327,-0.09573851525783539,-0.10502693802118301,0.04631318524479866,0.09636218845844269,0.1396952122449875,-0.04949924722313881,0.07296927273273468,-0.1178409680724144,-0.023080740123987198,0.054316867142915726,0.04101723060011864,0.015418323688209057,-0.02537459507584572,-0.0031166912522166967,-0.13494044542312622,0.0951099619269371,0.04891594499349594,0.05556962266564369,-0.12898561358451843
4xDRGzczFXg,0.021703574806451797,0.12765266001224518,-0.008828556165099144,-0.05813509598374367,0.11048226058483124,0.058526959270238876,0.15236710011959076,0.07657609134912491,0.15982010960578918,0.07264155894517899,0.1148761734366417,0.07758153975009918,0.04406290873885155,0.21024714410305023,0.045380644500255585,-0.17035086452960968,0.11459527164697647,0.0822850912809372,0.20047049224376678,0.045007798820734024,0.043392810970544815,-0.08590756356716156,0.09577793627977371,-0.06625448167324066,-0.12823568284511566,-0.11828590929508209,0.0718473494052887,0.055487267673015594,0.06566319614648819,-0.05430244281888008,0.09192716330289841,0.019961707293987274,0.05434929579496384,0.08615919947624207,0.043080832809209824,-0.0211016908288002,0.009308080188930035,0.06219717860221863,-0.1259225457906723,-0.014234708622097969,0.27681252360343933,-0.04888060316443443,-0.04383813589811325,0.09173719584941864,-0.1465274840593338,0.018790528178215027,-0.0014436121564358473,-0.03847653791308403,0.026644408702850342,0.057562410831451416,-0.0410831943154335,0.2479248046875,0.004434534814208746,0.08260242640972137,0.09607421606779099,-0.09572143107652664,-0.09133501350879669,0.12297889590263367,0.055764343589544296,-0.06956833600997925,0.01604640670120716,0.062014468014240265,0.02161344885826111,-0.05485770106315613,-0.09734180569648743,-0.02725626341998577,0.17594116926193237,-0.13390733301639557,-0.07621850073337555,-0.054039712995290756,0.16119740903377533,0.12184152752161026,-0.06349983811378479,0.018914025276899338,-0.008997345343232155,-0.020183561369776726,-0.1002342626452446,0.01809493824839592,0.005941327195614576,0.013819718733429909,-0.05245811119675636,0.0038963588885962963,-0.025157371535897255,-0.03490890562534332,-0.01653418317437172,0.16801388561725616,-0.0035807988606393337,-0.005399907473474741,-0.07560513913631439,-0.015374939888715744,0.18106316030025482,0.0027884934097528458,0.006448807194828987,-0.008673842996358871,0.0036130573134869337,0.011424783617258072,-0.0023176625836640596,0.04000750929117203,0.08789178729057312,-0.021786585450172424,0.07681174576282501,0.016564970836043358,0.033617034554481506,0.07329674065113068,0.049075379967689514,0.05158128961920738,-0.06472310423851013,0.03352202847599983,0.038305267691612244,0.06961916387081146,0.09614387899637222,-0.05311647802591324,-0.05390223115682602,0.12011841684579849,-0.044886842370033264,-0.008037052117288113,0.09501525014638901,0.05871421471238136,-0.1483582705259323,-0.01713472418487072,0.09519828855991364,0.01730870082974434,0.017317211255431175,0.005043245851993561,-0.018739521503448486,-0.019603915512561798,-0.05948931351304054,0.10785425454378128,-0.016066178679466248,-0.06994423270225525,-0.05001997947692871,0.0009029973880387843,-0.05924557149410248,0.06922540068626404,-0.0027763708494603634,0.13154716789722443,0.09706836938858032,-0.17817595601081848,0.06731163710355759,0.054208122193813324,0.04822724685072899,-0.053453147411346436,-0.06333356350660324,-0.008037564344704151,0.056449390947818756,-0.0875253826379776,-0.03245558217167854,0.04386993497610092,-0.006940108723938465,0.04836425930261612,-0.01097510103136301,0.08684604614973068,-0.1386795938014984,0.016013216227293015,-0.05989639461040497,0.07780912518501282,-0.048462215811014175,-0.0015729456208646297,-0.0028116803150624037,0.04707106947898865,0.0030841119587421417,0.04553360119462013,-0.0938538983464241,0.05712432414293289,0.0530051589012146,0.08607348799705505,-0.05501338094472885,0.004564712289720774,0.019432859495282173,0.03188769146800041,-0.122761569917202,0.1308203786611557,0.004174023866653442,0.16516584157943726,0.10850054770708084,0.10732652246952057,-0.17793281376361847,-0.05103278532624245,0.0005354704335331917,-0.14789432287216187,-0.08462128788232803,0.09951002895832062,0.11840678006410599,0.08179444074630737,-0.0670735239982605,-0.008937330916523933,-0.048536624759435654,0.11376383900642395,-0.03518996760249138,0.004829593934118748,0.04032134637236595,-0.09825560450553894,0.05373382940888405,0.09113386273384094,-0.011495552957057953,-0.0578143335878849,0.026737164705991745,-0.2299066185951233,0.10641738027334213,0.011629525572061539,-0.04203586280345917,-0.2373868227005005,0.09227251261472702,0.07431811839342117,0.02943069115281105,-0.01648830808699131,-0.10313895344734192,-0.00977076031267643,-0.00654170336201787,0.13541452586650848,0.04923074692487717,-0.046044621616601944,-0.02552836760878563,0.05150268226861954,-0.05390365794301033,-0.0038302340544760227,0.0318114310503006,0.011976409703493118,-0.03447175770998001,0.08594641834497452,-0.03510494530200958,0.13179466128349304,-0.007458446081727743,0.03361111134290695,-0.15122279524803162,0.12707923352718353,0.04176986590027809,-0.06337613612413406,0.1206398457288742,0.050219323486089706,0.003022671677172184,-0.012604985386133194,0.16476795077323914,-0.04521773010492325,-0.13744065165519714,0.08866455405950546,-0.040372204035520554,-0.054102975875139236,0.08671655505895615,-0.2107309103012085,0.03170059621334076,0.20931370556354523,0.03773188963532448,0.0170126985758543,0.07711333781480789,-0.07363919913768768,0.17261368036270142,-0.007577878423035145,0.030016668140888214,-0.01423470675945282,-0.018872292712330818,0.019671205431222916,-0.04590623453259468,-0.03865961357951164,0.006903720088303089,0.07409469783306122,-0.13719183206558228,-0.00829505454748869,0.09522321820259094,0.12386000156402588,0.15130195021629333,0.02649211324751377,-0.014642120338976383,-0.09382032603025436,0.034475795924663544,-0.004519097972661257,0.039783407002687454,-0.22101061046123505,-0.05683678761124611,0.03892344608902931,-0.057551104575395584,-0.034550245851278305,-0.013000953942537308,-0.04262000694870949,-0.023883366957306862,-0.028965044766664505,-0.018301088362932205,0.06552426517009735,-0.11171016842126846,0.06111197546124458,-0.013616291806101799,-0.028901876881718636,-0.02088451385498047,0.021966803818941116,-0.0739419087767601,-0.041297443211078644,0.12420820444822311,-0.10514334589242935,0.018310735002160072,-0.11862929165363312,0.009238959290087223,0.015075573697686195,-0.027987457811832428,0.040696557611227036,0.017985474318265915,0.006324549205601215,-0.09051033854484558,0.07649931311607361,-0.07227315753698349,0.12559686601161957,-0.0025095795281231403,0.07071591168642044,-0.0157063789665699,-0.029536480084061623,0.003081294009461999,-0.04874962940812111,0.05300621688365936,-0.024986064061522484,0.09915906190872192,0.023661313578486443,-0.014047585427761078,-0.038403771817684174,0.0015473701059818268,0.23024913668632507,-0.11972088366746902,-0.010320210829377174,0.09949956089258194,-0.049326688051223755,-0.039938949048519135,0.13413599133491516,0.05902043357491493,-0.1563577950000763,0.0578627809882164,-0.03487240895628929,-0.07068958878517151,-0.07167082279920578,-0.10067150741815567,-0.017101498320698738,0.14563164114952087,-0.02505912445485592,0.002732308814302087,-0.08417923003435135,0.05539064109325409,-0.05948738008737564,0.011031800881028175,-0.04883316904306412,0.06726396828889847,-0.24487000703811646,-0.03571947291493416,0.05287018418312073,-0.009615384042263031,-0.0819283127784729,-0.004550440702587366,-0.014090273529291153,-0.12548863887786865,0.1660066545009613,0.14007751643657684,0.0337977409362793,-0.05230703577399254,0.02450748346745968,0.025215383619070053,0.019398849457502365,-0.06587578356266022,-0.03862733021378517,0.034158144146203995,-0.18390437960624695,0.022141901776194572,0.1598232537508011,-0.00837744027376175,0.01931692287325859,-0.005102772265672684,0.00946720503270626,0.0539914146065712,-0.005657424218952656,-0.08801902830600739,-0.020805345848202705,0.09923911839723587,-0.0051853954792022705,-0.012075936421751976,-0.035869985818862915,-0.016273999586701393,-0.08525975048542023,-0.020025288686156273,0.05111577734351158,0.060602668672800064,-0.04707290232181549,0.06699000298976898,-0.2377365678548813,-0.11076556891202927,0.035670965909957886,0.015357843600213528,-0.22888436913490295,0.14002478122711182,-0.022031469270586967,0.005842232145369053,0.018217280507087708,-0.06640613824129105,0.08472549170255661,-0.009804574772715569,0.07329054176807404,0.041265808045864105,-0.25878626108169556,-0.1810970902442932,-0.11990437656641006,0.03075069934129715,-0.04505600780248642,-0.08561558276414871,0.031869109719991684,-0.013618823140859604,-0.007728024385869503,-0.03203466907143593,0.17973393201828003,-0.11308416724205017,0.08853735029697418,0.00046306964941322803,0.11640537530183792,0.2574710547924042,-0.0021000297274440527,0.023489980027079582,-0.08011194318532944,-0.09029673039913177,-0.0286872535943985,0.02682691067457199,0.016496896743774414,0.0480518713593483,-0.17443537712097168,-0.026425529271364212,-0.04529020935297012,0.017403965815901756,0.057049915194511414,0.031203554943203926,-0.008036774583160877,0.04418729245662689,-0.012802626006305218,-0.165665403008461,-0.09634708613157272,0.004535523243248463,0.07686261087656021,0.15857431292533875,0.004248864483088255,-0.016370460391044617,-0.00903770886361599,-0.00994115974754095,0.13061341643333435,0.0033889412879943848,-0.028642455115914345,-0.004440945573151112,-0.10859198123216629,-0.06894141435623169,-0.1715124249458313,-0.06276596337556839,0.21265028417110443,0.14360062777996063,-0.013239184394478798,-0.08370691537857056,0.16194863617420197,0.08027897775173187,-0.12687577307224274,-0.11092623323202133,0.04656478762626648,0.031214799731969833,-0.00833609327673912,-0.1066969484090805,0.0016384930349886417,0.04719811677932739,0.004547576420009136,-0.07010174542665482,-0.009790553711354733,-0.053109049797058105,0.03804026544094086,0.10677271336317062,0.24391864240169525,-0.09793989360332489,0.06263190507888794,0.008649098686873913,-0.062223147600889206,0.04725306108593941,-0.024412987753748894,0.07404453307390213,0.04229380562901497,0.09002336114645004,-0.01797780580818653,0.031325533986091614,0.057003334164619446,-0.03936754912137985,-0.015852004289627075,-0.03734975680708885,-0.24504655599594116,-0.039142802357673645,0.008487798273563385,0.08148615062236786,0.0412791445851326,-0.13688668608665466,-0.14378787577152252,0.025667520239949226,-0.0211747158318758,-0.03238760307431221,-0.008474810048937798,-0.03736850991845131,-0.00998039823025465,0.04154994711279869,0.009513148106634617,0.08850337564945221,0.1489955484867096,-0.12936373054981232,-0.07048594951629639,-0.0442143976688385,0.04691705107688904,-0.18102629482746124,0.08101824671030045,-0.10519057512283325,-0.05072474852204323,0.03185863420367241,-0.018570026382803917,-0.0050233714282512665,-0.01494322344660759,-0.03954951465129852,0.0924416184425354,-0.031690813601017,-0.08405061066150665,0.15737269818782806,0.045783571898937225,-0.005539869889616966,-0.2176135927438736,0.02566519007086754,0.17896905541419983,0.019175760447978973,-0.03838638588786125,0.0311843603849411,-0.0069417585618793964,-0.05163360759615898,-0.027016082778573036,-0.04590856656432152,-0.07618045061826706,-0.01085706241428852,0.01366775669157505,0.02768779918551445,-0.0889798179268837,-0.032636046409606934,0.08959342539310455,-0.0077522434294223785,0.03631870821118355,-0.004039363004267216,0.002694159746170044,-0.09130070358514786,-0.12137732654809952,0.15460950136184692,0.1093827560544014,0.0023470032028853893,-0.05345306172966957,-0.028162285685539246,0.03839336708188057,-0.11733454465866089,0.0016826695064082742,-0.04059373214840889,0.05103650316596031,0.006647065281867981,-0.007627923972904682,0.015806419774889946,-0.036695241928100586,0.04922545328736305,-0.03212821111083031,-0.04777133837342262,0.0631818175315857,0.02473113127052784,-0.06522323191165924,-0.0319383442401886,-0.07985442876815796,0.015591520816087723,0.01748109981417656,-0.006793241947889328,-0.08277423679828644,-0.04122203588485718,0.05705040693283081,-0.1255951225757599,-0.06324905902147293,0.003950808197259903,-0.01362322922796011,-0.02402712032198906,0.06760573387145996,0.07765769958496094,0.07273957878351212,0.009281213395297527,0.015892494469881058,0.020170297473669052,0.019207660108804703,-0.005982056260108948,0.04125790670514107,-0.02388211339712143,-0.16857895255088806,-0.016222752630710602,0.03973253443837166,0.02790766768157482,0.07634885609149933,-0.15219269692897797,-0.0060434225015342236,-0.031183332204818726,-0.030897177755832672,0.027918528765439987,0.19097721576690674,-0.05196686461567879,0.04328443855047226,0.05333464592695236,-0.06918584555387497,0.0024590473622083664,-0.09150874614715576,-0.095042884349823,-0.01949947141110897,0.15297497808933258,0.012890972197055817,0.005445667542517185,-0.0812627524137497,0.05079810321331024,-0.034078918397426605,-0.10634056478738785,-0.06196175888180733,-0.13668625056743622,-0.015335142612457275,-0.029168153181672096,-0.041547052562236786,-0.02132914960384369,-0.1184045746922493,0.015310251154005527,0.09272301197052002,0.027101794257760048,0.031288228929042816,-0.0010196950752288103,-0.006110470741987228,0.02235366776585579,-0.06699148565530777,0.06996303051710129,0.06341199576854706,0.01143321767449379,0.0011305843945592642,0.0826253741979599,0.0681491419672966,0.03125276044011116,0.011760137975215912,0.10912933200597763,-0.20596425235271454,-0.053481895476579666,-0.07294809818267822,-0.04205765947699547,-0.025885317474603653,0.08471064269542694,0.16056077182292938,-0.0685293972492218,-0.0006160069606266916,-0.0677831843495369,0.05050060153007507,0.05081505328416824,-0.06883502006530762,-0.02525956928730011,-0.030017979443073273,-0.02298775315284729,0.017908483743667603,-0.14087171852588654,0.03889783099293709,-0.04836876317858696,-0.06642579287290573,0.18594831228256226,-0.017123207449913025,0.034873247146606445,0.04252326115965843,-0.012349974364042282,-0.06145458668470383,-0.06668870896100998,-0.037211205810308456,-0.05719989538192749,0.0818924754858017,0.09310483932495117,0.06328092515468597,-0.03976649418473244,-0.04744996130466461,-0.04885222017765045,-0.12637002766132355,0.026387792080640793,-0.015017757192254066,-0.046410247683525085,-0.011274204589426517,0.02236327901482582,0.004362686537206173,0.039158646017313004,-0.01028251089155674,0.05885041132569313,0.06621454656124115,-0.1106891930103302,0.11929658055305481,-0.10417668521404266,-0.057033248245716095,-0.08357328921556473,-0.013960407115519047,-0.06117275357246399,0.21160615980625153,0.08597412705421448,-0.12958024442195892,-0.04748004302382469,-0.0705755352973938,0.02939021959900856,-0.13532617688179016,0.1793506145477295,0.03810098394751549,-0.02793293260037899,0.021682018414139748,0.026529693976044655,-0.0724877268075943,-0.01988280937075615,-0.07789585739374161,-0.04289230704307556,0.044641729444265366,-0.020284410566091537,-0.06465277075767517,0.02125823125243187,-0.13553091883659363,0.02987794578075409,-0.1412765383720398,-0.1680043637752533,0.0115446075797081,0.005692658480256796,-0.07145260274410248,0.13291466236114502,0.09409919381141663,-0.05057758465409279,0.07975883036851883,-0.08543626964092255,-0.037538982927799225,-0.007846850901842117,0.11296548694372177,-0.015496299602091312,-0.13143214583396912,0.29432213306427,-0.05553232133388519,-0.040986381471157074,0.06473082304000854,-0.05287851765751839,-0.05481204390525818,0.17052805423736572,0.0056952424347400665,0.06219000741839409,0.03436073288321495,0.17013128101825714,-0.011151147074997425,0.0869114026427269,0.1307547688484192,-0.03426356613636017,0.00631863996386528,-0.030070940032601357,0.04218541830778122,-0.023022549226880074,0.143682599067688,-0.06785890460014343,0.11499848961830139,0.054315235465765,-0.06347958743572235,-0.05826493352651596,-0.014203282073140144,0.04443755000829697,0.07775965332984924,0.10107056796550751,-0.12211928516626358,-0.16197450459003448,0.06588894873857498,0.0022129290737211704,-0.007657228037714958,-0.12830211222171783,-0.024888768792152405,-0.1106332466006279,-0.01836012303829193,0.06620121747255325,0.02192804217338562,0.04917088523507118,-0.015043633058667183,-0.008741874247789383,-0.14189039170742035,0.0298236645758152,0.10512705892324448,-0.014118233695626259,-0.08549809455871582
rN6ZcgO53zE,0.008421086706221104,-0.0015911110676825047,-0.008748000487685204,-0.04560859501361847,0.04297347739338875,-0.07160608470439911,0.18739479780197144,0.023412249982357025,-0.03341376781463623,-0.01859389990568161,0.005481157451868057,0.129078209400177,0.12227721512317657,0.05861128121614456,0.03883007541298866,-0.0665997564792633,0.05984657257795334,-0.01236779522150755,-0.07168431580066681,0.08764069527387619,0.17198997735977173,-0.044244129210710526,0.04064595699310303,0.07907403260469437,-0.07035408914089203,-0.06686123460531235,-0.035827573388814926,0.0033693674486130476,0.0925123542547226,0.12342160940170288,0.09865868091583252,0.03267804533243179,0.08163151144981384,-0.09290210157632828,0.014144712127745152,-0.04600093141198158,-0.024720128625631332,-0.03429879993200302,-0.0008357060723938048,0.061743348836898804,0.03980373963713646,0.06595251709222794,-0.03756847232580185,0.049252696335315704,-0.04777291417121887,0.03694579377770424,-0.008532023057341576,0.02273881994187832,0.09774510562419891,0.0765853002667427,-0.05087197571992874,0.14839284121990204,-0.12780611217021942,0.05564321577548981,-0.013367287814617157,0.0031105398666113615,-0.008089174516499043,-0.15165404975414276,-0.04057744890451431,-0.07797419279813766,-0.1563548445701599,-0.08908852934837341,0.013821221888065338,-0.005209768656641245,-0.05377449840307236,-0.037301912903785706,0.08078787475824356,-0.06965767592191696,-0.07915650308132172,-0.019459668546915054,0.28217723965644836,0.05871528014540672,-0.049012791365385056,-0.11235790699720383,0.05828120559453964,0.22355331480503082,0.041136935353279114,-0.05676715821027756,0.05157956853508949,0.0641215369105339,0.10204076021909714,0.06373559683561325,-0.13825662434101105,0.03610862046480179,-0.1020921841263771,0.04548099637031555,0.008647509850561619,0.04871506989002228,-0.012339161708950996,-0.023491477593779564,0.18793213367462158,-0.008093059994280338,-0.001916602486744523,-0.15733714401721954,0.12779191136360168,-0.04075110703706741,0.14154018461704254,0.04683861881494522,-0.033356402069330215,0.012127870693802834,-0.1060687005519867,0.02452167123556137,0.02676805481314659,0.025720641016960144,0.08691069483757019,-0.08444797247648239,-0.18920361995697021,0.041560690850019455,-0.07671666890382767,0.054752565920352936,-0.07532298564910889,0.05945803225040436,0.016674991697072983,0.07052639126777649,-0.17893697321414948,0.012508525513112545,0.03974907845258713,-0.013671393506228924,-0.044307123869657516,-0.03757593035697937,0.1331550031900406,-0.044754400849342346,-0.07603729516267776,-0.07794248312711716,-0.11753052473068237,0.16193026304244995,-0.0265360064804554,0.08480563759803772,-0.02160278521478176,-0.0180202629417181,-0.019281616434454918,-0.04379618912935257,0.04598124697804451,-0.017550155520439148,0.0118806017562747,0.07863886654376984,0.1024385616183281,0.0013833865523338318,0.08236772567033768,0.017291978001594543,0.1007806658744812,-0.004151121713221073,-0.08486884087324142,-0.02220425009727478,-0.04993784800171852,-0.011134461499750614,-0.0327591709792614,0.0937197208404541,0.015256457030773163,0.004127905238419771,0.066735178232193,-0.07138428837060928,0.07271597534418106,0.014732537791132927,0.02585456892848015,0.06384417414665222,0.2161824256181717,-0.022998154163360596,-0.11003619432449341,0.0009862734004855156,-0.0934029370546341,-0.12234388291835785,0.0981530174612999,0.07802043110132217,-0.13150030374526978,0.14294077455997467,-0.030799593776464462,0.029369395226240158,0.12365157902240753,-0.08041055500507355,-0.03829718753695488,-0.02499401569366455,-0.07636214047670364,0.170150488615036,0.05135870352387428,-0.12456367164850235,-0.06099177524447441,-0.14671149849891663,-0.008622169494628906,0.1058167889714241,-0.2079153060913086,0.07197236269712448,0.20283564925193787,0.11424773931503296,0.12952859699726105,-0.013528017327189445,-0.00486989039927721,0.11619870364665985,-0.0039453571662306786,0.0012687200214713812,0.11353014409542084,0.010035982355475426,-0.0031279237009584904,0.0789996013045311,-0.10202493518590927,0.060045626014471054,-0.04497779905796051,0.007803383283317089,-0.023704659193754196,0.003630972933024168,-0.11724674701690674,-0.1077439934015274,-0.0013094386085867882,-0.031149165704846382,-0.04519972205162048,0.05130090191960335,-0.050682276487350464,-0.10371936857700348,-0.0012979528401046991,0.04000454396009445,0.38172754645347595,0.020447611808776855,-0.041226111352443695,-0.026925964280962944,0.02763851173222065,0.07005903869867325,0.00410849042236805,0.025720341131091118,-0.08091126382350922,0.07389291375875473,0.005944057367742062,-0.04544198885560036,-0.024845873937010765,-0.003376635257154703,0.07791232317686081,-0.04509924352169037,0.021888848394155502,0.0687943696975708,0.0861884132027626,-0.0789131298661232,0.029637375846505165,0.029528476297855377,0.02013751119375229,-0.07505384087562561,-0.07136093825101852,0.2214680016040802,0.024792511016130447,0.14871810376644135,0.0025045224465429783,-0.14351777732372284,0.0006737243966199458,-0.03597055748105049,-0.07871836423873901,-0.04461946338415146,0.03428368270397186,0.06227830797433853,0.10354748368263245,0.0503334179520607,-0.05199108272790909,-0.03152935579419136,0.03052571788430214,0.012017320841550827,-0.11673209816217422,-0.03283357992768288,0.013138953596353531,-0.08251249045133591,-0.17304980754852295,0.05816071853041649,0.0598280243575573,0.2173115462064743,0.03942582383751869,0.020170388743281364,-0.010639207437634468,0.026778772473335266,0.12164472043514252,-0.05052054673433304,0.07759632915258408,0.03988882526755333,0.02129199542105198,0.03923400491476059,-0.006467277184128761,-0.025210652500391006,-0.07841449975967407,-0.10767040401697159,0.011370379477739334,-0.027007319033145905,-0.0863059014081955,0.019114762544631958,-0.05862343683838844,0.0028344893362373114,0.039271146059036255,0.08938027918338776,0.028952989727258682,-0.020728785544633865,-0.01792040467262268,0.05916951224207878,0.05003805458545685,0.023935304954648018,-0.027770813554525375,-0.2029828131198883,0.03272458165884018,-0.05916435271501541,0.06402826309204102,-0.04534070938825607,-0.10429152846336365,0.071629598736763,0.04555811360478401,-0.16569547355175018,-0.19309791922569275,-0.08330350369215012,0.044299498200416565,-0.006665999535471201,-0.07791638374328613,-0.035653334110975266,0.0836496576666832,-0.0724291130900383,0.03173956274986267,-0.004345547407865524,0.06391780823469162,-0.17760203778743744,0.06473878026008606,-0.04707973450422287,-0.029005443677306175,0.23241539299488068,-0.10681135207414627,0.020765181630849838,0.08480334281921387,-0.036519382148981094,0.11297266185283661,0.2664586305618286,0.08963827788829803,-0.06344525516033173,-0.05804078280925751,0.06420168280601501,0.027445098385214806,-0.09063397347927094,0.01411797571927309,-0.06876696646213531,-0.08221271634101868,-0.07714999467134476,-0.007891404442489147,-0.06669332832098007,0.10771988332271576,-0.07495395094156265,-0.005877943709492683,0.02878672070801258,0.11528018116950989,0.002773415297269821,-0.056036680936813354,0.05430959165096283,0.019130153581500053,-0.0512353852391243,0.08629872649908066,0.05048466473817825,0.11823542416095734,-0.00816644448786974,0.10102220624685287,0.23704320192337036,0.04222273826599121,-0.0521685965359211,0.13817179203033447,-0.010232441127300262,-0.019472284242510796,-0.06311066448688507,0.045706674456596375,-0.05353459715843201,0.012077451683580875,0.05737282335758209,0.04149824008345604,0.09769853949546814,0.027290187776088715,-0.009495937265455723,0.07966743409633636,-0.1735861897468567,-0.07666679471731186,0.0006894948892295361,0.05498134344816208,-0.1222897619009018,-0.02301013097167015,0.0031034094281494617,-0.02605975605547428,-0.09742695838212967,0.022237438708543777,-0.06347405910491943,0.042746320366859436,-0.09991171211004257,0.06534551084041595,-0.1548895537853241,-0.1384696364402771,0.03684913367033005,0.19248796999454498,-0.09349876642227173,0.19050326943397522,0.016453566029667854,-0.0452527292072773,-0.104148268699646,0.013628882355988026,0.020215054973959923,-0.07998818904161453,0.1878546178340912,-0.03229859098792076,0.046170588582754135,-0.035139050334692,-0.04022634029388428,-0.038783226162195206,-0.10074153542518616,-0.037188831716775894,0.02283535711467266,-0.0410245805978775,0.07038696110248566,0.00512282457202673,0.057448819279670715,-0.042238444089889526,-0.04038720205426216,0.05388123542070389,-0.18591277301311493,0.06915196776390076,0.004223964177072048,-0.03411208465695381,-0.0706053301692009,-0.0006765571888536215,-0.21805043518543243,-0.024855516850948334,-0.011348487809300423,-0.0023558333050459623,-0.016003839671611786,-0.06074649468064308,-0.05006396770477295,-0.05902182683348656,-0.06693187355995178,0.005827741697430611,0.048884544521570206,-0.01395055465400219,-0.03439195454120636,-0.06891270726919174,0.08933302015066147,-0.05527269095182419,0.0858442634344101,0.03416867554187775,-0.07494246959686279,-0.09414934366941452,-0.08005338907241821,-0.09776405990123749,-0.04095916077494621,-0.033025167882442474,0.039724964648485184,-0.09706233441829681,-0.021188264712691307,-0.015312772244215012,-0.09470251947641373,0.00520762475207448,0.04823296144604683,0.11886005848646164,0.12396366894245148,0.041471246629953384,0.08565032482147217,0.07459214329719543,-0.0009254481410607696,-0.15952442586421967,0.006583824288100004,-0.0035727540962398052,0.10853887349367142,-0.060891762375831604,0.014618678018450737,-0.10170096904039383,0.01995929889380932,0.004620816558599472,0.0015575354918837547,0.050380971282720566,-0.025120805948972702,0.07668668776750565,0.051794715225696564,0.034330639988183975,0.09346931427717209,0.06609627604484558,-0.1277228146791458,0.010431801900267601,0.05335719883441925,-0.002613592892885208,-0.004507686477154493,0.1303321123123169,-0.017373066395521164,-0.03875226527452469,0.05732891336083412,-0.0778680220246315,0.022797144949436188,-0.1569678634405136,-0.15202948451042175,0.1321786642074585,0.02422371506690979,0.04043891280889511,-0.004591070581227541,-0.08716581761837006,-0.08145985752344131,-0.06350312381982803,-0.056733936071395874,-0.04251975566148758,0.0330955795943737,-0.026951419189572334,-0.036068063229322433,0.14235006272792816,0.10589805245399475,0.060440775007009506,0.05253325030207634,-0.0870552584528923,-0.15729930996894836,0.01767372153699398,0.18179358541965485,-0.007417832035571337,0.011252052150666714,-0.1265871524810791,0.05567266047000885,-0.0017920010723173618,-0.15337878465652466,-0.008841780945658684,0.005308694671839476,-0.049341827630996704,0.022969314828515053,-0.011857136152684689,-0.07094673067331314,0.13197986781597137,0.06409649550914764,0.1134129986166954,-0.1934814155101776,-0.004128368571400642,0.07636291533708572,-0.0833941251039505,-0.1633884310722351,0.02419625036418438,0.036899566650390625,0.0422588512301445,0.027340205386281013,0.0815104991197586,-0.039436161518096924,-0.008355595171451569,-0.0048889461904764175,0.027016451582312584,-0.1256924569606781,-0.001939283451065421,0.04059923067688942,0.08220486342906952,-0.08254345506429672,-0.13888874650001526,-0.00375312939286232,-0.04260442405939102,0.03977357596158981,-0.1319897621870041,-0.05807027220726013,-0.012822550721466541,0.12977585196495056,-0.06546679139137268,-0.0789811834692955,-0.22491587698459625,-0.037372883409261703,0.024355502799153328,0.04679880663752556,0.039413709193468094,0.029644563794136047,0.021848555654287338,0.05530180037021637,-0.08952152729034424,-0.06779443472623825,-0.17728875577449799,0.04107944667339325,0.08780357986688614,-0.0253604743629694,0.05990006402134895,-0.03706245869398117,0.016713157296180725,-0.09454309940338135,0.044573549181222916,-0.06489268690347672,0.04169279336929321,0.010901564732193947,0.031245317310094833,-0.08276313543319702,0.002179340925067663,-0.04079745337367058,0.07464262843132019,0.05327880382537842,0.08313331007957458,-0.01513871643692255,0.010203215293586254,0.09675531834363937,0.01421623770147562,-0.06891592592000961,-0.10788989067077637,-0.003723888425156474,0.02729024924337864,-0.009979590773582458,0.014105836860835552,0.03386953845620155,-9.0382294729352e-05,0.0373680517077446,0.07793779671192169,-0.07851343601942062,-0.006976618431508541,-0.09496645629405975,-0.051435068249702454,-0.1071334257721901,-0.015590710565447807,-0.013191997073590755,0.08227847516536713,-0.07613597065210342,-0.04867777228355408,0.03529321402311325,0.03902912139892578,-0.10610179603099823,0.0775923803448677,0.061732713133096695,0.043426621705293655,0.06676289439201355,-0.019032660871744156,0.07965261489152908,0.0013838713057339191,0.22273202240467072,-0.12606701254844666,-0.06622795760631561,-0.11476922035217285,0.1949443817138672,-0.031452909111976624,0.075459323823452,-0.01013602502644062,0.014091572724282742,-0.04975370317697525,-0.05407329648733139,-0.01797599345445633,-0.028299495577812195,0.04996476322412491,-0.11838463693857193,0.009164274670183659,-0.133177250623703,-0.323343962430954,0.026832133531570435,0.11708579957485199,-0.08371531963348389,-0.11396205425262451,0.01258136797696352,-0.0917196273803711,-0.08920537680387497,-0.0688016265630722,0.009172157384455204,-0.0328715480864048,-0.05038299411535263,-0.02671680971980095,0.1345796138048172,-0.001437308732420206,0.08117649704217911,0.05184353515505791,-0.025666743516921997,-0.026438314467668533,-0.18926483392715454,-0.013982792384922504,0.08976274728775024,0.08190757036209106,-0.032924946397542953,-0.027073591947555542,0.15468274056911469,0.025745674967765808,-0.004849791526794434,0.13739071786403656,-0.01146976463496685,-0.15017275512218475,-0.0720648244023323,0.06823859363794327,-0.06946877390146255,-0.06757491081953049,0.16073399782180786,-0.02213965728878975,0.023709654808044434,0.049688320606946945,-0.012239241041243076,-0.06146418675780296,-0.04523873329162598,-0.12208376824855804,-0.005169139243662357,0.0029803644865751266,0.08080068230628967,0.0023777519818395376,0.08149764686822891,-0.06684352457523346,0.05161083862185478,-0.06690101325511932,-0.015219162218272686,0.0438937284052372,-0.0791056826710701,-0.04496012255549431,-0.1242208331823349,-0.08261024951934814,0.028707964345812798,-0.04080496355891228,0.03527203947305679,0.08487167209386826,0.19566123187541962,0.09931443631649017,-0.09067215770483017,-0.06425690650939941,0.007546158507466316,0.0232998076826334,-0.09376922249794006,0.04907149076461792,-0.06819664686918259,0.03532345965504646,-0.07524508982896805,0.03958326205611229,-0.008737275376915932,0.0068484097719192505,-0.004679285455495119,0.0019280347041785717,0.08975721150636673,-0.04451702907681465,-0.051127951592206955,0.1279401183128357,0.04885920137166977,-0.04727380350232124,-0.05048108100891113,0.10158338397741318,0.01134791225194931,-0.04611809179186821,-0.15061435103416443,0.1568223387002945,-0.010729525238275528,0.04574821516871452,0.015889480710029602,0.1265624612569809,0.10078832507133484,-0.07350651174783707,0.15862742066383362,0.11216279864311218,0.043641604483127594,0.08910965919494629,-0.06966050714254379,0.010157322511076927,0.04100485146045685,-0.05395984649658203,0.06957145780324936,0.062212683260440826,0.061176009476184845,-0.03882612660527229,-0.05911247432231903,0.11026625335216522,0.043217360973358154,-0.02946465089917183,0.006915432866662741,-0.035178933292627335,0.042154308408498764,-0.07003568857908249,0.035101279616355896,-0.030605504289269447,0.19431407749652863,-0.1036042720079422,0.11299888789653778,0.08603481203317642,0.0005401767557486892,0.005358727648854256,0.02005074918270111,0.09737476706504822,0.007533869706094265,0.08079154044389725,-0.04732402786612511,0.06952608376741409,-0.04520951211452484,-0.01625501736998558,0.04776240512728691,0.03423444181680679,0.012356894090771675,-0.024789748713374138,-0.04168478399515152,0.1131138876080513,-0.013178437948226929,0.029019536450505257,0.07532797008752823,-0.006961900275200605,-0.19705110788345337,-0.022622786462306976,0.013092854991555214,-0.0023988056927919388,0.04774130880832672
sfHACs4xLc0,0.024071086198091507,0.07514283061027527,-0.0147178303450346,-0.05368809401988983,0.07219529896974564,0.07407558709383011,0.06915411353111267,0.022725634276866913,0.021654244512319565,0.03450781852006912,0.14727433025836945,0.008863706141710281,0.056121647357940674,-0.07596615701913834,0.07569627463817596,-0.2056894451379776,0.012473433278501034,-0.024672457948327065,0.052607376128435135,0.07818907499313354,0.10278098285198212,0.03646200895309448,0.061760906130075455,-0.03974965587258339,0.011327710002660751,-0.013456948101520538,0.030231470242142677,0.00456311646848917,0.03842192888259888,0.00454334169626236,0.07100176811218262,0.009404059499502182,-0.015004318207502365,-0.07203555852174759,0.0038019020576030016,-0.02572774328291416,0.013993609696626663,0.013754338026046753,-0.08358444273471832,-0.04293948411941528,0.27474749088287354,-0.12519851326942444,-0.028508920222520828,0.013769007287919521,-0.09218331426382065,-0.005271874368190765,0.039732035249471664,0.0739034041762352,0.004377978388220072,0.024924062192440033,0.024220991879701614,0.025508681312203407,-0.032781802117824554,0.05679909139871597,0.0756700187921524,0.0296236053109169,-0.07775251567363739,0.031804293394088745,-0.00873916782438755,0.017674479633569717,-0.08887525647878647,0.05702133849263191,-0.07580672204494476,-0.05377092584967613,-0.11502546817064285,-0.05269632488489151,0.08763079345226288,-0.02810499258339405,0.010534417815506458,0.006372975185513496,0.14024192094802856,0.048267465084791183,0.03094363585114479,0.08675016462802887,0.029500022530555725,0.07719658315181732,-0.03531896322965622,-0.01153431087732315,-0.03350929915904999,-0.007586662657558918,0.09809082746505737,0.1254594326019287,-0.039020705968141556,-0.017902210354804993,-0.11330533772706985,0.059504542499780655,0.009042327292263508,0.01250265073031187,-0.01852182112634182,-0.13056674599647522,-0.002201636554673314,-0.044643010944128036,-0.009055202826857567,-0.008670629933476448,0.07208523154258728,-0.013683211989700794,0.03313850983977318,-0.03474969416856766,0.08745087683200836,-0.18276995420455933,-0.10571232438087463,0.15632417798042297,0.03436167910695076,0.073665089905262,0.0072337971068918705,-0.06117052212357521,-0.0734224021434784,0.011879966594278812,-0.06861944496631622,0.06484165787696838,0.029689539223909378,0.030380209907889366,-0.017927145585417747,0.04419920593500137,-0.013617009855806828,-0.05200792849063873,-0.05463411286473274,0.04732783883810043,0.0489116907119751,-0.017360344529151917,-0.03616868332028389,-0.07688003033399582,-0.0360148660838604,-0.02839517407119274,-0.025833580642938614,0.03352421522140503,0.009882302954792976,0.05820553004741669,-0.024183273315429688,-0.0054648397490382195,-0.008464590646326542,0.02929157018661499,-0.02651871182024479,0.04139247164130211,-0.020201951265335083,0.02787989005446434,0.03367215394973755,-0.1268361210823059,0.0019759784918278456,0.018889063969254494,0.027720320969820023,0.02449704334139824,-0.006595744751393795,0.047238972038030624,0.03418704494833946,0.04603375867009163,-0.01590629108250141,0.033721085637807846,-0.024200620129704475,0.0658966451883316,0.024425074458122253,0.058621253818273544,-0.011953877285122871,0.0443233996629715,0.10422810912132263,0.12858597934246063,0.023266246542334557,-0.01064375415444374,-0.08523134142160416,-0.004762577824294567,-0.10172969102859497,-0.008666621521115303,-0.059976741671562195,-0.050732120871543884,0.09328106045722961,0.06008974462747574,-0.043707359582185745,-0.07364495098590851,0.04246043413877487,0.009260354563593864,-0.14233967661857605,0.01993761584162712,0.00878206454217434,0.13477717339992523,0.00012310093734413385,0.05088472366333008,-0.01434323750436306,-0.027377668768167496,-0.11245578527450562,0.05622593313455582,0.046027977019548416,0.16177180409431458,0.05682150274515152,0.04106634110212326,0.00849222019314766,0.032025281339883804,0.10205395519733429,0.019347818568348885,-0.012588595040142536,-0.02070505917072296,0.0867377445101738,-0.03258032724261284,0.02951500006020069,0.06311337649822235,0.0758880227804184,0.018759841099381447,0.0805019736289978,-0.08126278221607208,0.08824758976697922,0.030089661478996277,-0.012413873337209225,-0.10507529973983765,-0.09259305894374847,-0.007691340520977974,0.004344330169260502,0.036750514060258865,-0.052756261080503464,-0.04364815726876259,0.1542655974626541,0.03270906209945679,-0.05096620321273804,0.045329172164201736,0.00040700705721974373,-0.035883668810129166,0.011610401794314384,0.010825401172041893,0.06707941740751266,-0.03858580067753792,-0.11355671286582947,0.0789039209485054,0.04527425765991211,0.08909403532743454,-0.005384707357734442,-0.013294585049152374,-0.0005384139949455857,0.056653596460819244,-0.04104914143681526,-0.01990770734846592,0.018392080441117287,0.02463838830590248,0.0573536716401577,0.03448875620961189,0.020920781418681145,-0.04406759515404701,-0.12612171471118927,0.14245915412902832,-0.0939180850982666,0.12508553266525269,0.04326242581009865,-0.2534167170524597,-0.0027306268457323313,0.07926996052265167,-0.035121895372867584,-0.021994246169924736,0.1538904458284378,-0.042288947850465775,0.07454957813024521,-0.012507091276347637,0.025600893422961235,0.035380203276872635,0.0745249018073082,0.028366046026349068,-0.04869716987013817,-0.0671575516462326,0.06759914010763168,0.06979218125343323,-0.2554149031639099,0.09062051773071289,0.1970200091600418,0.011945601552724838,0.028814105316996574,0.02227020263671875,0.0018232639413326979,-0.09120739251375198,-0.03918386250734329,-0.004689544904977083,0.04091240093111992,-0.12449149787425995,0.027888096868991852,-0.0115739107131958,0.019465897232294083,0.018411453813314438,0.07967457175254822,-0.052407994866371155,-0.032528914511203766,0.007877853699028492,-0.1444801688194275,0.030961712822318077,-0.0322735458612442,0.05283746123313904,0.0662180632352829,0.04101647436618805,-0.018003609031438828,0.037395041435956955,-0.1276431679725647,0.033908650279045105,-0.039009541273117065,-0.01208543311804533,0.1629975289106369,-0.16839751601219177,-0.012946869246661663,0.0008173036039806902,-0.08443457633256912,0.03015592321753502,-0.0030638796743005514,0.005784536246210337,-0.12076768279075623,-0.027417343109846115,0.0079746562987566,0.035350970923900604,-0.035342130810022354,0.09153270721435547,-0.02054847590625286,-0.035816919058561325,-0.02904319576919079,-0.02341163530945778,0.012439953163266182,-0.1174776628613472,0.07156805694103241,-0.07450664043426514,0.007160977926105261,0.021459156647324562,0.004455919377505779,0.24090567231178284,-0.04846043512225151,0.10226704925298691,0.049089644104242325,-7.607461884617805e-05,0.041388630867004395,0.1369454264640808,0.045312654227018356,-0.015025530010461807,-0.035096097737550735,0.058494217693805695,-0.008397399447858334,0.05362970754504204,-0.0006181019125506282,-0.08299869298934937,-0.06611068546772003,-0.07711874693632126,0.03181131184101105,-0.03801770508289337,-0.01750877872109413,-0.00829025823622942,0.023561811074614525,-0.029451509937644005,0.017318883910775185,0.00715444004163146,-0.04544578865170479,0.042670294642448425,-0.04831968992948532,0.012181960977613926,-0.0032216357067227364,0.047080203890800476,0.02554195374250412,0.03595268353819847,0.033237274736166,0.14365200698375702,-0.017980195581912994,-0.008103733882308006,-0.09800267964601517,-0.014976007863879204,-0.06649386882781982,0.018704641610383987,0.01002592220902443,-0.20117105543613434,0.006529810838401318,0.05164257436990738,-0.012710707262158394,0.11054284870624542,0.026845254004001617,0.059084609150886536,-0.13586825132369995,-0.03375113010406494,0.03776130452752113,0.007230396848171949,0.004945098888128996,-0.014530024491250515,0.002480975352227688,-0.02409101277589798,-0.05459290370345116,-0.023596974089741707,0.11857637017965317,0.09319639205932617,0.01150436419993639,0.044475287199020386,0.09086291491985321,-0.1867603212594986,-0.2036413550376892,-0.06122053042054176,0.07159730046987534,-0.24249565601348877,0.21255114674568176,0.047611527144908905,0.025456588715314865,0.032220132648944855,-0.03917764127254486,0.11543262749910355,0.2543828785419464,0.03095824271440506,0.048464998602867126,-0.1505974382162094,-0.09310615062713623,-0.008858544752001762,0.048872798681259155,0.10599560290575027,-0.005333930253982544,-0.03657577186822891,0.03188968822360039,0.030011747032403946,-0.03165365755558014,0.10146376490592957,-0.14712035655975342,0.0008469107560813427,0.1053302139043808,0.019898921251296997,0.016209254041314125,-0.00359586114063859,0.045305922627449036,-0.13666129112243652,-0.02250005304813385,-0.12128660082817078,-0.003746533766388893,-0.01848510652780533,0.012627556920051575,-0.1095411479473114,-0.07514065504074097,-0.1760406494140625,-0.042782820761203766,-0.12815247476100922,0.030679825693368912,0.007378535810858011,-0.03150889277458191,-0.04685034602880478,0.003875228576362133,-0.010079478845000267,-0.016814937815070152,0.01788056269288063,0.02757245860993862,-0.03826431557536125,0.010051004588603973,-0.052715327590703964,-0.053654320538043976,0.06717689335346222,-0.07874702662229538,-0.06712812185287476,0.043444473296403885,-0.016973480582237244,-0.006757622584700584,-0.03134683519601822,-0.010117165744304657,0.017862647771835327,0.11535074561834335,0.07144628465175629,0.03409407287836075,0.10872450470924377,0.04801230505108833,-0.17475241422653198,-0.11410873383283615,0.07043107599020004,-0.054639000445604324,-0.038003262132406235,-0.1418881118297577,0.01642889901995659,-0.044480595737695694,0.03732776269316673,-0.0926218181848526,-0.04998958855867386,-0.04438088834285736,-0.0011150147765874863,0.02752532809972763,0.2350252866744995,-0.08497460186481476,0.0611797533929348,-0.08447054773569107,-0.10845296084880829,-0.03662782907485962,-0.05414644256234169,0.01515631191432476,-0.07196785509586334,0.08846665918827057,-0.08522078394889832,0.05226749926805496,0.11108025908470154,-0.05814232677221298,-0.028252288699150085,-0.13414227962493896,-0.18871866166591644,0.09521076083183289,0.03548910468816757,0.0043863882310688496,-0.08018559962511063,-0.07046739012002945,-0.16435129940509796,0.026468032971024513,-0.07150545716285706,-0.044774577021598816,-0.04246436804533005,-0.03588021546602249,0.027302812784910202,0.08633820712566376,0.0875910073518753,0.047217678278684616,0.01164630614221096,-0.1401788592338562,0.003044591285288334,-0.07324126362800598,0.0340208075940609,-0.04786844179034233,-0.013381223194301128,0.029490701854228973,0.03191095590591431,0.08319336175918579,-0.13387645781040192,-0.05118077993392944,-0.03301039710640907,-0.05354946851730347,0.00516151450574398,0.004568836651742458,-0.00337624573148787,0.08143754303455353,0.07513029128313065,0.033038701862096786,-0.1350032091140747,-0.05125495418906212,0.050291337072849274,-0.09395543485879898,-0.033827345818281174,-0.02063702791929245,0.08508313447237015,0.05717013403773308,0.002951633185148239,-0.008211696520447731,-0.027546515688300133,-0.037618909031152725,0.0792175903916359,0.008094081655144691,-0.010955510661005974,-0.04488099366426468,0.04282654821872711,0.028203122317790985,-0.0006760563119314611,0.07719974964857101,-0.0032736798748373985,-0.04735410213470459,-0.14445702731609344,0.09343675523996353,0.054613158106803894,-0.09946195781230927,0.026145752519369125,-0.029238063842058182,-0.008195758797228336,0.07648791372776031,-7.712913793511689e-05,-0.01840871572494507,0.046471092849969864,-0.018838701769709587,0.05429426208138466,0.05314910039305687,-0.11417383700609207,0.005138422828167677,0.058893896639347076,-0.04309803619980812,-0.03800768405199051,0.15498070418834686,-0.026671310886740685,-0.02154781110584736,-0.03808436915278435,0.036174360662698746,-0.03717932850122452,-0.005914266221225262,-0.02449798583984375,0.0004402345512062311,0.059847958385944366,-0.009639723226428032,-0.07406381517648697,-0.025446034967899323,0.04003230482339859,0.018451711162924767,0.030343348160386086,0.03442005068063736,-0.045780815184116364,0.036171820014715195,0.07890594005584717,-0.04048990085721016,0.031607259064912796,0.04605473205447197,0.050995148718357086,0.01949031464755535,-0.15291786193847656,0.044078100472688675,-0.035276517271995544,0.04231588542461395,-0.013311991468071938,0.03197560831904411,-0.07770776003599167,-0.03606829792261124,-0.0030034135561436415,0.07589665055274963,0.08393137902021408,0.04208901897072792,0.07842861115932465,0.02392251417040825,-0.03697528317570686,0.027452897280454636,0.028932420536875725,-0.06262004375457764,0.002931301947683096,0.026708807796239853,0.0462845116853714,-0.07251277565956116,0.015453258529305458,-0.013150762766599655,0.033942870795726776,-0.06342202425003052,-0.02160954847931862,-0.07935870438814163,0.030907686799764633,-0.02959679439663887,0.008881449699401855,-0.04397127404808998,-0.1287717968225479,0.04546809196472168,0.0810713991522789,-0.0045293234288692474,0.02398015558719635,0.02102719619870186,0.046768151223659515,0.011478299275040627,-0.036261312663555145,-0.025455055758357048,-0.09193511307239532,-0.025219697505235672,0.03447341173887253,0.05366753414273262,0.03049607016146183,-0.004876319784671068,-0.06021660566329956,0.016748696565628052,0.052618056535720825,-0.04457118734717369,-0.11320866644382477,-0.05133458971977234,0.045688651502132416,-0.1281522959470749,0.17837540805339813,-0.06471904367208481,0.04779857397079468,-0.07701569050550461,-0.018559789285063744,-0.012966681271791458,0.06944286078214645,0.02277255617082119,0.13815124332904816,0.009516362100839615,-0.00787723995745182,-0.0354740247130394,0.08016080409288406,-0.010618967935442924,0.08763531595468521,0.22089919447898865,-0.006866095587611198,0.025268781930208206,-0.0419321209192276,-0.006552376784384251,-0.01158910896629095,-0.06970421969890594,-0.011875545606017113,0.0038942042738199234,-0.010269959457218647,0.07871396839618683,-0.02991330623626709,-0.008068772032856941,-0.0635671615600586,-0.07243049889802933,-0.06111503392457962,0.031137127429246902,0.053376831114292145,0.025272700935602188,0.08131882548332214,-0.01712697558104992,0.02939627133309841,-0.049873992800712585,-0.0014307023957371712,0.07062695175409317,-0.0717274621129036,-0.0479993000626564,0.09454275667667389,-0.024681495502591133,-0.04007289558649063,-0.060302529484033585,0.05066138133406639,0.027082007378339767,0.0333637073636055,0.04924459382891655,-0.159798264503479,-0.0077460273168981075,-0.04287874698638916,0.037933021783828735,0.05969393253326416,0.04246709868311882,-0.008352896198630333,-0.00839586928486824,-0.02666252665221691,0.0035505290143191814,-0.05496583878993988,0.021650977432727814,-0.0583123117685318,0.02644818276166916,0.09106060862541199,-0.04679470881819725,-0.04541994258761406,0.05773969367146492,-0.049294546246528625,-0.04720249027013779,-0.0014111942145973444,-0.08281911164522171,0.034747637808322906,-0.0626557394862175,-0.024671293795108795,0.0899091586470604,-0.059783127158880234,0.019502991810441017,0.02979171648621559,-0.04986534267663956,0.040401458740234375,-0.009811362251639366,0.07754315435886383,0.10197585076093674,0.0003813959192484617,0.10184627026319504,-0.011126743629574776,0.06013290956616402,0.03811737149953842,-0.028092410415410995,0.10243991017341614,0.16154800355434418,0.0477156825363636,0.0409882515668869,-0.0853235274553299,0.0568634569644928,0.017855960875749588,-0.03435082733631134,0.06808612495660782,0.03228098526597023,0.022777309641242027,-0.024338101968169212,-0.04998615011572838,0.09482253342866898,0.13244843482971191,-0.020173879340291023,0.09393882751464844,0.08465617895126343,0.033208537846803665,0.0060228523798286915,-0.006631721276789904,-0.01524810679256916,-0.012617780826985836,-0.07966013252735138,-0.09556330740451813,0.0583781972527504,-0.010910612531006336,-0.0817183330655098,0.05266033858060837,-0.04630303382873535,-0.02314627915620804,0.03783302754163742,0.04983416199684143,0.1241290494799614,0.03661930933594704,-0.04428523778915405,-0.05894695967435837,-0.03693771734833717,-0.13958624005317688,0.015301670879125595,0.014721108600497246,-0.007750609889626503,-0.04505416005849838
L_SqJnO2CIw,0.029722576960921288,0.02897094190120697,-0.012487798929214478,-0.027487440034747124,0.0837339460849762,0.07203555107116699,-0.06570547819137573,0.06208779290318489,-0.010107198730111122,0.03304537758231163,0.06314113736152649,0.14310374855995178,0.03870362415909767,-0.15341855585575104,0.02856399305164814,-0.0778425857424736,0.01663871482014656,0.018570229411125183,0.13498294353485107,0.08454936742782593,0.03741651028394699,-0.041814256459474564,-0.015844397246837616,0.001309458166360855,-0.03752255439758301,-0.06191941723227501,0.048307351768016815,0.012892561964690685,0.07434074580669403,-0.01650184392929077,0.1325410157442093,0.035634372383356094,0.022359926253557205,-0.17122063040733337,-0.023697668686509132,-0.02479044534265995,0.02562766894698143,0.0649016872048378,0.019482413306832314,0.09899063408374786,0.08653877675533295,-0.17258203029632568,0.07361175119876862,0.0715595930814743,-0.059221960604190826,-0.0915813222527504,0.047641873359680176,0.04908481985330582,0.1437789350748062,0.0852925032377243,-0.031366925686597824,0.06668918579816818,-0.1278437376022339,0.03174609690904617,0.10898969322443008,-0.13032393157482147,-0.005724687594920397,-0.026844583451747894,0.09109189361333847,-0.15955838561058044,-0.06047891452908516,0.009168187156319618,-0.08549461513757706,0.04285648465156555,-0.05204112455248833,-0.007803246844559908,0.011692621745169163,-0.06722279638051987,-0.033160250633955,0.06492659449577332,-0.032827239483594894,0.014363467693328857,0.04246916249394417,-0.07423395663499832,-0.05070484057068825,0.06684642285108566,-0.011216848157346249,-0.08045168220996857,0.058593641966581345,0.018901843577623367,0.17408762872219086,-0.0026164185255765915,-0.021260736510157585,-0.021304722875356674,0.05763992294669151,-0.11639857292175293,0.060094255954027176,0.043836575001478195,0.14057032763957977,0.014463400468230247,0.26919758319854736,-0.03253328427672386,0.010000573471188545,-0.14591048657894135,-0.11645173281431198,-0.029149118810892105,0.055698297917842865,-0.005255755037069321,-0.022346865385770798,-0.0700499415397644,-0.042478010058403015,0.06424922496080399,0.036096006631851196,-0.0007761223241686821,0.018708782270550728,-0.0677499920129776,-0.06890416145324707,-0.12344800680875778,-0.11318747699260712,0.021378841251134872,-0.019535334780812263,0.021350065246224403,0.005099784582853317,0.004952229559421539,0.036578450351953506,0.03024253621697426,-0.04839172214269638,-0.03731802478432655,-0.003895387053489685,-0.08331754058599472,0.12017849832773209,-0.03751644864678383,0.031128954142332077,0.02636985294520855,0.029466863721609116,0.1636233627796173,0.013852538540959358,0.07758647203445435,-0.05866818502545357,0.061145976185798645,-0.0011345159728080034,0.011458310298621655,-0.08827599883079529,-0.051368921995162964,0.02083536423742771,-0.025966975837945938,-0.047917742282152176,0.013503026217222214,-0.09766314178705215,-0.0016134539619088173,0.0892341136932373,-0.059319641441106796,-0.09980186820030212,-0.06616566330194473,0.028767403215169907,-0.012937132269144058,0.0202363021671772,0.0603194497525692,-0.01836426742374897,-0.015946129336953163,-0.12494906038045883,-0.026770904660224915,-0.03641641139984131,0.021390993148088455,0.06154032424092293,0.06839059293270111,0.03282368555665016,-0.005826749838888645,-0.05355139449238777,0.10960416495800018,-0.05507330596446991,-0.09479842334985733,0.06126810237765312,0.027011962607502937,-0.05980594456195831,0.02438340149819851,-0.09256048500537872,0.026364609599113464,-0.019897466525435448,-0.07559099793434143,0.0037253894843161106,-0.021332694217562675,0.03205466270446777,0.08362939953804016,0.11607043445110321,-0.008570057339966297,0.020575569942593575,0.011042983271181583,-0.10612918436527252,-0.1347663253545761,-0.0926118716597557,0.1230676993727684,0.03456979990005493,0.0921160951256752,0.07566537708044052,0.005548097193241119,0.167039155960083,0.05784762278199196,-0.007261087652295828,-0.07790914922952652,0.027155622839927673,-0.0643017515540123,-0.03527886047959328,0.12381850183010101,-0.0330066904425621,0.005844387225806713,0.021531246602535248,0.13945694267749786,-0.00645459583029151,0.009519624523818493,-0.026997428387403488,-0.08786619454622269,-0.10907433927059174,-0.022077234461903572,-0.04639977589249611,-0.012298710644245148,-0.13132332265377045,-0.032675839960575104,0.1976829469203949,-0.06307076662778854,0.08174759149551392,-0.005654925014823675,0.07773826271295547,-0.08346198499202728,0.06850441545248032,0.04465685784816742,0.06333159655332565,-0.02179403230547905,-0.1433398276567459,0.03958060219883919,-0.04799136519432068,-0.04038869962096214,-0.11307643353939056,-0.017800426110625267,-0.047459255903959274,0.0344998724758625,0.05214816331863403,-0.07463163137435913,0.09617677330970764,0.007038461044430733,0.05232781171798706,0.05792288854718208,0.06455870717763901,-0.1512986272573471,-0.011995081789791584,0.1442325860261917,0.057947203516960144,0.04216381162405014,-0.026120543479919434,-0.008043762296438217,-0.05329351872205734,0.10060480237007141,-0.1527695655822754,-0.002796600107103586,0.12430956214666367,-0.09232763946056366,0.08770683407783508,-0.015373967587947845,-0.05121908336877823,0.08555525541305542,-0.012319184839725494,-0.005883428268134594,0.1016552597284317,0.003523194696754217,0.03279085457324982,0.12558788061141968,-0.1653050184249878,-0.05122343823313713,0.00970216654241085,0.05848931893706322,0.07107606530189514,-0.02451234497129917,-0.06135721877217293,0.022939899936318398,-0.10073892027139664,0.005517496261745691,0.04239355027675629,-0.06783124804496765,-0.00466001033782959,0.021361375227570534,-0.06347575038671494,-0.021685153245925903,-0.003875007154420018,-0.02682923711836338,0.003916783258318901,-0.026932602748274803,0.01792793720960617,-0.07213491946458817,-0.002745959674939513,0.006180821917951107,0.032399170100688934,-0.014705568552017212,-0.05364735424518585,0.026179270818829536,-0.040543198585510254,-0.05028781294822693,0.00874203722923994,-0.06644397974014282,0.0426204651594162,-0.07909148931503296,0.11484243720769882,0.004415848292410374,-0.018257280811667442,0.021999934688210487,-0.03326142206788063,0.008144456893205643,-0.03973308578133583,-0.03883535414934158,0.011456912383437157,0.09693849086761475,0.02970210462808609,-0.00024245609529316425,0.011153914034366608,0.04406958073377609,-0.08896945416927338,-0.014811095781624317,-0.01753831095993519,-0.10607901215553284,0.07283296436071396,0.13938872516155243,0.08727531135082245,-0.05233951285481453,0.0034111379645764828,0.17884211242198944,-0.0779527798295021,0.20480769872665405,-0.07277323305606842,-0.07011909037828445,0.027150142937898636,0.10043884068727493,0.0686526671051979,-0.03584355115890503,-0.03668214753270149,0.09151171892881393,0.017759378999471664,-0.15023891627788544,-0.01836952194571495,-0.10498110949993134,-0.14583025872707367,-0.0923912525177002,0.06059867516160011,0.010201403871178627,0.008877924643456936,0.01597893051803112,-0.050444845110177994,0.06698621064424515,0.022107359021902084,0.03650114685297012,-0.0028925975784659386,0.0647730827331543,0.06343929469585419,-0.07724906504154205,-0.0015714190667495131,-0.047080524265766144,0.09261444211006165,0.01235855184495449,0.05262546241283417,0.06694116443395615,-0.15647444128990173,-0.053490202873945236,0.06427187472581863,-0.06416815519332886,0.038967061787843704,0.005484660621732473,0.0034757708199322224,0.07287727296352386,0.024761924520134926,0.11230994760990143,-0.12998685240745544,0.15784789621829987,-0.0453486293554306,0.05103113129734993,0.018177514895796776,0.11064159870147705,0.056668106466531754,0.04193355515599251,0.04767385497689247,-0.1458735316991806,-0.054720379412174225,-0.023768922314047813,-0.06546402722597122,0.02917294204235077,0.12221798300743103,-0.0018803782295435667,0.09928804636001587,0.031522974371910095,0.05320708826184273,-0.06117912009358406,-0.14415708184242249,-0.014025568030774593,0.04700120911002159,-0.028737416490912437,-0.08032922446727753,0.020210130140185356,0.04524800926446915,0.02259826473891735,0.03382125869393349,0.03539522364735603,0.1029609739780426,0.04407631233334541,0.0016987547278404236,-0.0587894469499588,0.11346897482872009,-0.09940116107463837,0.016408760100603104,-0.0453839935362339,-0.07488928735256195,0.019364066421985626,0.05081668123602867,0.049326635897159576,0.07373008877038956,0.07069677114486694,-0.08520449697971344,-0.023123187944293022,0.08370749652385712,0.05035614222288132,-0.0037801978178322315,0.06523600220680237,-0.005523262079805136,-0.1473589539527893,0.10045023262500763,-0.210756316781044,-0.03996070474386215,0.003978055901825428,-0.06885360181331635,0.06146985664963722,0.016721725463867188,0.026322076097130775,0.10883437097072601,-0.0496663898229599,0.01756853051483631,0.0015531149692833424,-0.0072998423129320145,0.00992326345294714,-0.14814718067646027,-0.09356628358364105,0.10174176096916199,-0.04035033658146858,0.05134688317775726,-0.03316448628902435,0.10695062577724457,-0.02889462187886238,-0.010376929305493832,0.13569216430187225,0.06671983003616333,-0.04500184580683708,-0.1409992277622223,-0.07546549290418625,-0.06540244817733765,-0.053482864052057266,0.053550202399492264,0.1076541319489479,0.002974969334900379,0.008975467644631863,0.22674012184143066,0.021039828658103943,0.02826320007443428,-0.06633495539426804,-0.050453945994377136,0.1612233966588974,-0.04596197232604027,-0.07694687694311142,-0.18098093569278717,0.007741175591945648,0.022630393505096436,-0.008864190429449081,0.22226357460021973,-0.005212781485170126,-0.04225936532020569,-0.044594623148441315,0.019567985087633133,0.12884798645973206,-0.05843713879585266,0.013239304535090923,0.03165164589881897,-0.1066926121711731,0.10149965435266495,0.10717795789241791,0.05450548976659775,-0.0019252365455031395,-0.022647371515631676,0.019575510174036026,-0.03903834521770477,0.04472222551703453,-0.0478166788816452,-0.024940887466073036,-0.05075214058160782,-0.08184991031885147,0.17569579184055328,-0.009663848206400871,0.04965914040803909,-0.011484460905194283,-0.0694066733121872,-0.19430746138095856,-0.09961000829935074,-0.018870368599891663,-0.11971665918827057,-0.0781005471944809,-0.04761442914605141,0.05282042175531387,0.025207195430994034,0.15086911618709564,0.022146567702293396,0.012050114572048187,-0.050463560968637466,-0.104700967669487,-0.00031915889121592045,0.004933212883770466,-0.06842786818742752,-0.07783196866512299,0.02052944339811802,-0.03942631185054779,0.028099970892071724,0.01176427025347948,0.055968400090932846,0.04601198434829712,-0.020778845995664597,0.012927185744047165,0.060798369348049164,-0.07972124963998795,-0.04289652034640312,0.0635259822010994,0.021251056343317032,-0.04559086635708809,0.017326168715953827,-0.09970614314079285,-0.057096511125564575,-0.11818930506706238,0.06144525855779648,0.0774439349770546,-0.012772050686180592,0.09984677284955978,-0.017984306439757347,0.033076800405979156,0.06019464507699013,0.0028304425068199635,0.06364215910434723,-0.04751861095428467,-0.05598041042685509,0.13002534210681915,0.05286667123436928,-0.04366456717252731,0.14304251968860626,-0.0679006576538086,-0.03273215517401695,-0.02559811621904373,0.028183551505208015,0.11500068008899689,-0.07439647614955902,0.026902079582214355,-0.05604656785726547,0.05212986469268799,0.000340897124260664,-0.09078647196292877,0.016270630061626434,0.03684722259640694,0.027682626619935036,0.0029813190922141075,0.1097828671336174,-0.0798066109418869,-0.0047029536217451096,-0.0018974945414811373,-0.07112731039524078,-0.02010239288210869,-0.007663643453270197,-0.06004376709461212,0.09695637971162796,0.01711401529610157,0.01072585117071867,-0.09199158847332001,0.04215502738952637,0.04663889855146408,-0.06765871495008469,0.02990950457751751,0.03834550082683563,-0.04399305209517479,-0.014634285122156143,0.021435843780636787,-0.029203055426478386,0.0475132018327713,-0.11301418393850327,-0.05594729259610176,-0.059599101543426514,0.01858304999768734,-0.05105404555797577,0.015432411804795265,-0.07485999912023544,0.0013391373213380575,-0.056053318083286285,-0.023303773254156113,0.020556718111038208,0.046882808208465576,0.0588008388876915,-0.04130377247929573,0.03019242361187935,-0.04545500874519348,-0.07223647087812424,0.008533867076039314,0.08288032561540604,0.021525386720895767,0.028587359935045242,0.05291905254125595,0.03548240289092064,-0.17290030419826508,0.10559462755918503,-0.07170155644416809,-0.05946550518274307,-0.06669247895479202,0.020506901666522026,0.015262605622410774,0.05983985587954521,0.010431154631078243,0.03013823740184307,0.011977586895227432,0.0682225227355957,0.11680950224399567,-0.03094535879790783,0.009296461008489132,-0.01556070614606142,0.00512625090777874,-0.0638926774263382,-0.04533103480935097,0.03923841565847397,-0.004809719510376453,-0.15254409611225128,-0.0027667577378451824,0.02085854485630989,0.1253058761358261,-0.017625248059630394,-0.046102747321128845,-0.05112668126821518,-0.055639639496803284,-0.12474659830331802,0.07400374859571457,0.028166767209768295,0.14501389861106873,-0.06519929319620132,-0.01580151915550232,-0.028711047023534775,-0.1323106437921524,0.14429186284542084,-0.08991207927465439,0.024704011157155037,0.04041697829961777,-0.0348447784781456,0.05259662866592407,-0.023298919200897217,0.04406818747520447,-0.0371321439743042,-0.049193210899829865,0.0030506858602166176,0.1401427537202835,-0.045933838933706284,0.11404533684253693,0.02304564043879509,0.03325510770082474,-0.05445835366845131,-0.06908564269542694,-0.021572228521108627,0.06109495460987091,0.18425360321998596,0.04169271141290665,0.04518258944153786,0.06293289363384247,0.04842020571231842,-0.03700719773769379,-0.019081082195043564,0.08487670868635178,-0.00953669473528862,0.07891760766506195,0.005137640982866287,-0.0031589088030159473,-0.06966105103492737,-0.05774910748004913,0.13201361894607544,-0.030731460079550743,0.047110483050346375,0.04670482873916626,0.02756214328110218,0.06524817645549774,-0.05541639029979706,0.04824367165565491,-0.048233628273010254,0.06354108452796936,0.021910369396209717,-0.010420607402920723,-0.06328751146793365,0.09244120121002197,-0.01144156139343977,0.030014589428901672,0.011314796283841133,-0.0648445263504982,-0.0031861960887908936,0.12772202491760254,0.06430625915527344,-0.0771317258477211,-0.05460214614868164,0.08372925221920013,0.00491976598277688,-0.003768977941945195,0.010917051695287228,0.003701305016875267,0.042140599340200424,0.012967667542397976,-0.06423921138048172,-0.03773043677210808,0.004351271782070398,-0.035944290459156036,0.08337774872779846,0.06956525146961212,-0.04005582258105278,-0.06364386528730392,0.05554375424981117,-0.02684176340699196,-0.16308727860450745,0.1331908404827118,-0.10796960443258286,-0.029481051489710808,-0.01671772450208664,0.0978948250412941,-0.03649679943919182,-0.05481313541531563,0.03751586750149727,-0.0192879568785429,-0.02240799553692341,-0.018423408269882202,-0.030538592487573624,0.15573865175247192,0.0829010158777237,-0.019238004460930824,0.1334812194108963,-0.03769397363066673,-0.06751712411642075,-0.0059867678210139275,-0.10968203097581863,0.011358913034200668,-0.04177112877368927,0.08324212580919266,-0.1878616362810135,-0.04263422638177872,0.1887955367565155,-0.008793279528617859,0.015572457574307919,0.029323922470211983,-0.12673060595989227,-0.07935146242380142,0.14641979336738586,-0.12559197843074799,0.012111696414649487,0.09910061210393906,-0.07336775958538055,-0.06615589559078217,0.07676907628774643,0.03225051611661911,0.11277081817388535,-0.014954427257180214,0.008035912178456783,-0.0044106594286859035,0.01955787092447281,-0.10860087722539902,-0.006959801539778709,0.0516120009124279,-0.044048551470041275,0.05106865242123604,-0.10775566846132278,-0.11522113531827927,0.016277695074677467,-0.01890724152326584,-0.0003801025450229645,-0.007176384329795837,-0.021042685955762863,-0.012976324185729027,0.022289343178272247,-0.19860145449638367,0.06756048649549484,-0.03386780992150307,-0.13039126992225647,0.048799991607666016
EPs4q5uJyRc,0.039350476115942,-0.08581750094890594,-0.008848179131746292,-0.01588110253214836,0.026501508429646492,0.0755513608455658,0.06815420091152191,0.053887903690338135,-0.08566224575042725,0.13258419930934906,0.1671457439661026,-0.023629361763596535,-0.03162705525755882,-0.07888909429311752,0.04576534032821655,-0.16952913999557495,0.011260902509093285,-0.018188387155532837,0.13247080147266388,0.07485580444335938,0.12209966033697128,-0.1069038063287735,0.10803410410881042,-0.061704035848379135,0.021929476410150528,0.02804882638156414,0.03258784860372543,-0.04345862567424774,0.03177213296294212,-0.08591828495264053,-0.09748949855566025,0.048547010868787766,0.00986554566770792,-0.06328549236059189,0.01580079272389412,-0.019229872152209282,-0.011235560290515423,-0.0355684757232666,0.08772636204957962,-0.04121662676334381,0.07996364682912827,-0.12931980192661285,0.0023002636153250933,0.03812223672866821,-0.15421350300312042,0.07034337520599365,0.052540458738803864,-0.1254481077194214,-0.016627421602606773,0.030152929946780205,-0.021172991022467613,0.16863134503364563,-0.1332601010799408,-0.017429953441023827,0.3751184046268463,-0.18145829439163208,-0.09057112038135529,0.009418063797056675,0.11622332781553268,0.018831508234143257,-0.16132017970085144,0.1471318006515503,-0.05689574405550957,-0.026669157668948174,-0.13967840373516083,-0.029865216463804245,0.04444926977157593,-0.06105295196175575,0.03226452320814133,-0.04022199660539627,0.12443556636571884,0.0716346949338913,0.14147445559501648,0.06307978928089142,0.03567172959446907,0.0630059689283371,-0.16390888392925262,0.012995319440960884,0.09583742916584015,-0.015994470566511154,-0.05274365842342377,0.13667304813861847,-0.08217727392911911,-0.05603437125682831,0.0036030374467372894,0.013959615491330624,-0.00472223199903965,0.12231814861297607,-0.15842163562774658,-0.2137080729007721,0.11465289443731308,-0.0315081886947155,0.00678278086706996,-0.05867170915007591,0.1319749504327774,0.0023180500138550997,0.0749329924583435,-0.1522882580757141,0.13846932351589203,-0.23131145536899567,-0.006627163849771023,0.08788417279720306,0.04146307706832886,0.09120190143585205,0.12117259949445724,-0.1740369349718094,-0.008992700837552547,-0.004050855990499258,-0.1261076033115387,0.0498720183968544,0.12272888422012329,0.002579929307103157,0.06055881083011627,0.17574192583560944,-0.009751253761351109,-0.022954871878027916,0.09972860664129257,0.07360944151878357,-0.12750327587127686,-0.05662377178668976,-0.115019790828228,0.034784335643053055,0.009913775138556957,0.05938277021050453,-0.08799868077039719,0.11837766319513321,-0.12759147584438324,0.04478251188993454,0.028177084401249886,0.026049679145216942,-0.02352205477654934,0.013131466694176197,0.01950128749012947,0.050744544714689255,0.10817653685808182,0.19825245440006256,0.04589420557022095,-0.13642923533916473,0.05194530636072159,-0.00896447990089655,0.14213807880878448,0.005151103716343641,-0.025589725002646446,-0.10512729734182358,0.031998466700315475,0.12065562605857849,-0.011930671520531178,0.10745570063591003,-0.05917101725935936,0.037460509687662125,-0.05134139209985733,0.14115570485591888,0.15007445216178894,0.05151814967393875,0.0016422265907749534,0.12715110182762146,0.16036352515220642,-0.017008058726787567,-0.12969955801963806,0.036565229296684265,0.09246320277452469,0.02603938803076744,-0.062267158180475235,-0.05511697754263878,-0.023804258555173874,0.20566534996032715,-0.027166666463017464,0.005843715276569128,-0.09447883069515228,0.038096584379673004,-0.07509592920541763,0.006800440605729818,-0.007990509271621704,0.02761700563132763,0.026025261729955673,0.16225622594356537,-0.12726150453090668,-0.1316317766904831,-0.045496173202991486,0.06813829392194748,-0.12915925681591034,0.17944182455539703,0.10009299218654633,0.07195699214935303,0.1049935594201088,-0.07201230525970459,0.1669963002204895,-0.05585506558418274,-0.03938426077365875,0.046604253351688385,0.164123073220253,-0.05542122572660446,0.20653027296066284,0.02507721818983555,0.04288209602236748,-0.1444111317396164,0.12252529710531235,-0.02511131763458252,0.02548970840871334,0.09580911695957184,-0.01898817904293537,-0.15198828279972076,-0.02725130505859852,0.037090107798576355,-0.04789072275161743,0.12696991860866547,-0.046033307909965515,-0.05856633558869362,0.1960202008485794,-0.03688069432973862,-0.0006166157545521855,0.10110051929950714,-0.037281036376953125,0.08731794357299805,-0.0430467389523983,-0.16678525507450104,0.10278020054101944,-0.0644683912396431,-0.2257142961025238,0.05666768178343773,0.031361985951662064,0.03186722844839096,-0.02608663961291313,-0.08902236074209213,-0.020379068329930305,0.0859868973493576,-0.043271567672491074,-0.011133775115013123,0.07875967770814896,-0.09028948098421097,0.16769789159297943,0.004238592926412821,0.15769056975841522,0.06949035823345184,0.11824557185173035,0.17397472262382507,-0.010957763530313969,-0.0031673985067754984,0.09164294600486755,-0.6590263843536377,0.1146915853023529,0.19089822471141815,0.03741103410720825,-0.00846763327717781,0.07985390722751617,-0.09834681451320648,0.01272993627935648,-0.09798523783683777,0.0003252752358093858,-0.08845116198062897,-0.04092053696513176,0.04910161718726158,-0.06965447217226028,-0.1390596628189087,0.06633917987346649,0.02177790179848671,-0.2343858927488327,0.13181369006633759,0.20607127249240875,0.10761706531047821,0.0865992084145546,0.04229746013879776,0.10361527651548386,-0.03806575387716293,-0.020519468933343887,-0.04343210533261299,0.21714214980602264,-0.12263964861631393,0.01074911653995514,-0.014064690098166466,0.007158944383263588,0.014886884018778801,-0.02648935653269291,-0.07048408687114716,0.007906145416200161,0.029936257749795914,-0.09498107433319092,-0.021099308505654335,0.0006367589812725782,-0.028758933767676353,0.1351301372051239,0.05832327529788017,0.006875371560454369,0.0028255705256015062,-0.14271076023578644,0.016289684921503067,-0.11937689036130905,-0.03806193917989731,0.1607355922460556,-0.03152747452259064,-0.02413119748234749,0.0061181942000985146,-0.05887150391936302,0.028191909193992615,0.062449708580970764,-0.029325759038329124,-0.09918471425771713,-0.1521240770816803,0.01382804661989212,0.1687888205051422,0.07255076617002487,-0.014417247846722603,0.01778542809188366,-0.04670114815235138,-0.13631011545658112,-0.021727392449975014,0.07334453612565994,-0.07752098143100739,0.0019110352732241154,-0.14458824694156647,0.0027389314491301775,0.053039874881505966,-0.049653854221105576,0.2546825706958771,0.017136309295892715,0.04819800332188606,0.13533413410186768,-0.04553007706999779,0.05764651671051979,0.10387413203716278,0.07975678145885468,-0.08768855035305023,0.03456268832087517,0.03945344686508179,-0.027352318167686462,0.042798563838005066,0.04518987610936165,-0.09066574275493622,0.20593783259391785,0.0073487902991473675,-0.018165966495871544,0.0070724207907915115,-0.039939410984516144,-0.062084704637527466,0.037861596792936325,-0.009029040113091469,0.0069147259928286076,0.052804555743932724,0.017327915877103806,-0.06386483460664749,0.018790284171700478,0.06569872796535492,0.053033873438835144,-0.10806117951869965,-0.08031968027353287,0.05435642972588539,0.17711156606674194,0.15738919377326965,0.005975574720650911,0.1107020303606987,-0.03608861193060875,-0.073845773935318,-0.040687594562768936,0.032543815672397614,0.008386206813156605,-0.10352540761232376,-0.007033128757029772,-0.017540695145726204,0.024105852469801903,-0.025274744257330894,0.08204164355993271,0.04203227534890175,-0.008605105802416801,-0.0265341866761446,0.07705401629209518,-0.001227762782946229,0.03982677310705185,-0.00949560571461916,0.005135959014296532,-0.018565131351351738,-0.004045688547194004,-0.11893384158611298,-0.002321302192285657,0.07204342633485794,0.03575312718749046,-0.04143576696515083,0.017778299748897552,-0.15612025558948517,-0.17941364645957947,0.01350679062306881,0.05519506707787514,-0.08353327959775925,0.12047284841537476,0.02403562143445015,0.030466509982943535,-0.02044462412595749,-0.14266419410705566,0.04077422246336937,-0.0005545261083170772,-0.03123764880001545,0.05625857785344124,-0.09947273880243301,0.12782461941242218,-0.028351765125989914,-0.0029820583295077085,0.1559728980064392,0.00042921051499433815,-0.01078047789633274,-0.024801284074783325,0.009165051393210888,-0.04707382619380951,0.14980381727218628,-0.10315356403589249,0.019280120730400085,0.03013627789914608,0.10173726826906204,0.04134131595492363,-0.004525688011199236,0.014881727285683155,-0.2491060197353363,-0.07297084480524063,-0.23429927229881287,-0.019349168986082077,-0.008263807743787766,0.01749059557914734,-0.22871054708957672,0.019729062914848328,-0.12947598099708557,0.01736818626523018,-0.0008916924707591534,-0.06164194643497467,-0.15813660621643066,0.09759795665740967,-0.15980401635169983,-0.20660701394081116,-0.11036611348390579,0.07924783229827881,0.00697894673794508,0.08296816796064377,-0.01912129670381546,0.024016719311475754,0.050154782831668854,-0.0077680437825620174,0.06812724471092224,-0.15419551730155945,-0.18066000938415527,-0.1859178990125656,0.09799457341432571,0.05198129266500473,-0.010590193793177605,0.11574459820985794,0.030978785827755928,0.25960347056388855,0.029634328559041023,0.1761292666196823,0.04581397771835327,0.09033778309822083,-0.24004486203193665,-0.031782615929841995,0.10332082211971283,-0.11235658079385757,-0.05967748910188675,-0.08778350800275803,0.10312935709953308,-0.10948368906974792,0.0006622936925850809,0.037710025906562805,-0.3508273959159851,-0.04534026235342026,-0.1760818064212799,0.05137377604842186,0.4904525876045227,0.05185100436210632,-0.0024729573633521795,0.013851523399353027,-0.1893042027950287,0.07418883591890335,-0.05960134416818619,0.04360448569059372,-0.02453354373574257,0.03750263899564743,-0.036303453147411346,0.06783083081245422,0.15703241527080536,-0.15444792807102203,-0.03989654406905174,-0.16022807359695435,-0.26816675066947937,-0.03330308943986893,-0.035131584852933884,-0.1433781385421753,-0.11429555714130402,-0.13108587265014648,-0.22441600263118744,0.07097373902797699,-0.15779505670070648,-0.030914856120944023,-0.0243595689535141,0.027315277606248856,-0.027049899101257324,0.08400590717792511,0.12595632672309875,0.03798384964466095,0.07016022503376007,-0.012356271035969257,-0.17746594548225403,-0.13663198053836823,0.023294946178793907,-0.20790892839431763,-0.21841584146022797,-0.02255660481750965,-5.556548057938926e-05,0.15119296312332153,0.09859054535627365,0.023536115884780884,-0.008693101815879345,0.012780514545738697,-0.09601303189992905,0.02604338899254799,-0.06329504400491714,0.13948394358158112,0.10913097858428955,-0.05913468450307846,-0.09132584929466248,-0.03409174084663391,0.24862517416477203,0.057195115834474564,-0.13915862143039703,0.00844579841941595,0.07353375107049942,0.007589506916701794,-0.015959667041897774,-0.00810864195227623,-0.04224598780274391,-0.13850052654743195,0.035319890826940536,0.008047466166317463,-0.11182288080453873,0.05069003626704216,0.0408509336411953,0.033972274512052536,-0.050180528312921524,0.23997783660888672,-0.002275108126923442,0.008851822465658188,0.07512832432985306,0.09010270237922668,0.1517917513847351,-0.07043132185935974,0.003825259394943714,-0.09950323402881622,-0.008905729278922081,0.0984741598367691,0.0008647080394439399,0.0311259962618351,0.07961857318878174,0.04488205537199974,0.10688485205173492,0.04630015417933464,-0.10126964002847672,0.06736820191144943,0.041181355714797974,-0.09746293723583221,-0.02843155711889267,0.15490233898162842,-0.050122495740652084,-0.0477922223508358,-0.016877932474017143,-0.004740050062537193,0.173016756772995,-0.023393653333187103,-0.1327919363975525,-0.017772240564227104,0.08318027853965759,0.053739748895168304,-0.13282282650470734,-0.0075975037179887295,0.016112806275486946,-0.03174171969294548,0.04378432780504227,0.049689169973134995,-0.08676211535930634,-0.10363560169935226,0.12378336489200592,-0.05131000652909279,-0.028492091223597527,0.07895520329475403,0.09744179248809814,-0.025586619973182678,-0.26544496417045593,-0.22280997037887573,-0.052410952746868134,0.0324845053255558,0.06639578193426132,0.19461022317409515,-0.04469515383243561,-0.04283364117145538,-0.05736660957336426,0.03615830838680267,0.05153326317667961,-0.02696080319583416,0.0914178118109703,0.054886844009160995,-0.08731949329376221,0.0723957046866417,-0.08390751481056213,-0.09688598662614822,-0.18970878422260284,0.0658448189496994,-0.019782831892371178,-0.07976658642292023,0.05537853389978409,0.03220810368657112,0.05518757924437523,-0.0005906110163778067,-0.04779159650206566,-0.02409527823328972,0.024451615288853645,-0.02054952271282673,-0.15490053594112396,0.041170064359903336,-0.25789302587509155,0.10744953155517578,0.06281999498605728,-0.07838048040866852,0.10729818046092987,-0.03191883862018585,0.0595584437251091,-0.03950180858373642,-0.17483755946159363,5.465555659611709e-06,0.0885334387421608,-0.12769648432731628,0.04091619327664375,0.21283955872058868,0.0799875259399414,0.05066358298063278,0.06298302859067917,0.017008386552333832,-0.028817735612392426,-0.010599643923342228,-0.10983270406723022,0.07172296941280365,0.0854261964559555,-0.15760120749473572,0.11365192383527756,0.02284778468310833,-0.0027573888655751944,-0.026635216549038887,0.03468368947505951,0.05067066848278046,0.09099818021059036,-0.040040310472249985,-0.021661240607500076,-0.03154534474015236,0.018829533830285072,-0.05053813382983208,0.012365937232971191,0.07420617341995239,0.017948046326637268,0.1352851688861847,-0.07916421443223953,-0.02648427151143551,0.047560323029756546,-0.060920462012290955,0.10409226268529892,-0.03892567381262779,0.0031725135631859303,0.04407038539648056,-0.03343670070171356,0.017703427001833916,-0.039184097200632095,0.05948996543884277,-0.1016039326786995,0.035448625683784485,-0.1317642629146576,0.08565358817577362,-0.037349868565797806,-0.05654296651482582,0.003552220994606614,-0.008232117630541325,0.11357264965772629,-0.08468702435493469,-0.09011195600032806,0.08814172446727753,-0.038386270403862,-0.02872493863105774,-0.21280670166015625,-0.12400859594345093,0.08691436797380447,-0.06689365208148956,0.06385413557291031,-0.14527277648448944,0.21807816624641418,0.14556199312210083,-0.2604626715183258,-0.0526096373796463,-0.07409225404262543,0.010358172468841076,-0.01606135442852974,-0.030384479090571404,-0.09782138466835022,0.03792554885149002,-0.10562083125114441,-0.008885586634278297,-0.07591654360294342,0.08185607939958572,-0.10521133989095688,-0.07420066744089127,0.15395136177539825,-0.011418608017265797,-0.09498725086450577,0.10156331211328506,-0.10158605873584747,0.03353755176067352,0.1049671471118927,-0.04696609079837799,0.04182404279708862,-0.043155889958143234,-0.006034124176949263,0.1357094645500183,0.10757359117269516,0.0405692532658577,0.014005569741129875,-0.2543998062610626,0.0761842206120491,-0.04599679633975029,0.031478703022003174,0.11043839901685715,-0.14790068566799164,0.2487778216600418,-0.1192731037735939,0.00330580142326653,0.012825468555092812,-0.11262431740760803,0.030419453978538513,0.019625980406999588,0.16443869471549988,-0.16207988560199738,-0.030637642368674278,0.10010969638824463,0.03878343850374222,0.03275128826498985,0.1072336733341217,0.046576566994190216,0.0007171269389800727,0.10026118904352188,-0.015325164422392845,0.05899069830775261,0.1481768637895584,-0.012789064086973667,0.01763882488012314,-0.008775889873504639,0.02680504135787487,-0.09950385242700577,0.032743703573942184,-0.03726504370570183,0.01801271177828312,-0.13489088416099548,-0.031403835862874985,-0.03215760737657547,-0.017296571284532547,-0.11088402569293976,0.08864941447973251,0.031738437712192535,-0.00457855174317956,-0.06711680442094803,0.04656679183244705,0.12345687299966812,-0.04474002122879028,0.010054662823677063,-0.07684478163719177,0.003596452996134758,-0.06043105572462082,0.060876570641994476,0.10035859793424606,0.1393185555934906,-0.07110550999641418
